{
  "input_sequences": [],
  "inputs": [
    {
      "name": "dNN",
      "variables": [
        {
          "name": "hitX1",
          "offset": 0,
          "scale": 1
        },
        {
          "name": "hitX2",
          "offset": 0,
          "scale": 1
        },
        {
          "name": "hitX3",
          "offset": 0,
          "scale": 1
        },
        {
          "name": "hitX4",
          "offset": 0,
          "scale": 1
        },
        {
          "name": "hitX5",
          "offset": 0,
          "scale": 1
        },
        {
          "name": "hitX6",
          "offset": 0,
          "scale": 1
        },
        {
          "name": "hitX7",
          "offset": 0,
          "scale": 1
        },
        {
          "name": "hitX8",
          "offset": 0,
          "scale": 1
        },
        {
          "name": "hitX9",
          "offset": 0,
          "scale": 1
        },
        {
          "name": "hitY1",
          "offset": 0,
          "scale": 1
        },
        {
          "name": "hitY2",
          "offset": 0,
          "scale": 1
        },
        {
          "name": "hitY3",
          "offset": 0,
          "scale": 1
        },
        {
          "name": "hitY4",
          "offset": 0,
          "scale": 1
        },
        {
          "name": "hitY5",
          "offset": 0,
          "scale": 1
        },
        {
          "name": "hitY6",
          "offset": 0,
          "scale": 1
        },
        {
          "name": "hitY7",
          "offset": 0,
          "scale": 1
        },
        {
          "name": "hitY8",
          "offset": 0,
          "scale": 1
        },
        {
          "name": "hitY9",
          "offset": 0,
          "scale": 1
        },
        {
          "name": "hitZ1",
          "offset": 0,
          "scale": 1
        },
        {
          "name": "hitZ2",
          "offset": 0,
          "scale": 1
        },
        {
          "name": "hitZ3",
          "offset": 0,
          "scale": 1
        },
        {
          "name": "hitZ4",
          "offset": 0,
          "scale": 1
        },
        {
          "name": "hitZ5",
          "offset": 0,
          "scale": 1
        },
        {
          "name": "hitZ6",
          "offset": 0,
          "scale": 1
        },
        {
          "name": "hitZ7",
          "offset": 0,
          "scale": 1
        },
        {
          "name": "hitZ8",
          "offset": 0,
          "scale": 1
        },
        {
          "name": "hitZ8",
          "offset": 0,
          "scale": 1
        }
      ]
    }
  ],
  "layers": [
    {
      "activation": "rectified",
      "architecture": "dense",
      "bias": [
        0.15446947515010834,
        0.09300807118415833,
        0.46586164832115173,
        -0.009127013385295868,
        -0.09765833616256714,
        0.03260305896401405,
        -0.04303032532334328,
        -0.03504045307636261,
        -0.008464421145617962,
        -0.24709202349185944,
        -0.06898841261863708,
        0.5740377902984619,
        -0.06256558746099472,
        -0.2175818383693695,
        0.05315588042140007,
        0.0041509526781737804,
        0.460647851228714,
        0.15548603236675262,
        -0.06241903081536293,
        0.04787333682179451,
        -0.01958044059574604,
        -0.2097509354352951,
        0.4060954451560974,
        -0.27197542786598206,
        0.06767448782920837,
        -0.08138278871774673,
        0.3502714931964874,
        -0.09573868662118912,
        -0.23031389713287354,
        -0.02850269339978695,
        0.018921984359622,
        0.2350626140832901,
        -0.0676504448056221,
        -0.12083727866411209,
        -0.0014581275172531605,
        0.005782755091786385,
        -0.313478022813797,
        -0.05312191694974899,
        -0.0073983329348266125,
        -0.01471454743295908,
        0.23266997933387756,
        -0.07222291082143784,
        0.001954685663804412,
        -0.05489453300833702,
        -0.02272775210440159,
        -0.053521838039159775,
        -0.0716577023267746,
        -0.1450251191854477,
        0.1444048434495926,
        0.012734664604067802,
        -0.090834841132164,
        -0.11887341737747192,
        0.256632924079895,
        -0.19629773497581482,
        0.109559066593647,
        -0.26299920678138733,
        0.33554747700691223,
        -0.04219546541571617,
        0.04917319118976593,
        -0.5079577565193176,
        0.10754386335611343,
        -0.0721655786037445,
        0.16144447028636932,
        -0.4065655767917633
      ],
      "weights": [
        0.24014084041118622,
        -0.42696455121040344,
        -0.1696273237466812,
        0.04351041838526726,
        -0.07212032377719879,
        0.13330739736557007,
        -0.04049358144402504,
        0.057523585855960846,
        -0.13019126653671265,
        -0.00446391711011529,
        0.31331244111061096,
        -0.0848037451505661,
        -0.28329092264175415,
        -0.4617377519607544,
        -0.41705960035324097,
        -0.19885210692882538,
        -0.3518003821372986,
        0.23476320505142212,
        -0.3966400921344757,
        0.3541164696216583,
        0.43037232756614685,
        0.8042833209037781,
        0.6320871114730835,
        0.6738489866256714,
        0.38370850682258606,
        -0.41518741846084595,
        -0.13135017454624176,
        4.62946891784668,
        1.1002193689346313,
        0.599205732345581,
        0.4393400549888611,
        0.21921327710151672,
        -0.304620623588562,
        0.08129594475030899,
        -0.40822404623031616,
        0.0451216995716095,
        -0.5699025392532349,
        -0.10829856991767883,
        -0.14189310371875763,
        0.46830326318740845,
        0.5029893517494202,
        -0.06273040920495987,
        -0.015660326927900314,
        0.14111517369747162,
        0.11013147234916687,
        0.7903338670730591,
        0.3515339493751526,
        -0.2781530022621155,
        -0.30456018447875977,
        -1.4023113250732422,
        1.1035419702529907,
        -0.11474543809890747,
        0.2412601113319397,
        0.0621781051158905,
        -0.9341428279876709,
        0.41646865010261536,
        -0.44725051522254944,
        -0.1203823834657669,
        0.6179026365280151,
        0.3443722128868103,
        -0.5206404328346252,
        0.17437486350536346,
        -0.18927578628063202,
        0.0002548262709751725,
        0.09280920773744583,
        0.0707365870475769,
        -0.048484768718481064,
        -0.3144208788871765,
        0.10403704643249512,
        0.13258768618106842,
        0.01762406900525093,
        -0.034376516938209534,
        0.3054006099700928,
        -0.0021651829592883587,
        -0.5163375735282898,
        -0.5006793737411499,
        -1.0994716882705688,
        -0.8350586891174316,
        -0.2866169214248657,
        -1.0496947765350342,
        -0.0964643657207489,
        4.544723033905029,
        0.4145617187023163,
        0.0034667719155550003,
        0.06071148440241814,
        0.14815270900726318,
        -0.050875112414360046,
        -0.03636651858687401,
        -0.00034057910670526326,
        -0.25158530473709106,
        -0.4300420880317688,
        -0.14010502398014069,
        0.6587739586830139,
        0.1331331729888916,
        -0.16229766607284546,
        0.16612835228443146,
        -0.14887893199920654,
        0.007093862164765596,
        -0.24807904660701752,
        1.6862930059432983,
        0.15897642076015472,
        -1.4826921224594116,
        -0.7020010352134705,
        -0.0827942043542862,
        -0.5428599119186401,
        1.026723027229309,
        -0.05362294241786003,
        -0.07666470110416412,
        1.3361492156982422,
        0.05381137877702713,
        0.11523614078760147,
        0.003957964945584536,
        -0.11418960243463516,
        -0.004069013521075249,
        0.07342230528593063,
        -0.01576724834740162,
        -0.25193047523498535,
        0.2970767319202423,
        -0.05582999065518379,
        -0.0832490548491478,
        -0.14150166511535645,
        -0.209225133061409,
        -0.2632400393486023,
        -0.08982861787080765,
        0.5866560935974121,
        -0.04193200170993805,
        -0.7609769701957703,
        -0.007002809550613165,
        0.07874230295419693,
        0.5835611820220947,
        0.5747054815292358,
        0.6438032984733582,
        0.4001099765300751,
        -1.3002816438674927,
        -0.16974689066410065,
        0.2679760754108429,
        1.138651967048645,
        -0.6669136881828308,
        0.03944296017289162,
        0.15420906245708466,
        0.02044506184756756,
        -0.2098608762025833,
        0.05759104713797569,
        0.21385067701339722,
        0.3515869677066803,
        -0.023415934294462204,
        0.26442456245422363,
        -0.3918854296207428,
        -0.6980175375938416,
        -0.02339310757815838,
        0.267728716135025,
        -0.08976607024669647,
        0.12562355399131775,
        -0.3104543089866638,
        -0.5250172019004822,
        -0.038294944912195206,
        0.10059359669685364,
        -0.18117880821228027,
        0.14209504425525665,
        0.9745434522628784,
        0.17323648929595947,
        0.043318718671798706,
        -12.391512870788574,
        0.48286816477775574,
        -0.1902972310781479,
        0.10325895249843597,
        0.0008898235973902047,
        -0.0387711375951767,
        -0.03918740153312683,
        -0.05340993404388428,
        -0.11064891517162323,
        0.2228134125471115,
        0.753142774105072,
        -0.5685259699821472,
        -0.231893852353096,
        -0.09126125276088715,
        -0.09563931822776794,
        0.20055876672267914,
        -0.11235341429710388,
        0.03643259406089783,
        -1.4161995649337769,
        -0.7887201309204102,
        1.2713048458099365,
        0.1886451095342636,
        0.305879682302475,
        0.7541457414627075,
        -0.6168368458747864,
        0.3979821503162384,
        0.14325186610221863,
        -2.5567755699157715,
        -0.07575304061174393,
        -0.00473059294745326,
        0.12262650579214096,
        -0.08243083208799362,
        -0.06365905702114105,
        0.04261442646384239,
        0.016925841569900513,
        0.211309015750885,
        -0.18699125945568085,
        0.07001858204603195,
        0.1041359156370163,
        0.14809468388557434,
        0.09635366499423981,
        0.195478618144989,
        -0.3041878044605255,
        -0.015942608937621117,
        -0.23369675874710083,
        0.7878130674362183,
        -0.0646582841873169,
        -0.49858778715133667,
        -0.24636034667491913,
        -0.9500597715377808,
        -0.7616645693778992,
        1.583139181137085,
        0.06458774954080582,
        0.24259701371192932,
        0.6878167390823364,
        -0.07146551460027695,
        0.018171189352869987,
        0.09761858731508255,
        0.023029040545225143,
        -0.049001894891262054,
        -0.012054283171892166,
        0.009203136898577213,
        0.028750568628311157,
        0.582691490650177,
        -0.4977664351463318,
        -0.3097596764564514,
        0.25837135314941406,
        0.20410172641277313,
        -0.15334367752075195,
        0.0012997229350730777,
        0.004634503275156021,
        0.10882633924484253,
        -1.939864158630371,
        1.8819688558578491,
        1.0830790996551514,
        -0.854280948638916,
        -0.7094563245773315,
        0.5205668210983276,
        0.0055553060956299305,
        -0.011836955323815346,
        0.2473909556865692,
        2.7865397930145264,
        -0.1532406061887741,
        0.31435731053352356,
        0.4912313222885132,
        0.15126343071460724,
        0.4215443730354309,
        -0.3638267517089844,
        -0.3242377042770386,
        -0.17317119240760803,
        0.778833270072937,
        -0.2773269712924957,
        0.5720800757408142,
        -0.6949556469917297,
        0.18432822823524475,
        0.36329934000968933,
        -0.09213144332170486,
        0.13875587284564972,
        -0.0010537803173065186,
        -1.1467194557189941,
        -0.12404514849185944,
        -0.3349158465862274,
        -0.8715499639511108,
        1.111327052116394,
        0.08972712606191635,
        0.4818896949291229,
        -0.2702900469303131,
        -0.13967299461364746,
        -0.14192214608192444,
        -0.19201497733592987,
        0.08029692620038986,
        -0.0475824736058712,
        -0.11478725075721741,
        -0.17794762551784515,
        0.1622924953699112,
        0.06299753487110138,
        -0.18432936072349548,
        -0.11030757427215576,
        0.1494690328836441,
        -0.23136185109615326,
        0.02508212998509407,
        -0.11291176825761795,
        -0.2123982310295105,
        -0.06037485599517822,
        -0.07350371778011322,
        -0.03313067555427551,
        -0.22776144742965698,
        0.08692847192287445,
        -0.20342184603214264,
        -0.14140555262565613,
        -0.09819173067808151,
        -0.03908638656139374,
        -0.17929376661777496,
        -0.046562764793634415,
        -0.046548992395401,
        -1.928687572479248,
        -0.580564022064209,
        0.28054511547088623,
        0.16471798717975616,
        0.3173033595085144,
        0.1197243332862854,
        -0.12276043742895126,
        -0.046863820403814316,
        -0.00014331936836242676,
        0.9491395354270935,
        -0.18132084608078003,
        -0.026726102456450462,
        -0.10678741335868835,
        -0.485073983669281,
        -0.5758885741233826,
        0.03672431781888008,
        0.06413588672876358,
        -0.1319885104894638,
        0.8020539283752441,
        0.6933974027633667,
        0.1630041003227234,
        -0.24245764315128326,
        -0.4251554608345032,
        -0.6704410910606384,
        -0.1270681768655777,
        -0.17747676372528076,
        0.15988650918006897,
        2.9880571365356445,
        0.6748369932174683,
        -0.12975336611270905,
        -0.5668805241584778,
        0.2818326950073242,
        -1.3725600242614746,
        -1.856621503829956,
        -2.7906315326690674,
        -0.2380717396736145,
        0.3415128290653229,
        0.04344635829329491,
        0.010737773030996323,
        0.11095578223466873,
        -0.4601103961467743,
        0.06174049526453018,
        0.2622831463813782,
        -0.4118627607822418,
        -0.2429705262184143,
        -0.6831172108650208,
        -0.193873330950737,
        -0.04626373201608658,
        0.031692709773778915,
        0.24649322032928467,
        0.07437334954738617,
        0.28563055396080017,
        0.5780887603759766,
        0.01684364676475525,
        -0.14664708077907562,
        1.3797416687011719,
        0.08454905450344086,
        0.057592522352933884,
        -0.25868722796440125,
        -0.004541274160146713,
        -0.13938204944133759,
        0.24184885621070862,
        0.034054070711135864,
        -0.19993580877780914,
        -0.4359006881713867,
        0.20413383841514587,
        -0.6357160210609436,
        0.13861259818077087,
        0.07247176766395569,
        0.3709545135498047,
        0.21589243412017822,
        0.199740469455719,
        1.4853761196136475,
        -0.9868966937065125,
        -0.42799440026283264,
        1.170116901397705,
        0.4308627247810364,
        0.9632002115249634,
        -0.33015936613082886,
        -0.5743129253387451,
        -0.13435068726539612,
        1.2893141508102417,
        0.17308849096298218,
        -0.008687381632626057,
        0.005817391909658909,
        0.010859314352273941,
        -0.018585601821541786,
        -0.0038848428521305323,
        -0.005931781139224768,
        -0.014283537864685059,
        -0.6651789546012878,
        0.19361543655395508,
        0.48854315280914307,
        0.016191650182008743,
        -0.03175743669271469,
        -0.06099788472056389,
        -0.005297278054058552,
        -0.009745773859322071,
        -0.14362819492816925,
        2.5907094478607178,
        -0.741305947303772,
        -2.1620919704437256,
        -0.01607590727508068,
        0.08723725378513336,
        0.23490911722183228,
        0.0031311647035181522,
        0.04763646051287651,
        -0.1683686375617981,
        -4.454669952392578,
        -0.37664541602134705,
        -0.15482430160045624,
        0.011710275895893574,
        -0.109378382563591,
        0.09403889626264572,
        0.004373268224298954,
        -0.033364277333021164,
        0.06695669889450073,
        0.0567731074988842,
        -0.021023361012339592,
        0.06498973816633224,
        0.2614862024784088,
        -0.09214538335800171,
        -0.006339405197650194,
        0.06799113005399704,
        -0.0597345307469368,
        0.17372995615005493,
        -1.251306414604187,
        1.8806544542312622,
        0.7984088063240051,
        -2.033287286758423,
        0.20119871199131012,
        0.6747684478759766,
        -0.16587887704372406,
        0.19495199620723724,
        -0.1318725049495697,
        -1.2934893369674683,
        -0.5968063473701477,
        0.3833774924278259,
        -0.6004658937454224,
        0.13243193924427032,
        -0.13723179697990417,
        -0.09579829126596451,
        0.5007548928260803,
        0.039124876260757446,
        0.09783138334751129,
        0.23295694589614868,
        -0.006030564662069082,
        -0.07398220896720886,
        0.1237245425581932,
        0.4098552167415619,
        -0.35868582129478455,
        -0.07950509339570999,
        0.219059556722641,
        0.25080934166908264,
        0.20251303911209106,
        -1.139767050743103,
        0.5671277046203613,
        0.34393346309661865,
        -0.45653393864631653,
        0.7604732513427734,
        -0.6688191890716553,
        0.024300575256347656,
        0.7965101599693298,
        -0.4945624768733978,
        -0.3707199990749359,
        -0.4542597532272339,
        -0.381398469209671,
        -0.7060847878456116,
        -0.8327508568763733,
        -0.6445280909538269,
        -0.2561628818511963,
        0.18595053255558014,
        -0.1680346429347992,
        -0.22202090919017792,
        -0.1574588119983673,
        -0.22649703919887543,
        -0.15533724427223206,
        -0.07527080178260803,
        -0.07115180045366287,
        -0.13432027399539948,
        -0.06691857427358627,
        0.15946698188781738,
        0.007666267454624176,
        -0.1303240954875946,
        0.06359615176916122,
        0.044836629182100296,
        -0.06358220428228378,
        0.03235901892185211,
        0.18301141262054443,
        -0.1439177244901657,
        0.28062963485717773,
        -0.12599241733551025,
        0.038564424961805344,
        -0.1384228616952896,
        -0.031301744282245636,
        0.085329070687294,
        0.021925298497080803,
        -0.1442091166973114,
        -0.16765367984771729,
        -0.530831515789032,
        -0.05893601104617119,
        -0.20495489239692688,
        -0.14909014105796814,
        -0.31266626715660095,
        0.1214936226606369,
        -0.12749427556991577,
        0.17342039942741394,
        -0.15622162818908691,
        0.04482247680425644,
        0.16892972588539124,
        -0.215835303068161,
        0.040025290101766586,
        -0.2310466319322586,
        -0.05470643192529678,
        -0.3530764579772949,
        0.1147417426109314,
        3.820329189300537,
        0.5682952404022217,
        -0.8045572638511658,
        -0.6190457344055176,
        -0.19438782334327698,
        0.07635848224163055,
        -0.004918668884783983,
        0.18000741302967072,
        -0.18540722131729126,
        0.06618329882621765,
        -0.5789592266082764,
        0.4802832305431366,
        0.16197234392166138,
        0.09476832300424576,
        0.034968506544828415,
        0.09125428646802902,
        0.22411267459392548,
        0.18627965450286865,
        -2.1866605281829834,
        -1.691229224205017,
        -0.3582170903682709,
        -0.38011443614959717,
        -0.512908399105072,
        -0.7656942009925842,
        -0.08359183371067047,
        0.13656333088874817,
        0.11502352356910706,
        3.6190764904022217,
        -0.2207007259130478,
        -0.014906501397490501,
        -0.07670296728610992,
        0.011634632013738155,
        0.03848428279161453,
        0.014126465655863285,
        0.06051948294043541,
        0.00025203824043273926,
        -0.18124128878116608,
        -0.03938612714409828,
        0.5297427773475647,
        0.3456043303012848,
        -0.37463852763175964,
        -0.28533732891082764,
        0.20450259745121002,
        -0.07524779438972473,
        -0.2121487706899643,
        0.53263258934021,
        0.08026818931102753,
        -1.6057193279266357,
        -0.596146821975708,
        1.0441805124282837,
        0.8205841779708862,
        -0.6151779890060425,
        0.2952129542827606,
        -0.1732194870710373,
        -1.93031907081604,
        0.5704648494720459,
        0.09118375182151794,
        -0.18580065667629242,
        -0.32835322618484497,
        0.237862229347229,
        -0.08068475872278214,
        0.1940026879310608,
        -0.16400651633739471,
        0.6778427958488464,
        -0.752325713634491,
        0.0912911593914032,
        0.6326861381530762,
        0.3941824734210968,
        -0.3912007510662079,
        0.016904756426811218,
        -0.08579195290803909,
        -0.14265412092208862,
        0.3858536183834076,
        1.9070510864257812,
        -0.8673235177993774,
        -0.6358534097671509,
        -0.7229505181312561,
        0.573848307132721,
        -0.0798405185341835,
        0.4168955981731415,
        -0.231865793466568,
        1.289683222770691,
        0.47669199109077454,
        0.31042373180389404,
        0.11202727258205414,
        0.0022282758727669716,
        0.029253294691443443,
        -0.10314241051673889,
        -0.04805872589349747,
        -0.17373043298721313,
        0.11832896620035172,
        -0.3267849385738373,
        -0.2976560592651367,
        -0.346535325050354,
        -0.5046538710594177,
        -0.44858548045158386,
        -0.306177020072937,
        -0.14727935194969177,
        0.006612330675125122,
        0.23568543791770935,
        0.7753549218177795,
        0.5281325578689575,
        0.6194244623184204,
        0.26514995098114014,
        0.09899711608886719,
        0.6739984154701233,
        0.46744561195373535,
        9.605288505554199e-05,
        -25.411069869995117,
        0.04888051375746727,
        -0.10982619225978851,
        -0.26117071509361267,
        0.13809683918952942,
        0.13879862427711487,
        0.14048950374126434,
        -1.2609741687774658,
        0.046522438526153564,
        0.3785400092601776,
        -0.11362890899181366,
        0.08864077925682068,
        0.34080615639686584,
        0.05991753190755844,
        -0.14123940467834473,
        -0.05664387345314026,
        0.27291348576545715,
        0.24714985489845276,
        -0.7904936671257019,
        0.9068475365638733,
        -0.04476191848516464,
        -0.010699509643018246,
        -0.10875723510980606,
        0.4644756317138672,
        0.0637640431523323,
        -0.7832518815994263,
        0.18628370761871338,
        3.861802101135254,
        0.002685165498405695,
        -0.14834284782409668,
        0.08114080876111984,
        0.30749577283859253,
        0.14190372824668884,
        0.07784565538167953,
        0.11478082835674286,
        -0.1907292753458023,
        -0.10518651455640793,
        0.0496838204562664,
        0.032141197472810745,
        -0.23740676045417786,
        -0.6059183478355408,
        -0.3064650595188141,
        0.645645797252655,
        0.10406780987977982,
        0.24419793486595154,
        -0.21643365919589996,
        -0.1683093160390854,
        0.3536340892314911,
        -0.3046806752681732,
        -0.29197365045547485,
        -0.2800655663013458,
        -0.11331019550561905,
        0.812061071395874,
        0.03804904222488403,
        -8.558545112609863,
        -1.316686749458313,
        -1.2620669603347778,
        -0.9262933731079102,
        -0.4996577799320221,
        -0.18227387964725494,
        -0.17742560803890228,
        -0.8408957719802856,
        -0.07253289222717285,
        0.6808765530586243,
        0.04353062063455582,
        0.19515365362167358,
        -0.13081499934196472,
        -0.19598080217838287,
        -0.33587223291397095,
        -0.0508744902908802,
        -0.0175070408731699,
        -0.05653493106365204,
        0.5214958786964417,
        0.06211899593472481,
        0.16231442987918854,
        0.0001784004271030426,
        -0.458114892244339,
        -0.26242077350616455,
        0.103963702917099,
        -0.048023540526628494,
        0.06290960311889648,
        1.7674137353897095,
        0.2556396424770355,
        -0.3187697231769562,
        -0.2766977548599243,
        -0.11174274981021881,
        -0.34327036142349243,
        -0.2809176445007324,
        0.21998372673988342,
        -0.24526561796665192,
        -0.09298580884933472,
        0.1346900463104248,
        -0.06733667105436325,
        -0.028962312266230583,
        -0.35647839307785034,
        -0.34287166595458984,
        -0.12279568612575531,
        -0.24490880966186523,
        0.05156704783439636,
        -0.2578563094139099,
        -0.07555663585662842,
        0.044018443673849106,
        0.08792950958013535,
        0.09814766049385071,
        0.0863426998257637,
        0.2426186501979828,
        0.26028016209602356,
        0.07489714026451111,
        -3.4342594146728516,
        0.21163810789585114,
        -0.046893876045942307,
        -0.1957116425037384,
        0.1255691796541214,
        -0.09556495398283005,
        0.05589940398931503,
        -0.08765237778425217,
        -0.1607021540403366,
        -0.15260089933872223,
        0.6253977417945862,
        0.0636872872710228,
        0.21172179281711578,
        -0.371229350566864,
        0.15153083205223083,
        -0.08605595678091049,
        -0.11979098618030548,
        0.19456177949905396,
        1.5299853086471558,
        -1.5938520431518555,
        -0.15099865198135376,
        -0.6374809741973877,
        1.1377986669540405,
        -0.5058320164680481,
        0.27348271012306213,
        0.48724427819252014,
        0.12094059586524963,
        4.199796199798584,
        0.13896004855632782,
        -0.6383832097053528,
        -0.3223154544830322,
        0.12600946426391602,
        0.17781345546245575,
        -0.06892120838165283,
        -0.009777934290468693,
        -0.16149172186851501,
        -0.2853824198246002,
        0.41868799924850464,
        -0.14456777274608612,
        -0.13485731184482574,
        0.6450710296630859,
        0.1187148317694664,
        -0.38092756271362305,
        -0.08185327798128128,
        0.1421847939491272,
        -0.5750573873519897,
        -0.12729007005691528,
        0.09385920315980911,
        0.9970015287399292,
        -0.20983347296714783,
        -0.6646768450737,
        0.7646235227584839,
        0.7079812288284302,
        -0.1758696436882019,
        -1.470280408859253,
        -0.008476510643959045,
        -0.18249422311782837,
        -0.13180649280548096,
        -0.19963909685611725,
        0.19814762473106384,
        -0.24896472692489624,
        -0.6467255353927612,
        0.17235296964645386,
        -0.4041600823402405,
        0.43142762780189514,
        0.2263907790184021,
        -0.23537319898605347,
        -0.03526955097913742,
        -0.11696678400039673,
        -0.19452796876430511,
        0.004374501761049032,
        0.17312997579574585,
        0.058653444051742554,
        -0.239137202501297,
        -0.12894904613494873,
        0.029568005353212357,
        -0.09828275442123413,
        -0.2975325584411621,
        0.03875501826405525,
        0.1104385033249855,
        0.21852052211761475,
        1.952865481376648,
        0.2632220983505249,
        0.7517176866531372,
        -0.8376485705375671,
        -0.5160152912139893,
        -0.35954827070236206,
        0.2091488540172577,
        0.24141079187393188,
        -0.23028196394443512,
        -0.15667299926280975,
        -0.2936408519744873,
        -0.5197345614433289,
        -0.24584996700286865,
        -0.08838487416505814,
        0.14289051294326782,
        0.22322580218315125,
        0.5208836793899536,
        -0.21976377069950104,
        1.6168023347854614,
        1.1832853555679321,
        -0.10804349929094315,
        -0.40191134810447693,
        0.06329096853733063,
        -0.9675123691558838,
        -0.8712314367294312,
        0.0626729354262352,
        0.09212961792945862,
        3.6825332641601562,
        -3.2439956665039062,
        -0.009895260445773602,
        -0.48041990399360657,
        1.7874302864074707,
        2.039940595626831,
        -0.6704223155975342,
        -0.4154142141342163,
        -0.09842702746391296,
        0.14951668679714203,
        0.04056711867451668,
        0.016653798520565033,
        -0.04426641762256622,
        -0.0958770141005516,
        -0.33983665704727173,
        0.21219073235988617,
        0.01316424086689949,
        -0.0349385142326355,
        -0.45423126220703125,
        0.6913368701934814,
        -0.13874854147434235,
        -0.11315330862998962,
        -0.05210890620946884,
        0.07204187661409378,
        0.1830839216709137,
        -0.24955706298351288,
        0.07344278693199158,
        0.04723541438579559,
        -0.06237677112221718,
        0.14288754761219025,
        0.04413284361362457,
        0.027806317433714867,
        -0.13914889097213745,
        -0.004529206082224846,
        -0.07123775035142899,
        0.0038950741291046143,
        -0.2463645190000534,
        0.04195773974061012,
        -0.06600383669137955,
        0.09057648479938507,
        -0.14201967418193817,
        -0.19728903472423553,
        -0.06506118923425674,
        -0.03727364540100098,
        -0.18828696012496948,
        -0.21625635027885437,
        0.007777441758662462,
        -0.15750297904014587,
        0.004616887308657169,
        -0.17424684762954712,
        -0.19500930607318878,
        0.03398582339286804,
        0.060933902859687805,
        0.20796024799346924,
        0.08026452362537384,
        0.007921768352389336,
        0.22663924098014832,
        0.047271426767110825,
        -0.07056628167629242,
        0.0030959260184317827,
        -0.01751851849257946,
        -0.13815711438655853,
        -0.04677698016166687,
        -0.04578826576471329,
        0.10564650595188141,
        0.05631633102893829,
        -0.2362683266401291,
        -0.13766159117221832,
        -0.061442986130714417,
        -0.14251472055912018,
        -0.11899780482053757,
        0.16865503787994385,
        0.006785524543374777,
        -0.16071096062660217,
        -0.36230722069740295,
        -0.05995578318834305,
        0.02046165242791176,
        -0.06036553531885147,
        -0.3839908242225647,
        -0.09742709249258041,
        0.10734713077545166,
        1.9855144023895264,
        -0.22298167645931244,
        0.00047453411389142275,
        0.027349742129445076,
        0.0019138781353831291,
        -0.003000009572133422,
        0.0030754234176129103,
        0.0030332966707646847,
        0.00986209511756897,
        0.7401218414306641,
        -0.7239742875099182,
        -0.02251962572336197,
        -0.08760758489370346,
        0.04170075058937073,
        0.11568909883499146,
        0.017921987920999527,
        0.00890208687633276,
        -0.24460437893867493,
        -2.310960054397583,
        2.445720672607422,
        0.11579088121652603,
        0.2890484631061554,
        -0.14574219286441803,
        -0.3687639534473419,
        -0.059416454285383224,
        -0.01976497285068035,
        -0.0032101571559906006,
        14.23837661743164,
        -1.6517897844314575,
        0.3745211064815521,
        -0.007278641685843468,
        0.05507376044988632,
        0.2998068630695343,
        -0.023021120578050613,
        -0.4150710701942444,
        -0.22362388670444489,
        0.5123835802078247,
        0.007220570929348469,
        -0.4523668587207794,
        0.27427908778190613,
        0.014258240349590778,
        -0.06274967640638351,
        0.1541668176651001,
        -0.1703290194272995,
        0.06294462084770203,
        -0.6616165637969971,
        -0.8984850645065308,
        1.1635186672210693,
        0.09800663590431213,
        0.3720303475856781,
        -0.11667609959840775,
        -0.47452038526535034,
        0.7526394128799438,
        0.16932067275047302,
        -0.16165105998516083,
        -1.7822887897491455,
        -0.71696537733078,
        -0.005934526678174734,
        0.46307501196861267,
        -0.3466615378856659,
        0.059656739234924316,
        0.4683021306991577,
        -0.11832807958126068,
        -0.2900643050670624,
        -0.08812996000051498,
        -0.40301716327667236,
        0.24278198182582855,
        -0.09438696503639221,
        0.337406188249588,
        -0.4076023995876312,
        -0.6012284755706787,
        0.2001160979270935,
        0.9281189441680908,
        0.3437923789024353,
        -0.1351478546857834,
        0.06778078526258469,
        0.3146059811115265,
        0.5536569356918335,
        0.7477927207946777,
        -0.7453282475471497,
        0.04899865388870239,
        0.20293334126472473,
        -0.010017849504947662,
        0.09486403316259384,
        -0.030507715418934822,
        -0.0922451838850975,
        0.005119336303323507,
        -0.18570783734321594,
        0.09670457243919373,
        -0.1813993752002716,
        0.0682232603430748,
        -0.24683663249015808,
        -0.0036079830024391413,
        -0.3099920153617859,
        -0.07951841503381729,
        -0.16330888867378235,
        0.12768962979316711,
        -0.05199521407485008,
        0.08307814598083496,
        -0.10304597020149231,
        -0.28165268898010254,
        -0.08530540019273758,
        -0.29331469535827637,
        -0.19787797331809998,
        0.16205385327339172,
        -0.3004857301712036,
        0.17348527908325195,
        0.06441405415534973,
        1.8572580814361572,
        -0.05918770655989647,
        -0.02364913560450077,
        -0.004503878764808178,
        -0.00112547364551574,
        0.024303143844008446,
        0.006624496076256037,
        -0.0022216681391000748,
        -0.1097644716501236,
        -0.26830822229385376,
        0.5431124567985535,
        -0.2732272148132324,
        -0.018916908651590347,
        0.405383825302124,
        -0.3060615360736847,
        0.008493990637362003,
        0.015010912902653217,
        -0.11599913239479065,
        1.2138192653656006,
        -1.8666287660598755,
        0.9558764696121216,
        0.020375266671180725,
        -1.307331919670105,
        1.0315765142440796,
        -0.0011259393068030477,
        -0.04774625599384308,
        -0.1906084269285202,
        -4.544418811798096,
        -0.10242467373609543,
        -0.028938766568899155,
        -0.05386091768741608,
        0.024614421650767326,
        0.008434792049229145,
        -0.021129770204424858,
        -0.04927068576216698,
        -0.017042919993400574,
        -0.054284341633319855,
        -0.12364184111356735,
        0.555069088935852,
        -0.6411274671554565,
        0.14885464310646057,
        0.1497999131679535,
        0.11333348602056503,
        -0.08606590330600739,
        0.23099285364151,
        0.286103755235672,
        0.48525622487068176,
        -1.5689609050750732,
        1.8561146259307861,
        -0.5288465023040771,
        -0.31806614995002747,
        -0.32523882389068604,
        0.27933013439178467,
        -0.25428470969200134,
        0.034341901540756226,
        0.16255266964435577,
        -1.1435223817825317,
        -0.744121789932251,
        -0.5716864466667175,
        -0.3935955762863159,
        0.6138842105865479,
        0.3313370943069458,
        0.25426211953163147,
        0.15844979882240295,
        -0.02079308219254017,
        -0.1103205755352974,
        0.0481419563293457,
        -0.23615428805351257,
        -0.16196994483470917,
        -0.6196175813674927,
        -0.5268998146057129,
        -0.2392391562461853,
        -0.13155484199523926,
        0.3949560821056366,
        -0.11135031282901764,
        0.2977873980998993,
        -0.1693463921546936,
        -0.08499503880739212,
        -0.7583829164505005,
        -0.519042432308197,
        0.24379339814186096,
        0.08404558897018433,
        -0.1046537309885025,
        0.009801046922802925,
        -0.14782389998435974,
        0.07684388011693954,
        0.012352033518254757,
        0.056708693504333496,
        -0.05428280308842659,
        -0.04980982840061188,
        -0.13927192986011505,
        -0.11295609921216965,
        0.1966216266155243,
        -0.15330033004283905,
        -0.1634730100631714,
        -0.11612921953201294,
        -0.07168608158826828,
        0.14721237123012543,
        -0.029005050659179688,
        0.008657439611852169,
        0.08295746147632599,
        0.1717003732919693,
        -0.2126474380493164,
        -0.09065384417772293,
        0.02100568450987339,
        -0.2663532495498657,
        -0.23242832720279694,
        0.2172168791294098,
        0.42463409900665283,
        0.07527171075344086,
        -0.04903574660420418,
        0.022356048226356506,
        -0.022768424823880196,
        -0.007782593835145235,
        -0.0006289497832767665,
        0.018436307087540627,
        0.14607509970664978,
        0.31556227803230286,
        0.12384392321109772,
        -0.39206942915916443,
        -0.23546534776687622,
        -0.15510715544223785,
        0.45882198214530945,
        -0.043416619300842285,
        -0.003412485821172595,
        -0.21116642653942108,
        -0.8800814747810364,
        -0.5189043879508972,
        1.373585820198059,
        1.0059484243392944,
        0.4624016284942627,
        -1.5612910985946655,
        0.12085995823144913,
        0.052588384598493576,
        -0.1841132640838623,
        -0.11035207659006119,
        -0.13084399700164795,
        0.04606076702475548,
        0.013989058323204517,
        0.07969261705875397,
        -0.1007981225848198,
        -0.016238942742347717,
        -0.01979866437613964,
        -0.10568775236606598,
        -0.014765482395887375,
        0.021390264853835106,
        -0.07859773933887482,
        -0.21593309938907623,
        -0.07265656441450119,
        -0.19480180740356445,
        0.17543426156044006,
        -0.03615032136440277,
        0.01769810914993286,
        0.17323525249958038,
        0.08988652378320694,
        -0.16197627782821655,
        -0.29748019576072693,
        -0.2568407356739044,
        -0.08448173105716705,
        0.19932478666305542,
        -0.1980978548526764,
        -0.18851113319396973,
        -0.6026419401168823,
        0.03442571312189102,
        0.18133825063705444,
        0.13396960496902466,
        -0.09487693011760712,
        -0.052358970046043396,
        0.001488998532295227,
        -0.0038165515288710594,
        -0.24467270076274872,
        -0.6862336993217468,
        0.2543394863605499,
        -0.02506120316684246,
        0.21371272206306458,
        -0.016745934262871742,
        0.3738613426685333,
        0.08175946772098541,
        -0.030080512166023254,
        -0.1173449456691742,
        1.8226549625396729,
        0.6127896904945374,
        0.45067477226257324,
        -0.6504213809967041,
        -1.1372205018997192,
        -0.87406986951828,
        -0.3343623876571655,
        0.09482142329216003,
        0.1604461371898651,
        -0.11481237411499023,
        0.23950842022895813,
        -0.010935974307358265,
        -0.13015617430210114,
        0.17529717087745667,
        0.12201137840747833,
        -0.17572075128555298,
        0.034949470311403275,
        -0.11756385862827301,
        -0.21265307068824768,
        -0.21456116437911987,
        -0.08443246781826019,
        0.017284056171774864,
        -0.20770888030529022,
        -0.12995177507400513,
        -0.054448846727609634,
        -0.004962738137692213,
        0.07487714290618896,
        -0.2449158877134323,
        -0.051519956439733505,
        -0.06914550065994263,
        0.05060182139277458,
        -0.2726903557777405,
        -0.09331724792718887,
        0.17338594794273376,
        0.1417093575000763,
        -0.18092215061187744,
        -0.32229870557785034,
        0.7430931329727173,
        -0.21489593386650085,
        -0.3514903783798218,
        0.11682146042585373,
        0.061200328171253204,
        0.05010257661342621,
        0.07857529819011688,
        0.13122063875198364,
        -0.06077613681554794,
        0.3636333644390106,
        0.14508341252803802,
        0.3807521164417267,
        0.3498941659927368,
        -0.3309616446495056,
        -0.45223209261894226,
        0.24147474765777588,
        0.026875674724578857,
        -0.5733202695846558,
        -0.8865812420845032,
        -0.8359686732292175,
        0.18127335608005524,
        0.4570464491844177,
        -0.37545305490493774,
        -0.3855682909488678,
        -0.7895744442939758,
        -0.16462233662605286,
        -5.279475688934326,
        1.312813401222229,
        0.10498763620853424,
        -0.513100266456604,
        -0.07221119850873947,
        -0.06367800384759903,
        0.21325695514678955,
        -0.5258657336235046,
        0.1735576093196869,
        0.9317848086357117,
        0.8003842234611511,
        -0.3786536157131195,
        0.05665426701307297,
        0.0854819193482399,
        -0.15626829862594604,
        0.20573823153972626,
        -0.19824795424938202,
        0.09774670004844666,
        -0.2899376451969147,
        -0.03208770230412483,
        -1.4886765480041504,
        -0.17402735352516174,
        0.3512974679470062,
        0.35305479168891907,
        0.22587773203849792,
        0.3444754183292389,
        0.08839914202690125,
        0.9241260290145874,
        0.43477123975753784,
        -0.038494206964969635,
        0.1098674014210701,
        -0.20541517436504364,
        0.15900751948356628,
        0.1738767921924591,
        0.30058178305625916,
        0.06688567996025085,
        -0.3292890191078186,
        -0.814491868019104,
        -0.2201157510280609,
        -0.49375224113464355,
        -0.016900166869163513,
        -0.1945635974407196,
        0.4198056161403656,
        -0.35650792717933655,
        -0.19680960476398468,
        0.6134957671165466,
        0.2960963547229767,
        0.05756482854485512,
        0.14084582030773163,
        0.2883957326412201,
        0.21912840008735657,
        0.011064749211072922,
        0.14574375748634338,
        -0.23737353086471558,
        -1.0147584676742554,
        0.12975017726421356,
        0.015538171865046024,
        0.005580271128565073,
        -0.0006066503701731563,
        0.015441808849573135,
        -0.009326859377324581,
        -0.0057773832231760025,
        -0.23314982652664185,
        -0.43794044852256775,
        -0.06927202641963959,
        -0.012555595487356186,
        0.6886966824531555,
        -0.22838836908340454,
        0.059697650372982025,
        0.002583652501925826,
        0.04790563881397247,
        0.20975849032402039,
        1.4564061164855957,
        0.18651999533176422,
        -0.004280616529285908,
        -2.316990852355957,
        0.8850921988487244,
        -0.14513854682445526,
        0.03932581841945648,
        -0.14342467486858368,
        0.2442941963672638,
        0.16773942112922668,
        -0.011982927098870277,
        0.21563248336315155,
        -0.13434778153896332,
        -0.15903544425964355,
        0.1934625655412674,
        0.13053414225578308,
        -0.08586778491735458,
        0.23307573795318604,
        -0.19871462881565094,
        0.06059747189283371,
        0.1596224308013916,
        -0.17522317171096802,
        -0.12019968032836914,
        -0.016615405678749084,
        -0.14838391542434692,
        0.03654364496469498,
        -0.1145138144493103,
        -0.2899022698402405,
        0.15060225129127502,
        0.08466596156358719,
        -0.12817446887493134,
        0.14529196918010712,
        -0.3095749616622925,
        -0.27505776286125183,
        0.01750369183719158,
        -0.013267964124679565,
        4.28535795211792,
        -0.17066864669322968,
        0.2788202464580536,
        0.22591093182563782,
        -0.046742383390665054,
        -0.036187708377838135,
        0.05092360079288483,
        -0.004696317482739687,
        0.17428380250930786,
        -0.5019887089729309,
        0.747792661190033,
        0.3964391350746155,
        -0.302318811416626,
        -0.22268645465373993,
        0.20064741373062134,
        -0.013577141799032688,
        0.15038251876831055,
        -0.19671857357025146,
        1.3690980672836304,
        -1.039030909538269,
        -1.0758731365203857,
        0.8690217137336731,
        0.7575564384460449,
        -0.7663269639015198,
        0.09884916245937347,
        -0.4343462586402893,
        -0.19335825741291046,
        -0.3765663802623749,
        0.02581948973238468,
        0.3117898106575012,
        0.23444753885269165,
        0.0047157020308077335,
        -0.10019435733556747,
        -0.16660211980342865,
        0.1814374029636383,
        -0.11200836300849915,
        0.5658689737319946,
        -0.1686304360628128,
        -0.4709315598011017,
        -0.26834434270858765,
        -0.6466689705848694,
        -0.10928192734718323,
        -0.21754685044288635,
        0.22002410888671875,
        0.15899452567100525,
        -0.21252064406871796,
        0.13956977427005768,
        0.40596646070480347,
        0.3569234013557434,
        0.3116895258426666,
        0.1807878464460373,
        0.1614914983510971,
        -0.15598532557487488,
        -0.008474722504615784,
        3.8855433464050293,
        -0.4441845715045929,
        0.43388110399246216,
        0.042883217334747314,
        -0.11208416521549225,
        0.048876095563173294,
        -0.06420386582612991,
        -0.0303972065448761,
        0.2294153869152069,
        0.09715574979782104,
        0.4686296284198761,
        -0.25626352429389954,
        -0.5378946661949158,
        0.14701327681541443,
        0.321961909532547,
        0.2753695845603943,
        0.07154455035924911,
        -0.15621593594551086,
        0.9689629077911377,
        -1.0207650661468506,
        0.9164468050003052,
        1.2430652379989624,
        -0.4002910554409027,
        -0.6208434700965881,
        -0.7029247283935547,
        -0.42482617497444153,
        -0.04741121828556061,
        -1.4907474517822266,
        0.28847718238830566,
        -0.06052952632308006,
        -0.08191540837287903,
        0.04416642338037491,
        0.05495588108897209,
        -0.025505950674414635,
        0.43667155504226685,
        0.03793138265609741,
        0.427665114402771,
        0.1719362735748291,
        0.31502464413642883,
        -0.19345790147781372,
        -0.41724488139152527,
        -0.20583312213420868,
        -0.2698146104812622,
        -1.157582402229309,
        -0.046229541301727295,
        -1.7014317512512207,
        -0.08381295204162598,
        -0.503524124622345,
        0.5284412503242493,
        0.861120343208313,
        0.5671292543411255,
        0.7818952202796936,
        -2.0447237491607666,
        0.14864686131477356,
        11.28000259399414,
        -0.13071884214878082,
        0.5865651965141296,
        0.6003299355506897,
        -0.26900553703308105,
        0.19971270859241486,
        -0.27862560749053955,
        -0.20120303332805634,
        0.00939282774925232,
        -1.2754133939743042,
        0.13040342926979065,
        0.2964201867580414,
        0.8874912858009338,
        -0.2759009599685669,
        0.2375240921974182,
        -0.1748427003622055,
        -0.06448047608137131,
        -0.23447315394878387,
        0.5726248621940613,
        0.13535548746585846,
        -0.8082855939865112,
        -0.6470586657524109,
        0.2197389006614685,
        0.7955044507980347,
        0.4729246497154236,
        0.30390575528144836,
        0.011592656373977661,
        -0.29821738600730896,
        0.23994366824626923,
        -0.07284250110387802,
        -0.08021681755781174,
        0.1380152404308319,
        -0.028689762577414513,
        0.0075223613530397415,
        -0.01477491483092308,
        -0.13007953763008118,
        -0.0837063118815422,
        -0.7006874680519104,
        -0.03344045579433441,
        -0.9093039035797119,
        -0.038497813045978546,
        0.4895493686199188,
        -0.028005026280879974,
        0.11530721187591553,
        0.23087403178215027,
        0.49610522389411926,
        -0.6787038445472717,
        0.08867990970611572,
        -0.17025692760944366,
        0.052263565361499786,
        0.05796553194522858,
        0.10228627175092697,
        0.008306688629090786,
        -0.017119690775871277,
        0.03232831880450249,
        0.11454887688159943,
        0.05519362911581993,
        0.06554508954286575,
        0.027171948924660683,
        0.16423866152763367,
        -0.1890241950750351,
        0.12829704582691193,
        0.032974809408187866,
        0.18829862773418427,
        0.09106701612472534,
        0.0021122635807842016,
        -0.053517915308475494,
        -0.18547408282756805,
        -0.12732961773872375,
        -0.11349933594465256,
        -0.17534594237804413,
        0.14114686846733093,
        0.08941146731376648,
        -0.07778588682413101,
        -0.17918060719966888,
        -0.2290889173746109,
        -0.014059395529329777,
        -0.1852513700723648,
        0.05735618621110916,
        -0.17248961329460144,
        0.22666677832603455,
        -1.431965708732605,
        0.7439898252487183,
        -0.1260465383529663,
        0.3995806574821472,
        -0.32424789667129517,
        0.7587061524391174,
        0.11472667008638382,
        -0.6996670961380005,
        -0.1290312111377716,
        -0.2286849021911621,
        0.5763947367668152,
        0.3292427062988281,
        -0.15717683732509613,
        -0.322993665933609,
        0.24411703646183014,
        -0.061288513243198395,
        -0.42017316818237305,
        -0.19333113729953766,
        2.11077618598938,
        -0.9023456573486328,
        -0.402742862701416,
        -0.22961263358592987,
        -0.2584489583969116,
        0.05736673250794411,
        -0.06507600098848343,
        -0.7340540885925293,
        0.09415110945701599,
        -1.4203643798828125,
        -0.06325822323560715,
        -0.4314495921134949,
        -0.33797773718833923,
        0.2996392548084259,
        0.20761677622795105,
        -0.2868712842464447,
        0.24907730519771576,
        -0.050456494092941284,
        -0.745631217956543,
        -0.231533020734787,
        0.6233248114585876,
        0.37504515051841736,
        0.057547688484191895,
        0.37984615564346313,
        0.40369150042533875,
        0.061674680560827255,
        0.07198232412338257,
        0.8748319149017334,
        -0.6205638647079468,
        1.0203737020492554,
        0.06215543672442436,
        -0.7934494614601135,
        -0.2837047874927521,
        -0.16364611685276031,
        0.23574919998645782,
        0.11828625202178955,
        -0.04927973449230194,
        -1.5489107370376587,
        0.5128671526908875,
        -0.19777058064937592,
        -0.20446674525737762,
        0.2549530267715454,
        0.05663590878248215,
        0.009866027161478996,
        0.17402154207229614,
        -0.02414805069565773,
        0.13372677564620972,
        0.2258778214454651,
        0.13453876972198486,
        -0.39620697498321533,
        0.30262717604637146,
        -0.32307401299476624,
        -0.3371850848197937,
        -0.22329673171043396,
        -2.321289300918579,
        -0.9923557043075562,
        -0.12108587473630905,
        -0.20995217561721802,
        -0.4475834369659424,
        0.3166041970252991,
        -0.3661510944366455,
        -0.45724377036094666,
        0.05656370520591736,
        7.081062316894531,
        -0.43495091795921326,
        0.2047719955444336,
        -0.23951998353004456,
        0.4797515571117401,
        0.9113418459892273,
        0.7861499786376953,
        0.48529407382011414,
        0.16029509902000427,
        0.0821310430765152,
        -0.3550311028957367,
        0.11944853514432907,
        0.36082497239112854,
        -0.38762274384498596,
        -0.11957769095897675,
        -0.21563659608364105,
        0.0026490874588489532,
        -0.09523311257362366,
        -0.07221569120883942,
        -0.1923689991235733,
        0.24607372283935547,
        0.14234189689159393,
        -0.15951094031333923,
        0.024136418476700783,
        0.034099239856004715,
        0.1899736225605011,
        0.0019096434116363525,
        0.2755751609802246,
        -0.22910825908184052,
        -0.309736043214798,
        -0.2011716216802597,
        -0.26485008001327515,
        0.011843433603644371,
        -0.3135817050933838,
        0.5329180359840393,
        0.03883102536201477,
        -0.06974972039461136,
        0.14084574580192566,
        0.5567933917045593,
        -0.5762420296669006,
        -0.22754612565040588,
        -0.6891505122184753,
        0.3713138699531555,
        0.1286129206418991,
        0.1677142083644867,
        0.043660540133714676,
        -0.22030062973499298,
        -0.48994019627571106,
        0.03583002835512161,
        0.024941135197877884,
        0.26841872930526733,
        -0.04090968146920204,
        -0.07175903022289276,
        0.20368537306785583,
        -3.3824663162231445,
        0.5510749816894531,
        -0.24292904138565063,
        0.12469272315502167,
        0.5429646372795105,
        -0.47055432200431824,
        0.1227998211979866,
        0.12774351239204407,
        -0.10521115362644196,
        -0.29047998785972595,
        0.20499423146247864,
        0.8920568823814392,
        0.36134055256843567,
        -0.05243572220206261,
        0.0816396102309227,
        0.22719894349575043,
        -0.7314613461494446,
        -0.11912944912910461,
        -0.1679265797138214,
        -0.07676558196544647,
        1.3445580005645752,
        0.22327354550361633,
        -0.6133553385734558,
        -0.31370946764945984,
        -0.616644024848938,
        -0.7215420603752136,
        0.07184869050979614
      ]
    },
    {
      "architecture": "normalization",
      "bias": [
        -0.0022043907083570957,
        -0.46463829278945923,
        -0.003350525163114071,
        -0.013340860605239868,
        -0.011841118335723877,
        -0.007154018618166447,
        -0.036105137318372726,
        -0.018561210483312607,
        -0.026371177285909653,
        -0.15066242218017578,
        0.0001277091505471617,
        0.010892928577959538,
        -0.08447551727294922,
        -0.1287376880645752,
        -0.019550520926713943,
        -0.20473313331604004,
        -0.7077161073684692,
        -0.0001064219104591757,
        -1.3350476137929945e-06,
        -0.0019189473241567612,
        -0.041468098759651184,
        -0.11114446818828583,
        0.0027487347833812237,
        -0.10418985784053802,
        -0.0032337456941604614,
        0.0005387075943872333,
        0.07653667032718658,
        -0.04836751148104668,
        -0.16928228735923767,
        -1.2685908586718142e-05,
        -0.013559341430664062,
        -0.10114963352680206,
        -6.65867846691981e-05,
        -0.00011153076047776267,
        -0.027072042226791382,
        -0.17340856790542603,
        -0.06225310266017914,
        -6.620144267799333e-05,
        -0.03276663273572922,
        -0.03804653510451317,
        -0.0019209228921681643,
        0.00014864071272313595,
        -0.03943945840001106,
        -6.702095561195165e-05,
        -0.014885111711919308,
        -0.009850116446614265,
        -0.04979453980922699,
        -0.31940269470214844,
        0.00022965669631958008,
        -0.05430706962943077,
        0.00010458728502271697,
        -0.04150329530239105,
        7.671123603358865e-05,
        -0.06447993963956833,
        -0.02098599076271057,
        -0.20967119932174683,
        0.0007209976902231574,
        -0.0022517438046634197,
        -0.07482732832431793,
        -0.22245723009109497,
        -0.0038672988303005695,
        1.0765274055302143e-05,
        0.00016184462583623827,
        -0.2624165415763855
      ],
      "weights": [
        25.194351196289062,
        8.806107521057129,
        20.019929885864258,
        25.767704010009766,
        50.733760833740234,
        18.747509002685547,
        22.198211669921875,
        41.59272003173828,
        36.3155517578125,
        5.5774946212768555,
        29.85848045349121,
        35.16238021850586,
        5.5141472816467285,
        5.993232250213623,
        52.83904266357422,
        12.461012840270996,
        3.6819818019866943,
        52.69814682006836,
        37.47260284423828,
        23.291990280151367,
        29.288646697998047,
        10.54789924621582,
        72.29302215576172,
        15.107080459594727,
        12.86272144317627,
        33.39643478393555,
        6.96819543838501,
        20.398784637451172,
        6.957983493804932,
        38.802127838134766,
        25.9050235748291,
        7.970251083374023,
        29.60268211364746,
        25.475467681884766,
        45.02267837524414,
        13.896628379821777,
        6.8933491706848145,
        29.91982078552246,
        41.69947052001953,
        29.70269203186035,
        10.14102554321289,
        29.90711784362793,
        32.91193771362305,
        30.30311393737793,
        26.118547439575195,
        30.600284576416016,
        11.140396118164062,
        3.7832415103912354,
        48.25526809692383,
        37.127559661865234,
        29.381542205810547,
        21.985342025756836,
        70.73941802978516,
        14.389276504516602,
        22.202274322509766,
        6.205132484436035,
        66.28350067138672,
        30.310060501098633,
        8.140371322631836,
        5.770261764526367,
        14.86148452758789,
        54.67774200439453,
        47.92327880859375,
        2.7271218299865723
      ]
    },
    {
      "activation": "rectified",
      "architecture": "dense",
      "bias": [
        -0.36612072587013245,
        -0.3481135368347168,
        -0.1890544593334198,
        -0.334073930978775,
        -0.5093000531196594,
        -0.39196473360061646,
        -0.22844137251377106,
        -0.0615663155913353,
        0.07878952473402023,
        0.32667088508605957,
        0.4323902726173401,
        0.1656600534915924,
        1.2223811149597168,
        -0.20759961009025574,
        0.3980627954006195,
        -0.1632489711046219,
        -0.17179320752620697,
        0.08086465299129486,
        -0.5763201713562012,
        -0.3302081227302551,
        -0.16441991925239563,
        -0.2463236153125763,
        -0.5527300834655762,
        -0.2596440315246582,
        0.012697002850472927,
        0.4267541170120239,
        -0.3350675404071808,
        -0.18245747685432434,
        -0.3796302080154419,
        0.18143732845783234,
        -0.1074526235461235,
        0.16575051844120026
      ],
      "weights": [
        -0.04531238228082657,
        -0.2129097729921341,
        0.11921723932027817,
        0.11153624951839447,
        0.76093590259552,
        0.30347439646720886,
        0.3132651746273041,
        -0.3454287648200989,
        -0.5254833698272705,
        0.32283076643943787,
        -0.009833164513111115,
        -0.6754684448242188,
        0.057387515902519226,
        0.44879579544067383,
        -0.21220186352729797,
        -0.575292706489563,
        0.21413969993591309,
        -0.015915751457214355,
        0.01353368442505598,
        -0.16541236639022827,
        -0.586681604385376,
        -0.42003726959228516,
        -0.7702125906944275,
        0.21171025931835175,
        0.13569746911525726,
        -0.03663927689194679,
        -0.5322223901748657,
        -0.7538377046585083,
        -0.04129524156451225,
        0.09334564208984375,
        -0.07973740994930267,
        0.22951476275920868,
        0.017383098602294922,
        0.03619584068655968,
        0.2278059870004654,
        -0.3315824568271637,
        -0.1554311364889145,
        -0.023076172918081284,
        0.37898895144462585,
        0.2944016754627228,
        -0.13329558074474335,
        0.023229293525218964,
        0.05567276105284691,
        0.0409710593521595,
        0.13102564215660095,
        0.5155720114707947,
        0.18416756391525269,
        -0.04251047223806381,
        -0.024715254083275795,
        -1.445728063583374,
        0.033726923167705536,
        0.6000027656555176,
        -0.05457909032702446,
        0.18549591302871704,
        -0.3056909441947937,
        -0.49196767807006836,
        -0.38935256004333496,
        0.3391549289226532,
        -0.3402286767959595,
        -0.4418914020061493,
        -0.021426936611533165,
        -0.1026536226272583,
        -0.3748394846916199,
        -0.22693268954753876,
        0.23242047429084778,
        0.5365182757377625,
        -0.02866930142045021,
        -0.2182368040084839,
        -0.34793129563331604,
        -0.7077046036720276,
        -0.48824405670166016,
        1.1097947359085083,
        0.3502861261367798,
        -0.28190937638282776,
        0.0179873239248991,
        -0.43651068210601807,
        0.005239316262304783,
        -0.2949211895465851,
        0.06087242066860199,
        -0.18324723839759827,
        -0.28135618567466736,
        -0.1619805097579956,
        -0.018801601603627205,
        -0.1149311289191246,
        -0.8882297873497009,
        0.1493632197380066,
        -0.47738221287727356,
        -0.1804257482290268,
        -0.2016247808933258,
        -0.12798470258712769,
        -0.6436334848403931,
        -0.40057873725891113,
        0.3565153479576111,
        0.03771774098277092,
        -0.1689760833978653,
        0.0985826775431633,
        -0.01832081936299801,
        -0.015539336018264294,
        0.1797582060098648,
        -0.28174734115600586,
        -0.3028700053691864,
        0.005981667432934046,
        0.6448594927787781,
        0.7245368361473083,
        0.43525585532188416,
        -0.012251969426870346,
        0.11387106031179428,
        -0.029255151748657227,
        0.5974975824356079,
        0.4581505358219147,
        -0.33063390851020813,
        -0.45039352774620056,
        0.11134836822748184,
        -0.6855238676071167,
        -0.019785823300480843,
        -0.14568886160850525,
        0.6217232942581177,
        -0.04507184401154518,
        -0.0673716738820076,
        0.2785632610321045,
        -0.18664711713790894,
        0.11267951130867004,
        0.09249654412269592,
        0.1553156077861786,
        0.5713009834289551,
        -0.3626224100589752,
        0.22565020620822906,
        0.09181411564350128,
        0.2536378800868988,
        0.07067500799894333,
        -0.1778852343559265,
        0.28813692927360535,
        0.2236894965171814,
        -0.26182857155799866,
        -0.5017849206924438,
        -0.17707392573356628,
        0.09595953673124313,
        -0.27460595965385437,
        0.03363927826285362,
        -0.031824175268411636,
        -0.18561908602714539,
        0.30788716673851013,
        0.4431235194206238,
        0.45577067136764526,
        0.12565818428993225,
        -0.04089999571442604,
        -0.0014868492726236582,
        0.13853588700294495,
        0.3770480751991272,
        0.21772870421409607,
        -0.6331528425216675,
        -1.6387633085250854,
        0.011005190201103687,
        0.6422843337059021,
        -0.26101556420326233,
        -0.38600823283195496,
        0.2817557752132416,
        0.07274394482374191,
        0.26823025941848755,
        0.06069980189204216,
        -0.0014308053068816662,
        -0.035616859793663025,
        -0.2958262860774994,
        -0.1335701197385788,
        -0.024097098037600517,
        0.0109060388058424,
        0.24913151562213898,
        -0.24221286177635193,
        -0.11849410086870193,
        -0.012018313631415367,
        0.10604888945817947,
        -0.035583026707172394,
        -0.22840751707553864,
        0.3368076980113983,
        0.2502827048301697,
        -0.8263977766036987,
        -0.003604336641728878,
        0.05611855164170265,
        -0.04507146030664444,
        0.8804594278335571,
        0.13277451694011688,
        -0.2714662551879883,
        -0.20763088762760162,
        0.42353710532188416,
        0.23672665655612946,
        0.11766567081212997,
        -0.08275609463453293,
        0.42228963971138,
        0.08571755141019821,
        -0.49536967277526855,
        -0.1232234388589859,
        0.4913802742958069,
        0.10252760350704193,
        -0.023194938898086548,
        0.3990589678287506,
        0.25104352831840515,
        0.13295529782772064,
        -0.488116592168808,
        -0.21543309092521667,
        0.021000757813453674,
        -0.011657621711492538,
        -0.1095544695854187,
        0.03387005254626274,
        -0.448144793510437,
        -3.7576286792755127,
        -0.20651398599147797,
        -0.051562532782554626,
        0.4805031418800354,
        -0.12488686293363571,
        -1.063448190689087,
        -0.022092975676059723,
        -0.6735870838165283,
        -0.13759957253932953,
        0.2789229154586792,
        -0.09560122340917587,
        0.07043741643428802,
        -0.09463392198085785,
        -0.231678307056427,
        -0.013838347978889942,
        0.1267717331647873,
        0.18873392045497894,
        -0.2714795172214508,
        -0.055288612842559814,
        0.4603389799594879,
        0.00016119101201184094,
        -0.03471490740776062,
        -0.06319586932659149,
        0.2247391939163208,
        -0.418500155210495,
        7.364423072431237e-05,
        0.06826785206794739,
        -0.12280609458684921,
        0.3485690951347351,
        -0.03533328324556351,
        0.11215576529502869,
        -0.017886923626065254,
        -0.19623376429080963,
        0.16442778706550598,
        0.34511008858680725,
        0.3334738314151764,
        0.007019595708698034,
        -0.32973843812942505,
        -0.05458284169435501,
        -0.0031371619552373886,
        0.3009814918041229,
        -0.13385659456253052,
        0.20601435005664825,
        -0.4666866362094879,
        0.026507053524255753,
        0.3686375916004181,
        -0.42366498708724976,
        0.2384188026189804,
        0.6617403626441956,
        -0.03825702890753746,
        0.4811675548553467,
        0.18073320388793945,
        -0.15967530012130737,
        0.032800182700157166,
        0.3994901478290558,
        -0.4844529628753662,
        0.11652153730392456,
        0.27712059020996094,
        0.30576902627944946,
        -0.04300488159060478,
        0.39354848861694336,
        -0.20535361766815186,
        0.011644861660897732,
        -0.6999615430831909,
        0.14456038177013397,
        0.11468508839607239,
        -2.3024444580078125,
        -0.6580252051353455,
        -0.05469491705298424,
        -0.06558907777070999,
        -0.01895136572420597,
        0.03316071629524231,
        -0.2661871910095215,
        -0.31493517756462097,
        -0.42076271772384644,
        -0.11902648210525513,
        0.07254872471094131,
        -0.11680591851472855,
        -0.7131521105766296,
        0.12060637027025223,
        0.06657631695270538,
        -0.043545302003622055,
        0.30111902952194214,
        0.16466934978961945,
        -0.000361691607395187,
        -0.0076710074208676815,
        -0.054499149322509766,
        -0.07703525573015213,
        0.24615445733070374,
        -0.017910929396748543,
        0.19684389233589172,
        -0.9489914178848267,
        0.26862019300460815,
        0.02425393834710121,
        0.3868590295314789,
        -0.010275817476212978,
        0.19061590731143951,
        0.6039239168167114,
        -0.03763573616743088,
        0.38372448086738586,
        0.021751802414655685,
        0.2700031101703644,
        0.008399766869843006,
        -0.5134117007255554,
        0.04772349074482918,
        0.23279239237308502,
        -0.2234928458929062,
        0.04219987243413925,
        -0.1126009002327919,
        0.35665208101272583,
        0.2628067433834076,
        -0.11831627041101456,
        -0.08137557655572891,
        -0.0763426274061203,
        -0.003129946766421199,
        -0.34571313858032227,
        0.05091102421283722,
        -0.454028457403183,
        0.16952700912952423,
        -0.19200889766216278,
        -0.020874394103884697,
        0.7081267833709717,
        -0.08013536781072617,
        -0.3960971236228943,
        -1.1012026071548462,
        0.14111624658107758,
        0.019516196101903915,
        -0.8185847997665405,
        0.1531338393688202,
        -0.08660184592008591,
        -0.41233986616134644,
        -0.08524633944034576,
        -0.28234297037124634,
        -0.1253807544708252,
        0.0026951595209538937,
        0.06500613689422607,
        0.06472249329090118,
        -0.44504210352897644,
        -0.5551615357398987,
        -0.1580064594745636,
        0.10844483971595764,
        -0.15103653073310852,
        -0.49791720509529114,
        0.6657298803329468,
        -0.21369336545467377,
        -0.07469084858894348,
        0.2451525777578354,
        0.13974623382091522,
        -0.002268861047923565,
        -0.00866877194494009,
        0.25082170963287354,
        -0.08033090829849243,
        0.5540700554847717,
        -0.004448712803423405,
        -1.2675739526748657,
        -0.1572309136390686,
        -0.006242149509489536,
        -0.0033894209191203117,
        1.1046826839447021,
        -0.003539046971127391,
        -0.9207071661949158,
        0.241112619638443,
        -0.21187859773635864,
        0.24712532758712769,
        -0.011799090541899204,
        0.45265358686447144,
        -0.010264662094414234,
        0.685828685760498,
        -0.40836361050605774,
        -0.1706145852804184,
        -0.19718484580516815,
        0.43279123306274414,
        -0.3859410583972931,
        0.31466296315193176,
        0.10727673768997192,
        -0.29413971304893494,
        -0.38235339522361755,
        -0.15460042655467987,
        -0.09860070049762726,
        0.08821581304073334,
        0.0335271991789341,
        0.256666898727417,
        0.303984135389328,
        0.6095272302627563,
        -0.7351042628288269,
        -0.28011593222618103,
        0.0736520066857338,
        0.18727301061153412,
        0.9241251349449158,
        0.030803250148892403,
        0.015132826752960682,
        -0.7290700078010559,
        -0.1362336277961731,
        -0.3485511243343353,
        0.06283555924892426,
        0.5888739228248596,
        -0.6271520853042603,
        -0.20193129777908325,
        0.0020726958755403757,
        0.11813747882843018,
        -0.18393176794052124,
        0.4844086170196533,
        -0.3443581759929657,
        -0.06177728623151779,
        0.06530442088842392,
        -0.2975270450115204,
        -0.4810580611228943,
        0.05989347770810127,
        0.21445730328559875,
        -0.019207144156098366,
        0.25714898109436035,
        -0.22059834003448486,
        0.0021077843848615885,
        -0.020060870796442032,
        -0.5569172501564026,
        0.20550084114074707,
        0.30133184790611267,
        -0.005723661743104458,
        0.44067275524139404,
        -0.7267228960990906,
        -0.23979920148849487,
        0.005177021492272615,
        -0.98005211353302,
        -0.008201810531318188,
        0.12135781347751617,
        0.1894219070672989,
        -0.3437337577342987,
        -0.15869632363319397,
        -0.11854098737239838,
        0.40566515922546387,
        -0.0027565036434680223,
        -0.4744373559951782,
        0.5161447525024414,
        -0.6110185980796814,
        0.334425687789917,
        -0.02246851846575737,
        -0.22020897269248962,
        0.2860352694988251,
        -0.28781887888908386,
        -0.19025179743766785,
        -0.12174598127603531,
        -0.1828242987394333,
        0.21049311757087708,
        0.09709369391202927,
        0.19848154485225677,
        0.42762425541877747,
        0.4259701073169708,
        -0.22425077855587006,
        0.2577177584171295,
        0.9530625939369202,
        -0.0722402036190033,
        -0.47506123781204224,
        0.3652985692024231,
        0.2153138369321823,
        0.05277290195226669,
        0.12707087397575378,
        0.018750332295894623,
        -0.07730696350336075,
        -0.0518728569149971,
        -0.08955800533294678,
        0.9338586926460266,
        -0.04955742880702019,
        0.033395566046237946,
        0.16680197417736053,
        0.154674232006073,
        0.2824944853782654,
        -0.4480533003807068,
        0.4840860962867737,
        0.3810364305973053,
        -0.07498150318861008,
        0.1795491874217987,
        0.15000474452972412,
        0.09655631333589554,
        -0.1662682294845581,
        -0.11392538994550705,
        0.18820281326770782,
        -0.014024622738361359,
        0.001905172597616911,
        0.4970325529575348,
        -0.24999359250068665,
        -0.6543115377426147,
        -0.007276265881955624,
        0.5470917224884033,
        0.1484632045030594,
        -0.933734118938446,
        -0.01244401279836893,
        0.6167272329330444,
        -0.005755301099270582,
        0.18433336913585663,
        0.08426804840564728,
        -0.9387493133544922,
        -0.41828182339668274,
        -0.44561779499053955,
        0.3625667989253998,
        -0.04612613841891289,
        0.5482165217399597,
        -0.6681008338928223,
        -1.195573091506958,
        0.06577952206134796,
        -0.40999552607536316,
        0.08434749394655228,
        0.19485695660114288,
        -1.0712857246398926,
        -0.05888791382312775,
        0.1770840883255005,
        -0.12594854831695557,
        -0.06293109804391861,
        -1.1204055547714233,
        -0.0658307820558548,
        0.2766547203063965,
        -0.32366064190864563,
        0.7166364789009094,
        0.4668736457824707,
        -0.4127439856529236,
        -0.6521848440170288,
        -0.4992813467979431,
        -0.21862345933914185,
        -0.7967396974563599,
        -0.010857351124286652,
        0.16743043065071106,
        -0.0031133287120610476,
        0.6645773649215698,
        0.23556087911128998,
        -0.5835652947425842,
        -0.06364082545042038,
        0.2058359980583191,
        0.03589128330349922,
        0.40829935669898987,
        0.42110997438430786,
        0.1496608555316925,
        0.08940542489290237,
        -0.2593565285205841,
        0.5063173770904541,
        0.1391504853963852,
        0.14011982083320618,
        -0.28454214334487915,
        -0.3469886779785156,
        -0.02289012260735035,
        0.8575740456581116,
        -0.25113445520401,
        -0.056140825152397156,
        -0.009850780479609966,
        0.11772029846906662,
        0.23063693940639496,
        -0.09978587925434113,
        -0.0032540191896259785,
        0.028542347252368927,
        0.038916055113077164,
        -0.4668666422367096,
        -0.016397250816226006,
        0.47156083583831787,
        0.003320446703583002,
        0.020688699558377266,
        0.061233196407556534,
        -0.09439954161643982,
        0.4836553633213043,
        -0.14191149175167084,
        0.219403475522995,
        -0.009070608764886856,
        -0.604534387588501,
        -0.24328283965587616,
        0.6627995371818542,
        0.09669826924800873,
        0.617088794708252,
        0.24224649369716644,
        0.15663234889507294,
        0.7961078882217407,
        0.08668036758899689,
        0.2888423800468445,
        -0.3203127682209015,
        -0.11133112758398056,
        -0.2964712977409363,
        0.22074022889137268,
        -0.5488536953926086,
        0.41715192794799805,
        -0.2743244469165802,
        -0.37543439865112305,
        0.14391303062438965,
        0.9293218851089478,
        0.17223168909549713,
        -0.11238875985145569,
        -0.28961414098739624,
        -0.024377062916755676,
        0.26769280433654785,
        0.10371891409158707,
        0.5726029276847839,
        -0.31344354152679443,
        -0.8881951570510864,
        0.042607590556144714,
        -0.043851498514413834,
        0.013951009139418602,
        0.03811332955956459,
        -0.5729509592056274,
        0.22740785777568817,
        -0.3150269687175751,
        0.305710107088089,
        0.22081682085990906,
        -0.3188491463661194,
        0.011851766146719456,
        -0.09328524768352509,
        -0.05136432871222496,
        0.0030753351747989655,
        0.29919543862342834,
        0.5234056115150452,
        0.052448246628046036,
        0.02660956047475338,
        -0.34680235385894775,
        -0.050806064158678055,
        0.10270678251981735,
        0.03260086104273796,
        -0.5053405165672302,
        -0.7964634299278259,
        0.3602665960788727,
        0.017349906265735626,
        -0.16351298987865448,
        0.050412945449352264,
        0.21838022768497467,
        -0.09709936380386353,
        -0.07443952560424805,
        0.4745785593986511,
        0.25171351432800293,
        0.017605923116207123,
        -0.007697648368775845,
        -0.801912248134613,
        0.19274894893169403,
        -0.019573742523789406,
        0.024068515747785568,
        -0.9491292834281921,
        -1.233597755432129,
        -0.3735125958919525,
        -0.37190330028533936,
        -0.2894066870212555,
        -0.44210243225097656,
        0.03409194201231003,
        0.04177575930953026,
        -0.7197732329368591,
        0.020229222252964973,
        0.46951553225517273,
        -0.4813602864742279,
        0.11205194145441055,
        -0.7446177005767822,
        -0.12067238986492157,
        -0.08100725710391998,
        0.3557768762111664,
        -0.043031033128499985,
        -0.35679128766059875,
        -0.008360248990356922,
        -0.018596207723021507,
        -0.05571223422884941,
        0.30413803458213806,
        -0.09413571655750275,
        0.040328171104192734,
        -0.04192986339330673,
        -0.05216437205672264,
        0.005507850553840399,
        -0.04275127127766609,
        -0.9929440021514893,
        -0.6814541816711426,
        0.29210445284843445,
        -0.11869826912879944,
        0.00042631884571164846,
        -0.3064974844455719,
        0.5604884624481201,
        0.48575732111930847,
        0.5401226878166199,
        -0.15782849490642548,
        -0.06293650716543198,
        -0.08473648875951767,
        -0.008823991753160954,
        0.035615529865026474,
        -0.8011054992675781,
        -0.5129080414772034,
        -0.28127893805503845,
        0.026932964101433754,
        0.36388397216796875,
        -0.08925269544124603,
        0.33070456981658936,
        -0.0616409033536911,
        -0.2422243058681488,
        0.011537631042301655,
        0.4183715283870697,
        -0.23899653553962708,
        -0.7796990275382996,
        0.20913653075695038,
        -0.0754852443933487,
        -0.27645349502563477,
        -0.013211905024945736,
        0.07430553436279297,
        0.11145259439945221,
        -0.6504029035568237,
        -0.0907195657491684,
        0.35210898518562317,
        -0.08386344462633133,
        -0.2764371931552887,
        -0.08104883879423141,
        0.34770843386650085,
        -0.22317180037498474,
        0.09816688299179077,
        -0.03483138605952263,
        -0.8193618059158325,
        0.2445984035730362,
        0.23463864624500275,
        -0.17782622575759888,
        -0.7930366396903992,
        0.3445192575454712,
        0.16403141617774963,
        -0.08302465826272964,
        -0.8029471635818481,
        0.5896216630935669,
        -0.5284344553947449,
        -0.004953673575073481,
        -0.5529260039329529,
        0.1559738963842392,
        0.757723867893219,
        -0.7499009370803833,
        -0.039814986288547516,
        -0.10532466322183609,
        -0.03751770779490471,
        0.0036351599264889956,
        -0.09625419229269028,
        -0.18654772639274597,
        -0.24770699441432953,
        -0.8106864094734192,
        0.06288698315620422,
        0.2967815697193146,
        -0.05644702911376953,
        -0.12595833837985992,
        -0.7007757425308228,
        -0.3367636501789093,
        0.14171302318572998,
        -0.047570232301950455,
        0.23444800078868866,
        0.008303352631628513,
        -0.009013555012643337,
        0.7993136644363403,
        0.011827126145362854,
        -0.06830904632806778,
        0.021464625373482704,
        -0.6258944869041443,
        0.17396508157253265,
        0.0870341956615448,
        0.0013849542010575533,
        0.1682666838169098,
        -0.0031725552398711443,
        0.42589834332466125,
        -0.1927579641342163,
        0.24973469972610474,
        0.3368448317050934,
        -0.023706404492259026,
        -0.14260844886302948,
        0.014788173139095306,
        -0.3348107635974884,
        -0.015061250887811184,
        0.24643544852733612,
        -0.8901945948600769,
        -0.4114810824394226,
        -0.17438627779483795,
        -0.10204433649778366,
        0.24373972415924072,
        0.04026555269956589,
        -0.1349174827337265,
        0.04030854254961014,
        0.10011539608240128,
        0.3655625283718109,
        -0.6310129165649414,
        -0.10834116488695145,
        -0.1251608282327652,
        0.13799241185188293,
        -0.46490511298179626,
        0.5516512989997864,
        0.19668935239315033,
        -0.7408397197723389,
        -0.21542654931545258,
        -0.1891213208436966,
        0.020667271688580513,
        -0.3431878983974457,
        0.050682879984378815,
        0.1922680288553238,
        -0.15105898678302765,
        -0.28899946808815,
        -0.3464992344379425,
        -1.6636306047439575,
        0.05412451922893524,
        0.041403453797101974,
        -0.38872456550598145,
        0.0028253868222236633,
        -0.4431506395339966,
        -0.030945075675845146,
        0.646889328956604,
        -0.27189627289772034,
        0.4498538672924042,
        -0.5855295658111572,
        -0.20008297264575958,
        0.016313236206769943,
        0.2330010086297989,
        0.39144566655158997,
        0.022935066372156143,
        -0.002545916009694338,
        0.5995900630950928,
        0.272070974111557,
        0.078099824488163,
        -0.03603055328130722,
        -0.8601626753807068,
        0.24503977596759796,
        0.3942245841026306,
        0.07875622808933258,
        0.13041920959949493,
        0.031521108001470566,
        -0.6675221920013428,
        -1.3295707702636719,
        0.12075187265872955,
        0.06599239259958267,
        -0.156899556517601,
        -0.6009725332260132,
        0.04330380633473396,
        -1.0338780879974365,
        -0.3809175193309784,
        0.2941053509712219,
        -0.13883808255195618,
        0.26908397674560547,
        -0.47239115834236145,
        -1.3188215494155884,
        -0.25663331151008606,
        0.7448157668113708,
        0.2874072790145874,
        -1.3065922260284424,
        -0.1324976235628128,
        -0.03802291676402092,
        -0.3731435537338257,
        -0.008975112810730934,
        -0.14337459206581116,
        -0.9248969554901123,
        0.2877316176891327,
        0.74994295835495,
        0.2827984094619751,
        -1.1517213582992554,
        0.1621481478214264,
        -0.20971760153770447,
        -0.006543843075633049,
        -0.5763228535652161,
        0.05278681963682175,
        0.5745003819465637,
        -0.01805468276143074,
        0.06654762476682663,
        -0.6487422585487366,
        -0.13722969591617584,
        -0.015492865815758705,
        0.029469523578882217,
        0.9023195505142212,
        0.2284432351589203,
        -0.4000096023082733,
        0.027912385761737823,
        0.10922796279191971,
        -0.02332603558897972,
        -0.5967245697975159,
        -0.18003684282302856,
        -1.2204749584197998,
        -0.08708666265010834,
        -0.3208921551704407,
        -0.11645988374948502,
        -0.003325191093608737,
        0.010427713394165039,
        -0.09232449531555176,
        0.16088853776454926,
        -0.0018252963200211525,
        0.017401114106178284,
        0.23851178586483002,
        0.16588936746120453,
        -0.10951952636241913,
        -0.015088515356183052,
        -0.685973584651947,
        -0.0010778714204207063,
        0.49090057611465454,
        0.18956778943538666,
        0.9831721782684326,
        0.3611343204975128,
        -0.018720591440796852,
        -0.02855606935918331,
        -0.00872587040066719,
        -0.019397133961319923,
        -0.17640270292758942,
        -0.017740031704306602,
        -0.0821124017238617,
        -0.11902635544538498,
        -0.24057471752166748,
        0.09146732836961746,
        0.07456153631210327,
        0.09002935886383057,
        0.15045492351055145,
        -0.12393024563789368,
        -0.192421093583107,
        0.3520275056362152,
        -0.5065038800239563,
        0.5094254612922668,
        -1.2667288780212402,
        -0.669396698474884,
        -0.4736391007900238,
        -0.07722048461437225,
        0.07912833243608475,
        0.09098441153764725,
        0.49540457129478455,
        -0.29937848448753357,
        -0.010378125123679638,
        0.23475965857505798,
        0.01831774413585663,
        0.79023277759552,
        0.08957988768815994,
        0.22489193081855774,
        -0.05012363940477371,
        0.4757273197174072,
        0.0017692437395453453,
        0.3210047483444214,
        -0.11216358840465546,
        0.6616303324699402,
        0.15945807099342346,
        0.024198492988944054,
        -1.1259278059005737,
        -0.40143415331840515,
        0.27969813346862793,
        -0.06092030182480812,
        0.13036412000656128,
        -0.03841804713010788,
        -0.9373523592948914,
        -0.03638386353850365,
        0.0349583774805069,
        0.06397446244955063,
        -0.10898079723119736,
        -0.0717274472117424,
        -0.4929213225841522,
        -0.025230837985873222,
        0.5415086150169373,
        -0.31939956545829773,
        -0.08070958405733109,
        0.02488798089325428,
        -0.12099647521972656,
        0.04249941557645798,
        -0.03256727382540703,
        -0.2819669544696808,
        -0.9368963241577148,
        0.4205666780471802,
        -0.06659109890460968,
        -0.08656338602304459,
        0.03779488429427147,
        0.6278119087219238,
        0.3971352279186249,
        -0.17885129153728485,
        0.1659725308418274,
        -0.025240449234843254,
        0.6167125105857849,
        -0.4328904449939728,
        -0.3073878288269043,
        -0.5032131671905518,
        -1.1381677389144897,
        0.13535818457603455,
        0.13176089525222778,
        -0.6468992829322815,
        -0.4693807363510132,
        0.0834314227104187,
        -0.3023996353149414,
        -0.11190547049045563,
        -1.3068928718566895,
        0.17211568355560303,
        0.13795419037342072,
        0.27586743235588074,
        0.10422718524932861,
        0.3178945481777191,
        -0.021278701722621918,
        -0.4280618727207184,
        -0.207444429397583,
        0.2147919237613678,
        0.008041872642934322,
        -0.1344495713710785,
        -0.5168024897575378,
        -0.2866404950618744,
        -0.003579834010452032,
        0.031679898500442505,
        0.20003581047058105,
        0.23287606239318848,
        -0.2896193265914917,
        -0.24503381550312042,
        0.38248589634895325,
        -0.07933462411165237,
        -0.22660298645496368,
        0.1877470165491104,
        0.3488149642944336,
        0.009387950412929058,
        0.20928317308425903,
        -0.13713213801383972,
        -0.007817269302904606,
        0.0467597059905529,
        0.330211341381073,
        0.6315343379974365,
        0.2317117303609848,
        -0.04668302461504936,
        -0.6093805432319641,
        0.04878375306725502,
        -0.05707381293177605,
        0.04187348484992981,
        0.1494976282119751,
        0.03511035069823265,
        0.4174982011318207,
        0.16988179087638855,
        -0.26746755838394165,
        0.14710955321788788,
        0.07652796804904938,
        0.2829182744026184,
        0.05889206379652023,
        -0.44588297605514526,
        0.48402026295661926,
        -0.12989912927150726,
        1.142347812652588,
        -0.5560228228569031,
        -0.2359369397163391,
        0.17882825434207916,
        -0.22998546063899994,
        0.10655318200588226,
        0.7556938529014587,
        -0.22296002507209778,
        0.10266052931547165,
        -0.3996601998806,
        0.004005274269729853,
        -0.43258747458457947,
        0.14027294516563416,
        0.02607904002070427,
        0.9939566850662231,
        -0.24091526865959167,
        -0.43136218190193176,
        0.49418434500694275,
        0.6978277564048767,
        0.41041284799575806,
        0.02183007262647152,
        -0.4310019910335541,
        -0.0010754355462267995,
        -0.06136767566204071,
        0.4090687036514282,
        0.8667304515838623,
        0.016246668994426727,
        -0.06719348579645157,
        0.002679320052266121,
        -0.061344921588897705,
        -0.6468339562416077,
        -0.6379604935646057,
        -0.7176633477210999,
        0.03532909229397774,
        -0.2198510766029358,
        -0.008781207725405693,
        -0.5011202096939087,
        0.17208412289619446,
        0.0840582624077797,
        -0.04421904683113098,
        -0.5256516337394714,
        -0.07536870241165161,
        -0.003342494834214449,
        -0.005290574859827757,
        -0.04076523333787918,
        -0.22677958011627197,
        -0.37919092178344727,
        -0.005045305006206036,
        0.1354190707206726,
        -0.6066531538963318,
        0.17786455154418945,
        0.014343350194394588,
        0.1953016072511673,
        -0.0015979510499164462,
        -0.4345698654651642,
        0.10449596494436264,
        -0.5077230930328369,
        -0.5225872993469238,
        -0.004913275130093098,
        0.533613383769989,
        0.009161577560007572,
        -0.09793047606945038,
        -0.360907644033432,
        0.26359981298446655,
        -0.409967839717865,
        0.07931582629680634,
        -0.19082441926002502,
        0.07119502127170563,
        0.1343000829219818,
        -0.3585045635700226,
        0.05238675698637962,
        -0.2320518046617508,
        -0.23931020498275757,
        0.519878625869751,
        -0.3469293713569641,
        1.1718223094940186,
        0.8028150796890259,
        -0.2752480208873749,
        0.1580071747303009,
        0.9415070414543152,
        -0.31486180424690247,
        0.013841737993061543,
        -0.06581572443246841,
        0.30759361386299133,
        -0.014281957410275936,
        -0.0701347216963768,
        -0.07558409869670868,
        -0.018557842820882797,
        0.17953509092330933,
        0.0685221254825592,
        0.001331303734332323,
        0.0015478426357731223,
        -0.03185388445854187,
        0.6163788437843323,
        0.11507470160722733,
        -0.6699151992797852,
        0.12400583177804947,
        -0.13225510716438293,
        0.07508336752653122,
        0.09618202596902847,
        0.3674442768096924,
        -0.5483343601226807,
        -0.11106818169355392,
        -0.26451677083969116,
        -0.008858848363161087,
        -0.975878894329071,
        0.021706586703658104,
        0.02422655187547207,
        -0.22971199452877045,
        0.18174363672733307,
        0.9021250605583191,
        0.0010277265682816505,
        -0.20055824518203735,
        0.0660519227385521,
        0.008098725229501724,
        0.004117386415600777,
        0.39828863739967346,
        0.03938726335763931,
        -0.4247921109199524,
        0.0642431303858757,
        -0.13385364413261414,
        -0.32946866750717163,
        0.2359715849161148,
        0.3894467055797577,
        0.01664707064628601,
        -0.1607155203819275,
        0.16740494966506958,
        -0.5615717768669128,
        -0.17228101193904877,
        -0.18761928379535675,
        -0.3227009177207947,
        -0.10963994264602661,
        -0.25649550557136536,
        0.19069787859916687,
        0.869926929473877,
        0.3978499472141266,
        0.2595895826816559,
        0.40196382999420166,
        0.12524102628231049,
        -0.14248618483543396,
        0.2849269509315491,
        -0.015921616926789284,
        -0.2590599060058594,
        0.820134162902832,
        -0.10014913976192474,
        -0.5374746322631836,
        -0.14557141065597534,
        0.2098444551229477,
        -0.016245653852820396,
        -1.0052798986434937,
        0.08312706649303436,
        0.4979854226112366,
        -0.24940887093544006,
        -0.07596705108880997,
        0.0048864660784602165,
        0.0963808000087738,
        -0.003717911196872592,
        -0.5520999431610107,
        0.10941814631223679,
        0.6989321112632751,
        -0.7589309215545654,
        -0.19556641578674316,
        -0.20516231656074524,
        -0.4577968716621399,
        -0.5317632555961609,
        -0.7606179118156433,
        0.15908055007457733,
        0.09043660014867783,
        -0.03994228318333626,
        -2.5926663875579834,
        0.013013925403356552,
        0.011591644026339054,
        -0.05057955160737038,
        0.014841511845588684,
        -0.32177671790122986,
        0.05923433229327202,
        -0.10611981898546219,
        -0.07998864352703094,
        -0.02639700658619404,
        -0.02494216337800026,
        0.15504090487957,
        -0.02761434204876423,
        0.16282327473163605,
        0.39748573303222656,
        -0.058091793209314346,
        -0.3571534752845764,
        -0.029835352674126625,
        0.11821657419204712,
        -0.015647679567337036,
        0.25855752825737,
        0.16865749657154083,
        -0.22880209982395172,
        -0.032819733023643494,
        -0.14271055161952972,
        -1.0161203145980835,
        0.8456471562385559,
        0.33122172951698303,
        -0.7445071935653687,
        0.2998848557472229,
        -0.5596328973770142,
        -0.129464253783226,
        0.12672749161720276,
        0.20117370784282684,
        0.32668766379356384,
        0.012635626830160618,
        0.26340150833129883,
        0.004201997071504593,
        -0.03128727898001671,
        0.11056041717529297,
        -0.16543708741664886,
        0.10991375148296356,
        0.4243917465209961,
        -0.031217586249113083,
        -0.6148023009300232,
        -2.5224292278289795,
        0.3657945692539215,
        -0.17305228114128113,
        -0.3441520035266876,
        0.5184376835823059,
        -1.0532892942428589,
        0.022029593586921692,
        0.6954008936882019,
        -0.08559542894363403,
        0.11529020965099335,
        -0.445221871137619,
        -0.8609041571617126,
        -1.023764729499817,
        -0.16707800328731537,
        -0.39987555146217346,
        0.34763938188552856,
        -0.33268240094184875,
        -0.3301137089729309,
        0.7932115793228149,
        0.04692560061812401,
        -0.011555574834346771,
        0.013757624663412571,
        0.30924510955810547,
        -0.10930102318525314,
        0.029291007667779922,
        0.0071883355267345905,
        -0.010672290809452534,
        -0.26016613841056824,
        0.9531491994857788,
        0.01333473902195692,
        -0.12655863165855408,
        0.0091543635353446,
        0.1749594509601593,
        0.45906907320022583,
        -0.05322820320725441,
        0.38418036699295044,
        0.0546170175075531,
        -0.2110658437013626,
        0.019667919725179672,
        -0.08923801779747009,
        0.4496542513370514,
        0.10726054757833481,
        -0.13395443558692932,
        -0.07113707065582275,
        -0.15706533193588257,
        0.18053093552589417,
        0.7752301692962646,
        -0.13589538633823395,
        0.003984101582318544,
        -0.10952389240264893,
        0.21334315836429596,
        0.010244596749544144,
        -1.2063997983932495,
        -0.10573581606149673,
        1.163103461265564,
        0.33674943447113037,
        0.013322601094841957,
        0.3205392062664032,
        0.3196123242378235,
        0.24299682676792145,
        0.19464439153671265,
        0.05807952210307121,
        0.01684490777552128,
        -0.23275724053382874,
        -0.3388883173465729,
        0.27449700236320496,
        0.35057640075683594,
        -0.17284031212329865,
        0.1514466553926468,
        -0.377565860748291,
        0.003089513862505555,
        0.19602131843566895,
        -0.12596602737903595,
        0.08673661947250366,
        -0.08893197774887085,
        -0.041801817715168,
        -0.9077575206756592,
        -0.001253576367162168,
        -0.15310895442962646,
        0.26528558135032654,
        -0.01179775595664978,
        -0.032420724630355835,
        -1.4970908164978027,
        0.09834790229797363,
        -0.017014453187584877,
        -0.03633517399430275,
        0.13900496065616608,
        0.19109584391117096,
        0.21189168095588684,
        0.02225351706147194,
        0.09038374572992325,
        0.6013913750648499,
        -0.1798270344734192,
        0.05019163340330124,
        0.1007375568151474,
        -0.01627165637910366,
        -0.3084576427936554,
        0.08350209146738052,
        -0.21394123136997223,
        0.23583461344242096,
        -0.06440146267414093,
        -1.4385654926300049,
        0.03532326593995094,
        -0.6067410111427307,
        0.1474299430847168,
        -0.16630546748638153,
        0.2681417167186737,
        0.5646820068359375,
        -0.06656938046216965,
        0.019732892513275146,
        -0.1998620182275772,
        0.18283113837242126,
        -0.9108672738075256,
        -0.14891059696674347,
        0.06572741270065308,
        0.6834706664085388,
        0.6812233328819275,
        -0.5330626964569092,
        -0.02973906695842743,
        0.11112923920154572,
        -0.005841908976435661,
        0.6377193331718445,
        -0.5967942476272583,
        0.3756224513053894,
        0.2859531342983246,
        -0.15891873836517334,
        0.029106978327035904,
        0.3532474637031555,
        0.10659656673669815,
        -0.15047931671142578,
        -0.19839772582054138,
        -0.05717439949512482,
        0.10109176486730576,
        -0.007801669184118509,
        -0.0017982227727770805,
        0.5155650973320007,
        0.7465910911560059,
        -0.016932226717472076,
        -0.05909871682524681,
