{
  "input_sequences": [],
  "inputs": [
    {
      "name": "dNN",
      "variables": [
        {
          "name": "hitX1",
          "offset": 0,
          "scale": 1
        },
        {
          "name": "hitX2",
          "offset": 0,
          "scale": 1
        },
        {
          "name": "hitX3",
          "offset": 0,
          "scale": 1
        },
        {
          "name": "hitX4",
          "offset": 0,
          "scale": 1
        },
        {
          "name": "hitX5",
          "offset": 0,
          "scale": 1
        },
        {
          "name": "hitX6",
          "offset": 0,
          "scale": 1
        },
        {
          "name": "hitX7",
          "offset": 0,
          "scale": 1
        },
        {
          "name": "hitX8",
          "offset": 0,
          "scale": 1
        },
        {
          "name": "hitY1",
          "offset": 0,
          "scale": 1
        },
        {
          "name": "hitY2",
          "offset": 0,
          "scale": 1
        },
        {
          "name": "hitY3",
          "offset": 0,
          "scale": 1
        },
        {
          "name": "hitY4",
          "offset": 0,
          "scale": 1
        },
        {
          "name": "hitY5",
          "offset": 0,
          "scale": 1
        },
        {
          "name": "hitY6",
          "offset": 0,
          "scale": 1
        },
        {
          "name": "hitY7",
          "offset": 0,
          "scale": 1
        },
        {
          "name": "hitY8",
          "offset": 0,
          "scale": 1
        },
        {
          "name": "hitZ1",
          "offset": 0,
          "scale": 1
        },
        {
          "name": "hitZ2",
          "offset": 0,
          "scale": 1
        },
        {
          "name": "hitZ3",
          "offset": 0,
          "scale": 1
        },
        {
          "name": "hitZ4",
          "offset": 0,
          "scale": 1
        },
        {
          "name": "hitZ5",
          "offset": 0,
          "scale": 1
        },
        {
          "name": "hitZ6",
          "offset": 0,
          "scale": 1
        },
        {
          "name": "hitZ7",
          "offset": 0,
          "scale": 1
        },
        {
          "name": "hitZ8",
          "offset": 0,
          "scale": 1
        }
      ]
    }
  ],
  "layers": [
    {
      "activation": "rectified",
      "architecture": "dense",
      "bias": [
        0.046538472175598145,
        -0.013763359747827053,
        -0.003368073608726263,
        -0.2512165606021881,
        0.05635276809334755,
        0.0,
        0.6130163073539734,
        -0.25821971893310547,
        -0.013578690588474274,
        -0.00805097259581089,
        -0.1594085842370987,
        0.037297699600458145,
        -0.08740561455488205,
        0.0,
        -0.023975521326065063,
        0.0,
        0.07635240256786346,
        0.0,
        0.0,
        -0.14070075750350952,
        0.01989630237221718,
        0.044410284608602524,
        0.0,
        -0.018612684682011604,
        -0.24852482974529266,
        -0.2643991708755493,
        -0.005033168010413647,
        0.0,
        -0.004247634205967188,
        0.05836513265967369,
        0.0,
        -0.04418519139289856,
        0.42154309153556824,
        -0.019499776884913445,
        0.0,
        -0.0047242604196071625,
        0.014962838031351566,
        0.11468581855297089,
        -0.06546635180711746,
        -0.05124328285455704,
        -0.4571585953235626,
        0.17099212110042572,
        -0.18011285364627838,
        0.0,
        0.1491566300392151,
        -0.00573704531416297,
        1.024444341659546,
        0.0,
        0.12851999700069427,
        0.0,
        -0.005636533722281456,
        -0.03804446756839752,
        0.0,
        -0.251065194606781,
        0.1471080780029297,
        -0.708425760269165,
        0.0,
        0.09725409001111984,
        -0.047953806817531586,
        0.0,
        0.0,
        -0.2109270989894867,
        0.3938257098197937,
        -0.030841507017612457
      ],
      "weights": [
        -13.51047134399414,
        1.7711937427520752,
        1.0111918449401855,
        -0.8019827008247375,
        -5.00309944152832,
        -4.834227561950684,
        -0.73637455701828,
        -2.0425233840942383,
        0.12251594662666321,
        -0.13713103532791138,
        -0.13499926030635834,
        0.09761039912700653,
        -0.17796733975410461,
        -0.05930104851722717,
        0.11641329526901245,
        -0.08531250804662704,
        0.14336015284061432,
        -0.07132292538881302,
        0.18059414625167847,
        -0.0355835035443306,
        0.052923280745744705,
        -0.12165473401546478,
        -0.07997199147939682,
        0.013274368830025196,
        -0.20563174784183502,
        0.21054889261722565,
        0.044703565537929535,
        -0.03056197799742222,
        -0.1504845768213272,
        0.08539941161870956,
        -0.031097564846277237,
        0.17128099501132965,
        -0.20846357941627502,
        -0.004135681316256523,
        -0.12661191821098328,
        0.024844050407409668,
        0.18735074996948242,
        -0.18988698720932007,
        -0.2623108923435211,
        -0.18711057305335999,
        -0.027401035651564598,
        0.0028913039714097977,
        -0.13701468706130981,
        -0.09998004138469696,
        -0.026025792583823204,
        0.24429941177368164,
        0.18407511711120605,
        0.13902930915355682,
        -0.24012114107608795,
        0.4460631310939789,
        -0.30302298069000244,
        0.06277935206890106,
        0.9006110429763794,
        -2.088101625442505,
        -0.15508170425891876,
        -0.13100676238536835,
        -0.1177932396531105,
        0.3322359621524811,
        0.28667306900024414,
        -0.09207729250192642,
        0.4048009514808655,
        -0.641802191734314,
        -0.19021210074424744,
        -0.22735725343227386,
        0.29468467831611633,
        0.06810684502124786,
        0.28774261474609375,
        -0.2562459409236908,
        0.281651109457016,
        -0.5182215571403503,
        -0.15368494391441345,
        0.14035384356975555,
        -1.2164950370788574,
        0.7674174904823303,
        1.3634305000305176,
        2.1858489513397217,
        0.6158493757247925,
        0.7930968403816223,
        -2.8136487007141113,
        -0.5253894925117493,
        0.06295174360275269,
        0.4052608013153076,
        -0.03917129337787628,
        0.03525468334555626,
        0.1992696076631546,
        -0.14257274568080902,
        -0.2265085130929947,
        0.036063339561223984,
        -0.06781534850597382,
        0.12415202707052231,
        -0.01736554317176342,
        -0.10873032361268997,
        -0.20290115475654602,
        -0.23719102144241333,
        0.677473247051239,
        -0.029608849436044693,
        5.06935977935791,
        5.363136291503906,
        1.909388542175293,
        0.2019588053226471,
        0.16311964392662048,
        -1.38284432888031,
        -0.10128573328256607,
        -0.8193856477737427,
        0.06664933264255524,
        -0.5855387449264526,
        0.34806397557258606,
        -0.20679354667663574,
        0.17489902675151825,
        0.10119855403900146,
        0.05561968311667442,
        -0.0030186374206095934,
        0.1806395947933197,
        -0.4963630735874176,
        -0.11140002310276031,
        0.1640702784061432,
        0.1251486986875534,
        0.13538283109664917,
        -0.024072660133242607,
        -0.02357514761388302,
        0.04627883434295654,
        0.08366027474403381,
        -0.1819104105234146,
        -0.1907963752746582,
        -0.20615120232105255,
        0.11824831366539001,
        0.1332065761089325,
        -0.01762738823890686,
        -0.17260676622390747,
        0.017725735902786255,
        -0.00047600269317626953,
        0.10188308358192444,
        -0.007637709379196167,
        -0.02247798442840576,
        -0.1604437530040741,
        0.167735755443573,
        -0.14286112785339355,
        -0.20132961869239807,
        -0.08592960238456726,
        -0.21949338912963867,
        -0.06870171427726746,
        -0.25186780095100403,
        -0.121231809258461,
        -0.0286368727684021,
        1.7810178995132446,
        -0.4436318576335907,
        -0.027257461100816727,
        1.0665266513824463,
        0.21994593739509583,
        -0.44153496623039246,
        -0.222219780087471,
        0.13357682526111603,
        0.7274518013000488,
        -0.04969212785363197,
        0.31718507409095764,
        -0.5923976898193359,
        -0.6039522290229797,
        0.5901147127151489,
        0.24725881218910217,
        -0.21255137026309967,
        -0.47646987438201904,
        -0.33765262365341187,
        -0.6118107438087463,
        0.7002560496330261,
        0.18623264133930206,
        0.012579265050590038,
        -0.18102897703647614,
        0.156608447432518,
        -9.278297424316406,
        1.0691637992858887,
        -0.7003233432769775,
        2.5320591926574707,
        -1.5835288763046265,
        -1.2445785999298096,
        0.008076697587966919,
        -0.05052940547466278,
        -0.08811218291521072,
        -0.3185569643974304,
        -0.2666705250740051,
        0.7775889039039612,
        0.26176124811172485,
        -0.37063220143318176,
        -0.05643099546432495,
        0.046760350465774536,
        -0.022034242749214172,
        0.702914834022522,
        0.3441689908504486,
        0.16179880499839783,
        -0.2591109275817871,
        -0.39759165048599243,
        0.042522866278886795,
        -0.03568435460329056,
        -4.192890167236328,
        3.2949414253234863,
        0.9152095317840576,
        1.771470546722412,
        -0.09571101516485214,
        -1.8759568929672241,
        0.01618468202650547,
        -0.49627965688705444,
        0.006556119304150343,
        -0.4811745882034302,
        0.21025367081165314,
        0.290752112865448,
        -0.1539314091205597,
        0.1631886214017868,
        0.12284407019615173,
        -0.31718575954437256,
        -0.36298778653144836,
        0.5657389163970947,
        0.17459681630134583,
        0.16458474099636078,
        -0.011858596466481686,
        -0.41444408893585205,
        -0.09912441670894623,
        0.19876550137996674,
        0.24901627004146576,
        0.13050825893878937,
        0.14529280364513397,
        -0.20229201018810272,
        0.10981924831867218,
        0.18648739159107208,
        0.018348123878240585,
        -0.08244545757770538,
        0.25131815671920776,
        -0.22349460422992706,
        0.1656578779220581,
        0.022317014634609222,
        -0.1675366908311844,
        -0.11925643682479858,
        0.24865303933620453,
        -0.049928415566682816,
        -0.051340147852897644,
        0.1185571476817131,
        -0.20523297786712646,
        -0.06561000645160675,
        -0.10698387771844864,
        -0.23157674074172974,
        0.018941570073366165,
        0.22288714349269867,
        1.290370225906372,
        -1.1531018018722534,
        -0.11145148426294327,
        0.8260719180107117,
        -0.23468059301376343,
        0.40152472257614136,
        0.2421608418226242,
        0.01412886194884777,
        0.05977847799658775,
        0.030899925157427788,
        0.11394411325454712,
        -0.23970212042331696,
        0.6740568280220032,
        -0.6556336283683777,
        0.16399641335010529,
        -0.13785843551158905,
        -0.09932125359773636,
        0.42961955070495605,
        0.21175771951675415,
        -0.5483672022819519,
        -0.5863645672798157,
        1.9150516986846924,
        -0.11847443133592606,
        0.11377143114805222,
        0.2369648665189743,
        -5.87563943862915,
        0.4799303114414215,
        -0.6141811609268188,
        3.021258592605591,
        3.3039488792419434,
        -0.0170376505702734,
        0.10402894020080566,
        0.009242525324225426,
        -0.09886346012353897,
        0.3567102253437042,
        0.06492581218481064,
        -0.1335657685995102,
        -0.25364765524864197,
        -0.2697692811489105,
        0.03148499131202698,
        0.08538059890270233,
        0.08008858561515808,
        -0.04000164195895195,
        -0.023826150223612785,
        -0.058172959834337234,
        -0.010278763249516487,
        -0.2811530530452728,
        -0.21268075704574585,
        -1.089660406112671,
        2.06071400642395,
        -0.9211181998252869,
        -1.246047854423523,
        0.1422974020242691,
        -0.4203434884548187,
        0.39412564039230347,
        -0.487656831741333,
        0.48978719115257263,
        -0.26606225967407227,
        0.3530423641204834,
        0.1733628660440445,
        -0.8168764710426331,
        0.18066242337226868,
        0.12029311805963516,
        0.11795788258314133,
        -0.3592846393585205,
        -1.143553376197815,
        0.30312368273735046,
        -0.08668261021375656,
        0.6332676410675049,
        0.6561812162399292,
        -0.08249176293611526,
        -0.09572136402130127,
        0.17457285523414612,
        -0.1264529526233673,
        0.028771668672561646,
        -0.10708971321582794,
        -0.1231229305267334,
        0.221186101436615,
        0.07044678926467896,
        -0.19827887415885925,
        -0.04553362727165222,
        -0.09224388003349304,
        0.014050453901290894,
        0.07565796375274658,
        -0.10141666233539581,
        -0.16244332492351532,
        0.052735716104507446,
        -0.16370877623558044,
        -0.054466232657432556,
        -0.17167462408542633,
        -0.07110543549060822,
        -0.22988076508045197,
        -0.16890104115009308,
        0.17309683561325073,
        0.15086489915847778,
        -0.22207149863243103,
        3.4389538764953613,
        -2.806910991668701,
        0.6529557108879089,
        3.44695782661438,
        0.3655253052711487,
        -0.6395633816719055,
        -0.027209777384996414,
        -0.25818920135498047,
        -0.2578636109828949,
        0.7461123466491699,
        -0.364423930644989,
        -0.40536820888519287,
        0.19634073972702026,
        0.1159461960196495,
        0.01941584423184395,
        -0.10237082839012146,
        0.16863109171390533,
        0.45578429102897644,
        0.3838990032672882,
        -0.6493978500366211,
        -0.1965896487236023,
        0.0416131354868412,
        -0.019300948828458786,
        0.07245023548603058,
        0.10207539796829224,
        -0.08745405077934265,
        0.024470210075378418,
        -0.019684970378875732,
        0.15416473150253296,
        0.06281706690788269,
        -0.23689067363739014,
        -0.18164445459842682,
        0.1052921712398529,
        0.11216616630554199,
        -0.09994962811470032,
        -0.033237144351005554,
        -0.25420573353767395,
        -0.22722981870174408,
        -0.19770294427871704,
        0.2447153627872467,
        0.0012435317039489746,
        -0.03835655748844147,
        0.20477843284606934,
        -0.1974070519208908,
        0.01231411099433899,
        -0.1362130492925644,
        -0.2070215344429016,
        0.21478211879730225,
        0.33552566170692444,
        -0.32812613248825073,
        -2.0602567195892334,
        -0.3320639431476593,
        0.3107069134712219,
        2.5539190769195557,
        0.0736016184091568,
        0.13918457925319672,
        0.0035558112431317568,
        -0.0510050505399704,
        0.3497040271759033,
        -0.45924410223960876,
        -0.08565354347229004,
        -0.23766666650772095,
        -0.12499292939901352,
        -0.271092027425766,
        -0.12083646655082703,
        -0.5096601843833923,
        -0.07928547263145447,
        0.22893361747264862,
        0.42893049120903015,
        0.2695854604244232,
        0.06977064907550812,
        -0.22758810222148895,
        0.1546175479888916,
        0.04575687646865845,
        -0.2304428666830063,
        0.207723468542099,
        -0.07263080775737762,
        0.12086480855941772,
        0.12435838580131531,
        0.2608988583087921,
        -0.24617788195610046,
        -0.22679895162582397,
        -0.09421008825302124,
        -0.2500135898590088,
        0.05145576596260071,
        -0.16833999752998352,
        0.02380549907684326,
        -0.19657477736473083,
        -0.05234532058238983,
        0.10115617513656616,
        0.015610873699188232,
        0.00613442063331604,
        -0.08650827407836914,
        -0.017267242074012756,
        0.11546364426612854,
        0.20327147841453552,
        -0.1616828739643097,
        -0.24532872438430786,
        0.14214763045310974,
        0.1390170156955719,
        0.08287027478218079,
        -0.17388100922107697,
        0.04486164450645447,
        -0.11864405870437622,
        -0.21464645862579346,
        -0.09322614967823029,
        0.11425930261611938,
        -0.03509396314620972,
        0.21506041288375854,
        0.20291301608085632,
        -0.07536119222640991,
        -0.18939439952373505,
        -0.15256644785404205,
        0.006068378686904907,
        -0.0763268917798996,
        0.02786266803741455,
        -0.20728948712348938,
        -0.183406263589859,
        -0.17519065737724304,
        0.1338941752910614,
        0.64866703748703,
        -2.7506513595581055,
        0.9695178270339966,
        3.169677972793579,
        -0.14926284551620483,
        -1.7979965209960938,
        -0.06014355272054672,
        0.0745798870921135,
        -0.05046902969479561,
        -0.3680367171764374,
        0.34245631098747253,
        -0.11322902888059616,
        -0.09839480370283127,
        0.27022093534469604,
        -0.09961177408695221,
        0.07791260629892349,
        0.007336254697293043,
        0.3056897819042206,
        -0.2393273413181305,
        0.056210651993751526,
        0.1824379414319992,
        -0.10520805418491364,
        0.07257399708032608,
        -0.06230410933494568,
        2.1568245887756348,
        3.2576849460601807,
        0.8974022269248962,
        2.700441598892212,
        0.18481382727622986,
        0.23531118035316467,
        -2.9757094383239746,
        -0.46438145637512207,
        0.04961287975311279,
        -0.6175608038902283,
        -0.2765461802482605,
        -0.14017795026302338,
        -0.01760413683950901,
        -0.1145404577255249,
        0.5055532455444336,
        0.14404670894145966,
        0.1689324527978897,
        -0.037887945771217346,
        0.06924512982368469,
        -0.08705883473157883,
        0.20195111632347107,
        0.0513080395758152,
        0.04805252328515053,
        -0.13633975386619568,
        0.020902978256344795,
        0.7978276014328003,
        -0.7643430829048157,
        -0.5179657340049744,
        0.30222901701927185,
        0.044845934957265854,
        -0.07753782719373703,
        -0.20205619931221008,
        0.294747918844223,
        0.5500814318656921,
        0.4710543155670166,
        0.24527138471603394,
        0.1386786252260208,
        0.3649134337902069,
        -0.27799415588378906,
        -0.17428123950958252,
        -0.17639325559139252,
        -0.3849438726902008,
        -0.2901650369167328,
        -0.251302570104599,
        -0.3108406960964203,
        -0.017406955361366272,
        -0.17999890446662903,
        -0.04779735207557678,
        -0.1285243034362793,
        0.13506412506103516,
        0.20853570103645325,
        -0.23991236090660095,
        -0.1119794100522995,
        -0.11679844558238983,
        0.22795996069908142,
        -0.0863594114780426,
        0.07809630036354065,
        0.0924176275730133,
        -0.10549841821193695,
        0.08048632740974426,
        -0.18876923620700836,
        0.19931617379188538,
        -0.09849366545677185,
        -0.1594357192516327,
        0.029418736696243286,
        0.014611572027206421,
        0.004659861326217651,
        -0.0338456928730011,
        -0.17954209446907043,
        -0.09824071824550629,
        -0.01851937174797058,
        0.06553381681442261,
        -0.15339145064353943,
        -0.07883763313293457,
        0.20757229626178741,
        -0.14038464426994324,
        0.21261143684387207,
        -0.19787614047527313,
        0.20238037407398224,
        0.2448548525571823,
        -0.2686327397823334,
        0.1869489699602127,
        -0.11935272812843323,
        -0.020236220210790634,
        0.043594181537628174,
        0.09497680515050888,
        0.004887114744633436,
        -0.06996732950210571,
        -0.25725361704826355,
        -0.09154698997735977,
        -0.20625782012939453,
        -0.2291911542415619,
        0.03844631090760231,
        0.14026278257369995,
        -0.016620615497231483,
        0.055047959089279175,
        6.55479621887207,
        0.3380489647388458,
        1.9075603485107422,
        0.5093090534210205,
        1.6876096725463867,
        -0.6228082180023193,
        -0.7625032663345337,
        -1.1311752796173096,
        0.2554830014705658,
        -0.192792609333992,
        -0.3539717495441437,
        0.13403604924678802,
        -0.040805570781230927,
        0.19387230277061462,
        0.44854310154914856,
        -0.10328879207372665,
        0.280918687582016,
        -0.10780197381973267,
        -0.33738839626312256,
        0.16446401178836823,
        -0.07074064016342163,
        0.36705511808395386,
        -0.48493146896362305,
        0.43294796347618103,
        -3.011089324951172,
        1.5141654014587402,
        -0.3989431858062744,
        1.091557264328003,
        0.3999122977256775,
        -1.4888602495193481,
        -0.22280731797218323,
        0.02679700218141079,
        -0.6046222448348999,
        0.4709620177745819,
        -0.06819984316825867,
        0.5692732930183411,
        -0.966265082359314,
        0.2517179250717163,
        0.18338464200496674,
        0.1401893049478531,
        0.4106515049934387,
        0.009184249676764011,
        0.17227916419506073,
        -0.5252501368522644,
        0.7227878570556641,
        -0.07536177337169647,
        -0.13857120275497437,
        -0.10261823236942291,
        2.730248212814331,
        1.6064451932907104,
        1.0677202939987183,
        -1.310210943222046,
        -0.1253116875886917,
        -0.39018934965133667,
        -1.7602390050888062,
        -0.23408497869968414,
        -0.20442184805870056,
        1.1972367763519287,
        -0.1877150684595108,
        -0.6339307427406311,
        0.06310800462961197,
        0.047274746000766754,
        -0.25185251235961914,
        0.11917220056056976,
        -0.11805504560470581,
        0.45111116766929626,
        0.26419076323509216,
        -0.3109561502933502,
        -0.26463383436203003,
        -0.010133233852684498,
        0.07006505876779556,
        -0.06943034380674362,
        0.22712063789367676,
        -0.05379413068294525,
        0.1590525507926941,
        0.09276202321052551,
        0.039391934871673584,
        0.174997478723526,
        0.20419254899024963,
        -0.12103353440761566,
        0.05798420310020447,
        -0.12887822091579437,
        -0.17750000953674316,
        -0.10128623247146606,
        -0.21684518456459045,
        -0.23134787380695343,
        -0.06987720727920532,
        -0.0860876739025116,
        0.1401515007019043,
        0.1492026150226593,
        -0.11365699768066406,
        -0.255300909280777,
        0.25929269194602966,
        -0.14999456703662872,
        -0.2011396735906601,
        0.06871691346168518,
        0.13108137249946594,
        0.11628497391939163,
        -0.062310945242643356,
        -0.07243365794420242,
        -0.12493796646595001,
        -0.1944376528263092,
        0.21885575354099274,
        -0.23899096250534058,
        0.08109300583600998,
        -0.14252324402332306,
        -0.2295953333377838,
        -0.09069401770830154,
        0.16736076772212982,
        0.16668201982975006,
        -0.2598841190338135,
        0.17313145101070404,
        0.20926016569137573,
        -0.13243231177330017,
        -0.15302017331123352,
        -0.22705568373203278,
        0.023057593032717705,
        0.08945728093385696,
        0.14976121485233307,
        -0.21470323204994202,
        -0.570042610168457,
        0.7650150060653687,
        0.25497007369995117,
        0.5098667144775391,
        -0.9104605913162231,
        -0.13266660273075104,
        0.2962380051612854,
        -0.10046370327472687,
        -0.6656323671340942,
        1.1499825716018677,
        -0.26299333572387695,
        -0.21087822318077087,
        -0.09836570918560028,
        0.3908592760562897,
        -0.3618539571762085,
        -0.1655125617980957,
        0.5659200549125671,
        -1.0397590398788452,
        0.14320294559001923,
        0.047631893306970596,
        0.03373849764466286,
        0.005010631866753101,
        0.2786611318588257,
        0.13171516358852386,
        0.08207720518112183,
        -0.11940699815750122,
        -0.11611682176589966,
        -0.07685606181621552,
        0.07908293604850769,
        -0.030757904052734375,
        0.038716137409210205,
        0.2535998523235321,
        0.17732945084571838,
        -0.15189403295516968,
        -0.22704237699508667,
        -0.01173277199268341,
        -0.046699538826942444,
        -0.24675138294696808,
        -0.08889195322990417,
        -0.04405209422111511,
        0.24166032671928406,
        -0.1867445707321167,
        -0.23522865772247314,
        -0.23362304270267487,
        -0.07187989354133606,
        0.00782427191734314,
        -0.07731986045837402,
        0.0819440484046936,
        7.0351152420043945,
        -1.4754637479782104,
        0.8684304356575012,
        0.7530428767204285,
        0.9096586108207703,
        0.7632120847702026,
        0.3613775372505188,
        -0.753821611404419,
        0.09297005832195282,
        0.576683521270752,
        0.18030022084712982,
        -0.12038058042526245,
        -0.20780815184116364,
        -0.31514251232147217,
        -0.012065716087818146,
        0.037070173770189285,
        -0.5586450695991516,
        0.5258282423019409,
        0.24153663218021393,
        0.24560703337192535,
        -0.25914114713668823,
        -0.263372540473938,
        -0.005311362911015749,
        0.008829282596707344,
        -6.729605674743652,
        1.6558588743209839,
        1.1829028129577637,
        -0.2473229616880417,
        -0.6464365124702454,
        -0.9031586050987244,
        -0.6918001770973206,
        0.35977691411972046,
        0.35957983136177063,
        0.17240305244922638,
        0.5969303846359253,
        -0.20173786580562592,
        0.23351764678955078,
        0.47191277146339417,
        -0.24109598994255066,
        0.31549447774887085,
        0.2048088163137436,
        -0.5997817516326904,
        -0.04896155372262001,
        -0.022981980815529823,
        -0.44012823700904846,
        0.060644399374723434,
        -0.08804450929164886,
        0.09514417499303818,
        -0.1422564834356308,
        -0.04713042080402374,
        0.04823638126254082,
        0.31174495816230774,
        0.3423900902271271,
        0.05011798441410065,
        0.1410410851240158,
        0.022359078750014305,
        -0.14267878234386444,
        0.07805361598730087,
        -0.0035493045579642057,
        0.04082786291837692,
        -0.14516152441501617,
        -0.21824225783348083,
        -0.16895151138305664,
        0.13280464708805084,
        -0.14022596180438995,
        -0.25515440106391907,
        0.165347620844841,
        -0.19402454793453217,
        0.07675707340240479,
        0.23605865240097046,
        0.1550779491662979,
        -0.12300979346036911,
        -0.20292240381240845,
        -0.04420866072177887,
        0.006383001804351807,
        0.09170868992805481,
        0.17260202765464783,
        0.1211012601852417,
        -0.23174990713596344,
        0.1493997871875763,
        0.055503278970718384,
        -0.13824400305747986,
        -0.16447308659553528,
        0.19108125567436218,
        -0.1478022038936615,
        -0.09453679621219635,
        0.01340910792350769,
        -0.14178094267845154,
        -0.22666940093040466,
        0.15602457523345947,
        -0.005703181028366089,
        -0.12513470649719238,
        0.008597493171691895,
        -0.026099979877471924,
        0.05595859885215759,
        0.02777668833732605,
        0.12762796878814697,
        0.26776811480522156,
        0.19316647946834564,
        -0.26380690932273865,
        -0.24735209345817566,
        -0.07208177447319031,
        -0.23286524415016174,
        -0.07069036364555359,
        0.06173672154545784,
        -0.18461953103542328,
        0.013325516134500504,
        -0.13465166091918945,
        0.09861966222524643,
        -0.014396945014595985,
        -0.14639322459697723,
        0.16274404525756836,
        -0.2291741818189621,
        -0.11572735011577606,
        -0.1585952639579773,
        -0.022932397201657295,
        0.06053617596626282,
        -0.12134845554828644,
        -0.021348552778363228,
        0.19283929467201233,
        -2.5244948863983154,
        4.939453125,
        0.5782706141471863,
        3.1913819313049316,
        -0.524856448173523,
        -0.0416574664413929,
        -1.2548036575317383,
        -0.008747539483010769,
        -0.07245009392499924,
        -0.3651282787322998,
        0.06223677098751068,
        -0.3196699619293213,
        0.1627068966627121,
        0.17615000903606415,
        0.15241417288780212,
        -0.08712005615234375,
        0.6272205114364624,
        -0.16854526102542877,
        -0.12250475585460663,
        -0.15554414689540863,
        -0.24819007515907288,
        0.06058945506811142,
        0.2277067005634308,
        0.07889561355113983,
        3.4771950244903564,
        -0.993403434753418,
        -0.4145175516605377,
        1.0076473951339722,
        1.2360535860061646,
        -0.25297707319259644,
        -0.791822075843811,
        -0.0864461213350296,
        0.04577603563666344,
        0.6063892841339111,
        0.5450647473335266,
        -1.268442153930664,
        -0.1064857691526413,
        -0.36311155557632446,
        0.3366187810897827,
        -0.07115185260772705,
        -0.11073974519968033,
        0.24850091338157654,
        -0.4788986146450043,
        0.5063190460205078,
        0.24485044181346893,
        0.20597968995571136,
        -0.1740010678768158,
        0.07428712397813797,
        0.14224745333194733,
        -1.0691413879394531,
        0.20317265391349792,
        -0.3388264775276184,
        0.03152768313884735,
        -0.3336832821369171,
        -0.41935446858406067,
        -0.13383473455905914,
        0.03587111830711365,
        0.518057107925415,
        0.5862184166908264,
        -0.7190033197402954,
        -0.1440078467130661,
        -0.10937535762786865,
        -0.4756363332271576,
        -0.4315408766269684,
        0.08771181851625443,
        -0.07855235040187836,
        0.7894065380096436,
        -0.1001238152384758,
        0.048530757427215576,
        -0.2730496823787689,
        0.30871090292930603,
        -0.3324168622493744,
        0.9157148599624634,
        -1.4885309934616089,
        -0.8841226100921631,
        -0.9548255205154419,
        -0.37525731325149536,
        -0.028674978762865067,
        0.8115136027336121,
        0.38528934121131897,
        -0.7592164874076843,
        0.23260973393917084,
        0.1272832304239273,
        0.1728421449661255,
        0.1805223524570465,
        0.5080589652061462,
        0.48944127559661865,
        0.15561285614967346,
        -0.481722354888916,
        -0.49362829327583313,
        -0.238820418715477,
        0.1412000060081482,
        -0.36993086338043213,
        -0.06619749963283539,
        -0.16097211837768555,
        0.3410249352455139,
        4.876136302947998,
        -1.3124486207962036,
        -0.762042760848999,
        -2.000431537628174,
        0.6598007678985596,
        1.9690252542495728,
        0.23471471667289734,
        -0.08434733003377914,
        -0.32081833481788635,
        -0.3708108067512512,
        0.5055227279663086,
        0.28217706084251404,
        -0.3070531189441681,
        0.27520105242729187,
        -0.2552654445171356,
        0.05928715690970421,
        0.10646874457597733,
        0.8606764674186707,
        -0.19886043667793274,
        -0.2976911664009094,
        0.3842795193195343,
        -0.21592198312282562,
        0.19265371561050415,
        -0.04034515470266342,
        -1.3779336214065552,
        4.0849785804748535,
        -0.05068796128034592,
        -0.32856860756874084,
        -1.670007586479187,
        -1.8278082609176636,
        0.12114139646291733,
        0.03100605122745037,
        0.00535857118666172,
        0.714388370513916,
        0.10412298887968063,
        -0.16040381789207458,
        -0.14189580082893372,
        -0.451919287443161,
        -0.06077193841338158,
        0.08667267858982086,
        -0.5773609280586243,
        0.4299197793006897,
        -0.05477793887257576,
        -0.012446644715964794,
        -0.11031930893659592,
        0.02125956490635872,
        0.04689718410372734,
        -0.0629095733165741,
        -6.520167350769043,
        4.119748592376709,
        -0.1346767097711563,
        -1.5689687728881836,
        -0.9506007432937622,
        -0.5113125443458557,
        -0.06753680109977722,
        0.19663770496845245,
        -0.02703135833144188,
        -0.1227245107293129,
        0.07449677586555481,
        -0.7338881492614746,
        0.0920984074473381,
        0.5479784607887268,
        0.09162820875644684,
        -0.05574125424027443,
        0.008072838187217712,
        0.8253430724143982,
        -0.033610373735427856,
        -0.007424327079206705,
        0.0027119689621031284,
        -0.3031981587409973,
        -0.06086423993110657,
        0.03449487313628197,
        -0.01545754075050354,
        -0.18884581327438354,
        0.03298643231391907,
        0.010165005922317505,
        0.18009623885154724,
        0.05879276990890503,
        0.09267625212669373,
        -0.2543509602546692,
        -0.10986392199993134,
        -0.19396963715553284,
        0.15688782930374146,
        -0.0031110644340515137,
        -0.06092295050621033,
        0.07462054491043091,
        0.07015436887741089,
        -0.03349737823009491,
        -0.2491510659456253,
        -0.15549859404563904,
        -0.23122727870941162,
        -0.11282022297382355,
        0.044931501150131226,
        -0.2131047248840332,
        -0.1101905107498169,
        0.033311665058135986,
        -0.23025399446487427,
        1.468794345855713,
        0.4641464054584503,
        0.6546401381492615,
        -1.2237893342971802,
        -1.3383560180664062,
        -0.5061991214752197,
        0.47416016459465027,
        -0.33928927779197693,
        -0.541538655757904,
        -0.17567969858646393,
        0.037206392735242844,
        0.36957070231437683,
        0.3219699263572693,
        0.2702387869358063,
        -0.4317814111709595,
        0.07755597680807114,
        -0.6054569482803345,
        -0.23413026332855225,
        0.23484976589679718,
        -0.2331627607345581,
        0.568997323513031,
        -0.1952442228794098,
        -0.42281943559646606,
        -0.20834675431251526,
        0.026170741766691208,
        0.15209518373012543,
        -0.058121368288993835,
        0.24412116408348083,
        0.21284696459770203,
        -0.02960897982120514,
        -0.21709489822387695,
        -0.006670353002846241,
        -0.21596558392047882,
        -0.1831263303756714,
        -0.004028885159641504,
        0.11724145710468292,
        0.2105018049478531,
        0.010474592447280884,
        0.05973082780838013,
        -0.01252643670886755,
        -0.178310826420784,
        -0.1486264169216156,
        0.2351585328578949,
        -0.029625890776515007,
        -0.04413227736949921,
        -0.25483188033103943,
        -0.1466408222913742,
        -7.312283039093018,
        0.7212100625038147,
        0.506656289100647,
        -0.6468820571899414,
        0.3564358651638031,
        -0.3157688081264496,
        -0.8367027640342712,
        -0.4776880741119385,
        0.47116735577583313,
        0.2710254490375519,
        1.0055758953094482,
        -0.04141930490732193,
        -0.8230551481246948,
        -0.7301821708679199,
        -0.0635402724146843,
        0.021413423120975494,
        0.0017901750979945064,
        0.4795858860015869,
        0.386881947517395,
        0.8039222955703735,
        -0.49296221137046814,
        -0.5678961873054504,
        0.04568887874484062,
        0.01402270793914795,
        -0.10478241741657257,
        -0.014739006757736206,
        -0.07463206350803375,
        0.09605395793914795,
        -0.14853574335575104,
        -0.20261716842651367,
        0.23410284519195557,
        0.06559962034225464,
        0.16975760459899902,
        -0.2090161144733429,
        -0.05674009025096893,
        -0.09706217050552368,
        -0.1341591328382492,
        0.2019730806350708,
        0.11322775483131409,
        0.1176919937133789,
        -0.21499913930892944,
        -0.15941691398620605,
        -0.06084968149662018,
        -0.026165351271629333,
        -0.08371426165103912,
        0.07798543572425842,
        -0.21944178640842438,
        0.05456230044364929,
        -0.2792036831378937,
        0.8929027915000916,
        -0.48244863748550415,
        1.619889736175537,
        -1.5224804878234863,
        -1.400776743888855,
        -0.09279455244541168,
        0.24331995844841003,
        0.05962798371911049,
        0.48721423745155334,
        -0.2782852053642273,
        0.16768251359462738,
        0.08055049180984497,
        -0.1094745621085167,
        -0.31485339999198914,
        0.24888876080513,
        -0.3945227861404419,
        0.024348381906747818,
        -0.46287667751312256,
        0.5286169052124023,
        0.028387391939759254,
        -0.007400588132441044,
        -0.33879557251930237,
        -0.24994580447673798,
        -0.08705306053161621,
        0.17780974507331848,
        -0.2285083532333374,
        -0.248137429356575,
        0.10431700944900513,
        0.12390106916427612,
        0.2054784893989563,
        0.18628159165382385,
        -0.13338106870651245,
        0.22815287113189697,
        -0.23760461807250977,
        0.17897042632102966,
        -0.20046845078468323,
        -0.19226399064064026,
        0.0650513768196106,
        -0.14864158630371094,
        -0.18932771682739258,
        -0.13780415058135986,
        -0.16514500975608826,
        0.014352530241012573,
        0.19997245073318481,
        -0.10804712772369385,
        0.17159804701805115,
        -0.11660464107990265,
        0.08005176484584808,
        0.06372570246458054,
        0.20136746764183044,
        0.17576321959495544,
        0.119873046875,
        0.15288908779621124,
        -0.07427369803190231,
        0.15990634262561798,
        0.057809606194496155,
        -0.1558225154876709,
        -0.20109321177005768,
        0.11889705806970596,
        -0.1276514232158661,
        -0.017561769112944603,
        -0.06758316606283188,
        0.23344604671001434,
        -0.031761374324560165,
        0.000443693163106218,
        0.061045918613672256,
        -0.16900822520256042,
        -0.1500643789768219,
        -0.2392992228269577,
        0.23473618924617767,
        0.053623028099536896,
        -2.803563356399536,
        2.1130123138427734,
        -0.42123156785964966,
        1.5025197267532349,
        -0.5222958326339722,
        -1.6197223663330078,
        -0.05822151526808739,
        -0.18336696922779083,
        -0.25133010745048523,
        0.17057964205741882,
        0.9711573123931885,
        0.42286765575408936,
        -0.18067921698093414,
        -0.8671029210090637,
        -0.1527758687734604,
        -0.0854906216263771,
        0.16473083198070526,
        0.10457247495651245,
        -0.7203116416931152,
        -0.16480834782123566,
        0.14651715755462646,
        0.47716981172561646,
        0.09843873977661133,
        0.06957954913377762,
        0.036554038524627686,
        0.1632654070854187,
        -0.2150947004556656,
        0.2117207944393158,
        -0.17832060158252716,
        0.06667736172676086,
        -0.04237319529056549,
        -0.22922927141189575,
        -0.1481909155845642,
        -0.15644854307174683,
        -0.23434221744537354,
        0.18258929252624512,
        -0.22160956263542175,
        0.23937764763832092,
        -0.14482876658439636,
        -0.132814422249794,
        -0.034771353006362915,
        0.11572057008743286,
        -0.19202691316604614,
        0.22931262850761414,
        -0.06127972900867462,
        -0.01475687325000763,
        -0.20437712967395782,
        -0.24205026030540466,
        0.0702475756406784,
        -0.29333409667015076,
        -0.5369120240211487,
        0.562432050704956,
        -0.07801547646522522,
        1.1635842323303223,
        -0.9902093410491943,
        0.05349549651145935,
        0.2634950876235962,
        0.36061471700668335,
        0.3231019079685211,
        0.3167964220046997,
        -0.3578238785266876,
        0.09661824256181717,
        -0.1098102405667305,
        -0.002010513562709093,
        -0.3246474266052246,
        0.3157377243041992,
        -0.3912489712238312,
        0.047981057316064835,
        -0.47149908542633057,
        0.13403943181037903,
        0.43079838156700134,
        -0.3023338317871094,
        2.043339490890503,
        -3.671565294265747,
        -0.4278716742992401,
        0.9309254884719849,
        -1.3079694509506226,
        0.269863486289978,
        -0.05348094552755356,
        0.16572950780391693,
        0.15231385827064514,
        -1.1330106258392334,
        -0.2893746793270111,
        0.4935794472694397,
        0.4057188630104065,
        0.13243144750595093,
        0.029725436121225357,
        -0.019676679745316505,
        0.3366546928882599,
        0.09211889654397964,
        0.48289579153060913,
        -0.38406577706336975,
        -0.30080628395080566,
        -0.05847064033150673,
        -0.0028667517472058535,
        0.014812269248068333,
        -1.2337864637374878,
        -2.774609327316284,
        1.2376673221588135,
        -0.6388027667999268,
        0.33081188797950745,
        0.4457133710384369,
        0.28500109910964966,
        -0.3547598719596863,
        -0.30437541007995605,
        0.8848199248313904,
        -0.19379794597625732,
        -0.22422318160533905,
        0.0619032047688961,
        -0.23373804986476898,
        0.11221910268068314,
        -0.19867810606956482,
        0.027057059109210968,
        0.019030626863241196,
        0.3917388916015625,
        1.0842230319976807,
        0.09559649229049683,
        -0.4706645607948303,
        -0.06323546916246414,
        0.1375502645969391,
        0.1618463695049286,
        0.2033626139163971,
        -0.20214739441871643,
        0.2151481807231903,
        0.18390405178070068,
        -0.016193270683288574,
        -0.25789546966552734,
        -0.058409154415130615,
        -0.1565348207950592,
        -0.026460319757461548,
        0.07613900303840637,
        -0.11477689445018768,
        -0.11977972090244293,
        -0.18211722373962402,
        -0.1309787631034851,
        -0.15920618176460266,
        -0.25076353549957275,
        0.10344934463500977,
        -0.11125749349594116,
        0.16522029042243958,
        0.19007322192192078,
        -0.10008010268211365,
        -0.07036809623241425,
        0.15890169143676758,
        -3.5480592250823975,
        -1.5587422847747803,
        -0.6443288922309875,
        -0.41262930631637573,
        0.8342540860176086,
        1.831598162651062,
        1.2208582162857056,
        0.1018715649843216,
        0.18556196987628937,
        0.27373403310775757,
        0.46343639492988586,
        0.21991610527038574,
        -0.06019885092973709,
        -0.03747329115867615,
        0.01309160701930523,
        0.08065558224916458,
        0.24424825608730316,
        -0.6660875678062439,
        -0.31464335322380066,
        -0.13837124407291412,
        0.3076491355895996,
        -0.050646908581256866,
        0.18885378539562225,
        -0.06906453520059586,
        -1.6877152919769287,
        0.5514189600944519,
        0.14531172811985016,
        0.5310406684875488,
        -0.20591625571250916,
        -0.6001694798469543,
        -0.00450783921405673,
        0.0036721997894346714,
        1.059502363204956,
        -0.042307596653699875,
        -0.7107554078102112,
        0.25061559677124023,
        -0.3629724383354187,
        0.114197738468647,
        -0.3046589493751526,
        0.06280104070901871,
        -0.8312365412712097,
        0.20265468955039978,
        0.5122616291046143,
        -0.2698412835597992,
        0.3176438808441162,
        0.03390168026089668,
        0.21517367660999298,
        -0.03733448311686516,
        -0.23068392276763916,
        -0.17060184478759766,
        -0.027719363570213318,
        -0.1578342765569687,
        0.1030971109867096,
        0.08949929475784302,
        -0.04488542675971985,
        -0.07495827972888947,
        0.10139650106430054,
        -0.08341860771179199,
        -0.1585758626461029,
        -0.06779676675796509,
        0.06176257133483887,
        0.0920504629611969,
        0.08514612913131714,
        -0.13223899900913239,
        -0.028134658932685852,
        -0.05879022181034088,
        0.25995442271232605,
        -0.2538807690143585,
        -0.23120257258415222,
        -0.11302797496318817,
        0.1678614318370819,
        -0.027593597769737244,
        0.1853206753730774,
        -0.08570168912410736,
        -0.2496175318956375,
        0.1737484633922577,
        -0.16193999350070953,
        -0.02951715886592865,
        0.2115156650543213,
        0.08217239379882812,
        0.003763556480407715,
        -0.25385990738868713,
        -0.09126274287700653,
        -0.01683911681175232,
        -0.24590806663036346,
        0.10396164655685425,
        -0.0030862390995025635,
        -0.19543513655662537,
        0.24130657315254211,
        0.2526730000972748,
        -0.09115523099899292,
        -0.19620272517204285,
        0.03199034929275513,
        -0.09240537881851196,
        0.07268595695495605,
        -0.11706563830375671,
        -0.44644656777381897,
        4.919192790985107,
        0.7816708087921143,
        -1.034744143486023,
        -0.6585346460342407,
        -0.7357994318008423,
        -0.173822820186615,
        -0.3161017596721649,
        -0.2822723984718323,
        -0.012874414213001728,
        -0.05403129383921623,
        0.2651108503341675,
        0.20586377382278442,
        -0.019668059423565865,
        -0.2840094268321991,
        0.07172166556119919,
        0.1661568284034729,
        0.31961554288864136,
        0.23131166398525238,
        -0.19181296229362488,
        -0.1277386099100113,
        -0.08663316071033478,
        0.19980604946613312,
        -0.06820686161518097,
        -0.09866291284561157,
        -1.0624022483825684,
        -0.4176769554615021,
        -0.14461638033390045,
        0.7103284001350403,
        0.516677737236023,
        -0.22241199016571045,
        0.13383683562278748,
        -0.8698057532310486,
        -0.6704308986663818,
        -0.8673332929611206,
        0.0010411083931103349,
        -0.13860206305980682,
        0.39603519439697266,
        -0.06011790782213211,
        0.1940796971321106,
        -0.12948612868785858,
        0.38846635818481445,
        -0.20096541941165924,
        0.4270390570163727,
        -0.13213489949703217,
        0.362720787525177,
        0.03507635369896889,
        -0.09999646991491318,
        1.4212098121643066,
        -2.8280372619628906,
        0.9080919027328491,
        0.8542365431785583,
        1.538750410079956,
        1.3292171955108643,
        0.027804655954241753,
        -0.6618900299072266,
        -0.20383796095848083,
        0.04698226600885391,
        0.269795686006546,
        0.015640486031770706,
        0.00147351308260113,
        -0.18674124777317047,
        -0.009331116452813148,
        -0.2070598602294922,
        -0.5630374550819397,
        0.4813428819179535,
        0.42310166358947754,
        0.05074238404631615,
        -0.1486646682024002,
        -0.20794010162353516,
        -0.007593657821416855,
        0.033611614257097244
      ]
    },
    {
      "architecture": "normalization",
      "bias": [
        -0.024622974917292595,
        4.7751022066222504e-05,
        -0.02404043637216091,
        -0.03766997903585434,
        -0.07711553573608398,
        0.00012230710126459599,
        -0.4802441895008087,
        -0.051052674651145935,
        -0.12635478377342224,
        0.0023288396187126637,
        -0.9669724702835083,
        -0.003533064853399992,
        -0.2047787308692932,
        1.3532856428355444e-05,
        -0.051122065633535385,
        8.171969966497272e-05,
        -0.060075461864471436,
        2.1663036022800952e-05,
        -0.00012648559641093016,
        -0.03548644483089447,
        -0.024307070299983025,
        -0.04613145813345909,
        -1.5622390492353588e-06,
        -0.008664939552545547,
        -0.02230510488152504,
        -0.08152453601360321,
        -0.036382220685482025,
        -5.78518483962398e-05,
        0.0001704727328615263,
        -0.07802314311265945,
        -4.311895463615656e-05,
        -0.021423477679491043,
        -0.4983998239040375,
        4.414607974467799e-05,
        6.916088750585914e-05,
        -0.00010081745858769864,
        -0.01797058992087841,
        -0.2947453558444977,
        -0.12270349264144897,
        -0.023498304188251495,
        -0.06952735036611557,
        -0.025510866194963455,
        -0.04785865545272827,
        -7.78228131821379e-05,
        -0.0821237862110138,
        0.0020108073949813843,
        -1.1679781675338745,
        -4.499682108871639e-05,
        -0.07381100952625275,
        -0.0041231936775147915,
        2.20710935536772e-05,
        -0.07924812287092209,
        0.00019099662313237786,
        -0.021319488063454628,
        -0.08509791642427444,
        -0.11952682584524155,
        -1.4938569620426279e-05,
        -0.20340292155742645,
        -0.11656641960144043,
        2.6550367692834698e-05,
        0.0001688403863226995,
        -0.04245774447917938,
        -0.0798046886920929,
        -0.049528803676366806
      ],
      "weights": [
        5.323353290557861,
        31.16595458984375,
        10.799224853515625,
        20.92377281188965,
        22.746116638183594,
        31.622774124145508,
        19.874114990234375,
        22.99374008178711,
        22.543760299682617,
        31.33357810974121,
        13.985547065734863,
        19.449195861816406,
        12.546931266784668,
        31.622774124145508,
        37.511451721191406,
        31.622774124145508,
        8.467147827148438,
        31.622774124145508,
        31.622774124145508,
        65.13615417480469,
        16.972864151000977,
        8.725390434265137,
        31.622774124145508,
        31.067739486694336,
        16.974401473999023,
        33.37706756591797,
        11.677279472351074,
        31.622774124145508,
        31.490612030029297,
        34.82740783691406,
        31.622774124145508,
        24.64883804321289,
        2.6783957481384277,
        30.307769775390625,
        31.622774124145508,
        31.48756980895996,
        17.508888244628906,
        13.349834442138672,
        4.355359077453613,
        4.826869487762451,
        45.310760498046875,
        25.535131454467773,
        39.15739440917969,
        31.622774124145508,
        7.656617641448975,
        31.38160514831543,
        5.79666805267334,
        31.622774124145508,
        4.44553804397583,
        31.622774124145508,
        31.422090530395508,
        28.93929100036621,
        31.622774124145508,
        7.654522895812988,
        20.232635498046875,
        17.687353134155273,
        31.622774124145508,
        5.576920509338379,
        34.75895309448242,
        31.622774124145508,
        31.622774124145508,
        39.70276641845703,
        10.070223808288574,
        16.0190486907959
      ]
    },
    {
      "activation": "rectified",
      "architecture": "dense",
      "bias": [
        -0.046407584100961685,
        -0.16842125356197357,
        0.3116516172885895,
        -0.7105177640914917,
        -0.41790771484375,
        -0.5747506022453308,
        -0.25312018394470215,
        -0.17971843481063843,
        -0.3266720771789551,
        0.14283329248428345,
        -0.31485816836357117,
        -0.24178701639175415,
        0.35148316621780396,
        -0.3223384916782379,
        0.12079980969429016,
        -0.16405291855335236,
        -0.18083827197551727,
        -0.06648201495409012,
        -0.40322408080101013,
        0.23083429038524628,
        -0.3793124258518219,
        -0.8401670455932617,
        -0.32781335711479187,
        -0.6364911198616028,
        -0.3927873373031616,
        -0.1706114113330841,
        0.2935444414615631,
        0.6780670881271362,
        -0.49200883507728577,
        0.0700632706284523,
        -0.4800325930118561,
        0.01602347381412983
      ],
      "weights": [
        -0.296056866645813,
        -0.102365642786026,
        0.5588138699531555,
        0.06944002211093903,
        0.04322594776749611,
        0.017405636608600616,
        0.3694700002670288,
        -0.8755058646202087,
        -0.03200802579522133,
        -0.10491424053907394,
        -0.6377944946289062,
        -0.2049878090620041,
        0.055814217776060104,
        0.021021932363510132,
        -0.5623311400413513,
        0.018850455060601234,
        -0.015158278867602348,
        0.00036878458922728896,
        -0.04810592904686928,
        -0.5990786552429199,
        -0.1184721291065216,
        0.9899022579193115,
        -0.007472108118236065,
        -0.08570986986160278,
        -0.28002914786338806,
        0.48062655329704285,
        0.007926112972199917,
        -0.017574621364474297,
        0.06129863113164902,
        0.18909822404384613,
        -0.030331550166010857,
        -0.09031300246715546,
        -0.2586209177970886,
        0.0026047220453619957,
        0.017462410032749176,
        -0.0043884823098778725,
        -0.19627411663532257,
        0.79392409324646,
        -0.09841608256101608,
        0.5284732580184937,
        0.3811780512332916,
        -0.10439002513885498,
        0.5900107622146606,
        -0.0023549278266727924,
        0.14910075068473816,
        0.14324739575386047,
        0.09676440805196762,
        -0.0026269014924764633,
        0.008160024881362915,
        0.02831747941672802,
        -0.0017471860628575087,
        -0.5095860958099365,
        0.06509845703840256,
        -0.44026437401771545,
        0.15706580877304077,
        0.30855515599250793,
        -0.0003757701488211751,
        -0.23768025636672974,
        -0.06462561339139938,
        -0.007706245873123407,
        0.05968847498297691,
        -0.23391909897327423,
        0.20528821647167206,
        0.3063855767250061,
        0.8632227182388306,
        0.05868685990571976,
        0.5061836838722229,
        0.7029784321784973,
        0.2871038317680359,
        -0.01303346361964941,
        0.4100089967250824,
        0.37546205520629883,
        -0.0035769762471318245,
        -0.0020248256623744965,
        0.009034371934831142,
        -0.7952033281326294,
        -1.07760751247406,
        -0.058584947139024734,
        0.4195944368839264,
        -0.0653156042098999,
        0.5481677055358887,
        -0.05152304843068123,
        0.019879359751939774,
        -0.30798742175102234,
        0.006926541216671467,
        0.36540746688842773,
        -0.028254035860300064,
        -0.030990803614258766,
        -0.16465623676776886,
        0.013588379137217999,
        0.14000384509563446,
        0.0340023897588253,
        -0.07082607597112656,
        -0.37471702694892883,
        -0.026717307046055794,
        -0.08066198229789734,
        -0.055451441556215286,
        -0.05198100209236145,
        -0.07053826004266739,
        0.031526897102594376,
        -0.0673321783542633,
        0.5665822625160217,
        -0.06146136671304703,
        0.8368215560913086,
        0.3591902554035187,
        -0.457036554813385,
        -0.006309586111456156,
        0.018025672063231468,
        0.2928701639175415,
        -0.08413229882717133,
        0.1387685239315033,
        -0.028700387105345726,
        0.45191648602485657,
        -0.03972543403506279,
        0.05882960930466652,
        -0.3415922522544861,
        -0.06020046025514603,
        0.25659117102622986,
        -0.4018453061580658,
        -0.307219922542572,
        0.0009667084668762982,
        -0.5702885985374451,
        0.05365246161818504,
        0.03137704357504845,
        -0.03035641461610794,
        -0.3760451674461365,
        0.30368727445602417,
        0.02692416124045849,
        0.09129919111728668,
        -0.0601406991481781,
        0.6726380586624146,
        -0.17660723626613617,
        -0.25278839468955994,
        0.04293699562549591,
        0.11601322144269943,
        0.24967160820960999,
        0.5390059351921082,
        0.4990033805370331,
        -0.1485605537891388,
        -0.15763138234615326,
        0.5436941981315613,
        -0.02753359079360962,
        0.21112774312496185,
        0.04381164535880089,
        -0.6986986994743347,
        0.01963762380182743,
        -0.03478597477078438,
        -0.03735027462244034,
        0.5050735473632812,
        0.0785098746418953,
        0.028597373515367508,
        -0.48424625396728516,
        -0.02570773847401142,
        0.15604598820209503,
        0.35158875584602356,
        -0.00044502937817014754,
        0.009275617077946663,
        -0.8855511546134949,
        -0.054050512611866,
        -0.19225561618804932,
        -0.18001388013362885,
        -0.03397126495838165,
        -0.045035574585199356,
        -0.012554631568491459,
        -0.22869491577148438,
        -0.17342427372932434,
        -0.26494479179382324,
        0.020400281995534897,
        0.03084736317396164,
        0.19566823542118073,
        -0.3166984021663666,
        -0.04451838135719299,
        -0.3111238181591034,
        0.42481547594070435,
        -0.6015574932098389,
        0.013616485521197319,
        -0.38022366166114807,
        -0.026097839698195457,
        0.056919556111097336,
        -0.2923281192779541,
        0.04672260954976082,
        -0.11927132308483124,
        -0.09951940178871155,
        -0.25244981050491333,
        -0.002445729449391365,
        0.7361463904380798,
        1.1906530857086182,
        0.0318823978304863,
        -0.005763595458120108,
        -0.20442922413349152,
        -0.15405263006687164,
        0.07431536912918091,
        -0.24412967264652252,
        0.12407144904136658,
        0.021247822791337967,
        -0.2398921698331833,
        0.09903568774461746,
        0.029578857123851776,
        0.16945014894008636,
        0.005934395827353001,
        -0.23996345698833466,
        -0.7564783692359924,
        -0.9284073710441589,
        -0.05319545418024063,
        0.09156454354524612,
        -0.03569875657558441,
        -0.04303089156746864,
        0.010513129644095898,
        -0.32405924797058105,
        -0.04715760052204132,
        -0.017848625779151917,
        0.3022293746471405,
        -0.2927461266517639,
        -0.7702442407608032,
        -0.0256891380995512,
        0.6702969074249268,
        -0.05101299285888672,
        -0.4328901171684265,
        -0.057760536670684814,
        -0.012335890904068947,
        -0.018503790721297264,
        0.5328332185745239,
        -0.039419110864400864,
        0.13139307498931885,
        0.40573829412460327,
        -0.04601016268134117,
        -0.015691837295889854,
        0.01722896844148636,
        -0.26281628012657166,
        -0.5945667624473572,
        0.0829801931977272,
        0.4727557599544525,
        0.38797256350517273,
        0.1680917739868164,
        -0.22023044526576996,
        -0.03613421693444252,
        0.06880000233650208,
        -0.6306371092796326,
        -0.855093240737915,
        0.008863694965839386,
        -0.050307679921388626,
        0.3464147448539734,
        0.019496465101838112,
        0.05952932685613632,
        -0.02728472463786602,
        0.5898135304450989,
        0.03772212564945221,
        -0.3312705159187317,
        -0.02481173351407051,
        -0.3143191635608673,
        0.07022401690483093,
        0.03464103117585182,
        0.021597441285848618,
        0.6754146814346313,
        -0.17093533277511597,
        0.20566275715827942,
        -0.2844887971878052,
        -0.04741079360246658,
        0.4097149670124054,
        -0.004988526459783316,
        0.743023693561554,
        0.02678999863564968,
        0.29645079374313354,
        0.8321806788444519,
        0.37190890312194824,
        -0.33407825231552124,
        -0.5191986560821533,
        -0.44320717453956604,
        -0.2809738516807556,
        -0.03767889738082886,
        -0.23153632879257202,
        -0.02037617564201355,
        0.09409432858228683,
        -0.03992776200175285,
        -0.04883019998669624,
        -0.1403523087501526,
        -0.11338409781455994,
        -0.1708439737558365,
        -0.03670594468712807,
        0.4129214584827423,
        0.3960954546928406,
        0.27816927433013916,
        0.06853441148996353,
        -0.02986454777419567,
        0.025319969281554222,
        0.1057373434305191,
        -0.03882007300853729,
        -0.45299258828163147,
        0.10714239627122879,
        -0.012630823999643326,
        -0.012670695781707764,
        0.0042727114632725716,
        0.380094051361084,
        -0.21616105735301971,
        -0.14034079015254974,
        -0.31974613666534424,
        -0.3210654854774475,
        0.584185004234314,
        0.3410026729106903,
        0.013600236736238003,
        0.06850036233663559,
        -0.4144103229045868,
        0.4231092929840088,
        -0.03671939671039581,
        -0.6273186206817627,
        0.5927917957305908,
        0.024443237110972404,
        0.01169339194893837,
        0.02279892936348915,
        -0.5734827518463135,
        -0.5492894649505615,
        0.02247348055243492,
        -0.01887444593012333,
        -0.002131403423845768,
        -0.018603550270199776,
        0.02638784982264042,
        0.04971972107887268,
        0.3887287676334381,
        0.2656351923942566,
        -0.3599315583705902,
        0.12120391428470612,
        -0.022859541699290276,
        0.3728695511817932,
        -0.002797313267365098,
        -0.05684983730316162,
        0.03411714732646942,
        0.20127980411052704,
        0.1842416375875473,
        -0.02120627462863922,
        -0.4558004140853882,
        0.10356685519218445,
        -0.14439727365970612,
        0.12513957917690277,
        -0.009517669677734375,
        0.29117509722709656,
        -0.002655033254995942,
        0.2500302195549011,
        -0.011857926845550537,
        -0.024525275453925133,
        0.2324332445859909,
        -0.1595638543367386,
        -0.718823254108429,
        -0.015395605936646461,
        0.7155325412750244,
        0.10623182356357574,
        -0.5241039395332336,
        -0.33487144112586975,
        -0.01833294704556465,
        0.0023925029672682285,
        -0.08966254442930222,
        -0.030760006979107857,
        -0.24495433270931244,
        -0.3299567699432373,
        -0.013951318338513374,
        -0.004407032858580351,
        0.0036725534591823816,
        0.007562587503343821,
        0.24563980102539062,
        0.46303674578666687,
        -0.6912214159965515,
        -0.16753947734832764,
        -0.37201252579689026,
        -0.20412011444568634,
        0.007145330309867859,
        -0.5141469240188599,
        -0.4776560664176941,
        0.4301832318305969,
        -0.010189849883317947,
        0.0753469169139862,
        0.6155871152877808,
        0.008678577840328217,
        0.5580243468284607,
        0.0066124750301241875,
        0.17493820190429688,
        -0.21560391783714294,
        -0.09302323311567307,
        -0.014959780499339104,
        -0.5570603609085083,
        1.0905705690383911,
        0.024621494114398956,
        0.027047578245401382,
        -0.06953852623701096,
        0.12436838448047638,
        -0.14703971147537231,
        -0.0551997609436512,
        -0.010263150557875633,
        -0.3023659288883209,
        -0.31656911969184875,
        -0.14466436207294464,
        -0.00208716606721282,
        -0.24335511028766632,
        -0.844054639339447,
        -0.4823894202709198,
        -0.17512907087802887,
        -0.1408558040857315,
        -0.06727595627307892,
        -0.171497642993927,
        0.010345528833568096,
        -0.8351041078567505,
        -0.005745896138250828,
        -0.19826099276542664,
        -0.0032356104347854853,
        -0.003997880965471268,
        -1.1206865310668945,
        -0.20458680391311646,
        0.003935317043215036,
        3.454983016126789e-05,
        0.2966930568218231,
        -0.45619723200798035,
        -0.2570835053920746,
        0.12015542387962341,
        0.001833279151469469,
        0.010139420628547668,
        -0.22412031888961792,
        -0.002109701046720147,
        0.11983737349510193,
        -0.059839364141225815,
        0.003689833916723728,
        0.007836151868104935,
        0.0009608771069906652,
        -0.45590928196907043,
        -0.2299056500196457,
        -0.09351815283298492,
        -0.044839851558208466,
        0.6985641121864319,
        -0.24739202857017517,
        0.3766857981681824,
        0.00014372456644196063,
        -0.11766882240772247,
        -0.14054866135120392,
        0.4799638092517853,
        0.008505715988576412,
        -0.1371316909790039,
        0.20726856589317322,
        -0.007681384216994047,
        -0.32116755843162537,
        0.0032123280689120293,
        0.1307642161846161,
        -0.10964849591255188,
        0.3537612855434418,
        0.0067628733813762665,
        0.22976547479629517,
        -0.13542142510414124,
        -0.006116840522736311,
        0.006335567682981491,
        0.3029923141002655,
        0.010156194679439068,
        0.19306285679340363,
        -0.11977723985910416,
        0.11630906164646149,
        -0.44740670919418335,
        0.10238850116729736,
        -0.11045774817466736,
        0.051082536578178406,
        -0.3331461548805237,
        -0.14800335466861725,
        -0.12043946236371994,
        -0.06917893141508102,
        -0.28028273582458496,
        0.12187893688678741,
        -0.42103737592697144,
        -0.03739313781261444,
        -0.5590727925300598,
        0.028010480105876923,
        0.5591304898262024,
        -0.0093541219830513,
        -0.009877147153019905,
        -0.2617945075035095,
        -0.5191996693611145,
        -0.2633645534515381,
        -0.006853547878563404,
        0.1885615438222885,
        -0.0911591649055481,
        -0.4094389081001282,
        0.2435772716999054,
        -0.04798508808016777,
        -0.03525475785136223,
        0.6841567158699036,
        -0.020833823829889297,
        0.36094942688941956,
        -0.03161143511533737,
        -0.030495723709464073,
        -0.03346700966358185,
        0.03226584196090698,
        -0.13036520779132843,
        -0.27236655354499817,
        -0.17592206597328186,
        0.07215739041566849,
        0.34142905473709106,
        -0.330428808927536,
        0.6440135836601257,
        -0.04039604216814041,
        -0.32761725783348083,
        -0.27431443333625793,
        -0.544501543045044,
        -0.02596203424036503,
        0.24246300756931305,
        0.15922290086746216,
        0.0362481065094471,
        -0.6795589923858643,
        -0.009357430040836334,
        -0.2885145843029022,
        0.27949434518814087,
        0.594805121421814,
        -0.04556059092283249,
        0.09937208145856857,
        -0.6310638785362244,
        0.02656516432762146,
        -0.0010279481066390872,
        0.16204188764095306,
        0.5420629978179932,
        0.17069119215011597,
        -0.5542410016059875,
        -0.0028727655299007893,
        0.1824275702238083,
        0.22450634837150574,
        -0.08229418098926544,
        0.002775676315650344,
        0.1185838058590889,
        0.2681516408920288,
        0.2910744249820709,
        -0.21087419986724854,
        -0.09429134428501129,
        -0.5582568049430847,
        -0.4778706431388855,
        -0.002595386700704694,
        0.9894229173660278,
        -0.015540102496743202,
        -0.2806198298931122,
        -0.014666210860013962,
        0.00025589100550860167,
        1.2366313934326172,
        0.016405930742621422,
        0.20673927664756775,
        -0.012194907292723656,
        0.09649122506380081,
        -0.3730566203594208,
        0.12533985078334808,
        -0.5403258800506592,
        -0.004878615960478783,
        -0.006823538802564144,
        -0.10223005712032318,
        -0.008223181590437889,
        -0.20091156661510468,
        0.1951618492603302,
        -0.01031032856553793,
        -0.005608252249658108,
        0.020205620676279068,
        -0.17445945739746094,
        0.6508500576019287,
        -0.0087359007447958,
        0.04573749750852585,
        -0.46815353631973267,
        -0.04121619462966919,
        -0.4666290879249573,
        0.00827485416084528,
        -0.28269079327583313,
        -0.18419116735458374,
        0.12578192353248596,
        0.0023652424570173025,
        0.4188859760761261,
        0.22849655151367188,
        -0.002108528045937419,
        0.010123279877007008,
        -0.011078332550823689,
        0.09209639579057693,
        -0.05042744427919388,
        -0.2263016700744629,
        -0.0029842073563486338,
        -0.1547183096408844,
        0.07236597687005997,
        0.005248328670859337,
        0.0070975590497255325,
        -0.23921261727809906,
        0.021406568586826324,
        -0.15652133524417877,
        0.1461341679096222,
        0.022008592262864113,
        0.10449853539466858,
        -0.3208051323890686,
        -0.3727540671825409,
        0.016162807121872902,
        -0.27684924006462097,
        0.4744228422641754,
        0.26438435912132263,
        0.11229610443115234,
        -0.17391100525856018,
        -0.22840100526809692,
        -0.2231147736310959,
        0.04095552861690521,
        0.4398265779018402,
        0.025683213025331497,
        -0.21749022603034973,
        0.018724076449871063,
        -0.011015782132744789,
        0.3303736448287964,
        0.1199413612484932,
        -0.08998256921768188,
        0.02400757558643818,
        -0.256000816822052,
        -0.2008853703737259,
        0.07436449825763702,
        -0.4708710014820099,
        -0.016165075823664665,
        0.024075595661997795,
        -0.38004937767982483,
        0.0029172967188060284,
        0.10596248507499695,
        -0.32924649119377136,
        0.02659589610993862,
        0.03989436849951744,
        -0.02068445086479187,
        0.00422961451113224,
        -0.6188754439353943,
        -0.7716726064682007,
        0.02306370623409748,
        0.41492190957069397,
        -0.6887328624725342,
        -0.0955783799290657,
        -0.008477511815726757,
        -0.1460200846195221,
        0.09639067947864532,
        -0.24329441785812378,
        0.018685102462768555,
        -0.4993812143802643,
        -0.09346143901348114,
        -0.028327643871307373,
        -0.12721700966358185,
        0.030569400638341904,
        0.0899050235748291,
        0.7683281898498535,
        -0.8967845439910889,
        -0.00618311483412981,
        -0.37247350811958313,
        0.08491311967372894,
        -0.0035755333956331015,
        0.027051907032728195,
        -0.3180736303329468,
        0.37041938304901123,
        0.4313051402568817,
        0.15497396886348724,
        -0.0065877302549779415,
        0.1621290147304535,
        -0.08044528216123581,
        0.1174200251698494,
        0.02323758788406849,
        -0.5806242823600769,
        -0.26589474081993103,
        -0.29377004504203796,
        -0.24105332791805267,
        0.17616963386535645,
        -0.1865154504776001,
        -0.4786173105239868,
        -0.0068781110458076,
        0.15233302116394043,
        0.020024213939905167,
        -0.32776063680648804,
        0.023604538291692734,
        -0.01991325616836548,
        0.26721519231796265,
        -0.06420186907052994,
        -0.9820718765258789,
        0.012941408902406693,
        0.5124635100364685,
        0.11404471099376678,
        -0.27529460191726685,
        -0.1270635724067688,
        -0.019488384947180748,
        0.01609310507774353,
        0.03205524757504463,
        -0.036900248378515244,
        -0.42912986874580383,
        0.04306867718696594,
        -0.021438363939523697,
        0.015354564413428307,
        0.03189205005764961,
        0.14049768447875977,
        -0.6241048574447632,
        0.3521767258644104,
        0.5585520267486572,
        -0.22378194332122803,
        -0.5184926390647888,
        -0.3481672406196594,
        -0.06317564845085144,
        0.04484356939792633,
        -0.4193974435329437,
        0.4564385414123535,
        -0.005015726666897535,
        -0.05227404460310936,
        0.2287592589855194,
        0.00440942170098424,
        -0.14462518692016602,
        0.014407283626496792,
        -0.23235023021697998,
        0.5422701835632324,
        -0.6906756162643433,
        -0.05734485760331154,
        -0.08227542787790298,
        0.027394253760576248,
        0.02429020404815674,
        0.0038485631812363863,
        0.5850427746772766,
        0.5799149870872498,
        0.04896122217178345,
        -0.26584333181381226,
        0.02548244595527649,
        0.12084206193685532,
        0.9151092171669006,
        0.06353407353162766,
        0.022853387519717216,
        -0.21686799824237823,
        -0.6329790949821472,
        -0.5438846945762634,
        -0.3608117401599884,
        -0.24545817077159882,
        -0.056791819632053375,
        0.3540996015071869,
        -0.01764613389968872,
        -0.46566420793533325,
        0.010377127677202225,
        -0.042147159576416016,
        0.0059475344605743885,
        -0.02684657648205757,
        -0.43391722440719604,
        0.3443583846092224,
        0.16964569687843323,
        -0.00984407588839531,
        0.29967066645622253,
        0.11116396635770798,
        0.1006455346941948,
        0.9345002174377441,
        -0.001682638074271381,
        0.011261176317930222,
        -0.555241048336029,
        -0.02516983263194561,
        -0.04510197788476944,
        0.6452968716621399,
        -0.019657859578728676,
        -0.018216436728835106,
        0.006000425200909376,
        -0.010241772048175335,
        0.1105557233095169,
        -0.047539860010147095,
        -0.07725197076797485,
        0.26593461632728577,
        -0.1854817420244217,
        0.3067295253276825,
        -0.02808273583650589,
        0.15748785436153412,
        -0.3613467812538147,
        0.4498569667339325,
        -0.008936300873756409,
        0.2776392698287964,
        0.31614524126052856,
        0.02051403746008873,
        -0.7442558407783508,
        0.013395389541983604,
        0.5760080218315125,
        -0.23674778640270233,
        -0.061744026839733124,
        -0.009312876500189304,
        -0.24202771484851837,
        0.46619489789009094,
        0.007056943606585264,
        0.012456191703677177,
        0.23864324390888214,
        -0.05379723384976387,
        -0.16535885632038116,
        -0.014166559092700481,
        -0.044674672186374664,
        -0.21320265531539917,
        -0.42436015605926514,
        -0.23168323934078217,
        0.039424147456884384,
        -0.4644666910171509,
        -0.22762447595596313,
        -0.32464393973350525,
        0.19029538333415985,
        -0.46600213646888733,
        0.00766372587531805,
        -0.3032943308353424,
        -0.04809444770216942,
        -0.34290194511413574,
        0.00379218184389174,
        0.4771018922328949,
        -0.012790754437446594,
        -0.07658428698778152,
        -0.700944185256958,
        -0.358028382062912,
        0.22464609146118164,
        -0.04006919637322426,
        -0.4627606272697449,
        -1.0041602849960327,
        -0.32572221755981445,
        -0.22151315212249756,
        -0.013933418318629265,
        0.02904089353978634,
        -0.17243289947509766,
        -0.04055677354335785,
        -0.09760552644729614,
        -0.046301573514938354,
        -0.047227367758750916,
        -0.03568461164832115,
        0.015483113005757332,
        -0.582471489906311,
        -0.05454395338892937,
        -0.4626251757144928,
        0.36609357595443726,
        0.5556553602218628,
        -0.3648281693458557,
        0.39110198616981506,
        -0.04158682003617287,
        -0.23787245154380798,
        0.4156237840652466,
        0.5234805941581726,
        -0.02262261137366295,
        0.1486835926771164,
        -0.1550351083278656,
        0.04425109922885895,
        -0.39136266708374023,
        0.029531702399253845,
        0.26555249094963074,
        -0.14913861453533173,
        0.43419355154037476,
        -0.03834192827343941,
        0.389836847782135,
        0.1507309228181839,
        0.03708977997303009,
        0.047307390719652176,
        -0.08256220072507858,
        -0.31403085589408875,
        -0.25583377480506897,
        -0.10410726815462112,
        0.04030759260058403,
        -0.06689129024744034,
        -0.047589194029569626,
        0.05581638962030411,
        -0.045757826417684555,
        -0.5827701091766357,
        0.3726915419101715,
        -0.1755630224943161,
        -0.4684688448905945,
        0.22095510363578796,
        -0.24212633073329926,
        -0.06681408733129501,
        0.03212694823741913,
        0.26369112730026245,
        -0.04176964983344078,
        -0.01885995827615261,
        -0.023859111592173576,
        0.052121832966804504,
        -0.19815805554389954,
        -0.5960736870765686,
        0.16136983036994934,
        0.00759831303730607,
        0.48133930563926697,
        0.08393141627311707,
        0.38192328810691833,
        0.020301537588238716,
        0.01616603694856167,
        -0.013971305452287197,
        0.8794692158699036,
        0.04550383612513542,
        0.05080563202500343,
        -0.5772653222084045,
        0.03151649981737137,
        0.02695615589618683,
        0.011395138688385487,
        -0.103807233273983,
        0.0676778107881546,
        0.048474837094545364,
        0.8492723703384399,
        -0.7386444807052612,
        0.17282363772392273,
        -0.44068005681037903,
        0.04247542470693588,
        0.4587000012397766,
        -0.27722665667533875,
        -0.4827357828617096,
        0.018264656886458397,
        -0.12587358057498932,
        0.39811044931411743,
        -0.04622320458292961,
        -0.6336044669151306,
        -0.04773147031664848,
        0.734034538269043,
        -0.025261415168642998,
        0.7421967387199402,
        0.02545321173965931,
        -0.5148888230323792,
        0.4584857225418091,
        -0.018347766250371933,
        -0.017371634021401405,
        -0.169147327542305,
        -0.7149875164031982,
        0.14431284368038177,
        -0.08432407677173615,
        -0.004111090674996376,
        0.05709008127450943,
        0.09434033930301666,
        -0.1892518848180771,
        0.045820437371730804,
        0.13091625273227692,
        0.05561090633273125,
        -0.050402820110321045,
        -0.1149192601442337,
        0.40681958198547363,
        -0.4450788199901581,
        -0.7532365322113037,
        -0.02255558781325817,
        0.47829896211624146,
        -0.03532599285244942,
        -0.5942143797874451,
        -0.05802365392446518,
        0.001900823088362813,
        1.1619192361831665,
        0.03739067539572716,
        0.2523531913757324,
        -0.03512265533208847,
        -0.2158271074295044,
        0.09158860892057419,
        0.3527146577835083,
        -0.30460092425346375,
        -0.05377452075481415,
        -0.01569630205631256,
        0.03035110980272293,
        -0.028194772079586983,
        0.13137374818325043,
        -0.00048684957437217236,
        -0.030927905812859535,
        -0.008785657584667206,
        0.04712296277284622,
        -0.04129403829574585,
        0.1149914488196373,
        0.04056587442755699,
        0.03763541206717491,
        -0.4022744596004486,
        -0.3809059262275696,
        -0.7354242205619812,
        -0.01660021021962166,
        -0.013034524396061897,
        -0.12377641350030899,
        -0.09168794006109238,
        0.0005852215690538287,
        0.3306880593299866,
        -0.30193063616752625,
        -0.003911491483449936,
        -0.1837059110403061,
        -0.049002714455127716,
        -0.044517967849969864,
        0.04655269533395767,
        0.273567795753479,
        -0.04331563785672188,
        -0.10615873336791992,
        0.26599180698394775,
        0.04899570345878601,
        0.009312964044511318,
        -0.5486394166946411,
        -0.00937468372285366,
        0.03920088708400726,
        -0.45247265696525574,
        0.0495922826230526,
        -0.5358223915100098,
        -1.3363608121871948,
        -0.046934813261032104,
        0.05669066682457924,
        0.2782713770866394,
        0.4681931138038635,
        -0.08999532461166382,
        -0.16683943569660187,
        -0.16952168941497803,
        0.44752267003059387,
        0.24312928318977356,
        -0.000312142277834937,
        -0.3101469576358795,
        0.01685529388487339,
        -0.17162436246871948,
        -0.009180232882499695,
        -0.018863072618842125,
        -0.39876484870910645,
        -0.18043582141399384,
        0.2145843654870987,
        0.018017353489995003,
        0.3878433108329773,
        -0.31402668356895447,
        0.5328044295310974,
        0.5167521834373474,
        -0.047606635838747025,
        0.0201299749314785,
        -0.08603865653276443,
        -0.024831846356391907,
        -0.2922043800354004,
        0.4273238480091095,
        0.0033495654352009296,
        0.0033046205062419176,
        -0.009607500396668911,
        -0.08210694789886475,
        -0.03696070611476898,
        -0.3485083281993866,
        0.0676870197057724,
        -1.0216543674468994,
        0.2003920078277588,
        0.23294539749622345,
        -0.009785890579223633,
        -0.5677566528320312,
        -0.027138730511069298,
        0.08959595859050751,
        -0.004488881211727858,
        -0.09502434730529785,
        0.1684761643409729,
        0.0021965717896819115,
        -0.06412441283464432,
        0.02828497625887394,
        -0.23442310094833374,
        -0.05792279168963432,
        -0.32118842005729675,
        -0.010886197909712791,
        0.21880562603473663,
        0.050199851393699646,
        0.01238055620342493,
        0.022568808868527412,
        0.3592086732387543,
        0.41731175780296326,
        0.11478772014379501,
        0.2064727544784546,
        0.01422667782753706,
        -0.4278479516506195,
        -0.25443580746650696,
        -0.9318437576293945,
        -0.0030742143280804157,
        0.04420136660337448,
        -0.027828330174088478,
        -0.5824920535087585,
        -0.12598615884780884,
        -0.015123635530471802,
        -0.07016169279813766,
        -0.24671055376529694,
        0.006069819908589125,
        0.12922018766403198,
        0.00726914219558239,
        0.2513022720813751,
        0.012046956457197666,
        0.007603546138852835,
        0.26736965775489807,
        -0.2224758267402649,
        0.14071130752563477,
        0.009591585025191307,
        0.007230259012430906,
        -0.4111423194408417,
        -0.18464383482933044,
        -0.45220354199409485,
        0.005320435855537653,
        -0.0022007201332598925,
        0.04081840440630913,
        0.00969944428652525,
        0.41410502791404724,
        -0.4058639407157898,
        0.006233262363821268,
        0.0026980405673384666,
        -0.007271832786500454,
        -0.38941094279289246,
        0.2658712565898895,
        -0.28054600954055786,
        0.05467422306537628,
        0.17058709263801575,
        -0.734459638595581,
        -0.43953922390937805,
        -0.003668213030323386,
        -0.2871209979057312,
        0.0137582803145051,
        -0.17494255304336548,
        0.0014604161260649562,
        0.4639175832271576,
        0.1762058287858963,
        -0.003414222737774253,
        -0.13794328272342682,
        7.25049976608716e-05,
        -0.10307049751281738,
        0.35998663306236267,
        0.03454424813389778,
        0.003659394569694996,
        0.18289315700531006,
        -0.07128967344760895,
        -0.001973821083083749,
        -0.010543790645897388,
        -0.6558849215507507,
        -0.22029730677604675,
        0.8204911351203918,
        0.0011360031785443425,
        0.0008831662707962096,
        0.35914626717567444,
        0.2674577832221985,
        0.02360428310930729,
        0.008121764287352562,
        0.023462379351258278,
        0.4087836444377899,
        0.6375027894973755,
        -0.07204846292734146,
        -0.48394638299942017,
        -0.4267842769622803,
        -0.06120044365525246,
        0.006105554755777121,
        0.4326629042625427,
        0.012887985445559025,
        -0.35633715987205505,
        0.006450138054788113,
        -0.018214015290141106,
        1.026473879814148,
        0.23790062963962555,
        -0.14344492554664612,
        0.0027990008238703012,
        0.08253275603055954,
        0.2503885328769684,
        0.13176214694976807,
        -0.3214011490345001,
        -0.0016656334046274424,
        0.021852951496839523,
        -0.08382374048233032,
        -0.004565313924103975,
        -0.35302314162254333,
        0.15952472388744354,
        0.005328175146132708,
        0.00780278816819191,
        -0.008745760656893253,
        0.29173699021339417,
        -0.04921596869826317,
        0.2242143750190735,
        -0.11961482465267181,
        -0.6577398180961609,
        0.16501173377037048,
        -0.5682932138442993,
        -0.01805409975349903,
        0.030115241184830666,
        -0.0016654223436489701,
        0.544632077217102,
        -1.311749656451866e-06,
        0.0685177892446518,
        0.05681917071342468,
        0.00227771676145494,
        0.06707583367824554,
        0.020272620022296906,
        0.08048852533102036,
        -0.22754943370819092,
        0.4467530846595764,
        -0.0005502745625562966,
        -0.27207425236701965,
        0.04492110013961792,
        -0.0028622958343476057,
        0.017155533656477928,
        0.22276026010513306,
        -0.03720633313059807,
        -0.6504958868026733,
        -0.24554702639579773,
        0.017053578048944473,
        0.6015011668205261,
        -0.04235091432929039,
        0.017222318798303604,
        0.03866232559084892,
        0.14151903986930847,
        -0.015996607020497322,
        -0.14376063644886017,
        -0.39448148012161255,
        0.5167382955551147,
        -0.12006630748510361,
        0.17702311277389526,
        -0.001580259413458407,
        -0.19824735820293427,
        0.02647361531853676,
        0.20965829491615295,
        0.01474977657198906,
        -0.030678389593958855,
        -0.267885684967041,
        0.7619052529335022,
        1.4030874967575073,
        0.0019529324490576982,
        0.4850083291530609,
        -0.015487215481698513,
        0.2969057261943817,
        -0.01281343400478363,
        -0.024962345138192177,
        0.009113042615354061,
        -0.6236206889152527,
        -0.017231857404112816,
        0.1794278919696808,
        -0.34481897950172424,
        0.005132770165801048,
        0.007825993001461029,
        -0.010461380705237389,
        0.11415676772594452,
        1.1414475440979004,
        -0.14009316265583038,
        0.02739657647907734,
        -0.29958194494247437,
        0.03519456461071968,
        0.04565039649605751,
        -0.01874825730919838,
        0.11624159663915634,
        -0.4514053761959076,
        -0.017099246382713318,
        -0.030778517946600914,
        0.215815007686615,
        0.35321518778800964,
        0.023415036499500275,
        0.44240012764930725,
        0.03958220034837723,
        0.3754471242427826,
        -0.17361949384212494,
        -0.06526648998260498,
        -0.02144523710012436,
        -0.2732592523097992,
        -0.6537566781044006,
        0.009070548228919506,
        0.024022946134209633,
        -0.18370327353477478,
        0.3355415463447571,
        0.005222330801188946,
        -0.1890750676393509,
        -0.024634700268507004,
        -0.23281000554561615,
        -0.12424473464488983,
        -0.39483946561813354,
        -0.026059970259666443,
        0.4128001034259796,
        0.2119773030281067,
        0.21849724650382996,
        0.060521986335515976,
        -0.21701273322105408,
        -0.4667988121509552,
        0.4069236218929291,
        0.058074936270713806,
        -0.821366012096405,
        0.07024729251861572,
        0.3267132639884949,
        0.0866408422589302,
        0.0623072050511837,
        -0.3791256844997406,
        0.1497350037097931,
        -0.21842002868652344,
        0.09489168226718903,
        -0.2311776727437973,
        0.18559862673282623,
        0.06439167261123657,
        -0.4442988932132721,
        0.012063080444931984,
        -0.009908000007271767,
        0.4484490156173706,
        0.06110144034028053,
        -0.33610761165618896,
        -0.6207330822944641,
        0.07958503812551498,
        0.06132068485021591,
        -0.05115758255124092,
        0.535930871963501,
        -0.046560704708099365,
        0.39646482467651367,
        0.3851264417171478,
        -0.13571622967720032,
        0.1290716528892517,
        -0.03076254576444626,
        0.018936408683657646,
        -0.9871170520782471,
        0.07583862543106079,
        -0.05941562354564667,
        0.015582003630697727,
        0.08912854641675949,
        -0.005077386740595102,
        -0.028362397104501724,
        -0.5117788314819336,
        0.025199152529239655,
        0.7229425311088562,
        -0.1782543659210205,
        -0.1308857798576355,
        0.036394666880369186,
        0.025140350684523582,
        0.007365518715232611,
        -0.0617188960313797,
        -0.05427981913089752,
        0.3151521682739258,
        -0.37306079268455505,
        0.168685182929039,
        -0.04128722846508026,
        -0.003298516385257244,
        -0.16131602227687836,
        0.04049738869071007,
        0.017879752442240715,
        0.008383011445403099,
        -0.19300876557826996,
        0.14674900472164154,
        -0.08382026851177216,
        -0.45804184675216675,
        -0.5924418568611145,
        0.16140945255756378,
        -0.30244508385658264,
        0.03992090001702309,
        -0.11318068206310272,
        0.0522165447473526,
        0.37986087799072266,
        0.0418299101293087,
        -0.0227980874478817,
        0.30760452151298523,
        -0.8928959369659424,
        -0.5787867307662964,
        0.03603246808052063,
        0.43966013193130493,
        -0.16455543041229248,
        -0.730470597743988,
        -0.23547810316085815,
        0.000512128637637943,
        0.036134131252765656,
        0.8504002690315247,
        -0.0026993807405233383,
        0.004963150713592768,
        -0.25416144728660583,
        0.03352305665612221,
        0.04450508579611778,
        -0.04666979983448982,
        -0.006877534091472626,
        -0.4680635631084442,
        -0.22499819099903107,
        0.2981850504875183,
        0.5674330592155457,
        0.11249172687530518,
        -0.14490678906440735,
        -0.005184078123420477,
        0.015361292287707329,
        -0.4016709625720978,
        -0.3463492691516876,
        0.005679006688296795,
        -0.650115966796875,
        0.5089156627655029,
        -0.014908403158187866,
        0.39510491490364075,
        0.045293278992176056,
        0.8460144996643066,
        -0.07028058171272278,
        -0.5461781024932861,
        0.015390975400805473,
        0.06644419580698013,
        0.4955792725086212,
        -0.030375786125659943,
        0.014683018438518047,
        0.4612296223640442,
        -0.1818300485610962,
        -0.03887466341257095,
        -0.15607061982154846,
        0.1045810654759407,
        -0.1239321380853653,
        0.07621432840824127,
        -0.01099184900522232,
        -0.004193785600364208,
        0.8929864168167114,
        -0.17006145417690277,
        0.31179824471473694,
        -0.8739252686500549,
        0.014006382785737514,
        -0.004596267826855183,
        0.15102307498455048,
        -0.001300735049881041,
        -0.2540936768054962,
        -0.01467990968376398,
        -0.053736984729766846,
        0.01367207057774067,
        0.027655525133013725,
        -0.2201472967863083,
        0.0001124734480981715,
        0.5206727385520935,
        -0.016738884150981903,
        0.8767098188400269,
        -0.11322202533483505,
        -0.3827435076236725,
        0.08371669054031372,
        0.015524396672844887,
        -0.05351342633366585,
        -0.7176772952079773,
        -0.001328960177488625,
        0.2006930261850357,
        -0.29787275195121765,
        -0.009095014072954655,
        -0.00583181856200099,
        0.008794660679996014,
        -0.12685272097587585,
        -0.026867462322115898,
        -0.44149547815322876,
        0.05565685033798218,
        0.228754922747612,
        0.05447182431817055,
        0.26729336380958557,
        0.043236277997493744,
        -0.16484855115413666,
        -0.7330394387245178,
        -0.2985375225543976,
        -0.007534165866672993,
        -0.062019817531108856,
        0.7472901344299316,
        0.0007574724731966853,
        0.04875572770833969,
        -0.049316294491291046,
        0.15587963163852692,
        0.1093825176358223,
        -0.23021693527698517,
        0.001121777226217091,
        0.2575211226940155,
        0.9600497484207153,
        -0.021003270521759987,
        -0.009129873476922512,
        -0.2945486903190613,
        -1.3243056535720825,
        0.028702283278107643,
        -0.039254751056432724,
        -0.03988729044795036,
        0.44228699803352356,
        0.6501507759094238,
        0.002147544641047716,
        0.03090968169271946,
        -1.186320185661316,
        0.03731904178857803,
        -0.5767655968666077,
        -0.23892657458782196,
        0.10651577264070511,
        -0.16164880990982056,
        -0.4661998152732849,
        -0.006014580372720957,
        0.2408522218465805,
        0.009694620035588741,
        -0.4020293951034546,
        -0.011569530703127384,
        -0.04053419828414917,
        -0.044589754194021225,
        -0.03937007486820221,
        0.07367508858442307,
        -0.01658509485423565,
        0.45136886835098267,
        -0.056910522282123566,
        0.2552711069583893,
        0.5181542634963989,
        -0.01090219896286726,
        0.028930775821208954,
        0.13554343581199646,
        -0.03838004171848297,
        -0.2444349229335785,
        -0.12134183943271637,
        -0.028674691915512085,
        -0.0123475082218647,
        0.0094979889690876,
        -0.19922691583633423,
        -0.4458526372909546,
        -0.12693870067596436,
        -0.2331022471189499,
        -0.3378349840641022,
        0.11648960411548615,
        -0.7419859170913696,
        -0.013816142454743385,
        0.5660182237625122,
        -0.2897810637950897,
        -0.20919209718704224,
        0.0009930819505825639,
        -0.430323988199234,
        0.42199617624282837,
        0.020283006131649017,
        0.28855255246162415,
        0.05045380815863609,
        0.4322068393230438,
        -0.04189002141356468,
        -0.6491772532463074,
        -0.012010111473500729,
        0.03566162288188934,
        -0.447011798620224,
        0.01677091419696808,
        0.04176870733499527,
        0.4594043493270874,
        0.4032185673713684,
        -0.07335380464792252,
        0.2535046339035034,
        0.07515877485275269,
        -0.47281545400619507,
        0.2793220579624176,
        -0.058281827718019485,
        0.05708978325128555,
        0.2220083624124527,
        0.03300691395998001,
        0.6523008942604065,
        -0.6543003916740417,
        -0.2186731994152069,
        0.1567777842283249,
        -0.4458027482032776,
        -0.021119462326169014,
        -0.2082238793373108,
        -0.03248187154531479,
        0.4150645434856415,
        -0.06054309010505676,
        -0.04900648072361946,
        0.004451869521290064,
        -0.2547385096549988,
        -1.2191849946975708,
        -0.055767644196748734,
        0.5701428651809692,
        -0.012351092882454395,
        0.1345272958278656,
        0.2739737331867218,
        -0.03132262080907822,
        0.045560043305158615,
        -0.08246564120054245,
        -0.06800518929958344,
        -0.19025389850139618,
        0.07979131489992142,
        -0.062304966151714325,
        -0.03919036313891411,
        0.02484843321144581,
        0.02854498289525509,
        -0.5531309247016907,
        -0.00903668999671936,
        0.6428353786468506,
        0.3999173939228058,
        -0.34273964166641235,
        0.281270295381546,
        -0.043929874897003174,
        0.003149238182231784,
        -0.7162315249443054,
        -0.16296137869358063,
        0.017846358940005302,
        0.679302990436554,
        0.4788320064544678,
        0.03853824362158775,
        -0.6562158465385437,
        0.024802595376968384,
        -0.417658269405365,
        0.15374235808849335,
        -0.15905019640922546,
        -0.03547847270965576,
        -0.42989295721054077,
        -0.3856052756309509,
        0.07314790785312653,
        0.05170860141515732,
        0.04261493682861328,
        -0.23623119294643402,
        -0.17868898808956146,
        -0.12032700330018997,
        0.03194739669561386,
        -0.07553061842918396,
        0.18603543937206268,
        0.16486549377441406,
        -0.025516873225569725,
        -0.5200828313827515,
        0.454224169254303,
        0.22109612822532654,
        -0.4743330478668213,
        0.5548730492591858,
        -0.15588964521884918,
        -0.5322847962379456,
        0.002820297610014677,
        0.3314322531223297,
        -0.004502433817833662,
        -0.3800635039806366,
        0.021179163828492165,
        0.023702559992671013,
        0.11074993014335632,
        -0.15711989998817444,
        -0.025112051516771317,
        0.0007729030912742019,
        0.4083844721317291,
        -0.09045463055372238,
        -1.065166711807251,
        -0.16446630656719208,
        0.01833241432905197,
        -0.0077823009341955185,
        -0.13841140270233154,
        0.02734888531267643,
