{
  "input_sequences": [],
  "inputs": [
    {
      "name": "dNN",
      "variables": [
        {
          "name": "hitX1",
          "offset": 0,
          "scale": 1
        },
        {
          "name": "hitX2",
          "offset": 0,
          "scale": 1
        },
        {
          "name": "hitX3",
          "offset": 0,
          "scale": 1
        },
        {
          "name": "hitX4",
          "offset": 0,
          "scale": 1
        },
        {
          "name": "hitX5",
          "offset": 0,
          "scale": 1
        },
        {
          "name": "hitX6",
          "offset": 0,
          "scale": 1
        },
        {
          "name": "hitX7",
          "offset": 0,
          "scale": 1
        },
        {
          "name": "hitX8",
          "offset": 0,
          "scale": 1
        },
        {
          "name": "hitX9",
          "offset": 0,
          "scale": 1
        },
        {
          "name": "hitY1",
          "offset": 0,
          "scale": 1
        },
        {
          "name": "hitY2",
          "offset": 0,
          "scale": 1
        },
        {
          "name": "hitY3",
          "offset": 0,
          "scale": 1
        },
        {
          "name": "hitY4",
          "offset": 0,
          "scale": 1
        },
        {
          "name": "hitY5",
          "offset": 0,
          "scale": 1
        },
        {
          "name": "hitY6",
          "offset": 0,
          "scale": 1
        },
        {
          "name": "hitY7",
          "offset": 0,
          "scale": 1
        },
        {
          "name": "hitY8",
          "offset": 0,
          "scale": 1
        },
        {
          "name": "hitY9",
          "offset": 0,
          "scale": 1
        },
        {
          "name": "hitZ1",
          "offset": 0,
          "scale": 1
        },
        {
          "name": "hitZ2",
          "offset": 0,
          "scale": 1
        },
        {
          "name": "hitZ3",
          "offset": 0,
          "scale": 1
        },
        {
          "name": "hitZ4",
          "offset": 0,
          "scale": 1
        },
        {
          "name": "hitZ5",
          "offset": 0,
          "scale": 1
        },
        {
          "name": "hitZ6",
          "offset": 0,
          "scale": 1
        },
        {
          "name": "hitZ7",
          "offset": 0,
          "scale": 1
        },
        {
          "name": "hitZ8",
          "offset": 0,
          "scale": 1
        },
        {
          "name": "hitZ8",
          "offset": 0,
          "scale": 1
        }
      ]
    }
  ],
  "layers": [
    {
      "activation": "rectified",
      "architecture": "dense",
      "bias": [
        0.005818354431539774,
        -0.04901190847158432,
        0.02820086106657982,
        -0.22078146040439606,
        -0.14286300539970398,
        -0.05117253586649895,
        -0.24413473904132843,
        0.3751159906387329,
        0.20032863318920135,
        0.020515747368335724,
        -0.07929207384586334,
        -0.00011312677816022187,
        -0.0670347586274147,
        -0.09505128860473633,
        -0.028049834072589874,
        0.288252592086792,
        0.18533024191856384,
        -0.07138021290302277,
        -0.06068801134824753,
        -0.28102579712867737,
        0.38609960675239563,
        -0.17715881764888763,
        0.018482651561498642,
        0.19307340681552887,
        0.10545706003904343,
        -0.03374325856566429,
        -0.24454212188720703,
        -0.04291469603776932,
        -0.03753130882978439,
        0.17785179615020752,
        -0.04752962663769722,
        -0.012111546471714973,
        -0.0073492685332894325,
        0.05640671029686928,
        -0.17993046343326569,
        -0.10262054204940796,
        0.1537918895483017,
        0.011460382491350174,
        0.025472695007920265,
        -0.11840249598026276,
        -0.012952063232660294,
        -0.0033530937507748604,
        0.10353755950927734,
        0.05750339850783348,
        0.019921354949474335,
        -0.15094344317913055,
        0.01042561698704958,
        -0.013485852628946304,
        -0.043838512152433395,
        -0.17464612424373627,
        0.10474801808595657,
        0.11560645699501038,
        0.32963985204696655,
        0.04119899123907089,
        0.030726423487067223,
        0.14814065396785736,
        -0.05279053747653961,
        -0.11856241524219513,
        -0.009197717532515526,
        -0.09076987206935883,
        0.3112329840660095,
        -0.017193973064422607,
        -0.016158485785126686,
        -0.01204416248947382
      ],
      "weights": [
        0.4064244031906128,
        -0.09208839386701584,
        0.16496679186820984,
        0.011239856481552124,
        -0.05142948031425476,
        -0.011247795075178146,
        -0.028504298999905586,
        0.04097677394747734,
        -0.2171938121318817,
        0.21667683124542236,
        0.21156466007232666,
        0.48067834973335266,
        0.21025611460208893,
        -0.03286738693714142,
        -0.5027478337287903,
        -0.08958206325769424,
        -0.07157425582408905,
        0.1243818998336792,
        -0.9048696756362915,
        -0.33153480291366577,
        0.08509106934070587,
        0.12169280648231506,
        -0.091560497879982,
        0.6139413714408875,
        1.1316901445388794,
        -0.1320284605026245,
        0.02126026153564453,
        -1.980147123336792,
        -0.19594277441501617,
        -0.037123002111911774,
        0.10192228853702545,
        -0.0644892007112503,
        0.17468009889125824,
        -0.21835917234420776,
        -0.016776809468865395,
        -0.18656672537326813,
        0.13284306228160858,
        -0.21116578578948975,
        -0.039820387959480286,
        0.2850436270236969,
        0.17055104672908783,
        -0.16721658408641815,
        0.04191740229725838,
        -0.021651413291692734,
        -0.2552594542503357,
        -0.2088802456855774,
        1.1830246448516846,
        -1.70792555809021,
        0.791412353515625,
        -0.40969955921173096,
        0.5000002384185791,
        -0.5224098563194275,
        0.11635752767324448,
        0.0973285436630249,
        -2.00970721244812,
        0.5831084847450256,
        0.040353842079639435,
        0.08936863392591476,
        -0.19776581227779388,
        0.4383612871170044,
        -0.18572555482387543,
        -0.320232093334198,
        -0.03544841706752777,
        0.04794763773679733,
        0.49102017283439636,
        0.1559111475944519,
        0.14479601383209229,
        -0.4514690637588501,
        0.17113237082958221,
        0.3941633999347687,
        0.03095923736691475,
        0.11014550924301147,
        -0.09624327719211578,
        -1.1793289184570312,
        0.19076862931251526,
        -0.22453442215919495,
        0.25921016931533813,
        0.5136147737503052,
        -0.23509663343429565,
        0.0013636737130582333,
        0.16400259733200073,
        -0.8314772844314575,
        -0.17414823174476624,
        -0.1281706690788269,
        -0.1717665046453476,
        0.20211242139339447,
        0.09649670124053955,
        0.02184344083070755,
        0.005055638961493969,
        0.13798987865447998,
        0.5925568342208862,
        -0.8588191866874695,
        0.19435423612594604,
        0.391095906496048,
        0.10938076674938202,
        0.22973790764808655,
        0.008947339840233326,
        0.15335464477539062,
        -0.22967085242271423,
        -1.0973042249679565,
        0.8582691550254822,
        0.10694851726293564,
        -0.476470947265625,
        -0.2871090769767761,
        -0.6326763033866882,
        -0.05549360811710358,
        0.14649181067943573,
        -0.0493444949388504,
        1.251559853553772,
        -0.07846733927726746,
        0.04662720859050751,
        0.06406866014003754,
        0.07805047929286957,
        -0.030328424647450447,
        -0.07943031936883926,
        0.1099800318479538,
        0.035987645387649536,
        0.024781785905361176,
        0.026052871719002724,
        0.14247122406959534,
        0.007559509482234716,
        0.069742351770401,
        0.046434007585048676,
        -0.012096176855266094,
        0.037362515926361084,
        0.11809489130973816,
        -0.1991545557975769,
        -1.9722874164581299,
        1.6548563241958618,
        0.8425429463386536,
        -0.18351146578788757,
        -0.338054895401001,
        -0.03291147202253342,
        0.2520654499530792,
        -0.06406539678573608,
        0.029171975329518318,
        -0.01288580521941185,
        0.023263411596417427,
        0.03444129601120949,
        -0.023794524371623993,
        0.008248879574239254,
        0.04209711775183678,
        -0.03433264419436455,
        -0.09042713046073914,
        -0.023367110639810562,
        0.10683660954236984,
        -0.07430816441774368,
        0.11249792575836182,
        0.020439008250832558,
        0.003120464738458395,
        0.016755180433392525,
        -0.0012176011223345995,
        0.2089032232761383,
        -0.3240111768245697,
        -0.311329185962677,
        0.7130882143974304,
        0.5716432332992554,
        -1.718306303024292,
        1.1363143920898438,
        -0.1564388871192932,
        0.06977929919958115,
        -0.01566968858242035,
        0.20365875959396362,
        0.1309662014245987,
        -0.10408025234937668,
        0.2113107591867447,
        -0.12320591509342194,
        0.0005427405703812838,
        -0.0984577015042305,
        0.04494164139032364,
        -0.10519351065158844,
        -0.14593683183193207,
        0.2669322192668915,
        0.023027002811431885,
        0.14692597091197968,
        -0.02320171520113945,
        0.2265925109386444,
        0.002748042345046997,
        -0.040718838572502136,
        0.16475439071655273,
        1.7248092889785767,
        -0.25485852360725403,
        0.32926157116889954,
        -1.9679197072982788,
        0.1560986042022705,
        0.007323355879634619,
        -0.03787793591618538,
        0.5850194692611694,
        -0.1688670963048935,
        3.100759983062744,
        -0.582995593547821,
        0.10088084638118744,
        0.26614537835121155,
        -0.24306300282478333,
        -0.01895688846707344,
        -0.017969556152820587,
        0.3141805827617645,
        -0.11000959575176239,
        0.24304477870464325,
        -0.4945215582847595,
        -0.007266039960086346,
        0.07681389898061752,
        0.06303724646568298,
        0.09650233387947083,
        0.01927655190229416,
        -0.04980437457561493,
        -0.13468611240386963,
        -1.6119463443756104,
        1.602993369102478,
        -0.2856765687465668,
        -0.6621286869049072,
        -0.34841856360435486,
        -0.05299587547779083,
        0.5762667059898376,
        -0.5987449884414673,
        -0.029474124312400818,
        0.6180161833763123,
        0.48767247796058655,
        -0.15871921181678772,
        0.1632114201784134,
        0.054735809564590454,
        -0.35139891505241394,
        -0.05374635383486748,
        0.40615642070770264,
        0.09271430969238281,
        -0.2511410117149353,
        -0.9054937362670898,
        0.1963571161031723,
        0.15650257468223572,
        -0.1458553820848465,
        0.3229130804538727,
        -0.0467151515185833,
        0.04535150155425072,
        0.048657894134521484,
        0.5003172159194946,
        0.6082921028137207,
        -0.7587430477142334,
        0.8169262409210205,
        -0.0664721131324768,
        -0.3333505094051361,
        0.07972614467144012,
        0.3691423237323761,
        0.1850389838218689,
        0.5072005987167358,
        0.2187214344739914,
        -0.07635510712862015,
        -0.023394770920276642,
        -0.03244166076183319,
        0.04082060977816582,
        -0.004494194407016039,
        0.014820346608757973,
        -0.14883142709732056,
        0.0008857861976139247,
        0.14044122397899628,
        0.029678167775273323,
        -0.18840555846691132,
        0.11884903907775879,
        -0.11012743413448334,
        -0.10468661785125732,
        0.18697406351566315,
        -0.21705244481563568,
        -1.3509507179260254,
        -1.029860258102417,
        -0.11963403224945068,
        1.325552225112915,
        -0.05051853135228157,
        1.2665483951568604,
        0.5774070620536804,
        -1.2612709999084473,
        0.16834378242492676,
        -0.14076665043830872,
        -0.1888558715581894,
        0.03529766947031021,
        0.021745458245277405,
        -0.019936082884669304,
        0.003303419565781951,
        0.0014052740298211575,
        0.0044083744287490845,
        -0.15165074169635773,
        0.05542796477675438,
        -0.10394185781478882,
        0.06047775223851204,
        -0.23671720921993256,
        0.15730507671833038,
        -0.007337817922234535,
        0.1980476826429367,
        -0.052753858268260956,
        -0.2513948678970337,
        -2.143423557281494,
        0.34256410598754883,
        0.3267900347709656,
        1.468958854675293,
        -0.05535577982664108,
        0.654157280921936,
        -1.3142368793487549,
        0.500064492225647,
        -0.215681791305542,
        -0.12772555649280548,
        0.3655811548233032,
        0.026976196095347404,
        -0.0433846153318882,
        -0.14794954657554626,
        -0.11124244332313538,
        0.22832567989826202,
        -0.10846102237701416,
        -0.16431507468223572,
        -0.25203177332878113,
        0.07218470424413681,
        0.06099566072225571,
        -0.07621761411428452,
        0.32863497734069824,
        -0.014830300584435463,
        0.05794399231672287,
        0.04408300295472145,
        0.14312472939491272,
        1.0604455471038818,
        -0.7792111039161682,
        0.38009434938430786,
        -1.351931095123291,
        0.792305588722229,
        -0.13989980518817902,
        0.2886974811553955,
        -0.38093727827072144,
        0.10280323028564453,
        0.008859588764607906,
        0.06905405223369598,
        -0.24307866394519806,
        0.22107310593128204,
        0.16441772878170013,
        -0.11906170845031738,
        -0.021320655941963196,
        -0.009127768687903881,
        0.23616951704025269,
        0.06807389110326767,
        0.04508238285779953,
        -0.05408644676208496,
        0.10677030682563782,
        -0.10138249397277832,
        -0.09855390340089798,
        0.19302335381507874,
        0.011228170245885849,
        0.1131277084350586,
        1.7013030052185059,
        -0.49261170625686646,
        -1.438233733177185,
        0.08893359452486038,
        -0.8322768211364746,
        -0.7574124336242676,
        1.4042075872421265,
        0.17258234322071075,
        -0.2506488859653473,
        0.6846471428871155,
        -0.8078433275222778,
        -0.17915013432502747,
        0.010790987871587276,
        0.027271604165434837,
        -0.06444957852363586,
        -0.09969301521778107,
        -0.24389393627643585,
        0.09641459584236145,
        0.10436844080686569,
        -0.1817765086889267,
        -0.05131223425269127,
        0.12992244958877563,
        -0.05056886747479439,
        -0.18885771930217743,
        0.012849876657128334,
        0.08367246389389038,
        0.21619480848312378,
        -0.7458587884902954,
        0.6412975788116455,
        0.4111340045928955,
        0.2226325422525406,
        -0.38072943687438965,
        0.09624529629945755,
        -0.18206332623958588,
        0.03569364547729492,
        0.021088600158691406,
        -0.2568049430847168,
        -0.31119152903556824,
        -0.2996240258216858,
        -0.19822590053081512,
        -0.17840172350406647,
        0.12311580777168274,
        -0.03420567512512207,
        -0.2287992537021637,
        0.16836142539978027,
        0.0008984126034192741,
        0.06331335008144379,
        0.28233104944229126,
        -0.39202332496643066,
        -0.18142534792423248,
        -0.13047248125076294,
        -0.21038466691970825,
        -0.018089227378368378,
        0.17775145173072815,
        0.43568915128707886,
        0.16762131452560425,
        0.06119144335389137,
        0.2080584466457367,
        -0.08808360993862152,
        0.07274173200130463,
        0.0666089802980423,
        0.08368070423603058,
        -0.10195276141166687,
        0.5499656796455383,
        0.9051281809806824,
        0.37126898765563965,
        0.6880090832710266,
        -0.08516988158226013,
        0.05400228500366211,
        0.1095801442861557,
        -0.25717785954475403,
        -0.017643243074417114,
        -0.039299096912145615,
        -0.7584421634674072,
        -0.07776116579771042,
        0.3151748478412628,
        -0.005801752209663391,
        -0.31329652667045593,
        -0.026914572343230247,
        0.108428955078125,
        -0.11273524165153503,
        0.02039947547018528,
        -0.2760808765888214,
        -0.0023615967947989702,
        0.23981693387031555,
        0.009805926121771336,
        0.009671050123870373,
        0.03349350765347481,
        -0.0474497452378273,
        -0.13997456431388855,
        0.4654301404953003,
        -0.059770047664642334,
        0.004185659810900688,
        -0.010527227073907852,
        -0.06917272508144379,
        0.12228551506996155,
        -0.11661340296268463,
        -0.04407462477684021,
        -0.11895827949047089,
        0.06204028055071831,
        -0.13779142498970032,
        -0.10818745195865631,
        -0.127060204744339,
        -0.04041409119963646,
        -0.09438684582710266,
        -0.03423009812831879,
        0.017235053703188896,
        0.04682302474975586,
        0.7513949871063232,
        -0.9398133754730225,
        -0.11212404817342758,
        0.010564187541604042,
        0.18450020253658295,
        -0.33583158254623413,
        -0.06963843107223511,
        0.32644566893577576,
        0.12347614765167236,
        -0.21688131988048553,
        -0.013867586851119995,
        0.03427053242921829,
        0.013089783489704132,
        -0.07245724648237228,
        0.0627429410815239,
        -0.009672579355537891,
        -0.01993967778980732,
        -0.04862736165523529,
        0.0027452316135168076,
        0.12791840732097626,
        0.1648620367050171,
        0.09724551439285278,
        -0.1865379512310028,
        0.043677642941474915,
        -0.001974591054022312,
        0.007713770493865013,
        -0.02364356815814972,
        -0.2863888442516327,
        0.7484680414199829,
        -1.2193790674209595,
        -1.0170187950134277,
        1.896024227142334,
        0.020632047206163406,
        -0.2359987199306488,
        0.1023041233420372,
        0.1945875585079193,
        0.5184425711631775,
        -0.12033499032258987,
        -0.32698869705200195,
        0.33254823088645935,
        0.11007528752088547,
        0.20088739693164825,
        -0.32625657320022583,
        0.14892779290676117,
        -0.13096986711025238,
        -0.2792978286743164,
        0.14148525893688202,
        0.33736398816108704,
        -0.3178354799747467,
        0.3338348865509033,
        -0.07668069005012512,
        0.016236169263720512,
        -0.029035232961177826,
        0.22935158014297485,
        -0.03854258731007576,
        0.6656709313392639,
        0.6888691782951355,
        -0.6925637722015381,
        -0.8334934711456299,
        0.38915666937828064,
        -0.0029431304428726435,
        1.4715169668197632,
        -0.04936403036117554,
        2.078779458999634,
        0.04301673546433449,
        -0.04246651381254196,
        0.0515846386551857,
        0.050235528498888016,
        -0.03623339533805847,
        -0.18187928199768066,
        0.3645859658718109,
        0.12434327602386475,
        0.0934571623802185,
        0.6062628030776978,
        -0.3884999752044678,
        0.3253318667411804,
        0.05474285036325455,
        0.06804150342941284,
        -0.046997636556625366,
        0.09102745354175568,
        0.2334127128124237,
        0.28438040614128113,
        0.17409707605838776,
        -0.27357199788093567,
        0.4845915734767914,
        0.8381713032722473,
        -1.0438288450241089,
        -0.04594767838716507,
        -0.03474610671401024,
        0.24681207537651062,
        0.8699878454208374,
        0.2629918158054352,
        -0.6033781170845032,
        0.1761234998703003,
        -0.37088432908058167,
        0.0312843918800354,
        0.3989197015762329,
        -0.17075449228286743,
        -0.10708987712860107,
        0.7314019799232483,
        -0.10969482362270355,
        -0.19671709835529327,
        -0.78453129529953,
        -0.04918383061885834,
        -0.09060289710760117,
        -0.09912990033626556,
        0.10638688504695892,
        -0.25110068917274475,
        0.33613479137420654,
        -0.18829423189163208,
        -0.25374892354011536,
        0.26454877853393555,
        -0.23851971328258514,
        -0.09059407562017441,
        0.45933976769447327,
        -0.19397030770778656,
        -0.2139611840248108,
        0.26213210821151733,
        0.02886945568025112,
        -0.13800640404224396,
        -0.019945189356803894,
        0.007759312633424997,
        0.005728643853217363,
        0.037376441061496735,
        -0.026758568361401558,
        -0.19918355345726013,
        0.1340547651052475,
        -0.13679714500904083,
        -0.13877321779727936,
        -0.05109238624572754,
        -0.15221494436264038,
        -0.13671210408210754,
        0.1510205715894699,
        0.3805769979953766,
        -0.005248546600341797,
        0.5938278436660767,
        -0.5536196231842041,
        0.23110023140907288,
        1.0601027011871338,
        0.42567551136016846,
        0.6400682926177979,
        0.5413227677345276,
        -1.7160917520523071,
        -0.07580944895744324,
        0.1527969241142273,
        -0.2871944308280945,
        0.0897291824221611,
        0.05777914822101593,
        0.016834991052746773,
        0.10144353657960892,
        -0.10635949671268463,
        0.06405371427536011,
        -0.12302690744400024,
        0.4382094740867615,
        -0.25654199719429016,
        -0.2623465359210968,
        0.20459818840026855,
        -0.2938714921474457,
        -0.2529963552951813,
        0.27196577191352844,
        0.03320344164967537,
        -0.018144890666007996,
        1.2091777324676514,
        0.3508280813694,
        0.5378056764602661,
        -1.7708158493041992,
        0.21099995076656342,
        -0.07400641590356827,
        -0.3595496118068695,
        -0.20627593994140625,
        -0.11077931523323059,
        1.0887173414230347,
        -0.32652685046195984,
        0.6482601165771484,
        -0.14166299998760223,
        0.055562619119882584,
        0.17342863976955414,
        0.024347888305783272,
        0.43086591362953186,
        0.15116575360298157,
        -0.052602630108594894,
        0.10745302587747574,
        -0.2392682135105133,
        -0.21046596765518188,
        -0.20865432918071747,
        -0.046954430639743805,
        -0.018914273008704185,
        -0.0672774687409401,
        0.08484795689582825,
        -0.05577008053660393,
        0.8071987628936768,
        0.07070717215538025,
        0.1151602640748024,
        -0.16864769160747528,
        0.2038007378578186,
        0.009350457228720188,
        0.17476774752140045,
        0.18532076478004456,
        -0.00608490314334631,
        -1.2460590600967407,
        0.04177242890000343,
        0.43464019894599915,
        1.0228254795074463,
        1.1988756656646729,
        -1.219910979270935,
        -0.2634870409965515,
        0.12157061696052551,
        0.1614600270986557,
        0.037760138511657715,
        0.024163926020264626,
        -0.07623650878667831,
        -0.025199616327881813,
        -0.20439384877681732,
        -0.04562801867723465,
        0.33514389395713806,
        0.06176301836967468,
        -0.42309436202049255,
        0.20763060450553894,
        -0.4815889000892639,
        0.6127889752388,
        0.20435459911823273,
        -0.32380861043930054,
        -1.231638789176941,
        0.851085901260376,
        -0.018183276057243347,
        0.22595898807048798,
        -0.0646279901266098,
        -0.11011549085378647,
        0.15628579258918762,
        0.10394562780857086,
        -0.07991284132003784,
        -0.04078468680381775,
        0.04541250318288803,
        0.20161491632461548,
        -0.08769403398036957,
        0.10716082900762558,
        0.01347888819873333,
        -0.022625362500548363,
        -0.2689365744590759,
        -0.03174959868192673,
        0.30234262347221375,
        0.0029079397208988667,
        0.1825222671031952,
        0.09587137401103973,
        -0.8977270722389221,
        0.3923318684101105,
        0.04395033046603203,
        1.5105571746826172,
        0.7772795557975769,
        -1.60731840133667,
        0.06377159059047699,
        0.09572300314903259,
        -0.003914769738912582,
        -0.7025750875473022,
        -0.13785229623317719,
        0.26213765144348145,
        -0.011696736328303814,
        -0.18787261843681335,
        0.21138888597488403,
        -0.14626243710517883,
        0.18458595871925354,
        -0.25759240984916687,
        -0.19629259407520294,
        -0.05974511802196503,
        0.46932074427604675,
        -0.17776112258434296,
        0.20310254395008087,
        0.14692530035972595,
        -0.4280007779598236,
        -0.22337864339351654,
        -0.912379264831543,
        -0.7176852822303772,
        -1.1490614414215088,
        0.7179837822914124,
        -0.22685126960277557,
        0.42734426259994507,
        0.6450051665306091,
        -0.13245128095149994,
        0.09786012768745422,
        -0.591225266456604,
        -0.2403731495141983,
        -0.6040127873420715,
        -0.29931220412254333,
        0.09659671783447266,
        -0.23041866719722748,
        0.10538583993911743,
        -0.024559320881962776,
        0.04663929343223572,
        -0.14978888630867004,
        0.07362113147974014,
        -0.15693263709545135,
        -0.40852898359298706,
        -0.09248719364404678,
        -0.07234571129083633,
        0.0867028534412384,
        0.05679886043071747,
        0.10660520195960999,
        -0.04667608439922333,
        -0.024980880320072174,
        -0.24423927068710327,
        -0.0544084794819355,
        0.17975279688835144,
        0.28418558835983276,
        -0.0341598242521286,
        -0.061515238136053085,
        0.2435835301876068,
        -0.3765011727809906,
        -0.002707666251808405,
        0.18760894238948822,
        -0.15224970877170563,
        -0.10726438462734222,
        0.1271904706954956,
        -0.06037816405296326,
        0.048823725432157516,
        -0.15030303597450256,
        -0.4905552268028259,
        0.3655397891998291,
        -0.01757078245282173,
        0.21277515590190887,
        -0.047055598348379135,
        -0.13845320045948029,
        0.10937369614839554,
        0.017524095252156258,
        0.22102797031402588,
        0.36568355560302734,
        2.446662425994873,
        -0.6046711206436157,
        0.1876557171344757,
        -1.0783747434616089,
        -0.5802015662193298,
        -0.09779956191778183,
        0.15043871104717255,
        -0.10708406567573547,
        0.12476831674575806,
        -0.014650589786469936,
        -0.28237736225128174,
        0.07047584652900696,
        0.07072819769382477,
        -0.11174608021974564,
        0.10766467452049255,
        -0.04140765964984894,
        -0.2389782965183258,
        0.27046194672584534,
        -0.3888764977455139,
        0.0011370540596544743,
        -0.11933258920907974,
        0.11517050862312317,
        -0.005480495747178793,
        -0.06345820426940918,
        -0.20328298211097717,
        0.1327640414237976,
        0.9862027168273926,
        0.8216570615768433,
        0.3992421329021454,
        -1.2143951654434204,
        -0.3422919511795044,
        0.06578695774078369,
        -2.563815116882324,
        -0.4763917326927185,
        0.20950883626937866,
        0.2967689037322998,
        0.0007556425407528877,
        0.02128548175096512,
        -0.019035136327147484,
        -0.06469490379095078,
        0.08801636099815369,
        -0.02417348325252533,
        0.03294653818011284,
        -0.058292195200920105,
        0.3313516676425934,
        -0.617323637008667,
        -0.05387832596898079,
        -0.06105551868677139,
        0.1881055235862732,
        0.05999281257390976,
        -0.1260625272989273,
        -0.2637260854244232,
        0.029456377029418945,
        1.0644588470458984,
        0.7940465211868286,
        -0.21146036684513092,
        0.14709821343421936,
        0.34388086199760437,
        -0.15024439990520477,
        0.37708932161331177,
        -2.1995270252227783,
        0.013162732124328613,
        -5.061596393585205,
        -0.2802584767341614,
        0.0759894996881485,
        -0.02630416862666607,
        0.1702338457107544,
        -0.300650417804718,
        -0.6135256886482239,
        -1.038859486579895,
        -0.2193000316619873,
        0.04135511443018913,
        0.19537776708602905,
        -0.09973956644535065,
        0.05797554552555084,
        0.03871533274650574,
        0.03159778565168381,
        -0.05069520324468613,
        0.07162299752235413,
        -0.13632699847221375,
        0.45884260535240173,
        0.5057942867279053,
        0.8794484734535217,
        0.9031651616096497,
        0.18112671375274658,
        -1.2782870531082153,
        -0.30969804525375366,
        -0.2533501386642456,
        0.2096652388572693,
        0.13181708753108978,
        0.006525722797960043,
        0.053512874990701675,
        -0.08112338185310364,
        0.005522027146071196,
        -0.0034057078883051872,
        0.02896859310567379,
        0.009215040132403374,
        0.09994497895240784,
        0.3751220107078552,
        -0.685213029384613,
        0.12134534865617752,
        0.1949455440044403,
        -0.022447792813181877,
        0.013986613601446152,
        -0.0075971949845552444,
        0.05121112987399101,
        -0.027504608035087585,
        2.442481279373169,
        -1.2531911134719849,
        -1.3047499656677246,
        -0.24089397490024567,
        -0.2689095437526703,
        -0.3368518650531769,
        -0.023209579288959503,
        0.8513500690460205,
        0.1157168447971344,
        0.05784658342599869,
        0.0889623835682869,
        -0.009835758246481419,
        -0.04631827771663666,
        0.032579947263002396,
        -0.022886481136083603,
        0.03308400884270668,
        -0.006359998136758804,
        0.20867672562599182,
        -0.09014368057250977,
        0.010059362277388573,
        -0.0012510719243437052,
        0.2979288101196289,
        -0.04506856948137283,
        -0.15137024223804474,
        -0.012686480768024921,
        0.011911282315850258,
        0.1793535053730011,
        0.21845035254955292,
        -0.4778189957141876,
        0.048605769872665405,
        -1.7453776597976685,
        0.5338475108146667,
        1.244120478630066,
        -0.2945173978805542,
        0.08802751451730728,
        0.09015998244285583,
        -0.5526928901672363,
        -0.37908804416656494,
        -0.19762051105499268,
        0.009561161510646343,
        0.08876823633909225,
        0.07448115199804306,
        -0.038292497396469116,
        -0.013211716897785664,
        -0.1668204367160797,
        0.05599527806043625,
        -0.08521200716495514,
        0.3814828395843506,
        0.09993097186088562,
        -0.1827765554189682,
        -0.027053797617554665,
        0.14788536727428436,
        0.022091828286647797,
        0.24344077706336975,
        -0.5227392315864563,
        -0.35986337065696716,
        1.887622594833374,
        0.8580043911933899,
        -0.917307436466217,
        -1.3069812059402466,
        0.5809318423271179,
        0.028026927262544632,
        0.046575576066970825,
        1.6856988668441772,
        -0.06729227304458618,
        -0.02995554730296135,
        -0.30590522289276123,
        -0.09199464321136475,
        0.05609706789255142,
        0.13811585307121277,
        -0.11579529941082001,
        -0.10797922313213348,
        0.2607123851776123,
        -0.19297932088375092,
        0.18121007084846497,
        -0.14958181977272034,
        -0.17275679111480713,
        0.3870973587036133,
        -0.20973990857601166,
        0.21694830060005188,
        0.11563670635223389,
        -0.686978280544281,
        0.9674180746078491,
        -0.4618186056613922,
        0.8994442224502563,
        -0.09333612024784088,
        -0.5110129714012146,
        -1.4823027849197388,
        0.1454514116048813,
        -0.25374835729599,
        0.01758638769388199,
        -0.03581513091921806,
        0.0030804998241364956,
        -0.020642846822738647,
        -0.3199831247329712,
        0.33002007007598877,
        0.06170649826526642,
        0.028812125325202942,
        -0.0007764697074890137,
        0.017770061269402504,
        -0.21582713723182678,
        0.24766743183135986,
        -0.24618348479270935,
        0.17704211175441742,
        -0.2133219689130783,
        -0.6986246705055237,
        -0.5644514560699463,
        0.10168695449829102,
        -0.7334680557250977,
        -0.09130847454071045,
        -0.709192156791687,
        2.2045228481292725,
        0.06534318625926971,
        -0.7547268271446228,
        -1.384142279624939,
        -1.1409507989883423,
        0.23406082391738892,
        -0.206340491771698,
        -0.007188266608864069,
        0.14160330593585968,
        -0.22792914509773254,
        0.08298660069704056,
        -0.04990222677588463,
        0.0673123449087143,
        -0.05716696009039879,
        0.24562540650367737,
        0.22989417612552643,
        -0.010046306066215038,
        0.10759210586547852,
        -0.06078218296170235,
        -0.5500965714454651,
        0.31711095571517944,
        -0.031139813363552094,
        0.05549222603440285,
        0.14350557327270508,
        1.437949299812317,
        0.8728280663490295,
        0.23717354238033295,
        -0.09993015974760056,
        -1.7981842756271362,
        -0.35029706358909607,
        -0.14081867039203644,
        0.018823817372322083,
        -0.13885460793972015,
        0.3420200049877167,
        0.9416241645812988,
        0.5116485357284546,
        0.20684432983398438,
        0.15069805085659027,
        0.26670995354652405,
        -0.029252655804157257,
        -0.11059023439884186,
        -0.03886781632900238,
        0.016496917232871056,
        -0.4315152168273926,
        0.1541568636894226,
        -0.10740606486797333,
        0.023774389177560806,
        -0.28799474239349365,
        -0.0990891382098198,
        0.0771680474281311,
        0.2487623393535614,
        -0.1730329543352127,
        -0.07838761061429977,
        0.3658648133277893,
        0.4539065659046173,
        -0.05923103168606758,
        -0.029238073155283928,
        -0.12158475071191788,
        0.14754608273506165,
        0.010712921619415283,
        0.7046055197715759,
        0.0938786193728447,
        -0.1468377560377121,
        0.07768215239048004,
        -0.00983629934489727,
        -0.10206015408039093,
        0.06686923652887344,
        0.030143974348902702,
        0.2033495306968689,
        0.15799687802791595,
        0.03887438774108887,
        -0.011137471534311771,
        0.005263666156679392,
        0.0071677472442388535,
        0.15489599108695984,
        0.01697544939815998,
        -0.024519065394997597,
        -0.0786740779876709,
        -0.22048957645893097,
        -1.372416615486145,
        -0.6219573616981506,
        1.8044686317443848,
        0.5701935291290283,
        -0.5373082160949707,
        -0.19343872368335724,
        -0.03722549229860306,
        -0.19136792421340942,
        0.09754948318004608,
        0.054879333823919296,
        0.005506516434252262,
        -0.016245685517787933,
        -0.007810564711689949,
        0.008226687088608742,
        -0.0033049630001187325,
        -0.012876469641923904,
        -0.19237902760505676,
        0.06385483592748642,
        -0.12268924713134766,
        -0.025506386533379555,
        0.00015451290528289974,
        0.014085269533097744,
        0.019116371870040894,
        0.005245869979262352,
        0.005368686281144619,
        -0.24993084371089935,
        -2.272749662399292,
        2.3340370655059814,
        0.39618176221847534,
        -0.053234271705150604,
        -0.20367522537708282,
        -0.21199248731136322,
        -0.043566230684518814,
        -0.10324361175298691,
        -0.24131017923355103,
        -0.14622630178928375,
        0.13989797234535217,
        -0.14060869812965393,
        -0.06142932176589966,
        0.04839285463094711,
        -0.03519170358777046,
        -0.018407685682177544,
        0.07389785349369049,
        0.018722504377365112,
        0.049024082720279694,
        -0.014709033071994781,
        0.11160396784543991,
        -0.1554291546344757,
        -0.021960554644465446,
        -0.1750262826681137,
        -0.11864806711673737,
        0.13263754546642303,
        0.016183197498321533,
        0.2994851768016815,
        -0.37340793013572693,
        0.4551815986633301,
        0.9776821136474609,
        -0.6269068121910095,
        0.5526022911071777,
        0.06417001783847809,
        -0.25825679302215576,
        0.24736151099205017,
        0.6689603328704834,
        0.6043527126312256,
        0.060901883989572525,
        -0.24563296139240265,
        -0.4889701008796692,
        -0.3179827332496643,
        -1.4993807077407837,
        0.6503366827964783,
        0.17626935243606567,
        0.13170230388641357,
        -0.0036502256989479065,
        -0.00841155368834734,
        -0.049510013312101364,
        -0.08130434900522232,
        -0.2485744208097458,
        0.10617592185735703,
        -0.17198337614536285,
        0.1547945737838745,
        -0.07008492201566696,
        0.12122275680303574,
        0.34258607029914856,
        -0.26931214332580566,
        -0.5419180393218994,
        0.20302732288837433,
        0.22163617610931396,
        -0.12049003690481186,
        0.07945573329925537,
        1.0758861303329468,
        -0.5028154253959656,
        -0.15601620078086853,
        0.08415045589208603,
        -0.05626332759857178,
        -0.03125404566526413,
        -0.14141730964183807,
        0.18014466762542725,
        0.15132933855056763,
        -0.07283353060483932,
        0.3648875057697296,
        -0.1829967498779297,
        -0.25753873586654663,
        -0.06360434740781784,
        -0.42814385890960693,
        0.1615106165409088,
        0.38505157828330994,
        -0.02436050772666931,
        -0.6212009787559509,
        -1.1736137866973877,
        0.3143619894981384,
        0.34803470969200134,
        -0.11061745882034302,
        -0.9630411863327026,
        0.10747715830802917,
        0.8576874732971191,
        0.05361717939376831,
        -2.2076961994171143,
        -0.1294592171907425,
        0.278875470161438,
        0.011686086654663086,
        0.5739784240722656,
        0.027077382430434227,
        -0.546954870223999,
        0.011775367893278599,
        0.0649486780166626,
        0.054404474794864655,
        -0.2606436014175415,
        0.017241166904568672,
        -0.11358578503131866,
        -0.126790389418602,
        0.3695238530635834,
        -0.04523039609193802,
        0.064548060297966,
        0.06820693612098694,
        -1.2253166437149048,
        0.9619297385215759,
        0.2079463005065918,
        -0.808569073677063,
        0.5024946928024292,
        -0.0728578194975853,
        0.24689549207687378,
        -0.49495866894721985,
        0.08500075340270996,
        -0.31219321489334106,
        0.23417291045188904,
        -0.05931324139237404,
        0.13816653192043304,
        0.059215035289525986,
        -0.13298681378364563,
        0.05723579600453377,
        -0.024531476199626923,
        0.2547416388988495,
        -0.11217399686574936,
        0.33052849769592285,
        -0.2278490513563156,
        -0.13904720544815063,
        -0.023648759350180626,
        0.3516782522201538,
        -0.01015444565564394,
        0.052918072789907455,
        0.2335902452468872,
        0.31857722997665405,
        0.7669815421104431,
        -2.07310152053833,
        1.0201348066329956,
        -0.4624118208885193,
        0.20288638770580292,
        -0.10566454380750656,
        0.28017809987068176,
        0.2162005603313446,
        -0.016089407727122307,
        -0.0208180770277977,
        -0.006527490448206663,
        0.007115369662642479,
        0.005055427085608244,
        -0.004512360319495201,
        0.008967442438006401,
        0.0005861298996023834,
        -0.09425866603851318,
        0.08411885797977448,
        -0.08214792609214783,
        0.005521831568330526,
        0.0008461588295176625,
        0.0013450980186462402,
        0.016763780266046524,
        -0.0020697040017694235,
        0.010859361849725246,
        0.24956855177879333,
        -2.343501567840576,
        2.619703769683838,
        0.2836037576198578,
        -0.1236138790845871,
        -0.10299940407276154,
        -0.3275384306907654,
        0.03617327660322189,
        -0.13399478793144226,
        0.029735594987869263,
        1.2561790943145752,
        -0.014271341264247894,
        0.0033329918514937162,
        -0.03694146126508713,
        0.022101059556007385,
        0.0021627151872962713,
        0.01371313352137804,
        0.019831767305731773,
        -0.062195658683776855,
        0.13520021736621857,
        -0.14973576366901398,
        0.17206019163131714,
        -0.017461080104112625,
        0.016982868313789368,
        -0.025721633806824684,
        0.008185221813619137,
        0.004914993420243263,
        0.18463823199272156,
        0.8288634419441223,
        1.5579732656478882,
        -2.0080833435058594,
        -0.3234417736530304,
        -0.2518131136894226,
        0.45178014039993286,
        -0.05809350311756134,
        -0.05140259116888046,
        -0.17247560620307922,
        -0.5653297901153564,
        -0.46620678901672363,
        0.020405711606144905,
        0.2931685149669647,
        -0.013947275467216969,
        0.07803232967853546,
        0.013178633525967598,
        -0.10540970414876938,
        0.051792800426483154,
        0.0975136011838913,
        -0.03929893299937248,
        -0.0850200355052948,
        -0.36425620317459106,
        -0.08367712795734406,
        -0.021575024351477623,
        0.195685476064682,
        0.23312461376190186,
        0.044107645750045776,
        0.6245172619819641,
        0.20138907432556152,
        -0.5200638175010681,
        -2.3198137283325195,
        -0.599111020565033,
        1.6945550441741943,
        0.5942094922065735,
        -0.05530259758234024,
        0.011921852827072144,
        0.17185638844966888,
        0.698971152305603,
        -0.024862339720129967,
        0.049111369997262955,
        0.08693521469831467,
        0.5930966138839722,
        0.37842613458633423,
        -0.9467583894729614,
        -0.11930778622627258,
        -0.04709368199110031,
        0.2618788182735443,
        0.06071317940950394,
        0.07117994874715805,
        0.07327960431575775,
        0.18215471506118774,
        -0.029604848474264145,
        -0.03606989607214928,
        0.1980404257774353,
        0.31052595376968384,
        -0.03386895731091499,
        -0.6219118237495422,
        0.6440211534500122,
        0.582520604133606,
        -0.8958483934402466,
        -0.2906121611595154,
        0.1511341780424118,
        -0.013467967510223389,
        1.008100152015686,
        -0.15981054306030273,
        0.601061224937439,
        -1.047097086906433,
        -0.2320428192615509,
        -0.07984831184148788,
        -0.4034392237663269,
        -0.9135189056396484,
        0.14911088347434998,
        0.33865296840667725,
        -0.15567627549171448,
        -0.0653010755777359,
        0.1299259513616562,
        -0.034820616245269775,
        -0.3610305190086365,
        -0.060202162712812424,
        0.051888592541217804,
        0.07466983795166016,
        0.15229563415050507,
        -0.7412964105606079,
        -0.07067352533340454,
        0.4217489957809448,
        -0.26272156834602356,
        -0.09073413163423538,
        0.1280638873577118,
        0.17148497700691223,
        -0.13780204951763153,
        -1.6718868017196655,
        0.19261376559734344,
        -0.10988014191389084,
        -0.21096348762512207,
        0.13133588433265686,
        -0.0015159773174673319,
        -0.0915360376238823,
        0.06868072599172592,
        -0.04025879502296448,
        0.061291325837373734,
        0.4295404553413391,
        0.4361688196659088,
        0.23917396366596222,
        -0.3899818956851959,
        -0.5819361805915833,
        0.005692937411367893,
        0.014008433558046818,
        0.1608366072177887,
        0.051660649478435516,
        -0.07364669442176819,
        0.11967740207910538,
        -0.19392907619476318,
        0.1523563712835312,
        0.12538425624370575,
        -0.0660303458571434,
        -0.09119673818349838,
        0.019575119018554688,
        0.29950734972953796,
        0.09783842414617538,
        -0.12780578434467316,
        -0.24144239723682404,
        0.2910316586494446,
        -0.297358900308609,
        0.260368674993515,
        -0.3114219605922699,
        -0.14148426055908203,
        0.05143304541707039,
        0.12442714720964432,
        -0.0632532462477684,
        -0.3033220171928406,
        -0.19500359892845154,
        -0.3894481956958771,
        0.14810940623283386,
        -0.11656441539525986,
        -0.16312170028686523,
        0.18162602186203003,
        0.44487303495407104,
        0.3332749307155609,
        0.9623834490776062,
        0.5489769577980042,
        0.08031174540519714,
        0.35655325651168823,
        0.17429129779338837,
        0.053710341453552246,
        -0.7194753885269165,
        -0.14009398221969604,
        -0.031171273440122604,
        0.009111269377171993,
        0.0018208344699814916,
        0.01498879212886095,
        -0.010934742167592049,
        0.020438453182578087,
        -0.22441375255584717,
        0.32404541969299316,
        -0.09106025099754333,
        -0.32340207695961,
        0.036152325570583344,
        -0.016385242342948914,
        0.02180805616080761,
        0.012001966126263142,
        0.013946720398962498,
        -0.13662803173065186,
        -2.2823455333709717,
        0.7261196970939636,
        2.145138740539551,
        -0.4238910973072052,
        -0.039020612835884094,
        0.22647938132286072,
        -0.1560882031917572,
        -0.2308020442724228,
        -0.051591455936431885,
        -0.19625380635261536,
        0.35072189569473267,
        0.06328464299440384,
        -0.11447272449731827,
        0.009618937969207764,
        -0.012176522053778172,
        0.005211299285292625,
        -0.05110544711351395,
        0.2522558867931366,
        -0.36735212802886963,
        0.2723187506198883,
        -0.0018675577593967319,
        0.2622755467891693,
        -0.049429696053266525,
        -0.13351306319236755,
        -0.010428892448544502,
        -0.0872502475976944,
        0.21070891618728638,
        1.4675874710083008,
        -0.27673596143722534,
        0.5758983492851257,
        -0.6041768789291382,
        -0.3152773082256317,
        -0.6502858996391296,
        -0.4408443868160248,
        0.45270493626594543,
        0.22597095370292664,
        0.10569490492343903,
        0.2578596770763397,
        -0.00525255873799324,
        0.09580715000629425,
        -0.08134981244802475,
        0.035626061260700226,
        0.08829877525568008,
        -0.027501732110977173,
        -0.1709427684545517,
        -0.003879851195961237,
        -0.013076449744403362,
        -0.035090647637844086,
        -0.10594642907381058,
        -0.037576135247945786,
        -0.1345784217119217,
        -0.06857429444789886,
        0.04702261835336685,
        -0.061353638768196106,
        0.13237519562244415,
        0.6016921997070312,
        -1.4655271768569946,
        0.6168177723884583,
        0.4827924966812134,
        -0.347898006439209,
        0.049999579787254333,
        0.0788254514336586,
        -0.10611310601234436,
        -3.600860595703125,
        0.2998248040676117,
        -0.5304157137870789,
        0.4067001938819885,
        -0.09180903434753418,
        -0.14367416501045227,
        -0.2236950844526291,
        -1.2355726957321167,
        0.23379972577095032,
        0.4878230094909668,
        0.04174015671014786,
        -0.14190097153186798,
        0.4746958613395691,
        0.2776336371898651,
        -0.04261593520641327,
        -0.10940033197402954,
        -0.035963039845228195,
        0.2445559799671173,
        0.16392454504966736,
        -0.45822715759277344,
        0.12433046102523804,
        0.09808273613452911,
        -0.7368755340576172,
        -0.021812312304973602,
        0.4364897310733795,
        0.29072365164756775,
        -0.06842280924320221,
        -0.39555129408836365,
        -0.37642231583595276,
        0.05558208376169205,
        0.025148853659629822,
        -0.0022010095417499542,
        0.05472731962800026,
        -0.006593772210180759,
        -0.0011553228832781315,
        -0.01697489619255066,
        0.3893306851387024,
        -0.639784038066864,
        -0.08776889741420746,
        0.1830679476261139,
        0.2789819836616516,
        -0.0009910038206726313,
        0.016269095242023468,
        0.015316691249608994,
        -0.13695445656776428,
        2.1298716068267822,
        -0.7183808088302612,
        0.05917355418205261,
        -0.3028591275215149,
        -0.11700694262981415,
        -0.5968357920646667,
        -0.34529054164886475,
        -0.8950988054275513,
        0.2146911919116974,
        2.3489911556243896,
        -2.0342965126037598,
        0.544429361820221,
        -0.06534869223833084,
        0.078850157558918,
        0.37769615650177,
        -0.07676561921834946,
        -0.15435338020324707,
        0.059425681829452515,
        0.8449769616127014,
        -0.6203345656394958,
        -0.2109704613685608,
        0.020982664078474045,
        -0.07308920472860336,
        -0.06830018758773804,
        0.01702636107802391,
        0.12401001155376434,
        -0.21148177981376648,
        -1.7159982919692993,
        0.7985947728157043,
        -0.15178100764751434,
        -0.0030062017031013966,
        0.5348455309867859,
        0.11303818970918655,
        0.1744643598794937,
        0.5408428907394409,
        -0.20479615032672882,
        -0.5703632235527039,
        -0.5088680982589722,
        0.37086221575737,
        0.0524073988199234,
        -0.24699224531650543,
        0.0041638510301709175,
        0.016949482262134552,
        0.07835213094949722,
        0.11364063620567322,
        0.1879141479730606,
        0.5087576508522034,
        -0.008843217976391315,
        -0.29805710911750793,
        -0.2988656461238861,
        -0.26425591111183167,
        0.014060492627322674,
        0.11546985059976578,
        0.10998466610908508,
        -0.47086772322654724,
        -0.24841882288455963,
        0.47141942381858826,
        0.26252514123916626,
        0.29294905066490173,
        0.13114477694034576,
        0.025264305993914604,
        -0.12274230271577835,
        0.027508825063705444,
        -0.7520747780799866,
        -0.5058400630950928,
        -0.2497957944869995,
        -0.4274592101573944,
        -0.06395695358514786,
        0.08484464138746262,
        -0.06681700050830841,
        -0.24890823662281036,
        0.16749271750450134,
        0.10716880857944489,
        -0.1371970921754837,
        -0.15337294340133667,
        -0.4615938663482666,
        -0.06435973197221756,
        0.03420127555727959,
        -0.028638992458581924,
        -0.1488560289144516,
        -0.03270673751831055,
        -0.24098549783229828,
        0.03191085904836655,
        -0.0714978277683258,
        -0.10369779169559479,
        0.28514793515205383,
        -0.1527589112520218,
        0.25915712118148804,
        0.43503910303115845,
        -0.19311992824077606,
        1.546728253364563,
        -0.2712026536464691,
        -0.07888755947351456,
        -0.008973566815257072,
        0.09392803907394409,
        0.26380160450935364,
        -0.5371390581130981,
        0.5285762548446655,
        -0.07010243833065033,
        0.08755265921354294,
        0.3216012120246887,
        -0.2366691380739212,
        -0.21741487085819244,
        0.2003909796476364,
        0.18696555495262146,
        0.07010303437709808,
        0.028812143951654434,
        0.2226364016532898,
        1.3885550498962402,
        -0.47101783752441406,
        0.2376803457736969,
        -0.7108312845230103,
        -0.2767517566680908,
        0.6837271451950073,
        0.23748037219047546,
        -0.6582189798355103,
        -0.04762335121631622,
        -1.3780885934829712,
        -0.21834829449653625,
        0.11990675330162048,
        -0.16155388951301575,
        -0.040500253438949585,
        0.11940143257379532,
        -0.0061988369561731815,
        -0.055091749876737595,
        0.07829603552818298,
        -0.34568506479263306,
        0.14680662751197815,
        0.23911312222480774,
        0.0213394183665514,
        -0.1114095002412796,
        0.07613949477672577,
        0.0015319435624405742,
        0.07600938528776169,
        -0.04604123532772064,
        -0.27560293674468994,
        -1.109931230545044,
        -1.026271104812622,
        1.8455469608306885,
        0.33020907640457153,
        -0.16676485538482666,
        0.33001092076301575,
        -0.4500255882740021,
        0.05379226803779602,
        0.21146027743816376,
        0.29232197999954224,
        -0.24097391963005066,
        -0.07996687293052673,
        0.12450342625379562,
        -0.006816149223595858,
        -0.016682207584381104,
        -0.09067676961421967,
        0.06532341241836548,
        -0.10900381207466125,
        -0.13014192879199982,
        -0.048208173364400864,
        0.3339754045009613,
        -0.3314294219017029,
        0.13647988438606262,
        -0.04597989469766617,
        -0.08989188075065613,
        -0.23530195653438568,
        -0.6186547875404358,
        -0.7754453420639038,
        -0.09002510458230972,
        0.2768942713737488,
        0.07966595143079758,
        1.1905258893966675,
        -1.1185333728790283,
        -0.25253891944885254,
        0.20263919234275818
      ]
    },
    {
      "architecture": "normalization",
      "bias": [
        -0.03363928571343422,
        -0.06964592635631561,
        -0.4608655273914337,
        -0.21541602909564972,
        -0.035697851330041885,
        -0.053833719342947006,
        -0.08223620802164078,
        -0.3975534439086914,
        -0.13651230931282043,
        -0.036751363426446915,
        -0.026754379272460938,
        -0.2040550857782364,
        -0.0232105515897274,
        -0.00016972803859971464,
        -0.0002833207545336336,
        0.006213285960257053,
        -0.0006552981212735176,
        -0.032849084585905075,
        -0.08958428353071213,
        -0.1396554708480835,
        0.00014077158994041383,
        -0.012231077067553997,
        -0.0008118792320601642,
        0.0009985131910070777,
        -0.061369989067316055,
        -0.026132360100746155,
        -0.028940020129084587,
        -1.766289642546326e-06,
        -0.03246409818530083,
        -0.07071364670991898,
        -0.009460755623877048,
        -0.14956064522266388,
        -0.01495008822530508,
        -0.0512777604162693,
        -0.021472696214914322,
        -0.05976036190986633,
        -0.006832476705312729,
        -0.009597031399607658,
        -0.0029936095234006643,
        -0.0733344629406929,
        -0.0017610143404453993,
        -0.00061862199800089,
        0.0014399145729839802,
        -0.03561244532465935,
        -0.08162850141525269,
        -0.05480146035552025,
        -0.020161353051662445,
        -0.032826002687215805,
        -0.01617743819952011,
        -0.14699378609657288,
        -0.00038651516661047935,
        0.0016062455251812935,
        -0.007002285681664944,
        -0.01794571243226528,
        -0.030748745426535606,
        -0.00016767089255154133,
        -0.40721049904823303,
        -0.04535789042711258,
        -0.005167762283235788,
        -0.0003275506605859846,
        0.0031527739483863115,
        -0.276266485452652,
        -0.08517502248287201,
        -0.0014539174735546112
      ],
      "weights": [
        12.952994346618652,
        21.373336791992188,
        3.3662912845611572,
        6.429198741912842,
        18.798999786376953,
        35.085365295410156,
        16.208213806152344,
        11.021810531616211,
        7.703315734863281,
        27.03810691833496,
        19.881507873535156,
        13.349928855895996,
        19.46497344970703,
        26.502004623413086,
        21.68915557861328,
        44.44187545776367,
        34.57865524291992,
        28.42547607421875,
        8.174405097961426,
        11.731573104858398,
        91.45340728759766,
        22.62470817565918,
        34.603763580322266,
        104.5447998046875,
        7.036867618560791,
        26.577411651611328,
        11.508455276489258,
        24.242572784423828,
        15.497663497924805,
        11.580904006958008,
        17.86397933959961,
        6.10828161239624,
        23.27018165588379,
        28.947500228881836,
        17.211557388305664,
        10.536069869995117,
        33.195858001708984,
        24.557477951049805,
        36.080299377441406,
        20.248046875,
        70.11759185791016,
        35.42485427856445,
        7.95122766494751,
        18.322290420532227,
        12.413736343383789,
        20.73558807373047,
        54.188018798828125,
        32.357444763183594,
        23.288766860961914,
        8.624327659606934,
        20.042789459228516,
        65.0218505859375,
        18.328954696655273,
        33.29218292236328,
        24.352636337280273,
        55.740238189697266,
        3.6926794052124023,
        15.133357048034668,
        27.102798461914062,
        29.425296783447266,
        83.6168441772461,
        7.6063947677612305,
        18.468183517456055,
        29.613508224487305
      ]
    },
    {
      "activation": "rectified",
      "architecture": "dense",
      "bias": [
        -0.23889069259166718,
        0.025881171226501465,
        -0.31267523765563965,
        -0.2697058320045471,
        -0.4143768846988678,
        -0.5108294486999512,
        0.10773160308599472,
        0.11701280623674393,
        0.13635221123695374,
        -0.10101798921823502,
        -0.11860370635986328,
        -0.2897956073284149,
        -0.13011761009693146,
        0.25009462237358093,
        0.06187203526496887,
        -0.3237031400203705,
        -0.22726133465766907,
        -0.19604355096817017,
        -0.1358529031276703,
        0.3559841811656952,
        -0.03500550240278244,
        0.04196542501449585,
        0.370012491941452,
        -0.06509006768465042,
        0.1128641813993454,
        0.2006804198026657,
        -0.3605620861053467,
        -0.2801860272884369,
        -0.4145697057247162,
        -0.3688969016075134,
        -0.3095220923423767,
        -0.032798439264297485
      ],
      "weights": [
        -0.5975242853164673,
        0.5822838544845581,
        0.46973884105682373,
        -0.27877041697502136,
        -0.47458240389823914,
        -0.09097498655319214,
        0.17516817152500153,
        -0.22930307686328888,
        -0.37212270498275757,
        -0.23967678844928741,
        0.06644516438245773,
        0.7609880566596985,
        -0.14576302468776703,
        -0.28356412053108215,
        -0.16181810200214386,
        0.19438067078590393,
        0.581626296043396,
        0.1749313771724701,
        -0.5803019404411316,
        0.37339717149734497,
        -0.06513769179582596,
        -0.41633284091949463,
        -0.25165337324142456,
        -0.0667952299118042,
        -0.3160124719142914,
        -0.5301312804222107,
        -0.13882307708263397,
        0.17824386060237885,
        0.3011767864227295,
        0.09133817255496979,
        -0.3669417202472687,
        -0.15173056721687317,
        0.300666481256485,
        -0.1797090768814087,
        -0.5018507838249207,
        -0.25393015146255493,
        0.7404490113258362,
        -0.7246997952461243,
        -0.1356828361749649,
        -0.4714386761188507,
        -0.08366158604621887,
        0.008517762646079063,
        -0.2840785086154938,
        0.33990535140037537,
        0.050714850425720215,
        -0.02943904884159565,
        0.03708522766828537,
        0.22411485016345978,
        -0.2443029284477234,
        -0.002977530937641859,
        0.13005061447620392,
        -0.14867959916591644,
        -0.9140568971633911,
        -0.18624287843704224,
        3.740751708392054e-06,
        -0.20110122859477997,
        0.022915005683898926,
        0.019480649381875992,
        0.22713305056095123,
        0.3225899934768677,
        -0.31572225689888,
        0.5202441215515137,
        0.38423746824264526,
        0.23301123082637787,
        -0.2472710758447647,
        0.0031460842583328485,
        0.010145156644284725,
        0.20692911744117737,
        0.4618373215198517,
        -0.14229390025138855,
        0.024310754612088203,
        -0.6132652759552002,
        0.43181848526000977,
        -0.03713337704539299,
        -0.41450923681259155,
        0.3036576211452484,
        -0.051393937319517136,
        0.5806797742843628,
        -0.1117679700255394,
        -0.041898224502801895,
        -0.1273336261510849,
        0.28621992468833923,
        0.6301149725914001,
        -0.0014594875974580646,
        0.16166488826274872,
        -0.6172544360160828,
        0.3273642361164093,
        0.032658208161592484,
        -0.36436036229133606,
        0.276225745677948,
        -0.25345584750175476,
        -0.21564050018787384,
        0.32688409090042114,
        -0.4658888578414917,
        0.22977544367313385,
        0.021221010014414787,
        -0.2777845561504364,
        0.236467644572258,
        0.12696070969104767,
        -0.18283984065055847,
        -0.03770912438631058,
        0.06414741277694702,
        -0.021933548152446747,
        -0.33842194080352783,
        -0.10754077136516571,
        0.061611108481884,
        -0.2786448001861572,
        0.21707642078399658,
        -0.19357000291347504,
        0.37851640582084656,
        -0.06681010127067566,
        0.33470648527145386,
        0.11604199558496475,
        -0.07169494777917862,
        0.3388158977031708,
        -0.22313177585601807,
        -0.006737749557942152,
        -1.0719860792160034,
        0.051049258559942245,
        -0.056733980774879456,
        0.02497287467122078,
        0.1420724242925644,
        -0.3955670893192291,
        -0.2827993333339691,
        0.11529702693223953,
        -0.1428859531879425,
        0.6748175024986267,
        -0.29610055685043335,
        -0.030478322878479958,
        -0.4264620840549469,
        0.19999270141124725,
        -0.10607443004846573,
        0.11904056370258331,
        0.038347892463207245,
        0.6093277931213379,
        0.22831425070762634,
        -0.346956729888916,
        -0.3694995045661926,
        -0.37094932794570923,
        0.5217430591583252,
        -0.0972081869840622,
        0.3231876790523529,
        0.49503958225250244,
        -0.4564353823661804,
        -0.02442549541592598,
        -0.2904873192310333,
        0.4478133022785187,
        -0.08814157545566559,
        -0.04714339226484299,
        -0.3779839873313904,
        -0.49019140005111694,
        -0.1814650148153305,
        -0.081873320043087,
        0.09532942622900009,
        -0.8489823341369629,
        0.28736159205436707,
        0.08523387461900711,
        0.5026294589042664,
        -0.042110566049814224,
        -0.14156562089920044,
        0.07059357315301895,
        0.610233724117279,
        0.18996064364910126,
        -0.2581390142440796,
        -0.02185477688908577,
        0.4270288944244385,
        0.13694797456264496,
        -0.5025508403778076,
        0.0629281997680664,
        0.2593275010585785,
        -0.006604649592190981,
        0.2049250453710556,
        0.10441365092992783,
        -0.33285465836524963,
        -0.042171526700258255,
        0.03762896731495857,
        0.23041968047618866,
        -0.04369964823126793,
        0.042823586612939835,
        -0.20848599076271057,
        -0.09542812407016754,
        0.4568491578102112,
        -0.476762592792511,
        0.7454320788383484,
        0.23716647922992706,
        -0.06214137375354767,
        -0.15665672719478607,
        0.4087853729724884,
        -0.4094994068145752,
        0.26584818959236145,
        -0.21300584077835083,
        0.5440935492515564,
        -0.08041363209486008,
        0.2698848843574524,
        -0.2676278352737427,
        -0.40434032678604126,
        -0.8397109508514404,
        -0.33493706583976746,
        -0.10622696578502655,
        -0.07956694811582565,
        -0.1274261176586151,
        -0.08029039949178696,
        -0.06703631579875946,
        -0.26871564984321594,
        0.25327834486961365,
        0.3611331582069397,
        0.32090556621551514,
        -0.18115019798278809,
        0.16680097579956055,
        0.14217261970043182,
        0.07007353007793427,
        0.4360143840312958,
        -0.07180517166852951,
        -0.29110831022262573,
        0.24572619795799255,
        -0.18616041541099548,
        -0.01382709015160799,
        -0.04861166328191757,
        0.18008674681186676,
        0.1675080806016922,
        0.28606969118118286,
        -0.3822222650051117,
        -0.2735251188278198,
        -0.007330708205699921,
        -0.04318420588970184,
        -0.04902442544698715,
        -0.7681339383125305,
        -0.15951886773109436,
        0.129825621843338,
        0.12598243355751038,
        0.3460795283317566,
        -0.1085096225142479,
        0.11307226866483688,
        0.32821983098983765,
        0.03876148536801338,
        -0.06409148126840591,
        -0.1612204611301422,
        0.6867878437042236,
        0.13695082068443298,
        0.34157368540763855,
        0.3261861801147461,
        0.0985884964466095,
        0.012464345432817936,
        -0.14417390525341034,
        0.023472169414162636,
        -0.3691975176334381,
        0.08503136038780212,
        -0.7621058821678162,
        -0.10955029726028442,
        0.4676530659198761,
        -0.09942403435707092,
        0.5348429679870605,
        -0.3474709391593933,
        -0.04197455197572708,
        -0.10150226205587387,
        0.0038055044133216143,
        -0.06920630484819412,
        0.15581165254116058,
        -0.38402625918388367,
        0.4099493622779846,
        -0.12909285724163055,
        -0.031526803970336914,
        -0.10909497737884521,
        0.3104744553565979,
        0.08732007443904877,
        -0.09595461934804916,
        0.17756447196006775,
        0.008687600493431091,
        -0.11028609424829483,
        -0.18902863562107086,
        0.1432492583990097,
        -0.47041574120521545,
        0.7535411715507507,
        0.0037855154369026423,
        0.06466403603553772,
        -0.12958693504333496,
        -0.07441280037164688,
        -0.03507218882441521,
        -0.054215312004089355,
        -0.27846047282218933,
        0.027961552143096924,
        -0.01367251854389906,
        -0.0587746687233448,
        0.18871846795082092,
        0.38921263813972473,
        -0.0317162349820137,
        0.10173199325799942,
        0.07549013197422028,
        -0.8153664469718933,
        -0.00451849726960063,
        -0.07600339502096176,
        0.09133777767419815,
        -0.05201004445552826,
        0.062903493642807,
        0.34924277663230896,
        -0.1594586819410324,
        -0.8460883498191833,
        0.18865370750427246,
        0.0032000141218304634,
        -0.05589984357357025,
        0.020597243681550026,
        0.1810905486345291,
        0.9328776001930237,
        0.2758995592594147,
        -0.05717393383383751,
        -0.011449684388935566,
        -0.02567167393863201,
        -0.15480247139930725,
        0.010169798508286476,
        0.2543850243091583,
        0.39946451783180237,
        0.013233685865998268,
        -0.07348824292421341,
        -0.35687267780303955,
        0.26285842061042786,
        0.15411004424095154,
        -0.4501597285270691,
        -0.12781041860580444,
        0.06866516917943954,
        -0.018769681453704834,
        0.22463570535182953,
        0.30734577775001526,
        -0.028960343450307846,
        0.11650346964597702,
        -0.2981998920440674,
        -0.24173717200756073,
        -0.3002753257751465,
        0.3357498347759247,
        0.8959612846374512,
        -0.006882840301841497,
        -0.05579695850610733,
        -0.05576043948531151,
        -0.14112579822540283,
        0.06625024229288101,
        0.2034560889005661,
        -0.9007375240325928,
        0.11423458904027939,
        -0.19586652517318726,
        -0.17867793142795563,
        -0.36553558707237244,
        -0.06308451294898987,
        -0.8352017402648926,
        0.2832387089729309,
        -0.6601134538650513,
        -1.9252779483795166,
        0.05698136240243912,
        -0.12300515919923782,
        0.07289575040340424,
        0.24274127185344696,
        0.22351083159446716,
        0.1164608970284462,
        -0.26409777998924255,
        0.14265374839305878,
        -0.016548294574022293,
        0.10541103035211563,
        -0.03956136479973793,
        0.032932624220848083,
        -0.1065383106470108,
        0.2064668983221054,
        -0.007212093099951744,
        -0.2973785400390625,
        0.1533263474702835,
        -0.44619837403297424,
        -0.6139638423919678,
        0.5426958799362183,
        -0.09698110818862915,
        -0.13461315631866455,
        -0.33666881918907166,
        -0.12197066843509674,
        -0.772084653377533,
        -0.4316655397415161,
        -0.9507138729095459,
        -0.08280982822179794,
        0.09242957830429077,
        -0.08749952167272568,
        -0.10508568584918976,
        0.05940966308116913,
        0.15903015434741974,
        -0.052949558943510056,
        0.3385546803474426,
        -0.5340673923492432,
        -0.12277902662754059,
        -0.10770843923091888,
        -0.0037159211933612823,
        -0.1886725276708603,
        0.19255660474300385,
        0.0346059687435627,
        -0.05403129383921623,
        -0.2767593264579773,
        -0.1296607106924057,
        0.12368690967559814,
        -0.372435986995697,
        -0.4581243097782135,
        -0.1176236942410469,
        -0.2487928569316864,
        0.17737266421318054,
        0.19047310948371887,
        -0.22182217240333557,
        -0.14452075958251953,
        -0.13138334453105927,
        -0.18160341680049896,
        -0.5075390934944153,
        -0.7165164947509766,
        0.07743681222200394,
        0.0375002883374691,
        0.10196983069181442,
        -0.26600855588912964,
        0.0007724675815552473,
        0.21182280778884888,
        -0.21369825303554535,
        0.11606327444314957,
        -0.026710771024227142,
        0.4072846472263336,
        -0.002112016547471285,
        0.40497148036956787,
        -0.29473549127578735,
        -0.420788437128067,
        0.24231921136379242,
        0.17335480451583862,
        0.20787997543811798,
        0.16491271555423737,
        0.8241609930992126,
        -0.19203275442123413,
        0.4387437105178833,
        0.1401686817407608,
        -0.02275787480175495,
        0.2575455904006958,
        -0.18879671394824982,
        -0.16722096502780914,
        -0.6200183033943176,
        -0.3657130300998688,
        -0.10112838447093964,
        -0.2086324393749237,
        0.0502924881875515,
        0.006051534321159124,
        0.1149006187915802,
        -0.10840142518281937,
        -0.4192277491092682,
        -0.5326985716819763,
        0.10043948143720627,
        -0.04206965118646622,
        0.6357239484786987,
        1.0415881872177124,
        0.07937929779291153,
        -0.29626986384391785,
        0.28789451718330383,
        -0.26802292466163635,
        -0.42847469449043274,
        0.13434214890003204,
        0.293332576751709,
        -0.30021411180496216,
        -0.23757602274417877,
        -0.08771443367004395,
        -0.2056346982717514,
        0.27104657888412476,
        0.0007862517377361655,
        0.44419828057289124,
        -0.3398136794567108,
        0.04797821491956711,
        -0.37171271443367004,
        0.5516343116760254,
        -0.45408689975738525,
        -0.19799892604351044,
        0.17623691260814667,
        0.015057762153446674,
        -0.2126946896314621,
        -0.03425833582878113,
        0.34761491417884827,
        0.09013014286756516,
        0.4348589777946472,
        -0.0923958271741867,
        -0.28556448221206665,
        -0.3564656376838684,
        0.5223578214645386,
        -0.42788517475128174,
        -0.18328513205051422,
        0.10041434317827225,
        -0.07066362351179123,
        -0.1746382713317871,
        0.058393992483615875,
        0.24351714551448822,
        0.14490777254104614,
        0.2568866014480591,
        -0.22404193878173828,
        0.5681807994842529,
        -0.10475414991378784,
        -0.19517549872398376,
        -0.20815038681030273,
        0.3875141143798828,
        -0.19353564083576202,
        -0.6814321875572205,
        0.11962854862213135,
        0.5615339279174805,
        -0.027891498059034348,
        0.24676436185836792,
        -0.18234527111053467,
        0.00397550268098712,
        -0.7580503225326538,
        0.09556993097066879,
        0.029710298404097557,
        -1.022371530532837,
        -0.3128168284893036,
        -0.2526211142539978,
        -0.011778989806771278,
        0.4194468557834625,
        -0.060667309910058975,
        -0.06796634942293167,
        -0.1477421522140503,
        -0.1481613665819168,
        0.7387546896934509,
        -0.01065921876579523,
        0.325870156288147,
        0.531884491443634,
        -0.3304232954978943,
        0.31512153148651123,
        -0.10815159976482391,
        -0.0386471301317215,
        0.47754937410354614,
        0.4770914316177368,
        -0.08316361159086227,
        0.23013809323310852,
        0.3419075310230255,
        0.141216441988945,
        -0.6273102760314941,
        0.08952952921390533,
        -0.3080976605415344,
        0.028059976175427437,
        0.10592125356197357,
        0.0027969861403107643,
        0.1553737223148346,
        -0.2976561188697815,
        -0.01332163717597723,
        -0.07949203252792358,
        -0.18419238924980164,
        0.43222641944885254,
        0.11940838396549225,
        0.09004714339971542,
        0.23089410364627838,
        -0.188897967338562,
        0.017779555171728134,
        -0.710262656211853,
        0.0754818320274353,
        -0.18522217869758606,
        0.05416247621178627,
        0.359976589679718,
        0.23180998861789703,
        0.7063039541244507,
        -0.08461323380470276,
        0.40483197569847107,
        -0.6665013432502747,
        -0.4593330919742584,
        -0.3138071894645691,
        -0.7726290822029114,
        0.3553159832954407,
        0.21684511005878448,
        -0.031674377620220184,
        0.07543046772480011,
        -0.40521037578582764,
        -0.349098265171051,
        0.17875587940216064,
        -0.3555053174495697,
        0.14565235376358032,
        0.13065069913864136,
        -0.2041631042957306,
        -0.32308465242385864,
        0.042427655309438705,
        0.3905965983867645,
        0.3411208391189575,
        -0.21752625703811646,
        0.030500607565045357,
        -0.16289333999156952,
        -0.1409512609243393,
        0.013390413485467434,
        -0.5659844875335693,
        -0.2867383062839508,
        -0.10050821304321289,
        -0.0012182672508060932,
        0.18145987391471863,
        -0.012562461197376251,
        0.017283178865909576,
        -0.11183785647153854,
        0.041142869740724564,
        -0.0857827216386795,
        0.12754464149475098,
        -0.304826557636261,
        0.05470177158713341,
        -0.04951772093772888,
        -0.6401867270469666,
        -0.038562506437301636,
        -0.32632267475128174,
        -0.49307432770729065,
        -0.4663611948490143,
        -0.4907257854938507,
        0.00862432736903429,
        0.44822534918785095,
        -0.15300901234149933,
        -0.1153142973780632,
        -0.6754159927368164,
        -0.3315525949001312,
        -0.2785555124282837,
        -0.72417151927948,
        -0.09001550078392029,
        0.2043341100215912,
        -0.3754613995552063,
        0.20453277230262756,
        -0.1471301019191742,
        0.11968467384576797,
        0.38485148549079895,
        -0.05153122544288635,
        -0.08831074833869934,
        0.010087280534207821,
        -0.4135648012161255,
        -0.05448165908455849,
        0.03781967982649803,
        -0.201847642660141,
        -0.20714135468006134,
        -0.6103231310844421,
        -0.05407898500561714,
        -3.4419538974761963,
        -0.9212777018547058,
        0.924324095249176,
        -0.09320811927318573,
        -0.1353309154510498,
        -0.06003347784280777,
        -0.49908435344696045,
        0.8121118545532227,
        -1.8996727466583252,
        -0.7115476727485657,
        0.168453648686409,
        0.0752362608909607,
        0.01536329835653305,
        -0.30826616287231445,
        -0.002313483040779829,
        0.06617123633623123,
        -0.8128589987754822,
        -0.38254642486572266,
        -0.2772921025753021,
        -0.211724191904068,
        0.04743681475520134,
        -0.23299448192119598,
        -0.19678127765655518,
        -0.42915353178977966,
        0.15108878910541534,
        0.03652288764715195,
        -0.27327319979667664,
        -0.47261348366737366,
        0.7473928928375244,
        -0.07131652534008026,
        -0.10178597271442413,
        -0.20393934845924377,
        -0.4687643349170685,
        0.40934956073760986,
        0.4526982307434082,
        0.2954849898815155,
        0.36173632740974426,
        -0.2924336791038513,
        0.14416484534740448,
        0.30903178453445435,
        -0.07412122935056686,
        -0.14338438212871552,
        -0.23598453402519226,
        -0.052342191338539124,
        0.3489043414592743,
        -0.12122515588998795,
        -0.03841722756624222,
        -0.7227625250816345,
        0.698890745639801,
        0.29867392778396606,
        -0.07650808244943619,
        -0.16439056396484375,
        0.062452055513858795,
        0.07223856449127197,
        0.09199149906635284,
        0.1954343318939209,
        -0.01413538958877325,
        -0.26275771856307983,
        0.5497984290122986,
        -0.20834241807460785,
        0.1777179092168808,
        -0.5429952144622803,
        0.441883385181427,
        0.46005094051361084,
        -0.0466141477227211,
        0.16650240123271942,
        0.1828494817018509,
        -0.12983094155788422,
        -0.0003554970899131149,
        0.12533770501613617,
        0.2475779503583908,
        -0.08161267638206482,
        -0.009253463707864285,
        -0.12875407934188843,
        -0.09547380357980728,
        -0.19455258548259735,
        -0.5976980924606323,
        -0.031121117994189262,
        -0.1994667500257492,
        -0.130321204662323,
        -0.06703729182481766,
        0.474642276763916,
        -0.2920682430267334,
        0.32021835446357727,
        -0.2952124774456024,
        0.7957643270492554,
        0.21510754525661469,
        -0.020631711930036545,
        0.5744935870170593,
        -0.015013228170573711,
        -0.23495736718177795,
        -0.27724266052246094,
        0.21679286658763885,
        -0.10242605209350586,
        -0.18474791944026947,
        0.30968764424324036,
        0.22251687943935394,
        -0.18715384602546692,
        -0.7570062279701233,
        0.2139102816581726,
        0.3279931843280792,
        -0.5707714557647705,
        0.26933395862579346,
        0.5631862282752991,
        -0.3854430317878723,
        -0.09740182757377625,
        -0.08130805939435959,
        0.11223986744880676,
        -0.5063549876213074,
        -0.20722946524620056,
        -0.07080301642417908,
        0.6235817670822144,
        0.3200031816959381,
        0.29067257046699524,
        -0.11689163744449615,
        -0.26833611726760864,
        -0.258937805891037,
        0.018127528950572014,
        0.1576734483242035,
        0.8817309141159058,
        -0.33874836564064026,
        0.16335231065750122,
        0.494000643491745,
        -0.06190042197704315,
        0.017421633005142212,
        -0.25390759110450745,
        -0.044811051338911057,
        0.09806881844997406,
        0.014048765413463116,
        -0.21961086988449097,
        0.0705825537443161,
        -0.026686348021030426,
        -0.1510499119758606,
        0.16216866672039032,
        -0.14254556596279144,
        -0.21646451950073242,
        0.04031800106167793,
        -0.41781240701675415,
        -0.03929543495178223,
        0.4794170558452606,
        0.21650740504264832,
        0.15815025568008423,
        -0.24387411773204803,
        0.31342360377311707,
        -0.002621536375954747,
        -0.20918478071689606,
        -0.4779302179813385,
        -0.06622514873743057,
        -0.2319260835647583,
        -0.04582756757736206,
        -0.11445752531290054,
        0.46880602836608887,
        0.20741090178489685,
        -0.1496453434228897,
        -0.4580083191394806,
        0.2052009403705597,
        -0.25701701641082764,
        -0.1452764868736267,
        -0.34088993072509766,
        -0.12356080859899521,
        0.12728413939476013,
        -0.08969055861234665,
        -0.13135333359241486,
        0.003051523584872484,
        -0.31286895275115967,
        -0.05923384055495262,
        0.16393157839775085,
        0.11893099546432495,
        -0.15756860375404358,
        -0.5553559064865112,
        -0.0997755378484726,
        -0.09323751926422119,
        0.11475758999586105,
        0.06567590683698654,
        0.18950651586055756,
        -0.12473373115062714,
        -0.11287069320678711,
        -0.28726062178611755,
        -0.06119154766201973,
        -0.20045751333236694,
        0.07769704610109329,
        0.8635538220405579,
        -0.06810524314641953,
        -0.4597281217575073,
        0.16040118038654327,
        -0.1115804985165596,
        0.2891205847263336,
        0.3320675194263458,
        0.012579993344843388,
        -0.03130390867590904,
        -0.034638911485672,
        0.058549683541059494,
        0.11382246017456055,
        -0.2532963454723358,
        -0.18510028719902039,
        -0.32474368810653687,
        -0.14021900296211243,
        -0.5778452157974243,
        0.48040497303009033,
        0.2827225625514984,
        -0.8295542597770691,
        -0.5018686056137085,
        0.08480589836835861,
        -0.05966871976852417,
        0.09099940210580826,
        0.03350026533007622,
        1.0121710300445557,
        -0.11604691296815872,
        0.07732722163200378,
        -0.17014120519161224,
        -0.7946956157684326,
        -0.5391900539398193,
        0.24185951054096222,
        0.1429494023323059,
        -0.05591690167784691,
        0.5376275777816772,
        -0.5852290391921997,
        -0.15259088575839996,
        -0.1326904594898224,
        0.8770985007286072,
        0.10439306497573853,
        -0.15857447683811188,
        -0.08632151037454605,
        0.09531771391630173,
        0.5317064523696899,
        -0.08646790683269501,
        0.12009154260158539,
        -0.1449078768491745,
        0.11501336097717285,
        -0.14460282027721405,
        0.534877359867096,
        -0.12436510622501373,
        0.1289825588464737,
        -0.39932841062545776,
        0.0040157209150493145,
        -0.3679920732975006,
        -0.22710660099983215,
        -0.18958671391010284,
        -0.045420389622449875,
        0.1720958650112152,
        -0.5091062784194946,
        0.1643560230731964,
        0.24917066097259521,
        -0.6039846539497375,
        -0.0356503389775753,
        -0.08755321800708771,
        0.19551844894886017,
        0.38510552048683167,
        0.1707281470298767,
        0.42636045813560486,
        0.067099429666996,
        0.39122501015663147,
        -0.4610915780067444,
        -0.13524779677391052,
        0.7424637675285339,
        -0.6920368075370789,
        -0.12046314775943756,
        -0.10889740288257599,
        -0.10123131424188614,
        0.3070831000804901,
        -0.29657068848609924,
        0.2644879221916199,
        -0.04019353166222572,
        -0.20851066708564758,
        0.06183488294482231,
        -0.09664735198020935,
        0.09409584105014801,
        -0.6518418192863464,
        -0.2930567264556885,
        -0.2790706157684326,
        -0.015406925231218338,
        -0.30336448550224304,
        -0.1905536949634552,
        0.4982178211212158,
        -0.22318096458911896,
        0.3388140797615051,
        -0.6643115282058716,
        -0.7744086980819702,
        -0.48769015073776245,
        -0.03593762591481209,
        -0.23221369087696075,
        -0.07254576683044434,
        0.13875117897987366,
        -0.8978221416473389,
        0.011297316290438175,
        -0.28048211336135864,
        -0.18549661338329315,
        -0.704470157623291,
        0.2760893702507019,
        0.2428356409072876,
        0.07826686650514603,
        0.05573277547955513,
        0.3051965832710266,
        -0.2965206205844879,
        -0.12897980213165283,
        0.3789452314376831,
        -0.3982965052127838,
        0.4084055721759796,
        -0.05436912551522255,
        -0.23209717869758606,
        -0.21899960935115814,
        -0.13129675388336182,
        0.004509930964559317,
        0.0832858681678772,
        -0.009598827920854092,
        0.2831570506095886,
        0.10175368934869766,
        -0.15948401391506195,
        -0.09462873637676239,
        0.06327514350414276,
        0.2869868278503418,
        -0.34480342268943787,
        -0.004998920019716024,
        -0.24334242939949036,
        0.624796986579895,
        -0.36596640944480896,
        0.08319827169179916,
        0.3985670804977417,
        0.5593248605728149,
        0.2503497004508972,
        -0.026893330737948418,
        0.5877171754837036,
        -0.016083845868706703,
        -0.17215962707996368,
        0.009922346100211143,
        -0.19551801681518555,
        -0.695138692855835,
        0.23402801156044006,
        0.05747887119650841,
        -0.12894368171691895,
        0.18073886632919312,
        -0.09363940358161926,
        -0.07237571477890015,
        -0.39697226881980896,
        -0.17161254584789276,
        0.16215480864048004,
        0.05684588477015495,
        0.11067996174097061,
        -0.4161614179611206,
        0.050839029252529144,
        0.23428459465503693,
        0.6881868243217468,
        -0.295778751373291,
        -0.3105382025241852,
        -0.10577961802482605,
        0.03590165823698044,
        -0.11367116123437881,
        -0.0842999741435051,
        0.2056218981742859,
        0.8099724054336548,
        0.15499204397201538,
        0.39236676692962646,
        0.08645451813936234,
        -0.10732458531856537,
        -0.15990492701530457,
        -0.029174135997891426,
        -0.009302566759288311,
        -0.22716853022575378,
        -0.23148095607757568,
        -0.08349079638719559,
        0.19134269654750824,
        0.2356477677822113,
        -0.22381223738193512,
        0.10553498566150665,
        -0.03702062740921974,
        -0.5445631742477417,
        -0.01807534694671631,
        0.16476251184940338,
        0.002732057124376297,
        0.37114059925079346,
        0.3562168776988983,
        -0.18592976033687592,
        0.031874027103185654,
        -0.6079682111740112,
        -0.2228437215089798,
        -0.4892062842845917,
        -0.059667956084012985,
        0.32751408219337463,
        -0.06189918890595436,
        -0.015440794639289379,
        0.23151491582393646,
        -0.15732023119926453,
        0.47061464190483093,
        0.46068698167800903,
        0.02712680585682392,
        -0.006489773280918598,
        0.19263732433319092,
        -0.37546607851982117,
        -0.3214179575443268,
        0.32460349798202515,
        -0.10519620776176453,
        -0.005669855047017336,
        0.47083500027656555,
        -0.4076954424381256,
        -0.7425458431243896,
        -0.10600806027650833,
        0.9694057703018188,
        -0.42119258642196655,
        -0.16624876856803894,
        0.1676352620124817,
        1.3041741847991943,
        0.7331765294075012,
        -0.41346094012260437,
        0.387236624956131,
        -0.6734301447868347,
        0.6453374624252319,
        -0.0543404258787632,
        0.3461512327194214,
        0.5503065586090088,
        0.4053104519844055,
        0.2615150213241577,
        -0.34440454840660095,
        0.06799255311489105,
        0.013828793540596962,
        -0.07917262613773346,
        0.2554247975349426,
        0.2409365475177765,
        0.10904064029455185,
        -0.29428645968437195,
        -0.05233113467693329,
        0.28878551721572876,
        -0.3280141055583954,
        -0.12040291726589203,
        0.4249226748943329,
        -0.06838849931955338,
        0.2409612089395523,
        0.1849881112575531,
        -0.7086561322212219,
        0.2591569125652313,
        -0.09628154337406158,
        -0.022280262783169746,
        -0.2866443991661072,
        -0.23029878735542297,
        0.14701269567012787,
        0.24769194424152374,
        -0.15805940330028534,
        -0.017859451472759247,
        0.1489580273628235,
        0.0826537236571312,
        0.14428794384002686,
        -0.057295605540275574,
        0.016205916181206703,
        -0.01521826721727848,
        0.23120374977588654,
        0.1074177622795105,
        -0.4502768814563751,
        -0.10251016169786453,
        0.1770479828119278,
        -0.4427124559879303,
        -0.9100607633590698,
        0.33638808131217957,
        -0.033085573464632034,
        -0.2516562044620514,
        0.14868797361850739,
        -1.2172693014144897,
        -0.7896441221237183,
        -0.09679369628429413,
        -0.2505945563316345,
        -0.06850910931825638,
        0.16329535841941833,
        -0.05256079509854317,
        0.08272422850131989,
        -0.029688740149140358,
        -0.39794814586639404,
        0.25595858693122864,
        0.20444327592849731,
        -0.31559887528419495,
        0.010012038052082062,
        0.13120271265506744,
        -0.030004724860191345,
        0.33590567111968994,
        0.33295920491218567,
        0.16982752084732056,
        -0.04426259547472,
        -0.30179718136787415,
        -0.08687058091163635,
        -0.48386475443840027,
        -0.05034200847148895,
        0.27182015776634216,
        0.04409686475992203,
        0.07968708872795105,
        -0.08448433876037598,
        0.11772812157869339,
        0.3708582818508148,
        0.32007816433906555,
        -0.543450653553009,
        0.3303830325603485,
        0.5235720872879028,
        -0.1524343341588974,
        -0.20932640135288239,
        -0.011632649227976799,
        0.2418585568666458,
        0.42599594593048096,
        -0.006218334659934044,
        0.013195189647376537,
        -0.28543418645858765,
        -0.02751714363694191,
        0.36206957697868347,
        -0.22086286544799805,
        0.3369418978691101,
        0.06436506658792496,
        0.05324971303343773,
        -0.3322775959968567,
        -0.24462057650089264,
        0.21199294924736023,
        -0.3721877932548523,
        0.18660132586956024,
        -0.16053403913974762,
        0.3386751115322113,
        0.21787849068641663,
        -0.24946582317352295,
        -0.06675777584314346,
        -0.08031637221574783,
        0.17421779036521912,
        0.01879187487065792,
        0.48326194286346436,
        -0.02511417493224144,
        0.7054255604743958,
        -0.3448072671890259,
        -0.13015778362751007,
        0.025118641555309296,
        -0.383063405752182,
        0.017214450985193253,
        -0.5741474032402039,
        0.2995623052120209,
        -0.6219396591186523,
        -0.2247457057237625,
        -0.41193312406539917,
        -0.012219071388244629,
        0.4232522249221802,
        -0.34789860248565674,
        0.05820944532752037,
        0.48311975598335266,
        0.11861996352672577,
        0.19184567034244537,
        0.05133131891489029,
        0.39399462938308716,
        -0.3954310715198517,
        0.08932189643383026,
        0.5985617637634277,
        -0.1766890436410904,
        -0.3197006583213806,
        0.13225598633289337,
        -0.07255684584379196,
        -0.02996193617582321,
        -0.5358779430389404,
        0.40641266107559204,
        0.3274262845516205,
        0.34118297696113586,
        -0.39553743600845337,
        -0.0493929460644722,
        -0.8246158957481384,
        0.2235405147075653,
        -0.12990885972976685,
        -0.17652034759521484,
        -0.12375622987747192,
        0.6986750364303589,
        -0.22779107093811035,
        -0.037091802805662155,
        -0.7391604781150818,
        0.08456768840551376,
        0.4389265477657318,
        0.07572990655899048,
        -0.052106671035289764,
        0.3019568920135498,
        -0.05507466942071915,
        0.13572698831558228,
        -0.5281434059143066,
        0.2756696343421936,
        0.16725227236747742,
        0.6402882933616638,
        0.6727728843688965,
        0.1458617001771927,
        0.19651590287685394,
        -0.1067301407456398,
        -0.22741131484508514,
        0.07627670466899872,
        0.25012537837028503,
        -0.16105438768863678,
        0.23567570745944977,
        0.02371823415160179,
        -0.1583566814661026,
        -0.2073105424642563,
        -0.13074494898319244,
        -0.015815110877156258,
        -0.3455442190170288,
        -0.061370570212602615,
        -0.07054933905601501,
        0.07200587540864944,
        0.36899155378341675,
        0.0207372959703207,
        -0.309655100107193,
        -0.06210433319211006,
        0.6578341722488403,
        -0.4501267969608307,
        -0.03394731879234314,
        -0.012388425879180431,
        -0.061689410358667374,
        -0.615422248840332,
        -0.0011616621632128954,
        -0.07840362936258316,
        -0.35027286410331726,
        -0.5860700011253357,
        -0.01770651526749134,
        -0.0861254334449768,
        0.13790228962898254,
        -0.07126829773187637,
        0.07774259895086288,
        0.4173299968242645,
        0.27694064378738403,
        -0.03029509261250496,
        0.25741955637931824,
        0.05712175369262695,
        0.06040405482053757,
        -0.22420701384544373,
        -0.12255532294511795,
        -0.01881527341902256,
        0.041778478771448135,
        -0.047709859907627106,
        -0.25930851697921753,
        -0.3940182328224182,
        0.02138129621744156,
        0.08773951977491379,
        -0.09301290661096573,
        0.08489849418401718,
        -0.11853017657995224,
        0.4689580500125885,
        -0.03443159535527229,
        -0.3725264370441437,
        -0.16330760717391968,
        0.13151815533638,
        0.28944313526153564,
        -0.6313325762748718,
        0.2798645794391632,
        0.36544397473335266,
        0.02127118594944477,
        -0.07312129437923431,
        -0.11549276113510132,
        -0.7108005285263062,
        0.17611725628376007,
        0.3061828315258026,
        -0.5208113193511963,
        0.1751960664987564,
        -0.027723614126443863,
        1.5518189668655396,
        -0.24784353375434875,
        -0.19933603703975677,
        0.09383835643529892,
        -0.10484342277050018,
        0.00692907115444541,
        0.09393864125013351,
        -0.10746864229440689,
        -0.11133220791816711,
        0.030064376071095467,
        -0.030530370771884918,
        0.058948446065187454,
        0.13225094974040985,
        0.07837341725826263,
        -0.011619475670158863,
        -0.0326269306242466,
        -0.26993587613105774,
        0.17213784158229828,
        -0.2107994258403778,
        -0.9570582509040833,
        -0.05374319478869438,
        -0.1580718606710434,
        -0.24485957622528076,
        -0.24906109273433685,
        0.2265339493751526,
        -0.34702467918395996,
        -0.3466745615005493,
        0.15778957307338715,
        -0.31115952134132385,
        0.10410454869270325,
        -0.0174163319170475,
        0.1927090287208557,
        0.28852182626724243,
        0.3596464693546295,
        -0.08854283392429352,
        -0.29610171914100647,
        0.3068265914916992,
        -0.2374095320701599,
        -0.2668295204639435,
        -0.3813081979751587,
        -0.12985332310199738,
        -0.14810772240161896,
        0.2945016622543335,
        -0.27362892031669617,
        -0.03351942449808121,
        0.21542802453041077,
        -0.3898521363735199,
        -0.6128554344177246,
        0.1890813708305359,
        -0.06572481989860535,
        0.23625178635120392,
        0.2553231120109558,
        -0.07676935195922852,
        -0.3917962610721588,
        -0.07959602773189545,
        -0.36179396510124207,
        -0.037491973489522934,
        -0.21405018866062164,
        0.2211802899837494,
        0.19489231705665588,
        0.1811864972114563,
        0.386165976524353,
        -0.10551181435585022,
        0.013364041224122047,
        -0.4009860157966614,
        -0.24761798977851868,
        -0.1482168734073639,
        -0.20190894603729248,
        0.022851763293147087,
        0.08560514450073242,
        0.30293354392051697,
        -0.06064781919121742,
        -0.6181183457374573,
        0.27979257702827454,
        0.4498670697212219,
        0.5072773098945618,
        -0.3060925006866455,
        0.3431825339794159,
        -0.19062010943889618,
        0.18527713418006897,
        -0.49152931571006775,
        0.9354032278060913,
        0.0748133435845375,
        -0.4811152517795563,
        -0.5671192407608032,
        -0.28880786895751953,
        0.039222680032253265,
        0.3299906551837921,
        0.21509191393852234,
        0.4956320822238922,
        0.40907758474349976,
        0.003309179563075304,
        0.09534776955842972,
        0.2023705244064331,
        -0.07133717834949493,
        0.29703018069267273,
        -0.09445120394229889,
        -0.010060529224574566,
        -0.3258686661720276,
        0.09620953351259232,
