{
  "input_sequences": [],
  "inputs": [
    {
      "name": "dNN",
      "variables": [
        {
          "name": "hitX1",
          "offset": 0,
          "scale": 1
        },
        {
          "name": "hitX2",
          "offset": 0,
          "scale": 1
        },
        {
          "name": "hitX3",
          "offset": 0,
          "scale": 1
        },
        {
          "name": "hitX4",
          "offset": 0,
          "scale": 1
        },
        {
          "name": "hitX5",
          "offset": 0,
          "scale": 1
        },
        {
          "name": "hitX6",
          "offset": 0,
          "scale": 1
        },
        {
          "name": "hitX7",
          "offset": 0,
          "scale": 1
        },
        {
          "name": "hitX8",
          "offset": 0,
          "scale": 1
        },
        {
          "name": "hitY1",
          "offset": 0,
          "scale": 1
        },
        {
          "name": "hitY2",
          "offset": 0,
          "scale": 1
        },
        {
          "name": "hitY3",
          "offset": 0,
          "scale": 1
        },
        {
          "name": "hitY4",
          "offset": 0,
          "scale": 1
        },
        {
          "name": "hitY5",
          "offset": 0,
          "scale": 1
        },
        {
          "name": "hitY6",
          "offset": 0,
          "scale": 1
        },
        {
          "name": "hitY7",
          "offset": 0,
          "scale": 1
        },
        {
          "name": "hitY8",
          "offset": 0,
          "scale": 1
        },
        {
          "name": "hitZ1",
          "offset": 0,
          "scale": 1
        },
        {
          "name": "hitZ2",
          "offset": 0,
          "scale": 1
        },
        {
          "name": "hitZ3",
          "offset": 0,
          "scale": 1
        },
        {
          "name": "hitZ4",
          "offset": 0,
          "scale": 1
        },
        {
          "name": "hitZ5",
          "offset": 0,
          "scale": 1
        },
        {
          "name": "hitZ6",
          "offset": 0,
          "scale": 1
        },
        {
          "name": "hitZ7",
          "offset": 0,
          "scale": 1
        },
        {
          "name": "hitZ8",
          "offset": 0,
          "scale": 1
        }
      ]
    }
  ],
  "layers": [
    {
      "activation": "rectified",
      "architecture": "dense",
      "bias": [
        -0.009210173040628433,
        -0.009182845242321491,
        0.0,
        -0.18381837010383606,
        0.005186797585338354,
        0.0017874985933303833,
        0.0,
        -0.018677987158298492,
        -0.13128091394901276,
        0.0,
        -0.00492732971906662,
        0.0,
        0.07474033534526825,
        -0.08654915541410446,
        0.0,
        0.0808950886130333,
        -0.3464757800102234,
        -0.005063081160187721,
        -0.10670129209756851,
        0.009682157076895237,
        -0.3687795400619507,
        0.0,
        0.0,
        0.0,
        -0.0028633500915020704,
        0.0,
        -0.013799522072076797,
        0.605993390083313,
        -0.006954920012503862,
        -0.03474774584174156,
        0.02382662333548069,
        -0.09603364020586014,
        -0.06625901907682419,
        -0.11556509137153625,
        -0.15914663672447205,
        0.045957744121551514,
        -0.0022540499921888113,
        -0.01611001044511795,
        0.22261865437030792,
        0.0,
        0.033190350979566574,
        0.13188152015209198,
        -0.13711854815483093,
        -0.0029873463790863752,
        -0.020961299538612366,
        0.0,
        -0.11728759109973907,
        0.0,
        0.16841444373130798,
        0.0,
        0.044479213654994965,
        0.011038845404982567,
        0.22085636854171753,
        0.15071551501750946,
        -0.43751969933509827,
        -0.00561101408675313,
        0.26630857586860657,
        0.07240133732557297,
        0.04303504526615143,
        -0.16602063179016113,
        0.0,
        0.0,
        0.0,
        -0.21103796362876892
      ],
      "weights": [
        -0.1740962266921997,
        -0.14484897255897522,
        0.010974704287946224,
        -0.13167986273765564,
        -0.17215590178966522,
        0.1201082319021225,
        0.1775096356868744,
        -0.07585545629262924,
        0.2008766084909439,
        0.17302343249320984,
        0.00436950521543622,
        -0.16936732828617096,
        0.09289500117301941,
        -0.21505020558834076,
        -0.24428386986255646,
        0.09897218644618988,
        -0.002644142834469676,
        0.12318066507577896,
        -0.06350903958082199,
        0.23850250244140625,
        -0.19268932938575745,
        -0.06406636536121368,
        0.20370030403137207,
        0.031010517850518227,
        -0.07149890810251236,
        -0.07924103736877441,
        0.16181713342666626,
        -0.07347550243139267,
        0.135831817984581,
        0.08891165256500244,
        -0.20875521004199982,
        0.09558993577957153,
        0.05365331843495369,
        -0.14806585013866425,
        -0.006035745609551668,
        -0.1511051207780838,
        -0.22041238844394684,
        0.14662832021713257,
        -0.08287497609853745,
        0.04557916522026062,
        0.1973767876625061,
        0.04666494205594063,
        -0.16990992426872253,
        -0.155508354306221,
        -0.014896996319293976,
        -0.13595223426818848,
        0.19286534190177917,
        0.2078019678592682,
        0.2476954162120819,
        -0.2390090376138687,
        0.22228622436523438,
        0.05575123429298401,
        0.05635771155357361,
        -0.15693455934524536,
        0.25663796067237854,
        0.09692913293838501,
        0.1738991141319275,
        -0.01602649688720703,
        -0.1764189600944519,
        0.043100506067276,
        -0.199903666973114,
        -0.19835525751113892,
        -0.18650513887405396,
        -0.024390459060668945,
        0.236436665058136,
        0.10278534889221191,
        -0.09281221032142639,
        -0.02700081467628479,
        -0.17536571621894836,
        -0.01842363178730011,
        -0.19225308299064636,
        0.19648897647857666,
        0.0806378722190857,
        -0.12169046700000763,
        0.24318937957286835,
        -0.08807291835546494,
        -0.010126996785402298,
        0.027107829228043556,
        -0.031360287219285965,
        0.022299839183688164,
        0.3177206218242645,
        -0.21275484561920166,
        0.5285830497741699,
        -0.4362460672855377,
        0.0419403500854969,
        0.10935550183057785,
        0.06398788094520569,
        -0.015360258519649506,
        -0.3192645311355591,
        0.514934778213501,
        -1.3080284595489502,
        1.5059940814971924,
        0.003940850496292114,
        -0.40385308861732483,
        -0.01673162542283535,
        0.13020329177379608,
        1.0630627870559692,
        0.5839834213256836,
        1.528368353843689,
        0.8578605651855469,
        1.662568211555481,
        1.5892174243927002,
        1.870639443397522,
        0.6621034145355225,
        0.18887576460838318,
        0.024449920281767845,
        0.10638699680566788,
        0.027249455451965332,
        0.03355920687317848,
        -0.22296619415283203,
        -0.1799197494983673,
        -0.01017710193991661,
        0.2276398241519928,
        -0.07388247549533844,
        0.2968037724494934,
        -0.24221991002559662,
        0.1456190049648285,
        -0.08476141840219498,
        -0.10420568287372589,
        -0.5665786266326904,
        -0.19191665947437286,
        -0.17074941098690033,
        0.18236269056797028,
        0.08283989131450653,
        0.1904946267604828,
        -0.14265798032283783,
        -0.036681655794382095,
        -0.08723513782024384,
        0.3186070919036865,
        -0.08393383026123047,
        -0.28951704502105713,
        0.015605187974870205,
        0.13319742679595947,
        0.043955303728580475,
        -0.20991259813308716,
        0.004354307893663645,
        -0.35122084617614746,
        0.3936580717563629,
        0.30864256620407104,
        0.07883208245038986,
        -0.6289846301078796,
        -0.1193196102976799,
        0.24031901359558105,
        -0.07939542084932327,
        -0.021486878395080566,
        0.03230288624763489,
        -0.18321377038955688,
        0.06999847292900085,
        0.00792667269706726,
        -0.1308773010969162,
        0.18404686450958252,
        -0.0987020879983902,
        -0.10667005181312561,
        -0.029429256916046143,
        0.18551349639892578,
        -0.11666378378868103,
        -0.11109787225723267,
        -0.0025878846645355225,
        -0.18894429504871368,
        0.08305671811103821,
        0.06934374570846558,
        0.20286104083061218,
        0.1307412087917328,
        -0.1657792031764984,
        -0.22487664222717285,
        -0.015138864517211914,
        -0.15321364998817444,
        -0.19428060948848724,
        0.025734394788742065,
        0.09885348379611969,
        0.1066768541932106,
        0.041223619133234024,
        0.01704600267112255,
        0.12983641028404236,
        -0.008420371450483799,
        0.2561003565788269,
        0.0840417891740799,
        -0.06446317583322525,
        0.20927287638187408,
        -0.20053014159202576,
        0.23494867980480194,
        -0.17545078694820404,
        -0.10191147029399872,
        -0.19300705194473267,
        0.012699692510068417,
        0.2019212692975998,
        0.04214644804596901,
        -0.03397579863667488,
        0.21182668209075928,
        -0.2086326777935028,
        -0.05225689709186554,
        0.12713225185871124,
        -0.8888618350028992,
        0.07018672674894333,
        0.029635993763804436,
        0.18486542999744415,
        -0.027379535138607025,
        0.05784950777888298,
        -0.1272149235010147,
        0.01936931535601616,
        0.29919132590293884,
        0.40636399388313293,
        -0.2987707853317261,
        0.48035386204719543,
        -0.35455840826034546,
        0.05489352345466614,
        -0.24712426960468292,
        0.04257406294345856,
        -0.29820775985717773,
        -1.1885544061660767,
        1.2054283618927002,
        -0.40607842803001404,
        -0.29026201367378235,
        -0.11755848675966263,
        1.1136040687561035,
        0.04965486377477646,
        -0.00891926884651184,
        0.05844047665596008,
        0.2557840645313263,
        -0.2392309159040451,
        -0.21159496903419495,
        -0.12549833953380585,
        -0.05630101263523102,
        -0.027970686554908752,
        -0.0987243801355362,
        0.12193629145622253,
        0.11864989995956421,
        0.019096851348876953,
        -0.0716262012720108,
        -0.03646686673164368,
        -0.16187967360019684,
        0.026236146688461304,
        0.16080477833747864,
        -0.20404648780822754,
        -0.02991732954978943,
        -0.11368364095687866,
        -0.15768182277679443,
        -0.10194826126098633,
        0.054960399866104126,
        -0.022944271564483643,
        0.126700296998024,
        -0.2258322387933731,
        -0.054492294788360596,
        0.0496116541326046,
        0.14455193281173706,
        0.11253193020820618,
        -0.20193976163864136,
        -0.062135547399520874,
        -0.18599732220172882,
        -0.03522409498691559,
        -0.126480370759964,
        0.05316449701786041,
        0.00811963714659214,
        -0.05681966245174408,
        -0.013632949441671371,
        -0.23167620599269867,
        -0.13201333582401276,
        -0.0883101373910904,
        0.20377789437770844,
        -0.1420287787914276,
        0.21705593168735504,
        0.025088699534535408,
        0.15559419989585876,
        0.1897282600402832,
        -0.017716094851493835,
        0.2261991798877716,
        0.20265322923660278,
        -0.142779141664505,
        0.04519185423851013,
        0.15960168838500977,
        0.08727386593818665,
        0.20794478058815002,
        -0.0839042067527771,
        -0.0829843282699585,
        0.17204958200454712,
        0.046772122383117676,
        -0.2184765785932541,
        -0.1919310986995697,
        -0.09848400950431824,
        -0.14179882407188416,
        -0.1600894033908844,
        -0.25301554799079895,
        -0.06508058309555054,
        0.05329957604408264,
        0.14169105887413025,
        0.05384442210197449,
        0.03430655598640442,
        -0.23367969691753387,
        1.766014814376831,
        0.979434609413147,
        -0.2991231083869934,
        -0.1801661103963852,
        -0.0029071045573800802,
        -0.05004752799868584,
        0.23477624356746674,
        0.0025227738078683615,
        -0.05046635493636131,
        0.07184292376041412,
        0.31557512283325195,
        -0.18006540834903717,
        -0.3741888999938965,
        0.289449542760849,
        0.44046899676322937,
        0.11630333960056305,
        0.22345641255378723,
        -0.7623550295829773,
        -0.3561951816082001,
        0.3919466733932495,
        0.6622473001480103,
        -0.808700442314148,
        0.7897042632102966,
        -0.31517094373703003,
        0.30707764625549316,
        0.20102794468402863,
        0.26472753286361694,
        -0.26768162846565247,
        0.2106916755437851,
        -0.16944563388824463,
        -0.409434050321579,
        0.3261100947856903,
        -0.15321601927280426,
        -0.008068902418017387,
        -0.13507214188575745,
        0.22725798189640045,
        -0.009622625075280666,
        0.2036122977733612,
        -0.06375779956579208,
        0.08138452470302582,
        -0.049455732107162476,
        -0.10266408324241638,
        -0.4250655472278595,
        -0.35660815238952637,
        -0.1609160155057907,
        -0.438108891248703,
        -0.5335015654563904,
        1.3847697973251343,
        -0.1031341552734375,
        -0.20235022902488708,
        -0.1237151026725769,
        0.15478429198265076,
        0.03345060348510742,
        -0.155636727809906,
        0.23093730211257935,
        0.048609644174575806,
        0.2381986677646637,
        0.078107088804245,
        -0.059372857213020325,
        -0.19022706151008606,
        0.09478306770324707,
        0.05180239677429199,
        -0.15763667225837708,
        -0.10393854975700378,
        -0.19547688961029053,
        0.013335824012756348,
        -0.1885596215724945,
        0.03640139102935791,
        0.17401200532913208,
        -0.07869961857795715,
        0.06951600313186646,
        0.0785980224609375,
        0.23848889768123627,
        -0.46640658378601074,
        0.17036335170269012,
        -0.3219709098339081,
        0.34323692321777344,
        -0.25288644433021545,
        -0.024049676954746246,
        0.07748463749885559,
        0.2508423626422882,
        0.06693386286497116,
        0.3502300977706909,
        0.21936599910259247,
        -0.17941401898860931,
        -0.13056452572345734,
        0.13158705830574036,
        0.281410813331604,
        0.7584176659584045,
        0.26654016971588135,
        -0.482431024312973,
        -0.509067952632904,
        -0.7883318066596985,
        -0.6718867421150208,
        -0.801910936832428,
        -0.641141414642334,
        0.3182268738746643,
        -0.36616432666778564,
        -0.004330806899815798,
        -0.0064360639080405235,
        -0.054981082677841187,
        0.010725571773946285,
        -0.0005203665932640433,
        -0.008240785449743271,
        -0.3642842471599579,
        0.14678774774074554,
        0.861950695514679,
        0.08666698634624481,
        0.2668178975582123,
        0.13516353070735931,
        -0.5290229916572571,
        0.1632658690214157,
        0.050064247101545334,
        -0.5556459426879883,
        -1.146523356437683,
        0.44303828477859497,
        0.02628365345299244,
        -5.0709524657577276e-05,
        1.2450026273727417,
        -0.4185527563095093,
        0.19027017056941986,
        0.1774156391620636,
        -0.07191377878189087,
        -0.03419701009988785,
        0.13358327746391296,
        -0.05663517490029335,
        -0.22796230018138885,
        -0.059038273990154266,
        -0.09575831145048141,
        0.24765555560588837,
        0.01890902779996395,
        -0.1409241259098053,
        0.016276592388749123,
        -0.11392435431480408,
        -0.0966033861041069,
        -0.046833790838718414,
        -0.10390355437994003,
        0.21749380230903625,
        0.06459781527519226,
        0.03387384116649628,
        -0.06223560497164726,
        0.003192393109202385,
        0.08592064678668976,
        0.10785852372646332,
        0.016210980713367462,
        -0.010774125345051289,
        0.011587909422814846,
        0.0754823237657547,
        -0.11559521406888962,
        -0.07628042995929718,
        0.05975951626896858,
        0.05548222362995148,
        -0.12080420553684235,
        0.14252865314483643,
        0.07860372960567474,
        -0.07679634541273117,
        0.0062319315038621426,
        -0.08034055680036545,
        0.09798365086317062,
        -0.040953755378723145,
        0.35959506034851074,
        -0.4524066746234894,
        -0.49212464690208435,
        0.32572925090789795,
        0.002853929530829191,
        0.3078664243221283,
        -0.17050303518772125,
        0.15734544396400452,
        0.13459879159927368,
        0.1099814623594284,
        0.10150282829999924,
        0.08043591678142548,
        0.08851061016321182,
        0.07137604057788849,
        -0.273005872964859,
        0.08793031424283981,
        0.8474100232124329,
        0.6279758214950562,
        0.24671755731105804,
        0.08404412865638733,
        -0.19576387107372284,
        -0.1682778298854828,
        -0.48838338255882263,
        0.13873037695884705,
        0.1739613115787506,
        0.5776861906051636,
        0.11272779107093811,
        0.1370154172182083,
        -0.39056485891342163,
        -0.2443070411682129,
        -0.5333967804908752,
        0.24595631659030914,
        -0.3027893900871277,
        -0.09616870433092117,
        0.010825607925653458,
        0.01800382509827614,
        -0.1453343629837036,
        0.017626527696847916,
        0.025019444525241852,
        0.008916385471820831,
        0.0683976486325264,
        -0.08595056086778641,
        0.37181946635246277,
        0.4027376174926758,
        -0.22867150604724884,
        0.0031365251634269953,
        0.12397339195013046,
        0.08755333721637726,
        0.15936022996902466,
        0.3529764711856842,
        0.1968749314546585,
        -1.7175780534744263,
        1.0573196411132812,
        -0.018289407715201378,
        0.08962740004062653,
        -0.27809086441993713,
        -0.23923732340335846,
        -0.10753470659255981,
        0.2343710958957672,
        0.003759324550628662,
        -0.12783333659172058,
        0.16282501816749573,
        0.005687355995178223,
        0.16497686505317688,
        -0.041417211294174194,
        -0.19151076674461365,
        0.07136386632919312,
        -0.24832046031951904,
        0.04936400055885315,
        -0.18384405970573425,
        0.16123676300048828,
        0.032545119524002075,
        0.20752927660942078,
        0.146238774061203,
        -0.09293204545974731,
        0.060407549142837524,
        -0.2395447939634323,
        0.19607013463974,
        -0.22555622458457947,
        0.04291045665740967,
        0.18266457319259644,
        0.09391593933105469,
        -0.2357550859451294,
        -0.17911460995674133,
        0.11693316698074341,
        0.135639488697052,
        0.13964322209358215,
        -0.03083305060863495,
        0.18514025211334229,
        -0.10393375158309937,
        -0.1040945053100586,
        -0.11014071106910706,
        -0.250540167093277,
        -0.18606743216514587,
        -0.15451863408088684,
        -0.21987943351268768,
        0.03514942526817322,
        0.22826749086380005,
        0.22799330949783325,
        -0.08010092377662659,
        -0.14199529588222504,
        0.10741361975669861,
        0.023394018411636353,
        0.2551543414592743,
        -0.17777574062347412,
        -0.11196216940879822,
        -0.20178824663162231,
        0.2290128767490387,
        0.01423412561416626,
        -0.13149678707122803,
        -0.2201610803604126,
        0.050712138414382935,
        0.04050436615943909,
        -0.19847747683525085,
        -0.2105095535516739,
        0.059425026178359985,
        0.18387958407402039,
        -0.0934508889913559,
        -0.22606976330280304,
        -0.20492614805698395,
        -0.14588959515094757,
        0.13797244429588318,
        -0.10022416710853577,
        0.05601096153259277,
        -0.2503569424152374,
        0.23426076769828796,
        -0.006299823522567749,
        -0.06811489164829254,
        1.0709437131881714,
        -0.4816228747367859,
        0.0906401053071022,
        0.46923092007637024,
        -0.08860291540622711,
        0.0675932839512825,
        0.166832834482193,
        -0.2618411183357239,
        0.06157654523849487,
        -0.14548005163669586,
        -0.16064240038394928,
        -0.11269281059503555,
        -0.023712461814284325,
        -0.1527625471353531,
        -0.25899770855903625,
        0.5625424385070801,
        -0.8969517946243286,
        0.3103259205818176,
        -0.16309145092964172,
        0.7724913358688354,
        0.04055694490671158,
        0.7590066194534302,
        0.33415278792381287,
        -0.9106014966964722,
        -0.10898923873901367,
        0.15780949592590332,
        -0.0951404869556427,
        -0.208633691072464,
        -0.13028132915496826,
        0.05001711845397949,
        0.008048653602600098,
        -0.21914556622505188,
        0.13180577754974365,
        -0.11581550538539886,
        -0.047467589378356934,
        -0.23905715346336365,
        0.05644625425338745,
        -0.08146841824054718,
        -0.19862806797027588,
        -0.044378861784935,
        -0.07049290835857391,
        -0.2298412322998047,
        0.20346665382385254,
        0.06291860342025757,
        -0.1278504580259323,
        -0.022817209362983704,
        -0.24417519569396973,
        0.17565277218818665,
        -0.06958325952291489,
        -0.20617160201072693,
        -0.22926747798919678,
        -0.24489182233810425,
        -0.2207486778497696,
        0.0854126363992691,
        0.02031436190009117,
        -0.17087316513061523,
        -0.17420995235443115,
        0.12349165976047516,
        0.11627881973981857,
        -0.10068034380674362,
        -0.2106998860836029,
        0.016210302710533142,
        0.10851744562387466,
        -0.24112564325332642,
        -0.010410299524664879,
        -0.1745464950799942,
        0.020005157217383385,
        0.13195982575416565,
        0.20826135575771332,
        0.007916964590549469,
        -0.2777651250362396,
        -0.025764241814613342,
        -0.770893394947052,
        1.1981444358825684,
        0.5776816010475159,
        0.006216709967702627,
        0.14953076839447021,
        -0.0536651685833931,
        -0.111918605864048,
        0.0030694613233208656,
        0.2958884537220001,
        -0.5148942470550537,
        0.7011241912841797,
        0.13030044734477997,
        1.3687940835952759,
        0.26736339926719666,
        0.912935733795166,
        -0.49279239773750305,
        0.20951029658317566,
        0.7182176113128662,
        0.7322026491165161,
        0.06449366360902786,
        0.03955523669719696,
        -0.11717542260885239,
        0.20489740371704102,
        0.4706228971481323,
        -0.10277538001537323,
        -0.10346704721450806,
        -0.18630816042423248,
        -0.08852487057447433,
        -0.24364405870437622,
        0.04838697984814644,
        0.022828835994005203,
        0.12389347702264786,
        -0.13233400881290436,
        0.1961078941822052,
        0.19743531942367554,
        -0.17817966639995575,
        -0.2418779879808426,
        0.12719815969467163,
        -0.12388232350349426,
        0.06795038282871246,
        0.20057326555252075,
        0.24589376151561737,
        -0.2507852017879486,
        0.007084553595632315,
        0.0035422220826148987,
        -0.2542998790740967,
        -0.16386330127716064,
        0.21014618873596191,
        0.20344184339046478,
        0.41445502638816833,
        0.008925692178308964,
        -0.0328429639339447,
        -0.01933344453573227,
        0.015562068670988083,
        -0.009603317826986313,
        0.003868990810588002,
        -0.4189257323741913,
        0.4944656491279602,
        0.06325280666351318,
        0.1107703298330307,
        -0.0036233870778232813,
        -0.09618318825960159,
        -0.008482017554342747,
        -0.01583675667643547,
        1.9197250604629517,
        -1.9650989770889282,
        -0.00640830397605896,
        -0.3330281376838684,
        -0.10661616176366806,
        0.3082917332649231,
        0.15979912877082825,
        0.07052753120660782,
        0.31803786754608154,
        0.10642381012439728,
        0.05884547904133797,
        -0.029836660251021385,
        0.019470198079943657,
        0.00860865693539381,
        -0.022669371217489243,
        0.0243727657943964,
        0.20870141685009003,
        0.3187345862388611,
        -0.15029634535312653,
        -0.15424399077892303,
        -0.1720457375049591,
        -0.05294303223490715,
        0.157307967543602,
        -0.0025210767053067684,
        -0.7003564238548279,
        -0.9235087037086487,
        1.0932518243789673,
        0.531815767288208,
        0.9891887903213501,
        0.16780398786067963,
        -1.1718635559082031,
        0.010663215070962906,
        -0.4578499495983124,
        0.23677434027194977,
        0.13632632791996002,
        -0.033402834087610245,
        0.06020580604672432,
        -0.024759477004408836,
        -0.05064864084124565,
        -0.025757145136594772,
        0.004243006929755211,
        0.10659356415271759,
        -0.20061828196048737,
        0.023956291377544403,
        0.5660299062728882,
        0.16985774040222168,
        -0.3859805762767792,
        -0.007309478707611561,
        -0.17631709575653076,
        -0.34203729033470154,
        1.8622465133666992,
        -0.1537451595067978,
        -1.1257027387619019,
        -0.44295769929885864,
        0.47406068444252014,
        0.058514099568128586,
        0.3293628692626953,
        -0.9213047623634338,
        -0.07302074879407883,
        0.2914886474609375,
        -0.7799280285835266,
        -0.9508341550827026,
        0.45186132192611694,
        0.29498785734176636,
        -0.0657038763165474,
        -0.09081493318080902,
        -0.04160207137465477,
        -0.15068887174129486,
        -0.0030015804804861546,
        0.225282683968544,
        -0.1754690557718277,
        0.28760045766830444,
        0.3061142563819885,
        0.5570365190505981,
        0.10018707066774368,
        0.24429579079151154,
        0.8830037713050842,
        -1.6437461376190186,
        -0.1479884386062622,
        0.2663247883319855,
        1.2920434474945068,
        -0.0787084624171257,
        0.1730831414461136,
        0.21811768412590027,
        0.19616055488586426,
        0.00031057948945090175,
        -0.07188316434621811,
        -0.019225113093852997,
        -0.4004203677177429,
        -0.10974713414907455,
        0.2930399477481842,
        0.3018045425415039,
        0.16583795845508575,
        0.15995247662067413,
        -0.222784623503685,
        -0.08251956105232239,
        0.13504508137702942,
        1.260637879371643,
        -0.7167802453041077,
        -1.1459323167800903,
        0.4810669422149658,
        -0.3485930860042572,
        0.22998513281345367,
        0.35409650206565857,
        -0.3480324149131775,
        -0.024444224312901497,
        0.6294248700141907,
        0.6792388558387756,
        -0.18459221720695496,
        -0.13611170649528503,
        -0.13054411113262177,
        0.02223672904074192,
        -0.12977270781993866,
        0.591157853603363,
        -0.4117618203163147,
        0.1815759241580963,
        -0.0845600962638855,
        -0.13598230481147766,
        0.14925970137119293,
        -0.10219664126634598,
        0.20342473685741425,
        -0.6010942459106445,
        0.011336618103086948,
        -0.04890729859471321,
        -0.698355495929718,
        0.6507115364074707,
        0.7298355102539062,
        0.6907393336296082,
        -0.23242251574993134,
        0.7041857242584229,
        -0.5626381039619446,
        -0.0143490144982934,
        0.1345287561416626,
        0.09838573634624481,
        -0.0610882006585598,
        -0.053458284586668015,
        -0.2125208079814911,
        0.17622911930084229,
        0.12085222452878952,
        0.07982663810253143,
        0.1474219709634781,
        0.0841800719499588,
        -0.04622245579957962,
        -0.6551393270492554,
        1.3990566730499268,
        1.0336679220199585,
        -0.3343958854675293,
        -0.1970316618680954,
        -0.5880763530731201,
        -0.6129269599914551,
        -0.6858014464378357,
        0.4223822355270386,
        -0.00520327826961875,
        0.10785182565450668,
        -0.14522942900657654,
        -0.25645920634269714,
        -0.17820745706558228,
        0.25063928961753845,
        0.18171413242816925,
        0.0942821204662323,
        0.10015179216861725,
        0.16298003494739532,
        -0.12166859209537506,
        0.031654827296733856,
        0.04635915160179138,
        -0.0950905829668045,
        -0.1512470245361328,
        -0.1355985850095749,
        -0.03686715289950371,
        -0.078218474984169,
        0.16101346909999847,
        0.03871920332312584,
        -0.0802885964512825,
        -0.007893305271863937,
        0.15923109650611877,
        0.0822649598121643,
        -0.17734132707118988,
        0.11171888560056686,
        0.2057715654373169,
        -0.1288624405860901,
        -0.00568716786801815,
        0.22795917093753815,
        0.19037163257598877,
        0.02794725075364113,
        -0.20019546151161194,
        -0.012502402067184448,
        -0.0069297123700380325,
        -0.2287726104259491,
        0.16956990957260132,
        -0.2344227433204651,
        -0.020205672830343246,
        0.12940536439418793,
        0.06625054776668549,
        0.15171194076538086,
        0.17614029347896576,
        0.20328962802886963,
        -0.131784588098526,
        -0.1574140042066574,
        -0.09572708606719971,
        0.12822672724723816,
        -0.9356533885002136,
        0.16193757951259613,
        -0.4085299074649811,
        -0.057350046932697296,
        -0.06872688978910446,
        -0.033022068440914154,
        0.13859966397285461,
        -0.09058891236782074,
        0.3354686498641968,
        0.422264963388443,
        -0.5721026659011841,
        -0.11234745383262634,
        0.16223721206188202,
        -0.0008013902697712183,
        0.6355704069137573,
        0.0937889963388443,
        -0.2319139540195465,
        -1.0117146968841553,
        1.425929307937622,
        0.7291419506072998,
        -0.7942709922790527,
        0.2606602609157562,
        -0.3642904758453369,
        -0.0748099759221077,
        -0.1962687224149704,
        -0.12343943119049072,
        -0.2550809681415558,
        -0.14815187454223633,
        -0.2314441204071045,
        0.21966993808746338,
        0.10642832517623901,
        -0.08601763844490051,
        -0.04330757260322571,
        0.02504071593284607,
        -0.15356482565402985,
        -0.2546063959598541,
        -0.0861423909664154,
        -0.2104337215423584,
        -0.24941882491111755,
        -0.033686935901641846,
        0.037445783615112305,
        -0.19416555762290955,
        -0.0686330497264862,
        -0.2535964548587799,
        0.19826176762580872,
        -0.08345933258533478,
        -0.08068698644638062,
        0.12219551205635071,
        0.17243851721286774,
        -0.14185163378715515,
        -0.2436039000749588,
        0.039372172206640244,
        0.10415709018707275,
        -0.0030530791264027357,
        -0.006676750257611275,
        0.010372585617005825,
        0.6095596551895142,
        -0.4517546594142914,
        -0.2922743856906891,
        0.08397936820983887,
        0.04685134440660477,
        0.053535934537649155,
        0.0014386840630322695,
        0.027403520420193672,
        -1.7046260833740234,
        1.370771050453186,
        1.1351426839828491,
        -0.22296801209449768,
        -0.24881044030189514,
        -0.18914255499839783,
        -0.14419732987880707,
        -0.07639101147651672,
        -0.26042062044143677,
        0.16499017179012299,
        -0.17723646759986877,
        0.05955223739147186,
        0.16815055906772614,
        -0.020962290465831757,
        -0.07151831686496735,
        -0.0007871469715610147,
        -0.11966700851917267,
        0.3959164023399353,
        -0.2624635398387909,
        -0.08164248615503311,
        -0.09412552416324615,
        0.35025063157081604,
        -0.2687358856201172,
        0.06326291710138321,
        0.5579757690429688,
        -1.1334975957870483,
        0.5362147688865662,
        0.3333943486213684,
        0.5938199758529663,
        -1.4127086400985718,
        0.5824196934700012,
        -0.22865091264247894,
        0.8067286014556885,
        -0.11272342503070831,
        -0.23205247521400452,
        0.010794615373015404,
        -0.03895244747400284,
        0.19459442794322968,
        -0.1188245639204979,
        0.14128829538822174,
        -0.011879002675414085,
        0.12582451105117798,
        -0.3321424424648285,
        0.05579223111271858,
        -0.6855654716491699,
        0.6199129819869995,
        0.10852450132369995,
        0.06490478664636612,
        -0.700263500213623,
        -0.11596690118312836,
        0.24369995296001434,
        -0.22140516340732574,
        1.1500709056854248,
        -1.0556493997573853,
        0.7311000227928162,
        -0.1460731029510498,
        0.15228743851184845,
        -0.1687251329421997,
        0.15783186256885529,
        -0.2088601142168045,
        -0.11692341417074203,
        0.19335626065731049,
        0.057151276618242264,
        0.006235659122467041,
        -0.18144254386425018,
        -0.03585835546255112,
        0.24681155383586884,
        -0.12002122402191162,
        -0.007123272866010666,
        -0.06703156232833862,
        -0.14519530534744263,
        -0.026364684104919434,
        0.0581473782658577,
        0.001601222436875105,
        0.21858260035514832,
        0.1303163468837738,
        -0.018228869885206223,
        0.06404080241918564,
        0.1381291300058365,
        -0.07438191771507263,
        -0.0016917886678129435,
        -0.16469937562942505,
        0.1877572238445282,
        0.04900449886918068,
        0.03434077277779579,
        -0.22769653797149658,
        0.19836542010307312,
        0.13208550214767456,
        -0.24269752204418182,
        -0.15619362890720367,
        -0.09155524522066116,
        -0.12257768213748932,
        -0.24473200738430023,
        0.07538651674985886,
        -0.013827475719153881,
        0.22435897588729858,
        0.004190816543996334,
        -0.05981941893696785,
        -0.15858416259288788,
        -0.13450856506824493,
        -0.09643527865409851,
        0.12553589046001434,
        -0.11373289674520493,
        -0.03773433342576027,
        0.0679921805858612,
        -0.057074591517448425,
        -0.1007346659898758,
        0.027677029371261597,
        0.13523727655410767,
        -0.18699559569358826,
        0.18782207369804382,
        -0.12206770479679108,
        -0.24645984172821045,
        -0.20549516379833221,
        -0.1939954161643982,
        -0.09602594375610352,
        0.0955653190612793,
        0.0636523962020874,
        -0.0019015669822692871,
        -0.2541407346725464,
        0.12795472145080566,
        0.2406330406665802,
        0.036188095808029175,
        -0.22885286808013916,
        -0.10154421627521515,
        0.09344616532325745,
        -0.02465192973613739,
        0.1679873764514923,
        0.6732668280601501,
        -0.5268554091453552,
        -0.6344093680381775,
        -0.22927092015743256,
        0.2139352709054947,
        0.013575034216046333,
        0.21545158326625824,
        0.10088948905467987,
        0.027394989505410194,
        0.3905678689479828,
        0.25564756989479065,
        -0.008257647976279259,
        0.26926371455192566,
        0.15321174263954163,
        -0.3158983290195465,
        0.03154526278376579,
        1.1118065118789673,
        1.238654613494873,
        -1.3675497770309448,
        -0.547276496887207,
        -0.2652266323566437,
        0.1688285619020462,
        0.6725705862045288,
        0.04277743399143219,
        0.24842730164527893,
        -0.22926786541938782,
        0.19164273142814636,
        5.981326103210449e-05,
        -0.11425402760505676,
        -0.11537529528141022,
        0.09033596515655518,
        -0.004576057195663452,
        0.16792944073677063,
        -0.2544415593147278,
        0.24796143174171448,
        -0.12089663743972778,
        -0.25665366649627686,
        0.058226048946380615,
        -0.03518429398536682,
        -0.21526721119880676,
        -0.020539671182632446,
        -0.0026591122150421143,
        -0.03656934201717377,
        0.07879817485809326,
        0.14240357279777527,
        0.12704455852508545,
        -0.09336124360561371,
        -0.19491946697235107,
        4.819859027862549,
        -0.6351049542427063,
        -0.8940737247467041,
        0.24964787065982819,
        0.012634883634746075,
        -0.2588374614715576,
        -0.040507491677999496,
        -1.1444073915481567,
        -0.08262025564908981,
        0.13125501573085785,
        -0.1582580804824829,
        -0.05893269553780556,
        0.2065124213695526,
        0.17394410073757172,
        0.2819543778896332,
        -0.03368905559182167,
        -0.3743235468864441,
        -0.2508946657180786,
        -0.5887623429298401,
        -0.6017794609069824,
        -0.3916647434234619,
        -0.56943678855896,
        -0.1051090657711029,
        -0.49483874440193176,
        0.19100990891456604,
        -0.1723799705505371,
        0.10017186403274536,
        0.10302621126174927,
        0.1202344298362732,
        0.10241106152534485,
        -0.1588517129421234,
        -0.03679259121417999,
        -0.04693536460399628,
        -0.22817304730415344,
        0.16767379641532898,
        0.2065812051296234,
        0.08068567514419556,
        -0.18170130252838135,
        -0.22470512986183167,
        -0.11634951829910278,
        0.2160017490386963,
        -0.034912556409835815,
        -0.1808403730392456,
        -0.08058321475982666,
        0.11833783984184265,
        0.04559943079948425,
        -0.16557997465133667,
        -0.14210455119609833,
        0.9540405869483948,
        -0.6462981700897217,
        -0.07076840847730637,
        -1.3998634815216064,
        0.16537748277187347,
        0.2682686746120453,
        -0.16335627436637878,
        0.2024928331375122,
        -0.35529792308807373,
        -0.08215882629156113,
        0.03332887217402458,
        0.14197394251823425,
        -0.015856079757213593,
        0.12484341114759445,
        -0.10271003097295761,
        0.24477890133857727,
        2.036780834197998,
        0.3789987862110138,
        -0.260311484336853,
        -1.311498999595642,
        -0.10306710749864578,
        -0.25906357169151306,
        0.13848118484020233,
        -0.2354121208190918,
        0.10279285907745361,
        -0.2882460653781891,
        -0.6062731146812439,
        -0.07870949804782867,
        0.19263890385627747,
        -0.22972607612609863,
        0.28220903873443604,
        -0.6124410629272461,
        -0.16116507351398468,
        -0.05459901690483093,
        0.006957045290619135,
        -0.33975228667259216,
        -0.032583389431238174,
        -0.1590607911348343,
        0.043282561004161835,
        0.36163443326950073,
        -0.04473324120044708,
        0.712523341178894,
        0.26155737042427063,
        0.9795248508453369,
        -0.3139103949069977,
        0.2537105977535248,
        0.3125091791152954,
        -1.2236422300338745,
        -1.8690227270126343,
        0.4469696283340454,
        0.13985438644886017,
        -0.0712938904762268,
        -0.35952019691467285,
        0.06205572560429573,
        0.11576854437589645,
        -0.3193993866443634,
        0.993050754070282,
        -0.3548468351364136,
        0.8882338404655457,
        0.11545108258724213,
        0.5148612856864929,
        -0.24869215488433838,
        -0.5542814135551453,
        -0.18968378007411957,
        -0.23720289766788483,
        0.6416772603988647,
        -0.687391996383667,
        -0.10592303425073624,
        0.05996166542172432,
        0.002962079830467701,
        0.3503088057041168,
        0.5195508003234863,
        -0.497511088848114,
        -0.3813098967075348,
        -0.13012667000293732,
        0.3345010280609131,
        0.042912259697914124,
        0.0028684353455901146,
        -0.20197980105876923,
        -0.04381463676691055,
        -0.41407302021980286,
        -0.38900741934776306,
        0.29820188879966736,
        0.029730618000030518,
        -0.20646259188652039,
        0.30907055735588074,
        0.05140502005815506,
        -0.18916596472263336,
        0.4395909011363983,
        0.6262015104293823,
        -0.12103449553251266,
        0.7450334429740906,
        0.2883516550064087,
        -0.6203041076660156,
        -0.5255541801452637,
        0.6397677659988403,
        -1.8041945695877075,
        -0.34008198976516724,
        0.5849047303199768,
        0.10082034021615982,
        -0.28047460317611694,
        -0.2022029310464859,
        0.19496913254261017,
        -0.5055750012397766,
        0.04498269408941269,
        0.1171916052699089,
        -0.012994732707738876,
        0.12899626791477203,
        0.5125584006309509,
        -0.10987123101949692,
        -0.2002769112586975,
        0.08379149436950684,
        -0.625823438167572,
        0.25212252140045166,
        -0.3572518229484558,
        -0.6304357647895813,
        -0.5840111374855042,
        0.6345710158348083,
        1.25001859664917,
        -0.0835862085223198,
        -0.0681898295879364,
        0.001849378109909594,
        0.001994381658732891,
        0.07974010705947876,
        -0.12188512086868286,
        0.0032462263479828835,
        0.15558958053588867,
        -0.10846887528896332,
        -0.19785508513450623,
        -0.22056668996810913,
        -0.022853748872876167,
        0.20734494924545288,
        -0.013248376548290253,
        -0.19120948016643524,
        -0.018444884568452835,
        0.09474682062864304,
        0.24068431556224823,
        -0.1480475664138794,
        -0.046131718903779984,
        -0.14526991546154022,
        0.21309153735637665,
        -0.15803980827331543,
        -0.19808189570903778,
        -0.11303862929344177,
        0.6047461628913879,
        0.20973429083824158,
        0.05531885102391243,
        -0.02653907984495163,
        0.6525456309318542,
        0.9430475831031799,
        0.525510311126709,
        0.0872412621974945,
        0.015789585188031197,
        0.14701126515865326,
        0.4952024519443512,
        0.38811442255973816,
        0.0034697414375841618,
        -0.034519217908382416,
        -0.7626226544380188,
        0.1293911635875702,
        0.3299635052680969,
        -0.5231137871742249,
        -0.311222642660141,
        -0.8874019384384155,
        -0.08400236815214157,
        0.8031073808670044,
        0.43275752663612366,
        -0.3061376214027405,
        -0.16495493054389954,
        -0.12082024663686752,
        -0.1073315218091011,
        0.18161360919475555,
        -0.03292405977845192,
        0.08387035876512527,
        -0.1713525950908661,
        0.07032715529203415,
        0.1663595736026764,
        -0.1344650536775589,
        0.2919459939002991,
        0.02357345074415207,
        0.265658974647522,
        0.1095392107963562,
        -0.04034871235489845,
        0.11871474236249924,
        -2.5006515979766846,
        -1.1678407192230225,
        -0.9211982488632202,
        -0.930167019367218,
        -0.3474405109882355,
        -0.48168665170669556,
        -0.24225109815597534,
        -0.16324572265148163,
        -2.163116693496704,
        1.0496259927749634,
        0.37660717964172363,
        -0.7242347002029419,
        -0.026465829461812973,
        0.1906503587961197,
        -0.12772519886493683,
        -0.4132137894630432,
        -0.2890172600746155,
        0.14238563179969788,
        -1.1708383560180664,
        0.35483890771865845,
        -1.069608211517334,
        0.209777370095253,
        1.0637441873550415,
        0.02586837112903595,
        1.017540454864502,
        -0.452033668756485,
        -0.1713828146457672,
        -0.6891423463821411,
        0.7039329409599304,
        0.017627490684390068,
        -0.0924508348107338,
        -0.023887313902378082,
        -1.5904666185379028,
        0.9053605198860168,
        0.5761085748672485,
        0.1570328176021576,
        -0.4595489501953125,
        -0.0786842331290245,
        0.004485320299863815,
        -0.08271077275276184,
        0.5849330425262451,
        -0.21026475727558136,
        0.7335541844367981,
        0.42745769023895264,
        -0.5234422087669373,
        0.15641526877880096,
        -0.3176099359989166,
        0.0902925357222557,
        -0.4587954878807068,
        0.39681294560432434,
        -0.9029878377914429,
        -0.5844905972480774,
        1.5975703001022339,
        -0.012333543039858341,
        -0.2167835384607315,
        -0.0037748408503830433,
        0.2121029794216156,
        0.15894204378128052,
        -0.18661296367645264,
        -0.2352328896522522,
        0.11065444350242615,
        -0.1450088620185852,
        0.039784371852874756,
        0.06310155987739563,
        -0.1936197727918625,
        -0.19955889880657196,
        0.006525874137878418,
        -0.1575751006603241,
        -0.18131251633167267,
        0.13287687301635742,
        -0.16427361965179443,
        0.071799635887146,
        0.021700173616409302,
        -0.0225764662027359,
        -0.030669748783111572,
        0.22162580490112305,
        -0.15389490127563477,
        -0.1169852763414383,
        -0.14978191256523132,
        -0.22136826813220978,
        -0.05970095098018646,
        0.2356366217136383,
        -0.21853123605251312,
        -0.12339325249195099,
        0.179703027009964,
        0.21638906002044678,
        0.04425168037414551,
        0.12228915095329285,
        -0.2268739640712738,
        0.09100103378295898,
        -0.17840607464313507,
        0.1367531716823578,
        -0.16883760690689087,
        -0.037624627351760864,
        -0.25402170419692993,
        -0.10982146859169006,
        0.2124241590499878,
        -0.12352311611175537,
        0.09170830249786377,
        -0.21323545277118683,
        -0.1212577074766159,
        0.05857399106025696,
        0.08498382568359375,
        0.2571967542171478,
        0.058873385190963745,
        0.0806831419467926,
        0.17701101303100586,
        0.1387014389038086,
        -0.13268381357192993,
        0.010349959135055542,
        0.05961066484451294,
        -0.21478603780269623,
        0.09628939628601074,
        -0.2117968052625656,
        -0.2259347289800644,
        -0.17305369675159454,
        0.061507582664489746,
        -0.055708035826683044,
        -0.24684911966323853,
        0.1602642834186554,
        0.22052982449531555,
        0.2441655695438385,
        -0.10206703841686249,
        0.25019362568855286,
        -0.02192971110343933,
        0.16660943627357483,
        -0.12848520278930664,
        0.17877811193466187,
        2.3233463764190674,
        -0.8414895534515381,
        0.05418926849961281,
        -0.15632277727127075,
        0.4052245318889618,
        -0.3081946074962616,
        0.1559176743030548,
        0.0831463560461998,
        0.1991739422082901,
        -0.27026310563087463,
        -0.8289187550544739,
        0.7019032835960388,
        -0.018512479960918427,
        -0.009301265701651573,
        0.011362615041434765,
        0.14761799573898315,
        -1.1308035850524902,
        0.25713637471199036,
        0.55609530210495,
        -0.253165602684021,
        0.22589033842086792,
        0.6167742013931274,
        0.20418496429920197,
        0.07909228652715683
      ]
    },
    {
      "architecture": "normalization",
      "bias": [
        4.545772389974445e-05,
        1.6275147572741844e-05,
        -9.045677143149078e-05,
        -0.03236670792102814,
        -0.033173076808452606,
        -5.2670031436719e-05,
        1.3092058907204773e-05,
        -7.341040327446535e-05,
        -0.024623241275548935,
        0.0001570852182339877,
        1.7740016119205393e-05,
        8.049835741985589e-05,
        -0.664103627204895,
        -0.021511830389499664,
        2.2099013222032227e-05,
        -0.0025104060769081116,
        -0.1532537192106247,
        5.00548594573047e-05,
        -3.934069536626339e-05,
        -0.0008269501850008965,
        -0.05674538016319275,
        2.949369627458509e-05,
        3.1970594136510044e-05,
        2.099674202327151e-05,
        -0.016083499416708946,
        -4.7723187890369445e-05,
        0.00013528851559385657,
        -3.2451059818267822,
        0.00010761904559331015,
        -0.03054684028029442,
        -0.04112489894032478,
        -0.03867951035499573,
        -0.015339735895395279,
        -0.03819447010755539,
        -0.10195806622505188,
        -0.008062765002250671,
        1.9951628928538412e-05,
        -7.000066398177296e-05,
        -0.8912047743797302,
        -4.0943443309515715e-05,
        -0.02441953495144844,
        -0.03324916958808899,
        -0.030365532264113426,
        0.008921800181269646,
        0.00015520493616349995,
        -0.0077045634388923645,
        -0.35281145572662354,
        -0.00014370150165632367,
        -0.087757907807827,
        -0.00010597358777886257,
        -0.02040746435523033,
        -0.04166170954704285,
        -0.5788418650627136,
        -0.2220800668001175,
        -0.023007860407233238,
        0.00011876509233843535,
        -0.17450948059558868,
        3.098427259828895e-05,
        -0.06330427527427673,
        -0.11066305637359619,
        -2.8389081307977904e-06,
        -4.510005237534642e-05,
        9.35809930524556e-06,
        -0.06046518683433533
      ],
      "weights": [
        31.35247039794922,
        31.491846084594727,
        31.622774124145508,
        40.53200912475586,
        4.238240718841553,
        28.590625762939453,
        31.622774124145508,
        31.319164276123047,
        20.580516815185547,
        31.622774124145508,
        31.473752975463867,
        31.622774124145508,
        16.49495506286621,
        30.9160213470459,
        31.622774124145508,
        22.751745223999023,
        18.429967880249023,
        31.71775245666504,
        37.07462692260742,
        35.222900390625,
        36.212188720703125,
        31.622774124145508,
        31.622774124145508,
        31.622774124145508,
        32.345977783203125,
        31.622774124145508,
        28.9765567779541,
        3.146695852279663,
        31.66351318359375,
        52.0419921875,
        43.46365737915039,
        37.1926383972168,
        19.001768112182617,
        22.619352340698242,
        13.091987609863281,
        32.949546813964844,
        31.501663208007812,
        31.006616592407227,
        24.692222595214844,
        31.622774124145508,
        55.75663757324219,
        41.7386360168457,
        18.85639190673828,
        31.54069709777832,
        30.97029685974121,
        31.622774124145508,
        8.630487442016602,
        31.622774124145508,
        3.6896555423736572,
        31.622774124145508,
        19.08645248413086,
        8.008955955505371,
        13.825469017028809,
        14.472007751464844,
        19.125503540039062,
        31.481887817382812,
        5.077813148498535,
        25.371755599975586,
        13.114874839782715,
        17.864112854003906,
        31.622774124145508,
        31.622774124145508,
        31.622774124145508,
        12.444021224975586
      ]
    },
    {
      "activation": "rectified",
      "architecture": "dense",
      "bias": [
        -0.15416893362998962,
        -0.05500737577676773,
        -0.4326265752315521,
        0.10518018901348114,
        -0.22592978179454803,
        -0.4509410560131073,
        1.1979159116744995,
        -0.06616673618555069,
        -0.12816675007343292,
        -0.11635792255401611,
        -0.16670899093151093,
        -0.185748890042305,
        0.14669683575630188,
        -0.07480526715517044,
        0.3149254322052002,
        -0.050956107676029205,
        -0.3640531301498413,
        0.35970553755760193,
        -0.4439604580402374,
        -0.6403625011444092,
        0.035605333745479584,
        0.26321297883987427,
        0.8627116084098816,
        0.8432044386863708,
        -0.7970995903015137,
        0.2367953062057495,
        0.25957614183425903,
        0.8947739005088806,
        -0.19056196510791779,
        -0.20526528358459473,
        -0.1896459460258484,
        0.037785351276397705
      ],
      "weights": [
        -4.1504634282318875e-05,
        -0.001997994491830468,
        0.06236161291599274,
        0.40780356526374817,
        -0.057961247861385345,
        -0.004995909985154867,
        -0.008094710297882557,
        0.0028529325500130653,
        -0.11029576510190964,
        -0.017455128952860832,
        -0.014126013033092022,
        -0.009080855175852776,
        -0.2609476149082184,
        0.3368266820907593,
        -0.0009554381831549108,
        0.2788774371147156,
        0.15074953436851501,
        -0.009218556806445122,
        0.005049348343163729,
        -0.05957968905568123,
        -0.30831262469291687,
        -0.002509831916540861,
        -0.004700351506471634,
        -0.0061239260248839855,
        0.04582924023270607,
        0.00046412201481871307,
        -0.01695655658841133,
        -0.07607247680425644,
        -0.011289459653198719,
        -0.7729384899139404,
        -0.17984162271022797,
        -0.1490086019039154,
        -0.5296493172645569,
        -0.2539249062538147,
        0.33798110485076904,
        0.11752606183290482,
        -0.0023748825769871473,
        0.008957085199654102,
        -0.04075855761766434,
        0.005124495830386877,
        0.4214799404144287,
        -1.650227665901184,
        -0.43818387389183044,
        -0.24830736219882965,
        -0.019043173640966415,
        0.01216841209679842,
        0.19062918424606323,
        0.010775436647236347,
        0.09989956766366959,
        -0.0004702054720837623,
        -0.29067865014076233,
        0.25171124935150146,
        0.49036070704460144,
        -0.11704975366592407,
        -0.028335895389318466,
        0.0004007896641269326,
        0.1240248754620552,
        -0.6896939277648926,
        -0.3099513053894043,
        -0.086631640791893,
        0.004999220371246338,
        0.0018041912699118257,
        0.003402633359655738,
        -0.3205558657646179,
        0.049295589327812195,
        0.06593994051218033,
        -0.023131798952817917,
        0.6311130523681641,
        0.8374392986297607,
        -0.011413201689720154,
        0.0513259656727314,
        -0.05465344339609146,
        -0.002792839426547289,
        0.06252644211053848,
        -0.13128997385501862,
        0.012411990202963352,
        0.22664618492126465,
        0.06523052603006363,
        -0.08343950659036636,
        -0.23221799731254578,
        0.06003222241997719,
        -0.051857344806194305,
        -0.11839915812015533,
        -0.276241272687912,
        0.8118099570274353,
        0.07121916115283966,
        0.03462504968047142,
        -0.02147015742957592,
        0.16441582143306732,
        -0.047021422535181046,
        0.05048487335443497,
        -0.31684350967407227,
        0.026082906872034073,
        0.21417292952537537,
        -0.18524418771266937,
        -0.024323834106326103,
        -0.2594927251338959,
        0.09172821789979935,
        0.2576449513435364,
        -0.8186089992523193,
        0.04065119847655296,
        0.029411520808935165,
        0.11809899657964706,
        0.021442705765366554,
        0.2643897533416748,
        -0.032367587089538574,
        0.06862547248601913,
        0.19992521405220032,
        -0.12064824253320694,
        -0.09051787853240967,
        0.009873625822365284,
        -0.10655248165130615,
        0.09075623750686646,
        -0.05156436190009117,
        0.3575200140476227,
        0.4595116078853607,
        -0.16504427790641785,
        -0.3390016257762909,
        0.385527104139328,
        0.08068198710680008,
        -0.8515715003013611,
        -0.6814622282981873,
        -0.306629478931427,
        -0.42212486267089844,
        0.08733376860618591,
        0.007939272560179234,
        0.15219852328300476,
        0.45929470658302307,
        0.04618062078952789,
        -0.017600083723664284,
        -0.1437438726425171,
        0.0011026881402358413,
        0.058249570429325104,
        0.015670573338866234,
        0.009351331740617752,
        -0.07974795997142792,
        0.3411581814289093,
        0.07905393093824387,
        -0.02327010966837406,
        0.028877364471554756,
        -0.1718376874923706,
        -0.13435854017734528,
        -0.08312700688838959,
        0.2804393768310547,
        0.8743442296981812,
        0.010076630860567093,
        -0.018313245847821236,
        -0.21649746596813202,
        0.05820716172456741,
        -0.022258376702666283,
        0.09559044986963272,
        -0.051014259457588196,
        0.23698048293590546,
        -0.07435821741819382,
        0.08583645522594452,
        0.42740941047668457,
        -0.06676744669675827,
        -0.20068497955799103,
        0.24760779738426208,
        -0.04536259546875954,
        0.14104753732681274,
        -0.08469483256340027,
        0.1266442835330963,
        0.10117055475711823,
        -0.00474777165800333,
        -0.016861537471413612,
        0.6663278341293335,
        -0.037336576730012894,
        -0.2711844742298126,
        0.0873701348900795,
        0.05158732458949089,
        -0.3069918155670166,
        0.13627654314041138,
        0.34175992012023926,
        -0.14651234447956085,
        -0.08227011561393738,
        -0.23221001029014587,
        -0.11962489038705826,
        -0.41291430592536926,
        -0.41542738676071167,
        0.39287954568862915,
        0.2688244879245758,
        -1.0694799423217773,
        0.12867474555969238,
        -0.018208101391792297,
        0.7909103631973267,
        0.0332772433757782,
        0.12636220455169678,
        0.10748663544654846,
        0.06723745912313461,
        0.06741183251142502,
        -0.8178885579109192,
        0.0009752049227245152,
        -0.024292392656207085,
        -0.17059578001499176,
        -0.12292888015508652,
        0.28146523237228394,
        0.02300122193992138,
        -0.03787088394165039,
        -0.02943509817123413,
        0.1939876824617386,
        -0.041951488703489304,
        -0.004547916352748871,
        -0.031064476817846298,
        -1.483778476715088,
        -0.026286493986845016,
        0.034687936305999756,
        -0.6551226377487183,
        0.14178256690502167,
        0.030121872201561928,
        0.012391333468258381,
        -0.3968925178050995,
        0.20483548939228058,
        0.007125312462449074,
        0.012622477486729622,
        -0.026254715397953987,
        0.13630624115467072,
        -0.0161262396723032,
        -0.0414806567132473,
        -0.19378213584423065,
        -0.010644116438925266,
        -0.2052895575761795,
        0.42715519666671753,
        0.0887565165758133,
        0.16264761984348297,
        -0.01965854875743389,
        0.16893255710601807,
        0.013725542463362217,
        -0.04238506406545639,
        -0.016865098848938942,
        -0.1837007701396942,
        -0.030313558876514435,
        -0.2451949268579483,
        0.10389799624681473,
        -0.027574792504310608,
        -0.0004627119342330843,
        0.029595252126455307,
        0.06800173223018646,
        -0.12480698525905609,
        -0.002584391040727496,
        -0.5596857666969299,
        -0.04156077280640602,
        -0.09769994020462036,
        -0.23978431522846222,
        -0.23518018424510956,
        -0.07262533903121948,
        0.3042115569114685,
        0.010515457019209862,
        -1.153517723083496,
        0.8079141974449158,
        -0.19236591458320618,
        0.1489596962928772,
        0.004973332863301039,
        -0.008503014221787453,
        -0.023233097046613693,
        -0.14570775628089905,
        -0.005996344145387411,
        2.05915785045363e-05,
        -0.030775977298617363,
        -0.6612853407859802,
        -0.09993121773004532,
        -0.006169111467897892,
        0.0026027411222457886,
        0.0072062574326992035,
        0.6170405745506287,
        -0.0011483702110126615,
        0.00876239687204361,
        -0.003333979519084096,
        -0.10859309136867523,
        -0.05015840381383896,
        0.010296555235981941,
        -0.5827062129974365,
        -0.3269236087799072,
        -0.005682241637259722,
        0.007351136766374111,
        -0.2378809005022049,
        0.8435859680175781,
        0.0085996612906456,
        -0.01275078859180212,
        0.005815847311168909,
        -0.2530198097229004,
        0.009239917621016502,
        0.0018047929042950273,
        -0.16862662136554718,
        0.015291648916900158,
        0.06907270103693008,
        -0.5804318785667419,
        0.38051682710647583,
        -0.14773572981357574,
        0.32559794187545776,
        -0.33860811591148376,
        -0.17150697112083435,
        0.007277340162545443,
        -0.002229589270427823,
        0.013203873299062252,
        0.005351217929273844,
        0.10537093132734299,
        -0.33160197734832764,
        -0.18039722740650177,
        -0.13964329659938812,
        -0.0037371921353042126,
        0.21641862392425537,
        0.1557205468416214,
        0.004092539194971323,
        -0.03226101025938988,
        0.011966838501393795,
        0.7441516518592834,
        0.3572976589202881,
        -0.09107064455747604,
        -0.47435471415519714,
        -0.3346502184867859,
        -0.00655243918299675,
        -0.049277324229478836,
        -0.08697682619094849,
        -0.0867188572883606,
        -0.056021664291620255,
        -0.013707399368286133,
        -0.006625128444284201,
        -0.011902415193617344,
        0.2895963788032532,
        -0.017832500860095024,
        -0.030567113310098648,
        -0.32669657468795776,
        -0.2633330821990967,
        0.11377835273742676,
        0.010080350562930107,
        -0.03060593083500862,
        0.004421256482601166,
        -0.04592640697956085,
        0.008414870128035545,
        -0.024807309731841087,
        -0.01199666690081358,
        -0.04811199754476547,
        -0.6460950374603271,
        -0.0014146778266876936,
        1.1741950511932373,
        -0.02895224280655384,
        0.010472021996974945,
        -0.028167694807052612,
        -0.6569410562515259,
        -0.2896072268486023,
        0.014516329392790794,
        -0.0029229845385998487,
        -0.031356554478406906,
        0.21703827381134033,
        -0.019148074090480804,
        0.0007824641652405262,
        0.16067712008953094,
        -0.027672359719872475,
        -0.6012629866600037,
        -0.07195361703634262,
        -0.08274872601032257,
        0.6033638119697571,
        0.1698532998561859,
        0.13366134464740753,
        -0.004016019869595766,
        -0.04063098877668381,
        0.012628762051463127,
        -0.09504084289073944,
        0.006563163362443447,
        -0.7264430522918701,
        -0.29894325137138367,
        0.43763184547424316,
        -0.5905920267105103,
        0.006370715331286192,
        0.6685672402381897,
        -0.11388030648231506,
        -0.021307358518242836,
        0.31400778889656067,
        -0.025869008153676987,
        -0.5831174254417419,
        -0.1243634968996048,
        1.2558119297027588,
        0.3517712354660034,
        -0.19287273287773132,
        0.0014667054638266563,
        -0.08839952945709229,
        0.6161389350891113,
        0.3229755759239197,
        -0.22594715654850006,
        0.01366443745791912,
        -0.030345482751727104,
        0.0172980185598135,
        -0.2230488508939743,
        -0.018944239243865013,
        -0.0392991341650486,
        0.6836589574813843,
        0.1942564845085144,
        0.312835693359375,
        0.027889149263501167,
        0.0033195188734680414,
        -0.02670242264866829,
        0.21977730095386505,
        -0.02421671338379383,
        -0.018497740849852562,
        -0.009301761165261269,
        -0.18444614112377167,
        0.052968043833971024,
        -0.024139035493135452,
        -0.628474235534668,
        -0.4255470335483551,
        -0.0073821707628667355,
        -0.016885627061128616,
        -0.21987217664718628,
        -0.46665075421333313,
        0.0004012033168692142,
        0.024990180507302284,
        -0.01122843474149704,
        -0.09522545337677002,
        -0.014340088702738285,
        -0.005847310647368431,
        -0.0061148847453296185,
        -0.014767269603908062,
        -0.6653391718864441,
        0.26528674364089966,
        -0.03386847302317619,
        0.14204275608062744,
        -0.18173964321613312,
        -0.19899563491344452,
        -0.1556658148765564,
        -0.029741836711764336,
        0.027094122022390366,
        0.8082727193832397,
        -0.005864047911018133,
        -0.04405546560883522,
        -0.10064787417650223,
        -0.05567173287272453,
        1.2859134674072266,
        -0.07796657830476761,
        -1.2130552530288696,
        -0.34837964177131653,
        0.007754465565085411,
        -0.10286438465118408,
        0.0041838111355900764,
        -0.1568763554096222,
        -0.19402152299880981,
        0.2002929449081421,
        0.14851170778274536,
        -0.6512174010276794,
        -0.0011936725350096822,
        -0.6367754340171814,
        -0.16703832149505615,
        -0.740710973739624,
        0.3597301244735718,
        0.016021689400076866,
        0.013256768696010113,
        0.0031948862597346306,
        -0.34981590509414673,
        -0.02203444205224514,
        -0.017256630584597588,
        -0.014737618155777454,
        0.5495685338973999,
        0.3034364581108093,
        0.002990157576277852,
        0.014402900822460651,
        0.016568277031183243,
        0.38350439071655273,
        0.0029118754900991917,
        0.0028548568952828646,
        0.026802491396665573,
        0.00316629558801651,
        0.1957954466342926,
        0.0009734403574839234,
        0.20519016683101654,
        0.2242845594882965,
        -0.01689998246729374,
        -0.01430669054389,
        0.04769943654537201,
        0.573725163936615,
        -0.013171081431210041,
        0.004067037720233202,
        0.0075914738699793816,
        -0.049281489104032516,
        0.02947896532714367,
        0.008287490345537663,
        0.107979416847229,
        0.02111510932445526,
        0.10964501649141312,
        -0.07478155940771103,
        0.17018696665763855,
        -0.06583961844444275,
        -0.4305276870727539,
        -0.10176859050989151,
        0.30556774139404297,
        -0.0005345975514501333,
        0.02247503027319908,
        -0.3108353018760681,
        0.028772754594683647,
        0.24453824758529663,
        -0.3050036132335663,
        0.6015471816062927,
        -0.004438832867890596,
        -0.04546951502561569,
        0.20971988141536713,
        0.3583967983722687,
        0.011340719647705555,
        0.7875243425369263,
        0.02493053302168846,
        0.16581979393959045,
        -0.2481558471918106,
        -0.1382829248905182,
        0.011075829155743122,
        -0.8800920248031616,
        -0.0177373718470335,
        -0.9425954818725586,
        -0.39740240573883057,
        -0.13371656835079193,
        -0.20327822864055634,
        -0.011161956936120987,
        0.01216975599527359,
        -0.01338991429656744,
        0.6546582579612732,
        -0.007588003762066364,
        0.020823229104280472,
        -0.2838394045829773,
        -0.05788040533661842,
        0.17043058574199677,
        0.026871632784605026,
        0.025010349228978157,
        -0.06235736981034279,
        0.3070608675479889,
        0.03524491563439369,
        0.052219949662685394,
        0.025891011580824852,
        -0.14281964302062988,
        -0.6080988645553589,
        -0.03939112648367882,
        -0.1337297409772873,
        -0.37693315744400024,
        0.013310684822499752,
        -0.00492599792778492,
        0.175826296210289,
        -0.10681036859750748,
        -0.01960061676800251,
        0.08069099485874176,
        0.014587942510843277,
        -0.04859378561377525,
        0.011898767203092575,
        0.05370476469397545,
        -0.06631514430046082,
        -0.03687388822436333,
        -0.6000658869743347,
        -0.32280513644218445,
        -0.5153930187225342,
        -0.15995772182941437,
        -1.085020661354065,
        -0.05305358022451401,
        0.08284304291009903,
        -0.005612359382212162,
        -0.04896809905767441,
        0.17651136219501495,
        -0.019247710704803467,
        0.44730791449546814,
        -0.23133783042430878,
        0.4850098788738251,
        -0.0729551911354065,
        0.20948873460292816,
        0.3363412320613861,
        -0.039099521934986115,
        -0.0986880213022232,
        0.07445427030324936,
        -0.01174159161746502,
        -0.1559554934501648,
        -0.056361354887485504,
        -0.04205896332859993,
        0.24914267659187317,
        -0.6661672592163086,
        0.04996424913406372,
        0.10442851483821869,
        -1.9746310710906982,
        0.008177232928574085,
        -0.08567576855421066,
        0.01249961368739605,
        0.028891613706946373,
        -0.01831642910838127,
        -0.44062697887420654,
        0.0005515897064469755,
        0.010320239700376987,
        0.01564924046397209,
        -0.014338761568069458,
        -0.02775495871901512,
        0.0016443358035758138,
        0.008636683225631714,
        -0.008760484866797924,
        0.05181263014674187,
        0.011169159784913063,
        0.0024637917522341013,
        0.010973745957016945,
        0.15181514620780945,
        -0.6838946342468262,
        0.001109502394683659,
        -0.06656443327665329,
        0.25385406613349915,
        0.01333268266171217,
        -0.009685802273452282,
        -0.21786080300807953,
        -0.3848155438899994,
        0.0005811266601085663,
        0.0023858097847551107,
        0.007899309508502483,
        0.7618055939674377,
        -0.005823251325637102,
        0.01072770357131958,
        -0.4269273281097412,
        0.006008325144648552,
        0.06669134646654129,
        0.3102216124534607,
        0.5097352266311646,
        -0.18574228882789612,
        -0.5388871431350708,
        -0.06641543656587601,
        -0.2557262182235718,
        0.0031885048374533653,
        -0.00933871790766716,
        0.5928978323936462,
        -0.010638842359185219,
        0.09808377921581268,
        0.30360153317451477,
        0.1449875682592392,
        0.01632583886384964,
        0.012217515148222446,
        0.0684400126338005,
        -0.11221787333488464,
        -0.012420783750712872,
        0.03983929380774498,
        -0.004508938640356064,
        -0.2247997522354126,
        0.301209032535553,
        -0.1371898502111435,
        -0.43546733260154724,
        0.18157579004764557,
        0.006305589806288481,
        0.14182940125465393,
        -0.16991156339645386,
        -0.1714504510164261,
        -0.2865433096885681,
        0.0007529756403528154,
        -0.002378694945946336,
        -0.0014597810804843903,
        -0.44183284044265747,
        -0.0032866555266082287,
        -0.005085823591798544,
        0.054230108857154846,
        0.37893766164779663,
        -0.03257711976766586,
        -0.00044325419003143907,
        0.0034447223879396915,
        0.011933091096580029,
        -0.2236448973417282,
        -0.019573062658309937,
        0.007182798348367214,
        -0.0194674264639616,
        0.09655264019966125,
        -0.14703279733657837,
        0.00932097528129816,
        -0.2960752546787262,
        0.05652888864278793,
        -0.013997158966958523,
        0.02161375805735588,
        -0.610235333442688,
        0.21780045330524445,
        -0.00749177997931838,
        -0.017937639728188515,
        -0.0004932189476676285,
        0.09297645837068558,
        0.019000597298145294,
        -0.014028877951204777,
        -0.3961048424243927,
        -0.0040341815911233425,
        0.5008361339569092,
        1.0374847650527954,
        -1.0443674325942993,
        0.15153488516807556,
        0.05870792642235756,
        -0.05995393171906471,
        -0.3960733711719513,
        0.006127342116087675,
        0.00986477266997099,
        -0.12713880836963654,
        0.012144544161856174,
        -1.4639981985092163,
        0.0590532086789608,
        0.17514130473136902,
        0.08894182741641998,
        -0.025105534121394157,
        0.204695463180542,
        0.11080072075128555,
        0.020361842587590218,
        -0.16133305430412292,
        0.015427502803504467,
        0.1832626312971115,
        0.3417592942714691,
        -0.10237570852041245,
        -0.17038246989250183,
        -0.08351198583841324,
        -0.010362154804170132,
        -0.1339023858308792,
        -0.671190619468689,
        -0.07063034921884537,
        0.42809709906578064,
        -0.011062518693506718,
        0.008856035768985748,
        -0.014893113635480404,
        -0.4251493513584137,
        -0.0011736237211152911,
        0.008598130196332932,
        0.03588394820690155,
        0.5380935668945312,
        -0.16910290718078613,
        -0.001038595917634666,
        0.008870690129697323,
        -0.00930882804095745,
        -0.07126100361347198,
        0.0158942099660635,
        0.0019458464812487364,
        0.011091392487287521,
        -0.08706792443990707,
        0.6607446074485779,
        -0.0059528653509914875,
        0.05740850791335106,
        0.38076990842819214,
        0.009832273237407207,
        -0.009077020920813084,
        -0.20991355180740356,
        -0.5444653630256653,
        0.0026817384641617537,
        0.008675940334796906,
        0.013539984822273254,
        -0.5551525354385376,
        -0.0059453630819916725,
        0.01639890857040882,
        0.0639132633805275,
        0.007303483318537474,
        0.37638425827026367,
        -0.9901313781738281,
        0.11389059573411942,
        0.01037510298192501,
        0.14492441713809967,
        0.06327647715806961,
        0.08439385145902634,
        0.0006624209927394986,
        -0.0024486263282597065,
        -0.06670993566513062,
        -0.0081850066781044,
        -1.0753353834152222,
        -0.04982393607497215,
        -0.14396432042121887,
        -0.28500068187713623,
        0.012456812895834446,
        0.23378723859786987,
        0.4753980040550232,
        -0.013917730189859867,
        -0.16022798418998718,
        -0.0017094480572268367,
        -0.19600322842597961,
        -0.006241098046302795,
        0.20579996705055237,
        0.18869508802890778,
        -0.18021844327449799,
        0.009916525334119797,
        -0.13398464024066925,
        -0.1873074620962143,
        -0.39667201042175293,
        -0.1160271093249321,
        0.0010619881795719266,
        -0.0037878844887018204,
        0.008920053020119667,
        -0.2981932759284973,
        0.001805627136491239,
        -0.0602763332426548,
        0.1432875394821167,
        -0.11878955364227295,
        -0.38379770517349243,
        0.01687600463628769,
        -0.0661858394742012,
        -0.022449012845754623,
        0.009997938759624958,
        -0.05551232025027275,
        -0.03428984805941582,
        -0.0876605436205864,
        0.21791929006576538,
        -0.26469504833221436,
        0.00937151163816452,
        -0.631291925907135,
        -0.5889037847518921,
        -0.060649409890174866,
        0.05890057981014252,
        -0.06796042621135712,
        -0.5392189621925354,
        -0.020405238494277,
        0.018484119325876236,
        -0.08826736360788345,
        0.08385815471410751,
        -0.009286402724683285,
        -0.048985883593559265,
        0.08030436933040619,
        -0.07109609246253967,
        0.14980457723140717,
        0.2319701611995697,
        -0.15743842720985413,
        0.038208987563848495,
        0.5990200638771057,
        0.21730810403823853,
        -0.31467723846435547,
        -0.03508280590176582,
        0.04694368690252304,
        -0.3862493634223938,
        0.0314226858317852,
        0.28709182143211365,
        -0.1296752244234085,
        -0.37820670008659363,
        0.019984539598226547,
        -0.10147013515233994,
        0.0551404170691967,
        0.36876359581947327,
        0.01421025674790144,
        -0.20736666023731232,
        -0.05039823800325394,
        -0.09323490411043167,
        -0.26418787240982056,
        -0.38222429156303406,
        -0.6656548976898193,
        -0.20799146592617035,
        0.032102152705192566,
        0.9838515520095825,
        0.19812029600143433,
        0.2885378897190094,
        0.09913420677185059,
        0.04993676394224167,
        0.04853151738643646,
        -0.003217610064893961,
        0.11841169744729996,
        -0.04625007137656212,
        -0.04747440293431282,
        0.1287773698568344,
        0.11018522083759308,
        -0.27260851860046387,
        0.057256173342466354,
        -0.009631396271288395,
        -0.038735244423151016,
        -0.1990213543176651,
        0.042710237205028534,
        0.10265608131885529,
        -0.0276066605001688,
        0.04466591030359268,
        0.39318087697029114,
        -0.03193971514701843,
        -0.3038766384124756,
        0.3008285164833069,
        0.021037528291344643,
        0.04978406801819801,
        0.24961280822753906,
        0.4415765702724457,
        -0.021439973264932632,
        0.04870389774441719,
        -0.007300971075892448,
        -0.10000351071357727,
        -0.006205967627465725,
        0.06015574932098389,
        -0.10028883069753647,
        0.049158498644828796,
        0.3267172873020172,
        -0.3044491410255432,
        0.06251080334186554,
        -0.09761779755353928,
        -0.12570668756961823,
        0.2528632879257202,
        -0.28132808208465576,
        -0.017631210386753082,
        -0.07328309863805771,
        0.5602494478225708,
        -0.027764316648244858,
        0.032994430512189865,
        0.3665367066860199,
        -0.750531017780304,
        -0.0952429547905922,
        0.013743232935667038,
        -0.020447826012969017,
        -0.5751451253890991,
        -0.00644654082134366,
        -0.6979684829711914,
        -0.03763763979077339,
        -0.054476186633110046,
        0.21083132922649384,
        -0.6543856263160706,
        -0.6242174506187439,
        0.35699665546417236,
        0.06466250121593475,
        0.0786837786436081,
        -0.01793702319264412,
        0.9290140867233276,
        -0.03774527832865715,
        0.04556243494153023,
        -0.0177502129226923,
        -0.012837350368499756,
        -0.25026580691337585,
        0.020944898948073387,
        0.05341183394193649,
        0.29603585600852966,
        0.06886514276266098,
        -0.23684407770633698,
        0.006259286310523748,
        0.053734589368104935,
        0.020698182284832,
        -0.037554219365119934,
        0.06450996547937393,
        -0.002654664684087038,
        0.06704295426607132,
        0.0792788714170456,
        0.5216928720474243,
        -0.02156876027584076,
        -0.3725075423717499,
        -0.7822021842002869,
        -0.025326838716864586,
        -0.024504804983735085,
        -0.11235523223876953,
        -0.26912641525268555,
        -0.021733902394771576,
        -0.0010150846792384982,
        0.02195402979850769,
        -0.3850227892398834,
        0.03678668290376663,
        0.06107858568429947,
        -0.6212848424911499,
        -0.004049043171107769,
        0.23389855027198792,
        -0.22432832419872284,
        0.2831517457962036,
        -0.10653083771467209,
        0.4297310709953308,
        0.051918480545282364,
        -1.4873034954071045,
        0.05818504840135574,
        0.010683569125831127,
        -0.567516565322876,
        0.03572585806250572,
        0.02790556102991104,
        0.17371423542499542,
        -0.21662859618663788,
        0.5050398707389832,
        0.03504205495119095,
        -0.24418893456459045,
        0.0336223766207695,
        -0.03247254714369774,
        -0.3500945568084717,
        0.009179431945085526,
        -0.17887617647647858,
        -0.011541065759956837,
        -0.04470094293355942,
        -0.07683894783258438,
        0.2104579359292984,
        0.03711674362421036,
        -0.11528344452381134,
        -0.8290261626243591,
        0.06384176015853882,
        0.3861212432384491,
        0.0029034593608230352,
        0.03702973946928978,
        -0.0012268646387383342,
        0.16452927887439728,
        -0.014906352385878563,
        0.04430181533098221,
        0.03178452327847481,
        0.09468793869018555,
        -0.7471458315849304,
        -0.002085695741698146,
        0.011891921982169151,
        -0.02961116097867489,
        0.22946718335151672,
        0.03930220752954483,
        -0.035563915967941284,
        0.033783458173274994,
        0.8938271999359131,
        -0.138846755027771,
        -0.03607403486967087,
        -0.3417157828807831,
        0.12970566749572754,
        0.044115543365478516,
        -0.08100802451372147,
        -0.04445018619298935,
        -0.05197812244296074,
        0.025515902787446976,
        0.04306457191705704,
        0.02230861783027649,
        0.06241185963153839,
        -0.046877190470695496,
        0.021843938156962395,
        0.16545170545578003,
        0.027222802862524986,
        0.14235790073871613,
        -0.009234756231307983,
        -0.021866483613848686,
        -0.08145483583211899,
        0.5508502721786499,
        0.13485358655452728,
        -0.07286719232797623,
        -0.01545528881251812,
        -0.03146808221936226,
        0.16605934500694275,
        -0.04061363264918327,
        0.023740828037261963,
        -0.2583597004413605,
        -0.31213438510894775,
        -0.04077449440956116,
        0.07292195409536362,
        -0.1623322069644928,
        -0.009986705146729946,
        -0.050894130021333694,
        -0.5962862968444824,
        -0.008629275485873222,
        0.08918215334415436,
        -0.1290016621351242,
        -0.06547091156244278,
        -0.15019665658473969,
        -0.7098889946937561,
        0.0224780160933733,
        0.8862588405609131,
        0.40465807914733887,
        -0.17422598600387573,
        -0.4659580886363983,
        0.004704684019088745,
        -0.03942461684346199,
        0.026969898492097855,
        -0.120400071144104,
        0.008531059138476849,
        -0.015003963373601437,
        -0.6107001304626465,
        -0.1318131387233734,
        -3.3053128719329834,
        -0.012807082384824753,
        0.008863394148647785,
        -0.013976244255900383,
        -0.07717020064592361,
        0.006381423678249121,
        0.009762673638761044,
        0.012120580300688744,
        -0.033482007682323456,
        -0.6271505355834961,
        -0.013267985545098782,
        -0.2740316092967987,
        0.06020064279437065,
        -0.010390697047114372,
        0.007850483991205692,
        -0.4859604835510254,
        0.07806041836738586,
        -0.002403502818197012,
        0.014366595074534416,
        0.002896839752793312,
        -0.4496106505393982,
        -0.0006314829806797206,
        0.01298575196415186,
        0.5175579786300659,
        0.013495895080268383,
        -0.09942284226417542,
        -0.019470594823360443,
        -0.12641863524913788,
        -0.8416923880577087,
        -0.14342936873435974,
        -0.4298735558986664,
        0.17670351266860962,
        0.018732881173491478,
        0.007771676406264305,
        0.15715256333351135,
        0.009595858864486217,
        0.19772124290466309,
        -0.018473779782652855,
        0.1070425733923912,
        -0.6066513657569885,
        -9.836233948590234e-05,
        0.7423579692840576,
        0.05991211533546448,
        -0.006304597016423941,
        0.5724063515663147,
        -0.006071389652788639,
        -0.27198463678359985,
        0.37991827726364136,
        0.41099849343299866,
        0.06298032402992249,
        0.24528056383132935,
        0.01695086434483528,
        0.0037790818605571985,
        -0.7162384986877441,
        0.0082269087433815,
        -0.04261577129364014,
        0.01343043427914381,
        0.01760002039372921,
        0.009014843963086605,
        0.13632412254810333,
        0.15220479667186737,
        0.1165493056178093,
        0.22087380290031433,
        0.5922799110412598,
        0.16415522992610931,
        -0.027953941375017166,
        0.03076574020087719,
        -0.026868121698498726,
        0.6272056102752686,
        0.12187798321247101,
        -0.09883756935596466,
        0.08696704357862473,
        0.3251919150352478,
        -0.1563275307416916,
        -0.04535796865820885,
        -0.14217811822891235,
        0.3097129464149475,
        -0.06820110976696014,
        -0.07596644014120102,
        -0.6658796668052673,
        0.19783160090446472,
        -0.08259670436382294,
        0.0008007930009625852,
        -0.013462488539516926,
        0.31474825739860535,
        0.014468781650066376,
        0.10035397112369537,
        -0.052170559763908386,
        -0.031983789056539536,
        -0.06200088933110237,
        0.34239983558654785,
        0.09512045979499817,
        -0.21079766750335693,
        -0.28822535276412964,
        0.08911125361919403,
        0.5289106965065002,
        0.14657513797283173,
        0.01596084237098694,
        1.4565415382385254,
        0.059113066643476486,
        0.12706655263900757,
        0.002105816500261426,
        -0.42291951179504395,
        0.45059770345687866,
        0.11720699071884155,
        -0.3746585249900818,
        -0.06898137927055359,
        -0.16000401973724365,
        -0.20946413278579712,
        -0.03980937972664833,
        0.03303762152791023,
        -0.07100372016429901,
        -0.07504022121429443,
        -0.09903715550899506,
        0.22596795856952667,
        0.11926010996103287,
        -0.21121850609779358,
        -0.4707706570625305,
        -0.5226525068283081,
        -0.18786105513572693,
        0.011491966433823109,
        0.12481840699911118,
        0.09160608053207397,
        -0.24769973754882812,
        0.018369333818554878,
        0.022063860669732094,
        -0.16194981336593628,
        -0.5081663727760315,
        -0.01975299045443535,
        -0.007001306861639023,
        0.012402545660734177,
        -0.0205276720225811,
        -0.5803366899490356,
        0.031032990664243698,
        0.00030706592951901257,
        0.02008855529129505,
        -0.16590137779712677,
        0.00909167155623436,
        -0.016483651474118233,
        -0.1471933126449585,
        -0.019575702026486397,
        0.007388691883534193,
        -0.013112801127135754,
        -0.20734813809394836,
        0.048569273203611374,
        0.007177798543125391,
        0.016193678602576256,
        0.0032803500071167946,
        0.47263088822364807,
        -0.017110152170062065,
        0.02847476676106453,
        -0.03595920652151108,
        0.0037106710951775312,
        -0.10488834977149963,
        0.5654438734054565,
        -0.39069339632987976,
        -0.49100857973098755,
        -0.21901771426200867,
        0.006503489799797535,
        0.13951775431632996,
        0.015953948721289635,
        -0.007544501684606075,
        0.2854752242565155,
        -0.007569982670247555,
        -0.2058463841676712,
        -0.8533658385276794,
        -0.9210130572319031,
        -0.39699745178222656,
        0.035866666585206985,
        0.5141682028770447,
        0.17683963477611542,
        -0.02804499678313732,
        -0.04415714368224144,
        -0.007780316285789013,
        -0.32064494490623474,
        0.0115211708471179,
        -0.009010126814246178,
        0.16439077258110046,
        0.09440738707780838,
        0.017110781744122505,
        0.19794172048568726,
        0.10461495816707611,
        0.08871036767959595,
        0.25808098912239075,
        0.0059562185779213905,
        0.01580382138490677,
        0.016079002991318703,
        0.0022185121197253466,
        0.009935498237609863,
        -0.02990458719432354,
        -0.12917247414588928,
        -0.0644335225224495,
        -0.07195974886417389,
        -0.02053293026983738,
        -0.01692369394004345,
        -0.015029089525341988,
        0.1591232270002365,
        0.032598912715911865,
        -0.013411511667072773,
        0.031071817502379417,
        -0.7071613073348999,
        0.16766022145748138,
        0.005294629372656345,
        -0.04760286957025528,
        -0.15534737706184387,
        0.015068728476762772,
        -0.013830622658133507,
        0.0415724441409111,
        -0.1884092390537262,
        0.02528451196849346,
        0.024111146107316017,
        5.392578896135092e-05,
        0.4623658061027527,
        -0.020806144922971725,
        0.0186765119433403,
        0.2074819654226303,
        0.010079734027385712,
        0.02666369639337063,
        -0.19991514086723328,
        0.1875351071357727,
        -0.015064987353980541,
        0.022183295339345932,
        -0.5229637026786804,
        0.1660265326499939,
        -0.036173343658447266,
        -0.011851860210299492,
        0.40566176176071167,
        -0.014404388144612312,
        0.281817227602005,
        0.15878643095493317,
        0.5000411868095398,
        -0.6693586111068726,
        0.07146960496902466,
        0.2732332646846771,
        -0.13982552289962769,
        -0.0337650328874588,
        0.11308078467845917,
        -0.035172875970602036,
        0.35115164518356323,
        -0.2641248404979706,
        -0.6090141534805298,
        0.3000068962574005,
        0.14653973281383514,
        0.015829147771000862,
        0.6070250868797302,
        0.45675086975097656,
        0.22893908619880676,
        0.7342894673347473,
        0.01568600907921791,
        -0.019011495634913445,
        0.016503412276506424,
        0.8106348514556885,
        -0.009259115904569626,
        -0.01526550017297268,
        0.01913348212838173,
        -0.07762591540813446,
        0.3764505386352539,
        0.042573776096105576,
        0.024627894163131714,
        -0.07637981325387955,
        -0.12756752967834473,
        0.08575175702571869,
        0.0870591476559639,
        0.011092355474829674,
        -0.22921480238437653,
        -0.1257457137107849,
        0.005220340099185705,
        -0.25922733545303345,
        -0.1799829751253128,
        0.09230183809995651,
        0.04524175450205803,
        -0.33497828245162964,
        0.312121719121933,
        -0.07844081521034241,
        0.013808311894536018,
        0.01858052983880043,
        -0.1894557923078537,
        -0.02819543331861496,
        0.09565474092960358,
        -0.40988636016845703,
        -0.03233420476317406,
        -0.1429414004087448,
        -0.12877881526947021,
        -0.22392039000988007,
        0.07254767417907715,
        -0.2770310938358307,
        0.5640859007835388,
        0.267229825258255,
        -0.014594603329896927,
        -0.0735333189368248,
        0.08386295288801193,
        -0.07096529752016068,
        -0.10510483384132385,
        -0.008931944146752357,
        -0.4020608365535736,
        0.19849403202533722,
        0.19082912802696228,
        0.15269821882247925,
        0.9919628500938416,
        -0.031940117478370667,
        -0.25144851207733154,
        -0.09122452884912491,
        -0.1438339501619339,
        -0.009868153370916843,
        -0.22230495512485504,
        -0.8300638794898987,
        0.41332003474235535,
        0.09397528320550919,
        -0.6093220710754395,
        -0.1560734063386917,
        -0.07071925699710846,
        -0.24165287613868713,
        0.019025228917598724,
        -0.01327456720173359,
        -0.05022202432155609,
        0.030742116272449493,
        0.05357670783996582,
        0.001272266497835517,
        0.05251052975654602,
        0.08132380992174149,
        -0.10625369846820831,
        0.006894645746797323,
        0.017734795808792114,
        -0.04759332165122032,
        0.0006485147168859839,
        0.04920586198568344,
        0.024073917418718338,
        0.03305305913090706,
        -0.2304457277059555,
        0.43757253885269165,
        0.008596457540988922,
        0.9288984537124634,
        0.507315456867218,
        0.007987823337316513,
        0.0664609968662262,
        -0.052108824253082275,
        0.09661538153886795,
        -0.040245771408081055,
        -0.0637909546494484,
        0.020920149981975555,
        -0.979323148727417,
        0.04016779735684395,
        0.07430018484592438,
        0.6333333849906921,
        0.03627748787403107,
        0.32428282499313354,
        0.036845266819000244,
        -0.3386751115322113,
        -1.8598244190216064,
        -0.3231581747531891,
        -0.2876158058643341,
        0.12794828414916992,
        0.07557152956724167,
        0.00949239544570446,
        -0.008075722493231297,
        -0.009529734961688519,
        0.5078407526016235,
        0.05900837481021881,
        0.1833876520395279,
        0.34178635478019714,
        -0.10419946163892746,
        -0.15138643980026245,
        0.5346518158912659,
        -0.0334140807390213,
        0.5632683634757996,
        -0.034057483077049255,
        -1.015944242477417,
        -0.22991104423999786,
        -0.10468953847885132,
        -0.3316188156604767,
        -0.4378048777580261,
        0.09242422878742218,
        0.2262069582939148,
        0.5440467596054077,
        0.06065418943762779,
        -0.35470762848854065,
        0.0019615537021309137,
        0.03222507983446121,
        0.00791875272989273,
        -0.034110330045223236,
        0.06217145919799805,
        -0.2764018476009369,
        0.7064613699913025,
        -0.03700779005885124,
        -0.1982783079147339,
        0.007201012223958969,
        -0.09140115976333618,
        0.21712957322597504,
        0.042130809277296066,
        0.026662178337574005,
        0.30693233013153076,
        -0.12522175908088684,
        -0.5428165793418884,
        -1.1140044927597046,
        0.34627076983451843,
        -0.4643445909023285,
        0.10639039427042007,
        0.04050079733133316,
        0.3934546709060669,
        -0.20800110697746277,
        -0.39012137055397034,
        -0.1759645789861679,
        -0.21643538773059845,
        0.12690946459770203,
        -0.9751603007316589,
        0.05529365688562393,
        -0.1050957590341568,
        -0.09901014715433121,
        0.1347578912973404,
        0.38614365458488464,
        0.11192139238119125,
        -0.14282168447971344,
        -0.548020601272583,
        -0.3824251890182495,
        0.010344049893319607,
        -0.31206995248794556,
        -0.013803290203213692,
        -0.23438824713230133,
        -0.5557469129562378,
        -0.04503564164042473,
        0.6109721064567566,
        0.27444013953208923,
        -0.04199003055691719,
        0.991719126701355,
        -0.7189531922340393,
        -0.8386418223381042,
        0.8324598073959351,
        0.6068219542503357,
        0.17004874348640442,
        -0.11870983242988586,
        -1.1851367950439453,
        -0.5659881830215454,
        -0.09522899240255356,
        -0.15825536847114563,
        0.013613887131214142,
        -0.053865205496549606,
        0.08133363723754883,
        0.4706491529941559,
        0.20944896340370178,
        0.1933116912841797,
        0.07867465168237686,
        -0.0864245668053627,
        -0.16423951089382172,
        -0.21074150502681732,
        -0.027290696278214455,
        -0.028353523463010788,
        0.2780885100364685,
        0.4605986177921295,
        -0.08027104288339615,
        0.0006960821920074522,
        -0.04153057932853699,
        0.008547402918338776,
        -0.766197681427002,
        -0.002844500122591853,
        0.0040391795337200165,
        -0.009048925712704659,
        0.10978324711322784,
        -0.2028089314699173,
        0.03692800551652908,
        -0.20382298529148102,
        0.5751407742500305,
        0.01896340772509575,
        0.007633620873093605,
        -1.5858763456344604,
        0.4892956018447876,
        -0.007946844212710857,
        -0.011928487569093704,
        -0.01442867424339056,
        0.27411893010139465,
        -0.001007526065222919,
        -0.008088046684861183,
        0.09422165155410767,
        0.0022368032950907946,
        -0.4522336423397064,
        -0.3938109874725342,
        0.2893674075603485,
        -0.005300684366375208,
        -0.035611070692539215,
        -0.35957497358322144,
        -0.4376145005226135,
        -0.03742317110300064,
        0.018102582544088364,
        -0.30235856771469116,
        -0.007538937963545322,
        0.19520559906959534,
        -0.5148083567619324,
        -0.12190510332584381,
        0.833338737487793,
        -0.01200990192592144,
        -0.7509345412254333,
        -0.28660649061203003,
        0.03329002112150192,
        -0.32062193751335144,
        -0.01150575838983059,
        -0.1617165356874466,
        0.038883958011865616,
        0.5455948710441589,
        -0.02801383286714554,
        0.014229735359549522,
        -0.008056535385549068,
        0.10466541349887848,
        -0.1510762870311737,
        -0.6341728568077087,
        0.5411975979804993,
        -0.011616609990596771,
        -0.0390409417450428,
        -0.011785558424890041,
        -0.02958534099161625,
        -0.02442501299083233,
        -0.026840602979063988,
        -0.2806141972541809,
        0.43467527627944946,
        -0.160136416554451,
        0.025995301082730293,
        -0.028914878144860268,
        -0.02653292939066887,
        0.20555655658245087,
        -0.00435235071927309,
        -0.003601902164518833,
        -0.0022653313353657722,
        -0.35284629464149475,
        -0.26330050826072693,
        -0.018912116065621376,
        0.031153686344623566,
        0.17057403922080994,
        0.0022889445535838604,
        -0.022826097905635834,
        0.603289783000946,
        0.2627897262573242,
