{
  "input_sequences": [],
  "inputs": [
    {
      "name": "dNN",
      "variables": [
        {
          "name": "hitX1",
          "offset": 0,
          "scale": 1
        },
        {
          "name": "hitX2",
          "offset": 0,
          "scale": 1
        },
        {
          "name": "hitX3",
          "offset": 0,
          "scale": 1
        },
        {
          "name": "hitX4",
          "offset": 0,
          "scale": 1
        },
        {
          "name": "hitX5",
          "offset": 0,
          "scale": 1
        },
        {
          "name": "hitX6",
          "offset": 0,
          "scale": 1
        },
        {
          "name": "hitX7",
          "offset": 0,
          "scale": 1
        },
        {
          "name": "hitX8",
          "offset": 0,
          "scale": 1
        },
        {
          "name": "hitY1",
          "offset": 0,
          "scale": 1
        },
        {
          "name": "hitY2",
          "offset": 0,
          "scale": 1
        },
        {
          "name": "hitY3",
          "offset": 0,
          "scale": 1
        },
        {
          "name": "hitY4",
          "offset": 0,
          "scale": 1
        },
        {
          "name": "hitY5",
          "offset": 0,
          "scale": 1
        },
        {
          "name": "hitY6",
          "offset": 0,
          "scale": 1
        },
        {
          "name": "hitY7",
          "offset": 0,
          "scale": 1
        },
        {
          "name": "hitY8",
          "offset": 0,
          "scale": 1
        },
        {
          "name": "hitZ1",
          "offset": 0,
          "scale": 1
        },
        {
          "name": "hitZ2",
          "offset": 0,
          "scale": 1
        },
        {
          "name": "hitZ3",
          "offset": 0,
          "scale": 1
        },
        {
          "name": "hitZ4",
          "offset": 0,
          "scale": 1
        },
        {
          "name": "hitZ5",
          "offset": 0,
          "scale": 1
        },
        {
          "name": "hitZ6",
          "offset": 0,
          "scale": 1
        },
        {
          "name": "hitZ7",
          "offset": 0,
          "scale": 1
        },
        {
          "name": "hitZ8",
          "offset": 0,
          "scale": 1
        }
      ]
    }
  ],
  "layers": [
    {
      "activation": "rectified",
      "architecture": "dense",
      "bias": [
        -0.09145338088274002,
        0.3284280002117157,
        -0.2788691222667694,
        0.32755202054977417,
        -0.14782142639160156,
        0.26280906796455383,
        0.004416557494550943,
        0.011780105531215668,
        -0.1326831430196762,
        0.047196898609399796,
        -0.17155715823173523,
        -0.24626116454601288,
        0.01830737479031086,
        -0.052756257355213165,
        0.13205371797084808,
        -0.019602471962571144,
        0.4973010718822479,
        -0.10074181109666824,
        -0.06744334846735,
        0.11222913861274719,
        0.0778864324092865,
        -0.14016570150852203,
        -0.47868871688842773,
        0.009039509110152721,
        -0.17758454382419586,
        -0.0818132534623146,
        0.028981395065784454,
        0.05227088928222656,
        -0.20318973064422607,
        0.11123526096343994,
        0.06620147824287415,
        -0.33646658062934875,
        -0.020509179681539536,
        -0.07295861095190048,
        -0.04347044229507446,
        -0.06655165553092957,
        0.07482915371656418,
        -0.11967717111110687,
        0.05419045686721802,
        -0.14121443033218384,
        0.084788478910923,
        0.002529461868107319,
        0.06193513423204422,
        -0.1652715504169464,
        -0.043398793786764145,
        -0.13836103677749634,
        0.6141136288642883,
        -0.13505269587039948,
        -0.23891381919384003,
        -0.14577651023864746,
        0.07910510897636414,
        -0.013672380708158016,
        -0.1898813545703888,
        0.014555498026311398,
        -0.1986934095621109,
        0.29587966203689575,
        -0.006805772893130779,
        -0.04179385304450989,
        0.029885556548833847,
        -0.1115887314081192,
        0.13705141842365265,
        -0.07163617014884949,
        -0.01072978787124157,
        0.038470558822155
      ],
      "weights": [
        -0.02165512554347515,
        -0.16295266151428223,
        -0.09943339973688126,
        0.5723432302474976,
        -0.6062875986099243,
        0.402098149061203,
        -0.04825802147388458,
        -0.163457453250885,
        -0.1705387979745865,
        0.19790202379226685,
        0.5674216747283936,
        -0.5725951790809631,
        0.2786301374435425,
        -0.15377524495124817,
        -0.20859487354755402,
        0.23031386733055115,
        0.08984777331352234,
        0.48809799551963806,
        -0.1722583919763565,
        -0.7889215350151062,
        0.3428121507167816,
        0.03696782514452934,
        1.0343135595321655,
        -1.1453425884246826,
        -0.17758455872535706,
        -0.42015883326530457,
        -0.2805703580379486,
        -0.6025469303131104,
        0.863408625125885,
        -0.7649424076080322,
        0.18417532742023468,
        -0.38863691687583923,
        0.03000173158943653,
        -0.14790135622024536,
        -0.08855199813842773,
        -0.27279549837112427,
        0.2345878928899765,
        -0.47974473237991333,
        -0.08969535678625107,
        0.02861366979777813,
        0.3231491148471832,
        0.16000117361545563,
        -0.7012460827827454,
        0.4429486095905304,
        0.1858503818511963,
        0.016353527083992958,
        -0.2965530455112457,
        0.4634769558906555,
        -0.11843682080507278,
        0.7331470251083374,
        -0.07864528149366379,
        -0.18216802179813385,
        0.12340383976697922,
        -0.16320379078388214,
        0.08130353689193726,
        -0.0012507674982771277,
        -0.25499260425567627,
        0.9617925882339478,
        0.049418579787015915,
        0.3273576498031616,
        -0.28550171852111816,
        -0.23618486523628235,
        -0.336387574672699,
        0.48205623030662537,
        -0.20745250582695007,
        0.3412943482398987,
        0.08071181178092957,
        -0.09161585569381714,
        -0.07560203969478607,
        0.0035828561522066593,
        -0.004758297931402922,
        -0.04253203794360161,
        -0.27871790528297424,
        0.11089888960123062,
        0.003095705062150955,
        -0.21145202219486237,
        0.10337653756141663,
        0.008236706256866455,
        0.011058781296014786,
        -0.056378573179244995,
        0.12086622416973114,
        -0.07472538948059082,
        -0.8084721565246582,
        0.06489309668540955,
        -0.034896835684776306,
        0.06204473227262497,
        -0.010904907248914242,
        0.03804576396942139,
        0.4016762971878052,
        -0.6483751535415649,
        1.2049674987792969,
        -0.7135019898414612,
        0.2848386764526367,
        -0.35510513186454773,
        0.053047142922878265,
        -0.202645942568779,
        0.08580045402050018,
        0.5292505025863647,
        -0.21057528257369995,
        -0.7407981157302856,
        0.41124069690704346,
        -0.09444333612918854,
        0.2671206295490265,
        0.45813414454460144,
        0.15250709652900696,
        0.02371426299214363,
        0.15228913724422455,
        0.0012486829655244946,
        0.17583823204040527,
        0.17928676307201385,
        -0.16599228978157043,
        0.14612706005573273,
        1.1847447156906128,
        0.3258207440376282,
        0.4916902780532837,
        -0.6108756065368652,
        -0.5649405717849731,
        -0.8800231218338013,
        0.243674635887146,
        1.2991546392440796,
        -0.1838097721338272,
        -0.30744948983192444,
        -0.042599573731422424,
        0.019347338005900383,
        -0.593758225440979,
        0.1462925374507904,
        -0.19499008357524872,
        -0.21392133831977844,
        -0.02257467806339264,
        -0.5405310988426208,
        -0.1264614760875702,
        -0.1328413486480713,
        -0.2628367841243744,
        -0.0795171931385994,
        0.07258649170398712,
        -0.05657530203461647,
        0.5293741822242737,
        -0.043894629925489426,
        -0.1388014703989029,
        0.036225575953722,
        0.017721761018037796,
        -0.04856780916452408,
        -0.4553859829902649,
        0.32092106342315674,
        0.14742480218410492,
        -0.2129867523908615,
        0.04240744188427925,
        -0.21172553300857544,
        0.05676718056201935,
        0.09000558406114578,
        -0.05119369179010391,
        -0.05802303925156593,
        0.07576598227024078,
        -0.022319233044981956,
        -0.05296199396252632,
        0.04127785190939903,
        -0.11655964702367783,
        0.16048122942447662,
        -0.03482158109545708,
        0.05251108855009079,
        -0.21955016255378723,
        -0.3830123245716095,
        -0.4292581379413605,
        0.49297767877578735,
        1.7376614809036255,
        -1.5515118837356567,
        0.3471045196056366,
        -0.14618122577667236,
        -0.056788843125104904,
        0.005163237918168306,
        0.05247766897082329,
        -0.029017552733421326,
        -0.03216851130127907,
        0.02210051380097866,
        0.013804453425109386,
        0.0039416090585291386,
        -0.04068845137953758,
        -0.1382310390472412,
        0.010065717622637749,
        -0.015104500576853752,
        0.008289126679301262,
        0.006557865533977747,
        0.00046283125993795693,
        -0.005822482984513044,
        3.270186185836792,
        -3.830221176147461,
        -0.12308954447507858,
        -0.1342950463294983,
        0.18705111742019653,
        0.6152754426002502,
        -0.006518802605569363,
        0.10845677554607391,
        -0.39723289012908936,
        0.848041832447052,
        0.20156224071979523,
        -0.564166784286499,
        0.34130650758743286,
        -0.41039419174194336,
        0.40334680676460266,
        -0.26947301626205444,
        0.6043115854263306,
        0.8597081899642944,
        0.029879698529839516,
        0.007391262333840132,
        0.010547335259616375,
        -0.27097928524017334,
        0.16735363006591797,
        0.06479652225971222,
        0.7255012392997742,
        -0.5939878821372986,
        -0.31582221388816833,
        0.27551719546318054,
        0.16800978779792786,
        -0.2187308371067047,
        -0.579617440700531,
        -1.3843272924423218,
        0.35157111287117004,
        -0.5374629497528076,
        0.1663855016231537,
        -0.13192114233970642,
        -0.14662031829357147,
        0.19217851758003235,
        -0.015535405836999416,
        0.0511840283870697,
        -0.3256088197231293,
        -0.5332884788513184,
        0.45629116892814636,
        0.39975884556770325,
        -0.04181980341672897,
        -0.3251116871833801,
        0.07380235940217972,
        0.0825488343834877,
        -0.8168377876281738,
        0.6427608728408813,
        -0.8952075839042664,
        -0.46882739663124084,
        0.5867919325828552,
        1.7442041635513306,
        -0.42020854353904724,
        -0.5418527126312256,
        0.35395190119743347,
        -0.2154589295387268,
        -0.04441090300679207,
        -0.02937099151313305,
        0.3136431574821472,
        -0.14352548122406006,
        -0.08156387507915497,
        -0.4672684073448181,
        -0.9676610231399536,
        0.9045621752738953,
        0.13986247777938843,
        -0.35604944825172424,
        0.3132776618003845,
        0.12524811923503876,
        0.08580337464809418,
        0.00802683737128973,
        -0.8104581832885742,
        -0.3689931631088257,
        0.3666277825832367,
        1.2153503894805908,
        -0.5599827170372009,
        0.1462663859128952,
        -0.3218936026096344,
        0.12392022460699081,
        0.5490996837615967,
        -0.02038702368736267,
        -0.08693969994783401,
        0.12888190150260925,
        -0.06193634495139122,
        0.10805387049913406,
        -0.0369584821164608,
        -0.2955097258090973,
        0.4653988480567932,
        -0.5107899308204651,
        -0.17967411875724792,
        0.1263090968132019,
        -0.09551914036273956,
        0.5552883148193359,
        -0.017472313717007637,
        0.13758724927902222,
        1.530197262763977,
        -0.44736748933792114,
        -1.0354454517364502,
        0.8987728953361511,
        -0.41507625579833984,
        0.5128130912780762,
        -1.2720346450805664,
        0.3600332736968994,
        -0.047190576791763306,
        0.23416584730148315,
        0.16230034828186035,
        -0.15161795914173126,
        -0.14940930902957916,
        0.1071511059999466,
        -0.012272918596863747,
        0.01008645724505186,
        0.025466764345765114,
        -0.2751257121562958,
        0.09579320251941681,
        -0.2956913411617279,
        0.05437018349766731,
        -0.060410190373659134,
        0.07627652585506439,
        -0.09785430133342743,
        1.500976800918579,
        -0.506181538105011,
        -0.07310505956411362,
        -0.27645623683929443,
        -0.5994405150413513,
        -0.18457674980163574,
        0.2741449177265167,
        1.0534236431121826,
        0.1267181932926178,
        0.22451291978359222,
        -0.16679714620113373,
        -0.009632508270442486,
        -0.08380839973688126,
        0.16888150572776794,
        -0.07503382861614227,
        0.029513442888855934,
        -0.040234923362731934,
        0.133350670337677,
        0.10119124501943588,
        -0.08665544539690018,
        0.20029205083847046,
        -0.19508452713489532,
        0.10087863355875015,
        -0.056560784578323364,
        -1.9090464115142822,
        3.381603717803955,
        -0.5883151888847351,
        -0.9359811544418335,
        0.4764953553676605,
        -0.23780080676078796,
        0.03922653570771217,
        -0.2119600921869278,
        0.6884099245071411,
        0.17497526109218597,
        -0.34681737422943115,
        -0.47373726963996887,
        -0.9157015681266785,
        -0.7783674001693726,
        -0.673502504825592,
        -0.7299719452857971,
        -0.011871307156980038,
        -0.22887636721134186,
        -0.04002359136939049,
        -0.20224733650684357,
        -0.07721475511789322,
        -0.2845302224159241,
        0.014234448783099651,
        -0.11496167629957199,
        -0.2424965500831604,
        0.15353575348854065,
        -0.22138474881649017,
        -0.4486917555332184,
        0.1731732338666916,
        -0.21463434398174286,
        0.12607751786708832,
        0.1915477067232132,
        -0.7604268193244934,
        -0.3978356122970581,
        -0.161600723862648,
        -0.21748025715351105,
        -0.547897458076477,
        0.18753518164157867,
        -0.12229616194963455,
        0.07266369462013245,
        0.2711447775363922,
        -0.5632725358009338,
        -0.5629096627235413,
        0.010858147405087948,
        -0.06470724195241928,
        -0.07858988642692566,
        -0.10661569982767105,
        -0.02240041457116604,
        0.31620970368385315,
        -0.1377507597208023,
        0.21764768660068512,
        0.8923472762107849,
        0.11358773708343506,
        0.05312390998005867,
        0.14491833746433258,
        -0.38695573806762695,
        0.704342782497406,
        0.6924227476119995,
        0.08357584476470947,
        0.22089995443820953,
        0.10786119103431702,
        0.3454306423664093,
        0.0636894553899765,
        -0.0005950058111920953,
        -0.24038122594356537,
        -0.22799192368984222,
        -0.33368512988090515,
        -0.1031213030219078,
        -0.15033893287181854,
        -0.17453253269195557,
        -0.04480824992060661,
        -0.03654282167553902,
        0.36064860224723816,
        -0.06644532829523087,
        -0.6250444650650024,
        0.02575327642261982,
        0.34902602434158325,
        0.04276759922504425,
        0.03583316132426262,
        0.03698183223605156,
        0.003986040595918894,
        0.636199414730072,
        0.022510351613163948,
        -0.04825867712497711,
        -0.2661542296409607,
        0.31354495882987976,
        0.19264104962348938,
        -0.02204974740743637,
        -0.10425511002540588,
        0.30254867672920227,
        -0.04069257900118828,
        0.0968746468424797,
        0.24040833115577698,
        -0.08730944246053696,
        0.08068195730447769,
        0.11629214137792587,
        -2.445566415786743,
        -0.6853424310684204,
        0.27373817563056946,
        0.8895097970962524,
        0.43431735038757324,
        0.9149836301803589,
        -0.21880465745925903,
        0.033502597361803055,
        -0.01705227792263031,
        -0.07976629585027695,
        -0.126348614692688,
        -0.2987958788871765,
        -0.009234254248440266,
        0.2217586487531662,
        -0.031839098781347275,
        0.19981549680233002,
        -0.025842560455203056,
        0.06774649024009705,
        -0.15103597939014435,
        0.2550663650035858,
        0.22624337673187256,
        -0.17858648300170898,
        -0.026245664805173874,
        0.03973381966352463,
        -1.1236252784729004,
        0.7105553150177002,
        1.392978549003601,
        -1.7287002801895142,
        -0.28786906599998474,
        0.7704792618751526,
        0.7539088726043701,
        -0.7569058537483215,
        -0.7525033354759216,
        -2.8392136096954346,
        0.6299700140953064,
        0.4083901047706604,
        1.4878714084625244,
        2.475032329559326,
        0.562748908996582,
        -2.118809461593628,
        0.3707866072654724,
        0.03642899543046951,
        0.10798439383506775,
        -0.10974862426519394,
        -0.21524076163768768,
        -0.20472092926502228,
        -0.011370218358933926,
        -1.79843270778656,
        -0.4068112075328827,
        0.1493217945098877,
        -0.09360062330961227,
        0.3428916931152344,
        0.011422359384596348,
        -0.12894435226917267,
        -0.033277906477451324,
        -2.2663962841033936,
        0.16308389604091644,
        -0.2654174268245697,
        -0.053734131157398224,
        -0.15625880658626556,
        0.08747033774852753,
        0.030294619500637054,
        0.0666174665093422,
        0.07544784247875214,
        0.24841606616973877,
        -0.03933437168598175,
        -0.18298082053661346,
        -0.4875945746898651,
        0.24299556016921997,
        0.007838351652026176,
        0.12970878183841705,
        -0.012005149386823177,
        -1.4953409433364868,
        -1.2545127868652344,
        0.10138390958309174,
        2.2216944694519043,
        0.1780591607093811,
        0.23722834885120392,
        0.21450865268707275,
        -0.9398946762084961,
        -0.13882146775722504,
        0.34411147236824036,
        0.21440564095973969,
        0.15062983334064484,
        -0.16664162278175354,
        -0.08419107645750046,
        0.008321745321154594,
        -0.02883298322558403,
        -0.1715966910123825,
        0.09502636641263962,
        0.06307840347290039,
        0.08579640835523605,
        0.4311481714248657,
        -0.32920849323272705,
        0.07324584573507309,
        -0.03272496536374092,
        -0.15723949670791626,
        0.8082229495048523,
        0.5945228934288025,
        -1.2202509641647339,
        1.4604133367538452,
        -1.4509077072143555,
        -0.0430627278983593,
        0.11072296649217606,
        -0.31940218806266785,
        0.4986266791820526,
        0.12569856643676758,
        0.17593006789684296,
        0.27077195048332214,
        -0.42161497473716736,
        0.09875162690877914,
        -0.13628289103507996,
        -0.3442460894584656,
        0.795654833316803,
        -0.2700783610343933,
        -0.10444469749927521,
        0.3626849949359894,
        0.2847527265548706,
        -0.019682900980114937,
        -0.012333348393440247,
        1.023540735244751,
        -1.1228841543197632,
        0.2547198235988617,
        0.7482412457466125,
        -0.7908321022987366,
        -0.40669479966163635,
        0.18165889382362366,
        0.3407496213912964,
        -0.3070673644542694,
        0.42659294605255127,
        -0.01560775376856327,
        0.07997488975524902,
        -0.07353340834379196,
        -0.0024306979030370712,
        -0.0008225879864767194,
        0.007619479671120644,
        -0.4718162715435028,
        -0.10713896155357361,
        0.094498410820961,
        -0.24505122005939484,
        0.2418157458305359,
        -0.03405507281422615,
        -0.045824725180864334,
        0.18224962055683136,
        2.436164617538452,
        -0.4517119824886322,
        -0.2064039260149002,
        -1.2565739154815674,
        -0.4802461564540863,
        -1.1235707998275757,
        -0.5854290127754211,
        2.0657260417938232,
        -0.0530657134950161,
        -0.6184597015380859,
        0.35489222407341003,
        0.13252626359462738,
        0.002761237323284149,
        0.09366457909345627,
        -0.2616786062717438,
        0.13577602803707123,
        0.22765740752220154,
        -0.00227333209477365,
        -0.19208087027072906,
        0.21509452164173126,
        -0.038970671594142914,
        0.03353197127580643,
        0.12689262628555298,
        0.05169989913702011,
        -2.0755059719085693,
        1.4218379259109497,
        1.962827205657959,
        -1.1762642860412598,
        -1.611998438835144,
        0.9829568862915039,
        0.0847388282418251,
        -0.05063123255968094,
        0.11418323963880539,
        -0.018900027498602867,
        -0.17981994152069092,
        -0.15186434984207153,
        -0.17605812847614288,
        0.18272465467453003,
        0.21320971846580505,
        -0.16350357234477997,
        -0.41186967492103577,
        0.34754517674446106,
        -0.02558809518814087,
        0.3879755139350891,
        -0.24619270861148834,
        -0.19382669031620026,
        -0.0010262110736221075,
        0.3591404855251312,
        -2.118046760559082,
        1.0168198347091675,
        -0.48592209815979004,
        -1.8665164709091187,
        0.600920557975769,
        0.9511712193489075,
        0.7495818138122559,
        0.538267970085144,
        0.2063247412443161,
        0.09207875281572342,
        0.1171642541885376,
        -0.0680721327662468,
        -0.036731965839862823,
        0.021491453051567078,
        0.02057904377579689,
        -0.06176069751381874,
        0.010762080550193787,
        0.05960194766521454,
        0.07641660422086716,
        -0.08972898125648499,
        -0.09865858405828476,
        0.09440124034881592,
        0.0022687201853841543,
        0.0025518632028251886,
        0.6769178509712219,
        -0.9519335031509399,
        1.6440677642822266,
        -2.332730531692505,
        0.22719819843769073,
        0.5072752833366394,
        0.25935930013656616,
        -0.26520195603370667,
        0.2600660026073456,
        -0.323021799325943,
        0.10215108096599579,
        0.5739241242408752,
        -0.15705743432044983,
        0.035134341567754745,
        0.518056333065033,
        -0.6333326101303101,
        -0.10081564635038376,
        0.1664268523454666,
        -0.1765870898962021,
        0.10965926945209503,
        0.042207036167383194,
        -0.11488626897335052,
        0.04522113874554634,
        0.06093721464276314,
        -2.109304904937744,
        0.4141799211502075,
        -1.4163178205490112,
        -1.209439754486084,
        0.8091176748275757,
        1.0644686222076416,
        0.8023232221603394,
        2.622823476791382,
        0.14543600380420685,
        0.10179635882377625,
        -0.7900825142860413,
        -0.7465440630912781,
        0.4171353578567505,
        0.463924378156662,
        -0.07346568256616592,
        -0.22798869013786316,
        -0.5694097280502319,
        0.22191527485847473,
        0.5696731805801392,
        0.40032070875167847,
        -0.26993387937545776,
        -0.04719298705458641,
        0.002942686900496483,
        0.05081881210207939,
        -0.8124315142631531,
        1.687615990638733,
        -0.16648003458976746,
        -0.18682751059532166,
        -0.45616593956947327,
        -0.10217256844043732,
        -0.11293578147888184,
        0.6872441172599792,
        -0.03764338791370392,
        0.2691482603549957,
        -0.07225432246923447,
        0.09258030354976654,
        0.08948490023612976,
        -0.10226428508758545,
        0.04467819631099701,
        -0.01634354516863823,
        0.06733021885156631,
        0.08855754137039185,
        0.3943781852722168,
        0.23129327595233917,
        -0.2544998824596405,
        -0.32635200023651123,
        0.01483800821006298,
        -0.008808388374745846,
        0.6987051367759705,
        -0.2331538051366806,
        0.2602085471153259,
        1.6455538272857666,
        -1.5758179426193237,
        -0.7145745158195496,
        0.08811140805482864,
        0.09742334485054016,
        0.08112207800149918,
        0.5930015444755554,
        0.2056703120470047,
        -0.28172749280929565,
        -0.17854386568069458,
        0.16527783870697021,
        0.01973169669508934,
        -0.13466273248195648,
        -0.594525933265686,
        -0.16523747146129608,
        -0.02643774077296257,
        0.0010508005507290363,
        0.22826780378818512,
        -0.13943782448768616,
        0.09930562227964401,
        -0.02986556477844715,
        2.5282881259918213,
        1.3053488731384277,
        1.087052345275879,
        0.23542137444019318,
        -0.7173317670822144,
        -0.5314702391624451,
        -0.6699314713478088,
        0.5030047297477722,
        -0.2769473195075989,
        0.23361597955226898,
        -0.20060057938098907,
        0.35934001207351685,
        -0.038966625928878784,
        -0.016867611557245255,
        -0.09511611610651016,
        -0.21799373626708984,
        0.1631651669740677,
        -0.5144346952438354,
        0.4298134446144104,
        -0.22977735102176666,
        0.5087764859199524,
        -0.03532116860151291,
        0.14640620350837708,
        -0.0008384024258702993,
        1.6533286571502686,
        -1.3262629508972168,
        0.6566100120544434,
        -0.10378067940473557,
        0.021148445084691048,
        -1.2441058158874512,
        0.36527496576309204,
        -0.07547338306903839,
        0.10751652717590332,
        0.06463803350925446,
        -0.2381272315979004,
        -0.45909422636032104,
        0.26589593291282654,
        0.09183302521705627,
        0.029642367735505104,
        -0.057842183858156204,
        0.20630508661270142,
        -0.0714535266160965,
        -0.0373559445142746,
        -0.5259934663772583,
        0.1100577712059021,
        -0.13091501593589783,
        0.39201903343200684,
        -0.01981990784406662,
        1.5296237468719482,
        0.6769744753837585,
        -0.756929337978363,
        -2.7190685272216797,
        0.6715729236602783,
        0.41998860239982605,
        -0.2472388595342636,
        0.5490366816520691,
        -0.07788442820310593,
        -0.16770093142986298,
        0.6779881119728088,
        -0.129585862159729,
        -0.01572287827730179,
        -0.022514447569847107,
        -0.08108190447092056,
        0.032241396605968475,
        -0.08832187950611115,
        0.04615912213921547,
        -0.24719087779521942,
        -0.6059731841087341,
        -0.16586977243423462,
        0.5198498964309692,
        0.10041659325361252,
        -0.025394640862941742,
        0.10136865079402924,
        -1.0478016138076782,
        0.5747799277305603,
        0.19525766372680664,
        0.45085498690605164,
        1.2405198812484741,
        0.5256064534187317,
        0.17728662490844727,
        -0.4611530303955078,
        -3.0751969814300537,
        0.3858771026134491,
        1.193054437637329,
        1.2041839361190796,
        2.0318398475646973,
        -0.9847244620323181,
        -0.9030061364173889,
        -0.03861450031399727,
        -0.21770283579826355,
        0.2098696231842041,
        -0.01631808653473854,
        0.15644106268882751,
        0.09364288300275803,
        -1.0733498334884644,
        -0.017440691590309143,
        -0.09730202704668045,
        0.6082615852355957,
        0.005175701342523098,
        -0.21287819743156433,
        0.001794450101442635,
        -0.2834703028202057,
        -0.4161180257797241,
        -0.05052861571311951,
        0.22354348003864288,
        0.1378871202468872,
        0.3583439886569977,
        0.12404379993677139,
        0.009011231362819672,
        -0.27775946259498596,
        0.2727593779563904,
        -0.34684887528419495,
        0.06202370300889015,
        -0.1751997172832489,
        -0.4428898096084595,
        0.25905510783195496,
        0.03505533188581467,
        0.3123180568218231,
        -0.034247368574142456,
        0.09385262429714203,
        -0.5582102537155151,
        1.1991801261901855,
        1.3931303024291992,
        -1.1634668111801147,
        -0.48944950103759766,
        -0.39805182814598083,
        0.7252328991889954,
        -0.47903943061828613,
        -0.45052599906921387,
        0.08150281757116318,
        0.15649932622909546,
        0.11883246153593063,
        -0.22131787240505219,
        0.03295944258570671,
        -0.05782093107700348,
        -0.15364103019237518,
        -0.1635572910308838,
        0.10217496007680893,
        -0.07854226976633072,
        -0.29196321964263916,
        -0.4552055895328522,
        -0.07226449251174927,
        -0.08433925360441208,
        -0.05548350512981415,
        1.0956909656524658,
        1.154951810836792,
        0.9086669087409973,
        0.6370614171028137,
        0.7785876989364624,
        0.4661926031112671,
        0.8467907309532166,
        0.30290934443473816,
        0.06692955642938614,
        -0.09294234961271286,
        0.10073958337306976,
        0.11802399903535843,
        0.09538756310939789,
        -0.0022654191125184298,
        -0.09691347181797028,
        0.017783770337700844,
        -0.031852856278419495,
        0.04147244617342949,
        -0.12564577162265778,
        -0.1524430364370346,
        0.04410984739661217,
        0.06623821705579758,
        0.13823969662189484,
        0.040138211101293564,
        -1.560701847076416,
        -0.23060442507266998,
        0.7989439368247986,
        1.3760570287704468,
        0.08334179222583771,
        0.2425992637872696,
        -0.6683765649795532,
        -0.3019784390926361,
        -0.1347215324640274,
        0.15857230126857758,
        -0.11871547251939774,
        0.1649513989686966,
        0.05897289887070656,
        -0.07819586247205734,
        -0.05926103517413139,
        0.16988405585289001,
        -0.3939683437347412,
        0.2678698003292084,
        0.2131902575492859,
        0.09495754539966583,
        -0.25200650095939636,
        -0.02772011235356331,
        0.025506533682346344,
        0.05251140892505646,
        1.5332354307174683,
        -1.9873803853988647,
        0.027943074703216553,
        -0.3000470995903015,
        1.6389813423156738,
        -0.49165573716163635,
        -0.12442933768033981,
        -0.6585734486579895,
        -0.23671092092990875,
        0.1992000788450241,
        -0.005820271093398333,
        0.05942144617438316,
        -0.10098505765199661,
        0.01923525147140026,
        0.19700880348682404,
        -0.022304391488432884,
        -0.0613592229783535,
        0.07736191898584366,
        0.04089457541704178,
        -0.13669586181640625,
        -0.19689133763313293,
        0.07512776553630829,
        0.08600998669862747,
        0.034709423780441284,
        -0.054938580840826035,
        0.5011090636253357,
        -0.4516127407550812,
        -0.4914247393608093,
        -0.3766050934791565,
        -0.01836964674293995,
        -0.09578023105859756,
        -0.5146656632423401,
        -0.06009451299905777,
        0.06985946744680405,
        0.021335067227482796,
        -0.03430695831775665,
        -0.012699470855295658,
        0.021961379796266556,
        0.0007163732079789042,
        -0.00899216067045927,
        -0.18792344629764557,
        0.04395684599876404,
        -0.013048332184553146,
        0.015470948070287704,
        0.011009509675204754,
        -0.04415464028716087,
        0.005343925673514605,
        -0.011687013320624828,
        2.716083288192749,
        -3.1949782371520996,
        0.04308190196752548,
        -0.009394713677465916,
        -0.09829068928956985,
        0.5803627967834473,
        -0.030505109578371048,
        0.1292949765920639,
        0.17914070188999176,
        -0.17985647916793823,
        0.0740811750292778,
        -0.047596510499715805,
        -0.03593480587005615,
        0.031207118183374405,
        0.0084812818095088,
        -0.023962978273630142,
        0.03308338671922684,
        -0.24189536273479462,
        0.057370297610759735,
        0.03082147426903248,
        0.030846167355775833,
        -0.04007220268249512,
        0.02038990706205368,
        -0.007899612188339233,
        -1.4023648500442505,
        2.3090503215789795,
        -0.9476987719535828,
        -0.26531410217285156,
        0.007080347742885351,
        0.41922685503959656,
        -0.20381401479244232,
        -0.004886516369879246,
        -0.9189627766609192,
        1.139764428138733,
        -0.12521296739578247,
        -0.6049054265022278,
        0.24825921654701233,
        -0.20403869450092316,
        -0.4822266697883606,
        -0.8161494731903076,
        -0.11625588685274124,
        -0.20963236689567566,
        -0.06275750696659088,
        0.26402878761291504,
        -0.19721846282482147,
        -0.11409568786621094,
        -0.09764385223388672,
        0.13080185651779175,
        1.0584450960159302,
        0.27279964089393616,
        -0.14663663506507874,
        -0.6487486958503723,
        -0.2736058533191681,
        0.3389531970024109,
        -0.10703140497207642,
        0.01168713066726923,
        -0.10091117769479752,
        -0.3652195930480957,
        0.11837698519229889,
        0.3776358664035797,
        0.11849845945835114,
        -0.11484824120998383,
        -0.017313091084361076,
        -0.04652441293001175,
        -0.32662254571914673,
        0.07937664538621902,
        0.03209630399942398,
        -0.1508232057094574,
        0.026437416672706604,
        -0.12961632013320923,
        0.060597777366638184,
        0.3760640621185303,
        -0.9455280303955078,
        -0.0987628772854805,
        0.10463882982730865,
        0.890341579914093,
        0.5855401158332825,
        1.824213981628418,
        0.3726825416088104,
        -2.196009635925293,
        0.5037188529968262,
        -0.1864941120147705,
        -0.1791706383228302,
        0.279392272233963,
        -0.051207903772592545,
        0.00902113039046526,
        -0.06820672750473022,
        0.009321535006165504,
        0.05157924070954323,
        0.08228709548711777,
        -0.19002054631710052,
        0.11241182684898376,
        -0.12982293963432312,
        0.12574726343154907,
        -0.1972319483757019,
        0.09131061285734177,
        -2.683016777038574,
        -0.24735981225967407,
        -0.09453190118074417,
        1.2842433452606201,
        0.9305237531661987,
        1.389034628868103,
        -0.2836898863315582,
        -0.538399338722229,
        0.11133599281311035,
        0.7513840198516846,
        0.15713633596897125,
        -0.17440631985664368,
        0.26675352454185486,
        -0.22541563212871552,
        -0.192106693983078,
        0.3464265763759613,
        0.8535322546958923,
        -0.8284133076667786,
        0.6035573482513428,
        -0.21776224672794342,
        0.35911935567855835,
        0.10333452373743057,
        0.08973586559295654,
        -0.10409646481275558,
        0.47203296422958374,
        -0.9174332618713379,
        0.047893792390823364,
        0.7194499969482422,
        -0.030927598476409912,
        -0.34398752450942993,
        0.5614166855812073,
        -0.3568420112133026,
        0.35528093576431274,
        -0.18940679728984833,
        -0.41312268376350403,
        -0.043147098273038864,
        0.22053365409374237,
        -0.23317433893680573,
        0.21162839233875275,
        0.41497713327407837,
        0.2602270245552063,
        -0.24024495482444763,
        -0.25364309549331665,
        -0.11138517409563065,
        -0.310568243265152,
        -0.29352444410324097,
        0.11262621730566025,
        -0.19277481734752655,
        0.11169077455997467,
        0.22371135652065277,
        0.16331732273101807,
        0.1794867217540741,
        -0.04802241176366806,
        -0.2628803551197052,
        -0.11195171624422073,
        -0.18487174808979034,
        0.9003735184669495,
        -0.44632813334465027,
        0.28082340955734253,
        -0.293692022562027,
        -0.15500473976135254,
        0.39352181553840637,
        -0.3951769173145294,
        -0.15121567249298096,
        0.2548123598098755,
        0.4698917269706726,
        0.22663763165473938,
        -0.09616522490978241,
        0.2001422792673111,
        -0.19957679510116577,
        0.168297678232193,
        -0.07717297226190567,
        0.9095859527587891,
        0.42393890023231506,
        -0.9932555556297302,
        -0.39718738198280334,
        -1.3293468952178955,
        0.6741394996643066,
        0.13733820617198944,
        0.4751073718070984,
        -0.22737470269203186,
        -0.159223273396492,
        -0.12591634690761566,
        -0.10675360262393951,
        -0.007821007631719112,
        0.17008861899375916,
        -0.05476883053779602,
        0.17839568853378296,
        -0.15417389571666718,
        -0.13981547951698303,
        -0.024365724995732307,
        0.0373743399977684,
        -0.0870206281542778,
        -0.09614285826683044,
        0.026449013501405716,
        -0.15594378113746643,
        -0.21176379919052124,
        -0.04409819841384888,
        -0.08364956825971603,
        -0.03395853936672211,
        -0.10247103869915009,
        -0.28729957342147827,
        -0.037314724177122116,
        -0.0793488472700119,
        -0.24216170608997345,
        -1.109967589378357,
        -0.1048974096775055,
        0.6383275389671326,
        -0.10074291378259659,
        0.6001198887825012,
        0.7668499946594238,
        -0.5896764993667603,
        0.32283371686935425,
        0.02218196913599968,
        0.16983948647975922,
        -0.1927778571844101,
        -0.017937161028385162,
        0.20864292979240417,
        -0.005682770162820816,
        -0.7045815587043762,
        1.3321731090545654,
        1.1499626636505127,
        0.7359897494316101,
        0.595686674118042,
        -0.36854088306427,
        -0.7333640456199646,
        -0.816495418548584,
        -2.5815415382385254,
        0.27018460631370544,
        0.28596481680870056,
        -0.15139836072921753,
        0.1084260419011116,
        0.09307727962732315,
        -0.06789546459913254,
        0.07546292245388031,
        -0.0454426147043705,
        -0.2919527590274811,
        0.45285162329673767,
        -0.48552218079566956,
        0.11813908815383911,
        0.17349909245967865,
        -0.09001236408948898,
        -0.4317924678325653,
        -0.5243207216262817,
        1.575870394706726,
        1.1663482189178467,
        -1.3259474039077759,
        -0.921192467212677,
        -0.37326833605766296,
        0.04400976002216339,
        -1.0843639373779297,
        -1.25057852268219,
        -0.11838334798812866,
        0.15880604088306427,
        0.050756677985191345,
        -0.027618439868092537,
        -0.033822670578956604,
        0.02649053744971752,
        -0.010793508030474186,
        0.016651837155222893,
        -0.07429710030555725,
        0.19597692787647247,
        0.13484545052051544,
        -0.02695726417005062,
        -0.04496799036860466,
        -0.02244935743510723,
        -0.010255509987473488,
        -0.007467357441782951,
        2.601915121078491,
        -2.0061581134796143,
        -1.7872718572616577,
        0.13921228051185608,
        0.8534704446792603,
        0.20105312764644623,
        0.10801767557859421,
        0.04085038602352142,
        0.34145882725715637,
        0.46433356404304504,
        0.04918291047215462,
        0.3388321101665497,
        0.2983827292919159,
        0.16929002106189728,
        0.2520761489868164,
        -0.0618133544921875,
        0.12692217528820038,
        0.23823416233062744,
        -0.17122069001197815,
        0.16734907031059265,
        -0.12206195294857025,
        -0.3024749159812927,
        -0.06247884780168533,
        0.12250365316867828,
        -0.32381102442741394,
        -0.14183279871940613,
        0.78179931640625,
        0.5092200040817261,
        -0.456654816865921,
        -0.3828325867652893,
        0.4831638038158417,
        -0.1890977919101715,
        0.27121609449386597,
        0.14727500081062317,
        -0.05295193940401077,
        -0.021357089281082153,
        0.06928315758705139,
        -0.06622852385044098,
        0.013896693475544453,
        -0.008957574144005775,
        0.09304612129926682,
        0.05515729635953903,
        -0.34900346398353577,
        0.402544230222702,
        -0.8203518390655518,
        -0.026410069316625595,
        0.06488557904958725,
        0.13798017799854279,
        0.5300119519233704,
        0.2245534509420395,
        0.041781917214393616,
        0.5926598310470581,
        0.14924150705337524,
        -0.2758117914199829,
        -0.00030836471705697477,
        0.0015008855843916535,
        -0.10437621921300888,
        0.6585196256637573,
        -0.2766478657722473,
        -0.13790978491306305,
        0.18161576986312866,
        -0.06035261228680611,
        0.04296247288584709,
        -0.06107829138636589,
        -0.07342350482940674,
        0.91163170337677,
        -0.2745293378829956,
        -0.03775016590952873,
        -0.13568070530891418,
        -0.038400888442993164,
        0.08400531113147736,
        0.10956671088933945,
        2.17244029045105,
        0.44803133606910706,
        -1.4081975221633911,
        -0.09568828344345093,
        0.005288023967295885,
        -0.046023301780223846,
        -0.8419902324676514,
        -0.24089547991752625,
        -0.6349958777427673,
        0.013204214163124561,
        0.4115693271160126,
        -0.02349936030805111,
        0.10517416149377823,
        -0.37451669573783875,
        0.07577179372310638,
        0.8559034466743469,
        0.039478860795497894,
        -0.19307799637317657,
        -0.14106392860412598,
        -0.41346874833106995,
        -0.09092506766319275,
        -0.18057970702648163,
        0.20022177696228027,
        -0.26602229475975037,
        -0.405073881149292,
        -0.495911568403244,
        0.20072485506534576,
        0.04470174387097359,
        0.8278185725212097,
        0.39926961064338684,
        1.0879124402999878,
        0.5905489921569824,
        -0.004668515175580978,
        0.17258259654045105,
        -0.2199956774711609,
        0.03593721613287926,
        0.030181365087628365,
        0.003570812987163663,
        0.022470247000455856,
        -0.003005180275067687,
        -0.2570801079273224,
        0.12189041823148727,
        -0.30506789684295654,
        -0.13384054601192474,
        -0.0001314542314503342,
        0.0588003508746624,
        0.2891862392425537,
        -0.016265155747532845,
        -1.7885342836380005,
        0.6437484622001648,
        1.4670312404632568,
        0.8661450147628784,
        0.4051414430141449,
        0.3375391662120819,
        -1.7759026288986206,
        0.18694519996643066,
        0.3034417927265167,
        -0.03901999071240425,
        -0.49468979239463806,
        0.049706198275089264,
        0.1394350677728653,
        0.09944172203540802,
        0.25970640778541565,
        -0.373197078704834,
        0.12044553458690643,
        -0.0992196574807167,
        -0.1921030879020691,
        0.17528276145458221,
        -0.11333545297384262,
        -0.12206389009952545,
        -0.12167295813560486,
        0.2037249654531479,
        -2.488529920578003,
        -1.6953872442245483,
        0.5633451342582703,
        0.14421162009239197,
        0.6902431845664978,
        1.241994857788086,
        1.2876192331314087,
        0.6589927673339844,
        -0.2526930570602417,
        0.08643228560686111,
        -0.3436243534088135,
        0.20645329356193542,
        -0.06621985137462616,
        0.11116413027048111,
        -0.013174907304346561,
        0.1495005488395691,
        -0.33555692434310913,
        0.15460917353630066,
        -0.0742013156414032,
        -0.2501673400402069,
        -0.10153942555189133,
        0.23235972225666046,
        0.18525636196136475,
        -0.628829300403595,
        -0.078156016767025,
        -1.1215054988861084,
        1.2420768737792969,
        0.09557435661554337,
        -0.920617401599884,
        -1.2801766395568848,
        1.3588953018188477,
        -0.51384437084198,
        -0.054308485239744186,
        -0.7304911017417908,
        -0.02490132674574852,
        -0.3875214457511902,
        0.31838738918304443,
        0.07436192780733109,
        -0.2026749551296234,
        0.14354272186756134,
        -0.00536560220643878,
        -0.5916896462440491,
        -0.21817389130592346,
        0.2231665551662445,
        -0.03907783702015877,
        0.14968158304691315,
        -0.13299047946929932,
        0.40762677788734436,
        0.2521793842315674,
        0.9204344749450684,
        0.1529931277036667,
        0.839904248714447,
        -0.5641219019889832,
        -0.0034785817842930555,
        1.3909162282943726,
        -1.6997723579406738,
        0.07338790595531464,
        -0.0075286817736923695,
        -0.17500916123390198,
        -0.04093589261174202,
        0.1181706115603447,
        0.002745280507951975,
        0.005744496360421181,
        0.015086722560226917,
        -0.21060842275619507,
        -0.05729883536696434,
        -0.1480197310447693,
        0.020690767094492912,
        -0.07443776726722717,
        -0.03146170824766159,
        0.06315570324659348,
        -0.0011785352835431695,
        -0.9599651098251343,
        0.6396822929382324,
        1.4361940622329712,
        -1.2253532409667969,
        -0.1763189285993576,
        0.34294307231903076,
        -0.07034038752317429,
        -0.25762617588043213,
        0.13879527151584625,
        -0.051563117653131485,
        0.054719019681215286,
        -0.0049788495525717735,
        0.035914529114961624,
        -0.08370987325906754,
        0.07248184829950333,
        -0.05353257805109024,
        -0.20767562091350555,
        0.025323906913399696,
        -0.21603237092494965,
        -0.05321398749947548,
        0.04740799218416214,
        0.11750896275043488,
        0.17493446171283722,
        0.025004105642437935,
        1.3836392164230347,
        0.49781084060668945,
        -2.663588762283325,
        0.31434449553489685,
        -0.9587380886077881,
        -0.14965908229351044,
        1.5483663082122803,
        -0.005421064328402281,
        0.2690700590610504,
        -0.03439509868621826,
        0.032422371208667755,
        -0.11689084023237228,
        0.0734294056892395,
        -0.017095623537898064,
        0.04251422360539436,
        -0.06354442238807678,
        0.03484824672341347,
        -0.10127752274274826,
        0.1515587717294693,
        -0.025974474847316742,
        -0.015394526533782482,
        0.02130107209086418,
        0.017246894538402557,
        -0.01110192108899355,
        -0.2803584337234497,
        2.046840190887451,
        -2.0473873615264893,
        -0.7609065175056458,
        0.2681081295013428,
        0.8323671817779541,
        -0.23814372718334198,
        0.23361000418663025,
        0.2665557861328125,
        -0.3034277558326721,
        0.2298373430967331,
        0.30257686972618103,
        -0.031288281083106995,
        -0.22756381332874298,
        0.10746946185827255,
        -0.13763801753520966,
        -0.13929931819438934,
        0.13264894485473633,
        0.14631465077400208,
        -0.05511217564344406,
        0.036418359726667404,
        -0.00018950682715512812,
        -0.25957322120666504,
        0.23836396634578705,
        -2.3707337379455566,
        -1.128653883934021,
        -0.21531057357788086,
        1.2933478355407715,
        -0.2298269122838974,
        0.5616973042488098,
        -1.0386546850204468,
        1.376392126083374
      ]
    },
    {
      "architecture": "normalization",
      "bias": [
        -0.04031549394130707,
        5.466086440719664e-05,
        0.00014557677786797285,
        -0.000658886507153511,
        -0.27779585123062134,
        0.009696777909994125,
        -0.04644284397363663,
        -0.012223094701766968,
        -0.25924235582351685,
        -0.06486564874649048,
        -0.17249451577663422,
        -0.11959632486104965,
        0.00019273288489785045,
        -0.02576625719666481,
        -0.0005216816789470613,
        2.392007445450872e-06,
        0.002401843201369047,
        -0.20682770013809204,
        -0.06691867113113403,
        -0.0013952851295471191,
        -0.03251514583826065,
        -0.03418085724115372,
        -0.047372005879879,
        -0.010206395760178566,
        -0.0316571444272995,
        -0.021776454523205757,
        -0.04524384066462517,
        -0.03886732459068298,
        -0.07031979411840439,
        -0.05476027727127075,
        -0.049802135676145554,
        -0.06907263398170471,
        -0.013957453891634941,
        -0.002203558338806033,
        -0.07280205935239792,
        -0.09241324663162231,
        -7.030516280792654e-05,
        -0.0011451642494648695,
        -0.047413185238838196,
        0.005095585249364376,
        -0.036561399698257446,
        -0.0018508986104279757,
        -0.0014634844847023487,
        -0.009533975273370743,
        -0.051100026816129684,
        -0.46392399072647095,
        -0.001794847659766674,
        -0.21757222712039948,
        -0.00012559480092022568,
        -0.15131428837776184,
        -0.016174323856830597,
        -0.04633427411317825,
        -0.00018217037722934037,
        4.5001492253504694e-05,
        -0.002315221820026636,
        -0.0031860293820500374,
        -0.016963442787528038,
        -0.007813531905412674,
        -0.017504699528217316,
        -0.016802333295345306,
        -0.00024158433370757848,
        -0.017384013161063194,
        -0.048350989818573,
        -0.08929357677698135
      ],
      "weights": [
        17.401432037353516,
        68.7868423461914,
        60.65580749511719,
        60.09430694580078,
        4.455120086669922,
        36.61964416503906,
        33.15240478515625,
        52.40217590332031,
        4.915504455566406,
        13.018202781677246,
        9.117803573608398,
        14.114945411682129,
        61.87485885620117,
        21.45607566833496,
        31.765209197998047,
        23.589115142822266,
        67.86298370361328,
        9.038009643554688,
        20.70597267150879,
        4.43444299697876,
        18.066892623901367,
        20.035070419311523,
        9.17613410949707,
        26.749725341796875,
        18.43279457092285,
        10.85559368133545,
        33.07060241699219,
        5.562060356140137,
        12.203454971313477,
        19.650821685791016,
        10.76723861694336,
        12.713775634765625,
        19.67165184020996,
        14.458980560302734,
        2.78582501411438,
        12.833317756652832,
        125.87693786621094,
        37.29957962036133,
        16.666540145874023,
        38.30719757080078,
        40.42975616455078,
        43.72455596923828,
        7.386970520019531,
        26.198299407958984,
        17.449726104736328,
        7.8779473304748535,
        50.30307388305664,
        8.153413772583008,
        19.92185401916504,
        4.412258625030518,
        27.094724655151367,
        29.433351516723633,
        16.29625129699707,
        29.635255813598633,
        26.036617279052734,
        18.11585235595703,
        30.10301399230957,
        19.23737335205078,
        14.474509239196777,
        17.36172103881836,
        35.402427673339844,
        26.6365909576416,
        28.61870765686035,
        11.86925983428955
      ]
    },
    {
      "activation": "rectified",
      "architecture": "dense",
      "bias": [
        -0.3613039553165436,
        0.005520855076611042,
        -0.3749614655971527,
        -0.3735946714878082,
        -0.43795937299728394,
        -0.49552950263023376,
        -0.7179545760154724,
        -0.027626868337392807,
        -0.7897441983222961,
        0.09852485358715057,
        -0.25732991099357605,
        0.17322273552417755,
        -0.62767094373703,
        -0.5119745135307312,
        -0.3189793527126312,
        -0.07257825881242752,
        -0.5471187233924866,
        0.17479491233825684,
        0.4040716886520386,
        -0.23084814846515656,
        0.023200685158371925,
        -0.38356107473373413,
        0.14970910549163818,
        -0.027994005009531975,
        -0.12297409027814865,
        -0.3138997256755829,
        -0.24172689020633698,
        -0.2734410762786865,
        -0.07565486431121826,
        0.09547745436429977,
        -0.41043442487716675,
        0.422834187746048
      ],
      "weights": [
        0.33404117822647095,
        -0.04932272434234619,
        -0.17745453119277954,
        -0.04635508731007576,
        0.1219082623720169,
        -0.39827826619148254,
        -0.25792768597602844,
        -0.24159713089466095,
        0.5127636194229126,
        -0.12313856184482574,
        -0.12911584973335266,
        0.06349212676286697,
        0.34302541613578796,
        -0.1856381744146347,
        -0.005928061902523041,
        0.40409281849861145,
        -0.18699140846729279,
        -0.3246617317199707,
        -0.2443225085735321,
        0.09975579380989075,
        -0.33785513043403625,
        0.5435185432434082,
        -0.08953939378261566,
        -0.022775888442993164,
        -0.029748786240816116,
        0.702168881893158,
        -0.080887570977211,
        0.2955853343009949,
        -0.20658457279205322,
        0.05645483732223511,
        7.242029823828489e-05,
        -0.07748393714427948,
        -0.18316008150577545,
        0.265097975730896,
        -4.969388484954834,
        -0.3041743040084839,
        -0.02108323574066162,
        0.165092334151268,
        -0.061881836503744125,
        -0.2951282858848572,
        0.03182194009423256,
        -0.550489068031311,
        0.007709355093538761,
        0.18221014738082886,
        0.17781005799770355,
        0.16694076359272003,
        -0.19019225239753723,
        -0.2848884165287018,
        -0.042921002954244614,
        0.02911990135908127,
        -0.030140411108732224,
        -0.041831839829683304,
        0.2880297005176544,
        0.36771154403686523,
        -2.557543992996216,
        0.049551405012607574,
        0.14430458843708038,
        -0.14929090440273285,
        0.18987144529819489,
        0.0484093576669693,
        0.3183855712413788,
        0.05936736613512039,
        -0.022036340087652206,
        0.4250737130641937,
        -0.10230691730976105,
        -0.15757110714912415,
        -0.4792013466358185,
        -0.298692524433136,
        0.10736571252346039,
        -0.40419289469718933,
        0.2814951539039612,
        1.1746108531951904,
        -0.46776631474494934,
        0.3154522180557251,
        0.2203558385372162,
        -0.38761788606643677,
        -0.004354424308985472,
        0.48320284485816956,
        0.08089194446802139,
        0.2808430790901184,
        -0.3727370798587799,
        -0.4360930919647217,
        -0.32029762864112854,
        -0.11837128549814224,
        -0.11333999037742615,
        0.054430462419986725,
        0.16793790459632874,
        -0.3717937469482422,
        -0.19987228512763977,
        0.2038896083831787,
        -0.5042735934257507,
        0.3684633672237396,
        0.2588510513305664,
        -0.07038530707359314,
        0.03582838177680969,
        -0.2130880355834961,
        -0.02851676009595394,
        -0.08226215839385986,
        0.07352936267852783,
        0.206822469830513,
        -0.039305880665779114,
        0.8799559473991394,
        -0.20742130279541016,
        -0.31581345200538635,
        -0.5327067971229553,
        -0.1693010926246643,
        -0.2960124611854553,
        0.12948539853096008,
        -0.5312246680259705,
        0.2664632797241211,
        -0.1048319861292839,
        -0.3877263367176056,
        0.013704455457627773,
        0.1635109931230545,
        -0.34239229559898376,
        -0.2937805950641632,
        0.25690197944641113,
        0.09567774087190628,
        0.6199700236320496,
        -0.0212504044175148,
        -0.7037379145622253,
        -0.40436580777168274,
        0.21614857017993927,
        -0.06375815719366074,
        0.9809491634368896,
        0.9625817537307739,
        -0.10046656429767609,
        0.10252272337675095,
        0.39267072081565857,
        -0.1579243391752243,
        -0.2789560556411743,
        0.09072183817625046,
        -0.8135201930999756,
        -0.7105588316917419,
        -0.3006390929222107,
        -0.49012255668640137,
        0.485819935798645,
        -0.2080749124288559,
        0.3302599787712097,
        -0.023083286359906197,
        -0.212479367852211,
        -0.3654497265815735,
        -0.04318598657846451,
        0.15412040054798126,
        -0.5919877290725708,
        0.8166362047195435,
        0.38572078943252563,
        -0.07970919460058212,
        -0.12024486809968948,
        -0.5668039321899414,
        -0.37399330735206604,
        0.21309685707092285,
        -0.25740352272987366,
        -0.35239413380622864,
        0.11772991716861725,
        0.3860900402069092,
        -0.08213883638381958,
        0.06164292246103287,
        0.15107755362987518,
        -0.06125358119606972,
        -0.12717072665691376,
        -0.10110768675804138,
        -0.03313783183693886,
        -0.4050590693950653,
        -0.011252948082983494,
        -0.5088372230529785,
        0.5410369634628296,
        -0.5050948858261108,
        0.79554283618927,
        1.0443583726882935,
        0.056537266820669174,
        -0.19034190475940704,
        0.3639502227306366,
        0.17715810239315033,
        0.059079959988594055,
        0.24582216143608093,
        -0.018310265615582466,
        -0.3651272654533386,
        -0.10415668040513992,
        0.20728787779808044,
        0.2588214576244354,
        0.2767181694507599,
        -0.23043116927146912,
        0.012506905943155289,
        0.03874588757753372,
        0.17349152266979218,
        -0.32433268427848816,
        0.20192983746528625,
        0.2795708179473877,
        0.08066833764314651,
        -0.24911630153656006,
        -0.07132551819086075,
        0.1151454895734787,
        0.03745166212320328,
        -0.3029690086841583,
        -0.17694257199764252,
        -0.247144877910614,
        -0.16442444920539856,
        0.17034438252449036,
        0.1461341232061386,
        -0.04283593222498894,
        -0.1300065815448761,
        -0.1079104021191597,
        0.051620956510305405,
        0.39271846413612366,
        -0.5284293293952942,
        -0.04022788628935814,
        -0.02617827244102955,
        -0.05774262174963951,
        -0.8479757905006409,
        0.07626155018806458,
        0.15719321370124817,
        -0.0029750755056738853,
        -0.05315328761935234,
        0.439409464597702,
        -0.9881302714347839,
        0.8723154664039612,
        -1.1247491836547852,
        -0.2915811538696289,
        -1.768257737159729,
        0.16922256350517273,
        -0.5578635334968567,
        0.1095258966088295,
        -0.18168017268180847,
        -0.1405174434185028,
        0.34013769030570984,
        0.14950956404209137,
        -0.5613791942596436,
        0.04527774453163147,
        0.07308787852525711,
        0.04413405805826187,
        0.07699921727180481,
        -0.18720726668834686,
        -1.016341209411621,
        -0.15706537663936615,
        0.10012958198785782,
        0.3285052478313446,
        0.180677130818367,
        0.11400705575942993,
        0.4196172058582306,
        0.0033262609504163265,
        -0.9491878151893616,
        -0.10489621758460999,
        0.41632920503616333,
        -0.2647465169429779,
        -0.31149524450302124,
        -0.2737514078617096,
        0.010696632787585258,
        -0.03420836105942726,
        0.79140305519104,
        -0.1751064509153366,
        0.012036075815558434,
        -0.07348038256168365,
        -0.14734578132629395,
        0.031948674470186234,
        -0.17084774374961853,
        -0.3088773190975189,
        0.0948067307472229,
        -0.3083392381668091,
        -0.3824672996997833,
        -0.25285470485687256,
        -0.8495582938194275,
        0.21597068011760712,
        0.5104718804359436,
        -0.05552016943693161,
        -0.29091301560401917,
        0.03974507004022598,
        -0.03225010633468628,
        -0.016426073387265205,
        -0.10812000185251236,
        -0.18865787982940674,
        0.7334489822387695,
        -0.5827053785324097,
        -0.23167875409126282,
        0.38120099902153015,
        0.04212572053074837,
        -0.1923510879278183,
        0.5346327424049377,
        0.021723153069615364,
        0.47640830278396606,
        0.019726628437638283,
        0.20821690559387207,
        0.5731011033058167,
        0.23016861081123352,
        -0.03216515854001045,
        -0.4734938442707062,
        0.16822315752506256,
        -0.02980613335967064,
        0.7712236642837524,
        0.0926109328866005,
        0.21823912858963013,
        0.28309300541877747,
        -0.1744990199804306,
        0.4262543320655823,
        0.2503218650817871,
        -0.5211775898933411,
        -0.0556657537817955,
        0.7441307902336121,
        -0.11928798258304596,
        -0.23152433335781097,
        -0.11857668310403824,
        -0.31297409534454346,
        -0.02829934097826481,
        -0.4665423035621643,
        0.006756188347935677,
        -0.1427479088306427,
        -0.6525335311889648,
        -0.5240578055381775,
        0.6846057772636414,
        0.4952700734138489,
        0.04219205677509308,
        -0.12276142090559006,
        0.25200310349464417,
        -0.16838470101356506,
        -0.1879860907793045,
        -0.5050749778747559,
        -0.5581913590431213,
        -0.9718894958496094,
        -0.22215969860553741,
        -0.3671720027923584,
        -0.05350480601191521,
        0.061680182814598083,
        -0.12239418178796768,
        -0.1224542185664177,
        -0.09532211720943451,
        -0.9202532768249512,
        -0.0657820925116539,
        1.576388955116272,
        -0.05638127401471138,
        0.2576059103012085,
        -0.15196791291236877,
        0.042790669947862625,
        -0.03564451262354851,
        0.30340707302093506,
        -0.011313551105558872,
        0.20880357921123505,
        -0.36749500036239624,
        -0.02628449723124504,
        -0.05954743176698685,
        0.09521948546171188,
        -0.16470880806446075,
        0.08396049588918686,
        -0.6762009263038635,
        0.018637534230947495,
        -0.1617579162120819,
        0.2898705303668976,
        -0.1961989402770996,
        -0.26602643728256226,
        -0.0828927755355835,
        -0.060056596994400024,
        0.07571953535079956,
        -0.4850247800350189,
        -0.08303798735141754,
        -0.02613455429673195,
        -0.07045867294073105,
        0.15071772038936615,
        -0.0012036804109811783,
        -0.4490077495574951,
        -0.5251253247261047,
        -0.7030114531517029,
        -1.2467409372329712,
        -0.9857441186904907,
        0.10146334022283554,
        0.018466820940375328,
        -0.08313670009374619,
        0.36540791392326355,
        -0.0023931057658046484,
        0.18141208589076996,
        -0.02525203861296177,
        0.11616732180118561,
        0.2642260491847992,
        -0.6451889872550964,
        0.12376395612955093,
        0.19332970678806305,
        0.26955562829971313,
        0.010673056356608868,
        0.15596745908260345,
        -0.0071547976695001125,
        0.13648873567581177,
        0.24557863175868988,
        -0.061923637986183167,
        -0.1518561691045761,
        0.45781394839286804,
        0.2895333170890808,
        0.2548425495624542,
        -0.304078072309494,
        0.6816110610961914,
        -0.09805025905370712,
        0.12469038367271423,
        -0.3834052085876465,
        0.49915656447410583,
        0.0812615305185318,
        -0.14848390221595764,
        -0.2114865630865097,
        -0.826197624206543,
        1.4703375101089478,
        -0.24945005774497986,
        -0.20788851380348206,
        -0.10352294147014618,
        -0.11374485492706299,
        -0.3969670534133911,
        0.33388301730155945,
        -0.1891886442899704,
        0.042172979563474655,
        0.46157047152519226,
        -0.26366516947746277,
        0.5052878856658936,
        0.24244791269302368,
        1.2874399423599243,
        0.11613569408655167,
        -0.09213317930698395,
        0.3115154504776001,
        -0.2794620394706726,
        -0.4107457399368286,
        0.18693017959594727,
        0.44646555185317993,
        0.3390071988105774,
        0.2148558497428894,
        -0.04197399690747261,
        0.25344613194465637,
        -0.09445168077945709,
        0.28267407417297363,
        0.3949408233165741,
        -0.15823982656002045,
        0.28099775314331055,
        -0.3326033353805542,
        0.46937018632888794,
        -0.31517964601516724,
        -0.47302448749542236,
        1.169230341911316,
        0.37484481930732727,
        -0.6108624339103699,
        0.009114215150475502,
        -0.042592164129018784,
        0.10104015469551086,
        -0.15781186521053314,
        -0.29756730794906616,
        -0.6759475469589233,
        -0.06719590723514557,
        0.1682797521352768,
        0.014814669266343117,
        -0.013551347889006138,
        -0.047484781593084335,
        0.7465632557868958,
        -0.18817923963069916,
        0.057313576340675354,
        0.31906720995903015,
        0.3262069821357727,
        0.12015636265277863,
        0.02613203600049019,
        0.11201177537441254,
        -0.06262650340795517,
        -0.6149457693099976,
        -0.535953938961029,
        1.03242027759552,
        -0.002777016256004572,
        -0.22893589735031128,
        0.3553712069988251,
        -0.4866613447666168,
        -0.4517129063606262,
        0.23971542716026306,
        0.2445489913225174,
        -0.2613450586795807,
        0.28762802481651306,
        -0.49820542335510254,
        0.1569790244102478,
        0.146963968873024,
        -0.07607192546129227,
        -0.7943757176399231,
        0.6631492972373962,
        -0.23832060396671295,
        0.308048278093338,
        -0.08254869282245636,
        -0.06173166260123253,
        0.5447871088981628,
        0.017646964639425278,
        -0.5709834694862366,
        -0.48340779542922974,
        -0.3895242512226105,
        -0.2479391247034073,
        0.13111421465873718,
        -0.09492699056863785,
        0.06773370504379272,
        0.46571585536003113,
        -0.052241094410419464,
        0.7643133401870728,
        0.21792647242546082,
        -0.6947502493858337,
        -0.13924697041511536,
        -0.19273225963115692,
        0.1770300418138504,
        0.01597684435546398,
        0.14719663560390472,
        -0.1255771815776825,
        -0.2588587701320648,
        -0.18970367312431335,
        -0.012663993053138256,
        0.11884474754333496,
        0.5468940734863281,
        0.19811156392097473,
        0.6672449707984924,
        -0.06305128335952759,
        0.0816543698310852,
        -0.16757193207740784,
        -0.40731462836265564,
        -0.17932353913784027,
        0.16407595574855804,
        0.5931748151779175,
        0.040163516998291016,
        0.35200491547584534,
        0.28031885623931885,
        -0.6540418863296509,
        0.7749871611595154,
        -0.12048337608575821,
        0.3873980641365051,
        0.0415114164352417,
        -0.17428238689899445,
        -0.8273900747299194,
        -0.16566160321235657,
        -0.044941700994968414,
        -0.1988622099161148,
        -0.053112197667360306,
        -0.4972435534000397,
        0.18202446401119232,
        0.2557988464832306,
        -0.33024564385414124,
        0.08899492770433426,
        0.23325425386428833,
        -0.8715454339981079,
        -0.17654544115066528,
        0.242850199341774,
        -5.058061599731445,
        -0.09954310208559036,
        0.19065456092357635,
        -0.052250586450099945,
        -0.10809194296598434,
        -0.8887176513671875,
        -2.345517158508301,
        -0.24614037573337555,
        -0.13344722986221313,
        0.017186110839247704,
        -0.11757396906614304,
        -0.08381880819797516,
        0.18852511048316956,
        -1.1028530597686768,
        0.9486119747161865,
        -0.100332111120224,
        -0.37684908509254456,
        -0.18395352363586426,
        0.8067201972007751,
        -0.11329248547554016,
        -0.5911784768104553,
        -0.196940079331398,
        -0.19529716670513153,
        -2.3802330493927,
        -0.9804337024688721,
        0.19376806914806366,
        -0.23382973670959473,
        0.07494998723268509,
        0.13107651472091675,
        0.01839849166572094,
        0.004836789797991514,
        0.05685459449887276,
        0.1220095232129097,
        -0.2610616385936737,
        -0.09626629203557968,
        -0.4355742037296295,
        -0.12235251814126968,
        -0.18936863541603088,
        0.4570651054382324,
        -0.05699757859110832,
        -0.415965735912323,
        -0.025228513404726982,
        -0.2069346308708191,
        -0.3134611248970032,
        0.14804303646087646,
        0.43886399269104004,
        -0.04918495565652847,
        -0.03989596664905548,
        -0.08366349339485168,
        0.11724139004945755,
        -0.3761836588382721,
        0.18773643672466278,
        -0.7089309096336365,
        -0.7359060645103455,
        -0.7625954747200012,
        -0.04407560080289841,
        -0.0956893041729927,
        0.0011770559940487146,
        -0.31937336921691895,
        0.03242328017950058,
        0.04260715842247009,
        -0.40967628359794617,
        0.15821866691112518,
        0.165679469704628,
        0.0467771477997303,
        -0.2296280711889267,
        0.40856242179870605,
        -0.35348182916641235,
        -0.2645342946052551,
        0.3786277770996094,
        0.3485279083251953,
        0.017518535256385803,
        -0.19924676418304443,
        -0.16981902718544006,
        -0.09702099859714508,
        0.006308460142463446,
        0.41618382930755615,
        -0.2625356912612915,
        -0.17757217586040497,
        -0.1967400163412094,
        -0.07425464689731598,
        -0.09702736884355545,
        0.174987331032753,
        0.11672660708427429,
        -0.19245246052742004,
        0.681088924407959,
        1.0091906785964966,
        -0.2040604203939438,
        -0.009048623032867908,
        -0.2654605209827423,
        0.41415032744407654,
        0.21904312074184418,
        -0.5021741986274719,
        -0.0002150179643649608,
        0.22721192240715027,
        -0.4265194237232208,
        0.5647225975990295,
        0.0189828984439373,
        0.11663605272769928,
        -0.19205908477306366,
        -0.5594792366027832,
        -0.0013376727001741529,
        0.8326032161712646,
        0.06259381026029587,
        -0.32192251086235046,
        -0.35433056950569153,
        -0.14733582735061646,
        -0.30294862389564514,
        -0.11106107383966446,
        -0.14453451335430145,
        -0.02624128945171833,
        0.06202840432524681,
        -0.31378787755966187,
        -0.14345677196979523,
        -0.5397403240203857,
        0.24834337830543518,
        0.07445362955331802,
        0.6118254661560059,
        -0.6031380891799927,
        0.13239501416683197,
        -0.1728205680847168,
        0.5457109212875366,
        -0.18678510189056396,
        0.030446361750364304,
        0.16826266050338745,
        -0.24693480134010315,
        0.38260215520858765,
        0.1593082845211029,
        0.043069299310445786,
        -0.02311936765909195,
        -0.15742123126983643,
        0.3178115487098694,
        -0.48651862144470215,
        -0.09888516366481781,
        0.021843386813998222,
        0.21124298870563507,
        -0.5778483152389526,
        -0.44063615798950195,
        0.49023106694221497,
        0.28390464186668396,
        0.5354923009872437,
        -0.09175388514995575,
        0.14547009766101837,
        0.16495174169540405,
        0.20496447384357452,
        -0.2947390675544739,
        -0.0890800803899765,
        -0.11798018962144852,
        -0.47693485021591187,
        0.3571653962135315,
        1.514195442199707,
        0.20213563740253448,
        0.654930055141449,
        0.11010389029979706,
        -0.35152578353881836,
        -0.20740659534931183,
        -0.49166589975357056,
        -0.010558418929576874,
        -0.1899593621492386,
        -0.17586137354373932,
        -0.556471586227417,
        0.06609170883893967,
        0.16500867903232574,
        -0.6864323616027832,
        -0.2640773057937622,
        -0.30143555998802185,
        0.04727976396679878,
        0.4225781261920929,
        0.32222476601600647,
        0.07736968994140625,
        -0.15786540508270264,
        -1.0395101308822632,
        -0.331979900598526,
        0.31392839550971985,
        -0.17133384943008423,
        -0.21173954010009766,
        0.06321416795253754,
        -0.3518751561641693,
        -0.15806487202644348,
        -0.11936116963624954,
        -0.3001735508441925,
        0.2999071180820465,
        0.11051493138074875,
        0.47563937306404114,
        0.45729589462280273,
        -0.11700637638568878,
        0.3913010060787201,
        -0.19835412502288818,
        0.10567924380302429,
        -0.13291387259960175,
        -0.380362868309021,
        -0.7578340172767639,
        -0.08831318467855453,
        -0.4876658320426941,
        0.10924071818590164,
        -0.5821264386177063,
        -0.5786198973655701,
        0.10868102312088013,
        -0.09775339812040329,
        0.01295691542327404,
        0.2164393961429596,
        0.7386804819107056,
        0.27034270763397217,
        0.7479531764984131,
        0.578234851360321,
        0.3557197153568268,
        0.7109560966491699,
        -0.3852965235710144,
        0.11829818785190582,
        -0.25118154287338257,
        0.1252896785736084,
        0.0901656299829483,
        0.10836932808160782,
        0.26447221636772156,
        -0.2305542528629303,
        -0.14727334678173065,
        0.2531404495239258,
        0.39579033851623535,
        -0.3827611804008484,
        0.18141689896583557,
        0.8519812226295471,
        -0.0028323745355010033,
        0.22443532943725586,
        0.454767644405365,
        -0.3323756754398346,
        0.3181491792201996,
        0.4404086768627167,
        -0.07015323638916016,
        -0.9047085046768188,
        -0.11373118311166763,
        0.08002219349145889,
        0.3195868134498596,
        -0.21269172430038452,
        -0.4316870868206024,
        0.14519953727722168,
        -0.14983466267585754,
        -0.029391972348093987,
        0.41433197259902954,
        -0.24562221765518188,
        -0.15580976009368896,
        0.22016625106334686,
        0.23950481414794922,
        -0.8848615288734436,
        -0.013240611180663109,
        -0.02269207127392292,
        0.008730361238121986,
        0.5505744218826294,
        -0.14225299656391144,
        0.21961228549480438,
        0.07393782585859299,
        0.16362883150577545,
        0.004658648278564215,
        0.24482187628746033,
        -0.674618661403656,
        -0.934681236743927,
        -0.0827898308634758,
        -0.17565970122814178,
        0.45654749870300293,
        0.26890796422958374,
        0.12361323833465576,
        -0.5506804585456848,
        0.25586631894111633,
        -0.23222705721855164,
        -0.23543204367160797,
        0.2742575705051422,
        -0.3603428304195404,
        0.3345181941986084,
        0.8776795268058777,
        -0.05170433223247528,
        -0.118436299264431,
        0.01968367211520672,
        -0.03919051215052605,
        0.26065438985824585,
        -0.0723283663392067,
        0.598067045211792,
        0.3396644592285156,
        -1.0101721286773682,
        0.08545615524053574,
        0.19525954127311707,
        -0.08959458023309708,
        -0.21749936044216156,
        -0.06575525552034378,
        0.17994673550128937,
        -0.08237630873918533,
        0.07992643117904663,
        -0.0025892697740346193,
        0.7993806004524231,
        0.33160945773124695,
        0.21722029149532318,
        0.36677244305610657,
        0.07311347126960754,
        0.5891657471656799,
        -0.5084403157234192,
        -0.49593886733055115,
        0.8193045854568481,
        -0.27750733494758606,
        -0.4421079754829407,
        0.3187825679779053,
        0.268954336643219,
        0.14288382232189178,
        -0.7020505666732788,
        0.1908085197210312,
        -0.42115703225135803,
        -0.4906417429447174,
        0.07266103476285934,
        0.23860317468643188,
        -0.6142507195472717,
        -0.2529812157154083,
        -0.49168866872787476,
        0.22038990259170532,
        -0.4913928806781769,
        -0.5529736876487732,
        -0.19347263872623444,
        -0.39626771211624146,
        -0.46827995777130127,
        0.07272458076477051,
        0.26603126525878906,
        -0.366168349981308,
        -0.4145779609680176,
        -0.11021177470684052,
        -2.223823308944702,
        0.4375862181186676,
        0.3487641513347626,
        -0.013037786819040775,
        -0.6790586113929749,
        0.3276624083518982,
        0.24194763600826263,
        0.01804543472826481,
        1.1710937023162842,
        -0.08616530150175095,
        0.13261036574840546,
        -0.13461266458034515,
        0.05528046935796738,
        0.8346475958824158,
        0.05980844050645828,
        0.3122405707836151,
        0.5849243402481079,
        -0.12677021324634552,
        0.2777136266231537,
        -0.32397663593292236,
        -0.24447216093540192,
        0.017190925776958466,
        0.5023747086524963,
        0.8665998578071594,
        -0.4058161973953247,
        0.3122962713241577,
        0.2987881898880005,
        -0.13342484831809998,
        -0.41625475883483887,
        0.03527539595961571,
        0.07889328896999359,
        0.30809202790260315,
        0.5714768171310425,
        0.16634277999401093,
        0.778800904750824,
        0.33945104479789734,
        -0.07295257598161697,
        -0.05967898666858673,
        -0.3169737756252289,
        0.09353802353143692,
        -0.39622271060943604,
        0.08213760703802109,
        0.3055253028869629,
        -0.09590720385313034,
        0.037860967218875885,
        0.16798965632915497,
        -0.2269553393125534,
        0.1522006243467331,
        0.1364113837480545,
        -0.5061203837394714,
        -0.2532895803451538,
        -0.3351479172706604,
        0.07121486216783524,
        0.26732465624809265,
        0.2441990226507187,
        -0.24301883578300476,
        -0.2645621597766876,
        -0.13316844403743744,
        0.7771387696266174,
        -0.017676418647170067,
        -0.1963363140821457,
        -0.02560051530599594,
        0.20686885714530945,
        -0.3788750171661377,
        0.44615066051483154,
        0.3309004008769989,
        -0.09474869072437286,
        0.1832371950149536,
        -0.23236185312271118,
        -0.34992432594299316,
        -0.5643777251243591,
        0.4104822278022766,
        -1.025768518447876,
        0.09428852051496506,
        0.6723780632019043,
        -0.58658367395401,
        0.682717502117157,
        -0.20472420752048492,
        0.1711111068725586,
        -0.41964486241340637,
        0.1908986121416092,
        -0.12184422463178635,
        0.26839184761047363,
        0.7018689513206482,
        -0.555931568145752,
        -0.010768188163638115,
        0.4352952837944031,
        0.28551965951919556,
        -0.18536026775836945,
        0.4488167464733124,
        0.09810717403888702,
        -0.3095376491546631,
        0.0893162190914154,
        -0.027106763795018196,
        -0.37331292033195496,
        -0.6057153344154358,
        -0.1285751461982727,
        -0.4021454155445099,
        -0.12762364745140076,
        -0.14545388519763947,
        -0.6897993683815002,
        0.009990507736802101,
        1.3087458610534668,
        -0.5764195919036865,
        0.8125755190849304,
        0.09883059561252594,
        -0.011428715661168098,
        -0.17480497062206268,
        -0.38334235548973083,
        -0.0660289078950882,
        -0.11731849610805511,
        -0.028107335790991783,
        -0.08420930057764053,
        -0.03686286881566048,
        -0.7515547871589661,
        0.7703378796577454,
        0.6364203095436096,
        0.19026798009872437,
        -0.3095005452632904,
        0.2179243117570877,
        0.0564333014190197,
        0.22841599583625793,
        0.02493610605597496,
        0.02416442520916462,
        0.4491119980812073,
        -0.5707575082778931,
        0.20162871479988098,
        -0.8315892815589905,
        0.1075761616230011,
        0.4491834044456482,
        0.589030385017395,
        -0.41521313786506653,
        -0.039083972573280334,
        -0.4680853486061096,
        -0.07428348809480667,
        -0.7116917967796326,
        0.15633529424667358,
        -0.19557993113994598,
        -0.13292334973812103,
        0.1576850563287735,
        0.027414992451667786,
        -0.6197299957275391,
        0.1715804785490036,
        -0.11678476631641388,
        -0.6181342005729675,
        -0.061649713665246964,
        -0.10500456392765045,
        0.24810953438282013,
        -0.21484197676181793,
        -0.3746234178543091,
        -0.03829497843980789,
        -0.18657611310482025,
        -0.17184214293956757,
        -0.11184762418270111,
        0.24560804665088654,
        -0.01849854551255703,
        -0.32817015051841736,
        -0.003169976407662034,
        0.04063961282372475,
        0.44307610392570496,
        0.24393440783023834,
        0.5026913285255432,
        0.32262080907821655,
        0.13806146383285522,
        -0.053667787462472916,
        0.3097153604030609,
        -0.13740071654319763,
        -0.5932282209396362,
        0.08725541085004807,
        0.7845714688301086,
        -0.24255666136741638,
        -0.10773520171642303,
        0.365597665309906,
        0.19323228299617767,
        -0.15193767845630646,
        -0.15403351187705994,
        0.0785694271326065,
        0.1500544250011444,
        -0.3094550371170044,
        0.25452739000320435,
        -0.5434864163398743,
        -0.0037388638593256474,
        -0.07622020691633224,
        0.6383545398712158,
        0.8940744400024414,
        0.012476944364607334,
        0.4437548518180847,
        -0.15255355834960938,
        0.34890055656433105,
        -0.22936314344406128,
        -0.18781812489032745,
        -0.759199321269989,
        -0.12837108969688416,
        -0.8570261597633362,
        0.22713133692741394,
        -0.11886212974786758,
        -0.9015195369720459,
        0.29148054122924805,
        0.30972203612327576,
        0.27479785680770874,
        -0.1465810090303421,
        0.28934770822525024,
        0.1571635752916336,
        0.6748989224433899,
        1.0732837915420532,
        0.08050036430358887,
        -0.15432223677635193,
        -0.2083713859319687,
        0.0551641546189785,
        -0.27494704723358154,
        0.6121143698692322,
        -0.4561154544353485,
        -0.22421054542064667,
        0.565831184387207,
        0.042438093572854996,
        -1.0191034078598022,
        0.1794104278087616,
        0.25234323740005493,
        -0.5014994144439697,
        0.36614853143692017,
        0.6241308450698853,
        0.025742625817656517,
        0.22611568868160248,
        0.2600436806678772,
        -0.09222113341093063,
        -0.3077101707458496,
        -0.24035751819610596,
        0.04765704274177551,
        0.02694609761238098,
        0.028899475932121277,
        0.22262507677078247,
        -0.21428923308849335,
        -0.092117540538311,
        -0.21306456625461578,
        0.08780323714017868,
        0.19487835466861725,
        0.20588092505931854,
        -0.7707170844078064,
        -0.045645859092473984,
        0.014445370063185692,
        -0.12936323881149292,
        1.1459689140319824,
        0.4855298101902008,
        0.13426363468170166,
        0.06443411111831665,
        0.12715551257133484,
        -0.0762408971786499,
        -0.815310537815094,
        -0.2854936122894287,
        0.04626905173063278,
        -0.24219274520874023,
        -0.11220847815275192,
        -0.5876316428184509,
        -0.04066573455929756,
        -0.12716935575008392,
        0.8234971165657043,
        0.16196179389953613,
        -0.4510371685028076,
        -0.1664905548095703,
        -0.4089851677417755,
        -0.21450181305408478,
        0.03222421184182167,
        0.010658315382897854,
        -0.07486505061388016,
        -0.28730523586273193,
        0.4184572994709015,
        0.1782287061214447,
        -0.6341019868850708,
        -0.18414351344108582,
        0.6307686567306519,
        -0.5396427512168884,
        0.06491036713123322,
        -0.0733734741806984,
        0.057290878146886826,
        0.6816114783287048,
        -0.1866014450788498,
        0.7107502222061157,
        0.19832409918308258,
        0.41510009765625,
        2.038248300552368,
        0.1672847419977188,
        0.10318277776241302,
        0.4348403215408325,
        -0.14500094950199127,
        -0.2783896028995514,
        -0.0056059774942696095,
        -0.02993120439350605,
        -0.09071222692728043,
        0.26956361532211304,
        0.3005290925502777,
        -0.19332630932331085,
        0.15167558193206787,
        -0.24962101876735687,
        0.5103802680969238,
        -1.0172613859176636,
        -0.3720613121986389,
        0.6036023497581482,
        -0.3396112620830536,
        -0.14242708683013916,
        0.09302475303411484,
        -0.08524933457374573,
        0.3017735779285431,
        -0.1874498575925827,
        0.12642242014408112,
        -0.5120940208435059,
        -0.220865398645401,
        -0.04089329391717911,
        0.18910641968250275,
        0.6569617390632629,
        -0.22880329191684723,
        0.3841513693332672,
        0.17966288328170776,
        0.07430966198444366,
        0.14461131393909454,
        0.15575972199440002,
        -0.19800882041454315,
        0.0021608900278806686,
        -0.09070541709661484,
        0.15324246883392334,
        0.009652821347117424,
        0.11326111853122711,
        -0.6040573120117188,
        -0.10373251885175705,
        -0.47207581996917725,
        -0.04639716446399689,
        -0.06813385337591171,
        0.05337192490696907,
        0.1283765584230423,
        0.20356255769729614,
        -0.8217479586601257,
        -0.5122526288032532,
        0.17627324163913727,
        -0.24093472957611084,
        -0.4760189354419708,
        -0.0901850089430809,
        0.10113707929849625,
        0.3078920245170593,
        -0.03688686713576317,
        -0.5292900800704956,
        -0.1634797751903534,
        0.18051041662693024,
        -0.13124072551727295,
        -0.05941884592175484,
        -0.10175114870071411,
        -0.17215320467948914,
        -1.5532877445220947,
        -0.3548053503036499,
        -0.01602921634912491,
        -0.13810577988624573,
        -0.006687680259346962,
        -0.3309921324253082,
        -0.14463184773921967,
        -0.8728509545326233,
        0.38634446263313293,
        -0.007419033907353878,
        0.23734577000141144,
        -0.5255874395370483,
        -0.23671941459178925,
        0.08271340280771255,
        -0.2537539601325989,
        -0.12768378853797913,
        -0.41305434703826904,
        -0.4063926637172699,
        -0.562824547290802,
        -0.5842415690422058,
        0.6727017760276794,
        0.015266787260770798,
        -0.0874042809009552,
        0.02217080630362034,
        0.20484234392642975,
        -0.7917948961257935,
        -0.545667827129364,
        -0.0792398750782013,
        -0.32989031076431274,
        0.09940558671951294,
        0.1472889930009842,
        -0.2165902554988861,
        -0.21901090443134308,
        0.21340397000312805,
        -0.08941949158906937,
        0.7304922938346863,
        -0.40427854657173157,
        -0.24316583573818207,
        0.5496228337287903,
        -0.025203853845596313,
        -0.591336727142334,
        -0.3263925611972809,
        0.22381460666656494,
        0.15799713134765625,
        0.17002429068088531,
        0.16350220143795013,
        0.8741563558578491,
        0.05393382906913757,
        -0.21828442811965942,
        -0.03843036666512489,
        0.19745191931724548,
        -0.11290568113327026,
        0.7995291948318481,
        -0.3664226531982422,
        0.02681010216474533,
        -0.300157368183136,
        -0.03741322085261345,
        1.4579328298568726,
        -0.20862314105033875,
        -0.638500988483429,
        0.03748565912246704,
        -0.16892385482788086,
        0.06894133239984512,
        -0.05936853215098381,
        -0.8075472712516785,
        0.25007104873657227,
        -0.07991848886013031,
        -0.3236180543899536,
        0.002717552473768592,
        0.238617941737175,
        -0.12143652141094208,
        -0.39250609278678894,
        0.30877983570098877,
        0.6602521538734436,
        0.14809776842594147,
        -0.009175224229693413,
        -0.5475781559944153,
        -0.1490025371313095,
        0.0810331255197525,
        -0.06598091125488281,
        -0.5930382609367371,
        0.13106824457645416,
        0.046823564916849136,
        -0.14309290051460266,
        -0.4772375524044037,
        -0.11943339556455612,
        -0.17841097712516785,
        0.12638236582279205,
        0.1279621422290802,
        0.10787221044301987,
        0.45681941509246826,
        0.16545788943767548,
        -0.3497186005115509,
        -0.26157620549201965,
        0.4926762580871582,
        -0.07691855728626251,
        -0.19003622233867645,
        -0.3988373875617981,
        -0.023575274273753166,
        -0.30456146597862244,
        -0.06292205303907394,
        -0.019940579310059547,
        0.04104337841272354,
        -0.4851548671722412,
        0.09515218436717987,
        -0.3622605502605438,
        -0.48737725615501404,
        -0.32295703887939453,
        0.2262713462114334,
        0.44447997212409973,
        0.060277897864580154,
        1.1271333694458008,
        0.9606040716171265,
        0.2682545781135559,
        0.529662549495697,
        -0.5526435375213623,
        -0.07138329744338989,
        -0.8366710543632507,
        0.05356971174478531,
        -0.011503596790134907,
        0.02152896299958229,
        -0.05886175110936165,
        -0.004159202333539724,
        0.2837051451206207,
        0.04698851332068443,
        0.06412047147750854,
        0.2582663595676422,
        0.25987252593040466,
        -0.2826941907405853,
        0.45613154768943787,
        0.17821834981441498,
        -0.08025741577148438,
        0.021074805408716202,
        0.7500583529472351,
        -0.2550833225250244,
        -0.0009811207419261336,
        -0.07063832134008408,
        -0.5281996726989746,
        -0.7361924648284912,
        0.1744832545518875,
        0.09152206778526306,
        -0.48495423793792725,
        -0.09350329637527466,
        -0.5799511671066284,
        -0.2161814421415329,
        0.3322577476501465,
        0.0791633129119873,
        0.21440009772777557,
        -0.042635053396224976,
        -0.16058026254177094,
        0.5215116143226624,
        0.15899981558322906,
        -0.5213981866836548,
        -0.24699315428733826,
        0.42555174231529236,
        -0.10233673453330994,
        -0.5435283780097961,
        0.5277618169784546,
        -0.10038869082927704,
        0.2184973806142807,
        0.22115184366703033,
        0.048701804131269455,
        0.5248647928237915,
        -0.6549965739250183,
        -0.2114352434873581,
        -0.3791823089122772,
        -0.2476561814546585,
        0.032752666622400284,
        -0.12046477198600769,
        0.1884286254644394,
        0.3804536461830139,
        -0.2676037847995758,
        0.9209282994270325,
        0.14599138498306274,
        0.15103363990783691,
        0.307270884513855,
        -0.4526650905609131,
        0.4869675636291504,
        0.3318059742450714,
        -0.5867004990577698,
        -0.5916986465454102,
        -0.25628843903541565,
        -0.12531350553035736,
        -0.27970364689826965,
        0.003451188327744603,
        0.748519778251648,
        0.5998144745826721,
        0.062122195959091187,
        0.5103867650032043,
        0.23385269939899445,
        0.052881162613630295,
        -0.11056520789861679,
        -0.6244693994522095,
        0.08022872358560562,
        0.39669811725616455,
        -0.7827398777008057,
        -0.012773952446877956,
        0.22389717400074005,
        0.4268493354320526,
        0.36439383029937744,
        -0.2646786868572235,
        -0.9713135957717896,
        0.18421506881713867,
        0.10712551325559616,
        -0.03442598134279251,
        0.061169348657131195,
        -0.020215146243572235,
        0.5147523880004883,
        0.3245081603527069,
        0.41785532236099243,
        0.32381826639175415,
        0.6576957702636719,
        0.2960142195224762,
        -0.22615450620651245,
        -0.09185103327035904,
        -0.2692355513572693,
        -0.24167883396148682,
        0.16485293209552765,
        -0.5871877670288086,
        0.5273741483688354,
        -0.3352065980434418,
        0.16658149659633636,
        -0.24052852392196655,
        0.4038395285606384,
        -0.04127013310790062,
        0.37183135747909546,
        -0.1854931116104126,
        0.2097882628440857,
        -0.01178549975156784,
        0.33181995153427124,
        0.06538008153438568,
        -0.3272362947463989,
        0.0018793297931551933,
        -0.23954148590564728,
        0.28249379992485046,
        -0.3172367513179779,
        0.5501010417938232,
        -0.4871590733528137,
        -0.09303142130374908,
        0.4932073652744293,
        -0.0897318422794342,
        -0.0022384850308299065,
        -0.3901033103466034,
        -0.2624838054180145,
        -0.9101268649101257,
        0.54515141248703,
        0.21183331310749054,
        -0.5639700889587402,
        -0.4477601945400238,
        -1.5960965156555176,
        -0.5197065472602844,
        -0.06391903012990952,
        0.135239839553833,
        -0.7081383466720581,
        0.1944047063589096,
        -0.028080524876713753,
        -0.18770267069339752,
        0.1024286150932312,
        -0.3250056207180023,
        -0.07552950084209442,
        0.033945634961128235,
        0.00429170997813344,
        0.7369158267974854,
        -0.4170933961868286,
        -0.3486795723438263,
        0.0963364765048027,
        0.076759934425354,
        -0.30834534764289856,
        1.217891812324524,
        0.12812571227550507,
        -1.090141773223877,
        0.34758052229881287,
        -1.113815426826477,
        -1.0997623205184937,
        0.2803248167037964,
        0.2681213617324829,
        -0.2859763503074646,
        -0.036784689873456955,
        -0.34518539905548096,
        -0.07615533471107483,
        -0.36055126786231995,
        0.02271321415901184,
        0.29880037903785706,
        -0.09014634042978287,
        0.17330467700958252,
        0.19801868498325348,
        -0.26562783122062683,
        -0.21329708397388458,
        -0.3204050362110138,
        0.16315609216690063,
        -0.43116992712020874,
        0.16226281225681305,
        -0.25524845719337463,
        -0.5880160331726074,
        -0.03502301871776581,
        -3.9362716674804688,
        0.2902563512325287,
        -0.019680824130773544,
        0.05217995122075081,
        -0.29328569769859314,
        0.1276581734418869,
        -2.7504751682281494,
        0.18289661407470703,
        -0.02475186437368393,
        0.36150357127189636,
        0.3577863276004791,
        0.049599044024944305,
        -0.12080046534538269,
        0.26609113812446594,
        0.41543784737586975,
        -0.5630913376808167,
        0.19800090789794922,
        -0.6782031655311584,
        0.39916542172431946,
        -0.1829756200313568,
        -0.2614017724990845,
        0.2728027403354645,
        0.19406217336654663,
        -1.4880393743515015,
        0.2859180271625519,
        0.2187572568655014,
        -0.2508966326713562,
        0.014944526366889477,
        -0.07028687745332718,
        -0.03379608690738678,
        0.4742383360862732,
        0.3349328339099884,
        0.11677442491054535,
        -0.34052324295043945,
        -0.28723686933517456,
        0.11593043059110641,
        -0.22631604969501495,
        0.21206854283809662,
        -0.8211137652397156,
        0.032583270221948624,
        -0.8932562470436096,
        0.08720653504133224,
        0.1272309273481369,
        0.05578113719820976,
        0.2742566466331482,
        -0.3313162922859192,
        -0.1004142314195633,
        -0.04489434137940407,
        0.04322987049818039,
        -0.26369455456733704,
        -0.8748983144760132,
        -0.43712952733039856,
        -0.21800686419010162,
        0.25422805547714233,
        0.5673758387565613,
        -0.24669121205806732,
        0.0582955926656723,
        0.6913367509841919,
        0.49605652689933777,
        -0.037846993654966354,
        0.5078768730163574,
        -0.6454898118972778,
        -0.2562864124774933,
        -0.3806708753108978,
        0.1310986429452896,
        0.08632765710353851,
        -0.5847553014755249,
        0.4098510146141052,
        -0.6269940137863159,
        -0.37428656220436096,
        -0.1474701464176178,
        -0.1280558556318283,
        -0.2739774286746979,
        -0.035298902541399,
        -0.6126380562782288,
        -0.08487629145383835,
        -0.0028278580866754055,
        -0.05673579126596451,
        -0.18664327263832092,
        0.0420583076775074,
        0.08887868374586105,
        -0.20236898958683014,
        0.5176825523376465,
        0.12114936113357544,
        -0.6364261507987976,
