{
  "input_sequences": [],
  "inputs": [
    {
      "name": "dNN",
      "variables": [
        {
          "name": "hitX1",
          "offset": 0,
          "scale": 1
        },
        {
          "name": "hitX2",
          "offset": 0,
          "scale": 1
        },
        {
          "name": "hitX3",
          "offset": 0,
          "scale": 1
        },
        {
          "name": "hitX4",
          "offset": 0,
          "scale": 1
        },
        {
          "name": "hitX5",
          "offset": 0,
          "scale": 1
        },
        {
          "name": "hitX6",
          "offset": 0,
          "scale": 1
        },
        {
          "name": "hitX7",
          "offset": 0,
          "scale": 1
        },
        {
          "name": "hitX8",
          "offset": 0,
          "scale": 1
        },
        {
          "name": "hitY1",
          "offset": 0,
          "scale": 1
        },
        {
          "name": "hitY2",
          "offset": 0,
          "scale": 1
        },
        {
          "name": "hitY3",
          "offset": 0,
          "scale": 1
        },
        {
          "name": "hitY4",
          "offset": 0,
          "scale": 1
        },
        {
          "name": "hitY5",
          "offset": 0,
          "scale": 1
        },
        {
          "name": "hitY6",
          "offset": 0,
          "scale": 1
        },
        {
          "name": "hitY7",
          "offset": 0,
          "scale": 1
        },
        {
          "name": "hitY8",
          "offset": 0,
          "scale": 1
        },
        {
          "name": "hitZ1",
          "offset": 0,
          "scale": 1
        },
        {
          "name": "hitZ2",
          "offset": 0,
          "scale": 1
        },
        {
          "name": "hitZ3",
          "offset": 0,
          "scale": 1
        },
        {
          "name": "hitZ4",
          "offset": 0,
          "scale": 1
        },
        {
          "name": "hitZ5",
          "offset": 0,
          "scale": 1
        },
        {
          "name": "hitZ6",
          "offset": 0,
          "scale": 1
        },
        {
          "name": "hitZ7",
          "offset": 0,
          "scale": 1
        },
        {
          "name": "hitZ8",
          "offset": 0,
          "scale": 1
        }
      ]
    }
  ],
  "layers": [
    {
      "activation": "rectified",
      "architecture": "dense",
      "bias": [
        0.0,
        0.0,
        -0.16414427757263184,
        -0.03644929826259613,
        -0.029172567650675774,
        -0.030895788222551346,
        0.025482384487986565,
        -0.02510048821568489,
        -0.01590753346681595,
        0.0,
        -0.018364451825618744,
        -0.030296195298433304,
        -0.10879173129796982,
        0.09089019149541855,
        0.05464664101600647,
        -0.009455882012844086,
        0.04717246815562248,
        -0.011865347623825073,
        0.00814297515898943,
        0.0998961478471756,
        -0.05824832618236542,
        0.02926616184413433,
        -0.021915478631854057,
        0.0,
        0.0,
        -0.14343100786209106,
        -0.06710124760866165,
        0.0,
        -0.06876217573881149,
        -0.009034463204443455,
        -0.03562549501657486,
        0.0,
        -0.01927693374454975,
        0.024807516485452652,
        -0.05182891711592674,
        0.0,
        0.0,
        0.0616147480905056,
        -0.03353869915008545,
        0.08010080456733704,
        0.07320324331521988,
        0.0,
        0.237184077501297,
        0.03468181937932968,
        0.09305783361196518,
        0.019783208146691322,
        -0.08639965951442719,
        0.029441943392157555,
        -0.15541718900203705,
        -0.006217991001904011,
        0.0,
        0.08919071406126022,
        -0.026488864794373512,
        -0.003427456133067608,
        -0.09421343356370926,
        -0.06464557349681854,
        -0.08860927075147629,
        0.12219711393117905,
        -0.0027702052611857653,
        0.0,
        0.1452348679304123,
        0.2619574964046478,
        0.040162865072488785,
        0.2828007936477661
      ],
      "weights": [
        0.1425791084766388,
        0.18526440858840942,
        0.14884379506111145,
        -0.02426190674304962,
        -0.10752935707569122,
        -0.24799908697605133,
        0.057780176401138306,
        0.03488627076148987,
        -0.13825172185897827,
        0.14549583196640015,
        0.1853715479373932,
        -0.251228004693985,
        0.07017087936401367,
        -0.09781022369861603,
        -0.08589263260364532,
        -0.17292103171348572,
        -0.10551895201206207,
        -0.1863935887813568,
        -0.11845754086971283,
        -0.1347152590751648,
        -0.19234932959079742,
        -0.035566359758377075,
        -0.21953877806663513,
        0.00958988070487976,
        0.03275385499000549,
        -0.014160394668579102,
        0.1456686556339264,
        -0.16275335848331451,
        0.24699637293815613,
        -0.22302082180976868,
        -0.10815788805484772,
        -0.23701226711273193,
        -0.24328993260860443,
        0.11614793539047241,
        -0.20049770176410675,
        -0.111809641122818,
        0.07242432236671448,
        0.24958303570747375,
        -0.21282973885536194,
        -0.15545837581157684,
        -0.12283450365066528,
        0.13709944486618042,
        0.09775775671005249,
        0.05674639344215393,
        -0.06589849293231964,
        -0.09069006145000458,
        0.12497633695602417,
        0.16275155544281006,
        0.05630851164460182,
        0.2581264078617096,
        0.004095637239515781,
        -0.005375090055167675,
        0.04595853388309479,
        -0.033314913511276245,
        -0.017796505242586136,
        0.0015005070017650723,
        -0.1608518362045288,
        0.15819592773914337,
        -0.017147812992334366,
        0.12813042104244232,
        0.13359993696212769,
        0.0637127161026001,
        -0.09832363575696945,
        0.020499160513281822,
        0.6380597949028015,
        -0.8850522637367249,
        0.21985867619514465,
        -0.16079974174499512,
        0.1110139712691307,
        -0.2993321418762207,
        0.4807015657424927,
        -0.07351811230182648,
        0.3489464223384857,
        -0.21808317303657532,
        0.16373634338378906,
        0.1175190806388855,
        0.007927057333290577,
        -0.19131727516651154,
        -0.04435337707400322,
        0.05299841985106468,
        -0.18225878477096558,
        -0.092631034553051,
        0.0042784083634614944,
        0.0481293722987175,
        0.10318499803543091,
        0.022126052528619766,
        -0.0767047256231308,
        0.15901221334934235,
        0.45857715606689453,
        0.16553324460983276,
        -0.15880753099918365,
        -0.3216018080711365,
        -0.2898150384426117,
        -0.4606427848339081,
        -0.11850331723690033,
        0.5943160653114319,
        0.9953711032867432,
        -0.18754728138446808,
        0.1920756995677948,
        0.18387754261493683,
        -0.021399471908807755,
        -0.14577296376228333,
        0.03830452635884285,
        -0.023126468062400818,
        0.05724949389696121,
        -0.30863845348358154,
        -0.13355481624603271,
        -0.06926489621400833,
        0.23955342173576355,
        0.07262510806322098,
        0.05042605474591255,
        0.0055798436515033245,
        0.055674441158771515,
        -0.10111938416957855,
        0.28376805782318115,
        0.2981749176979065,
        -0.8146160840988159,
        0.22633375227451324,
        0.1575266569852829,
        0.007959917187690735,
        0.30206286907196045,
        0.20080780982971191,
        -0.002989298664033413,
        -0.08770138770341873,
        -0.19292959570884705,
        0.41782552003860474,
        -0.038161877542734146,
        0.13810139894485474,
        -0.02586856670677662,
        0.391912043094635,
        -0.2752383053302765,
        0.0010720232967287302,
        -0.22825288772583008,
        0.0405108779668808,
        0.1516856551170349,
        -0.10450465232133865,
        0.604975163936615,
        -0.06448690593242645,
        0.055708352476358414,
        -0.07089472562074661,
        0.02272154577076435,
        0.08840299397706985,
        -0.1963646560907364,
        -0.18030568957328796,
        -0.286742627620697,
        -0.11714239418506622,
        -0.2656518518924713,
        0.054894447326660156,
        -0.22082321345806122,
        -0.08795270323753357,
        0.20869311690330505,
        -0.006512530613690615,
        0.029257772490382195,
        0.2937934398651123,
        -0.024537712335586548,
        -0.19072753190994263,
        0.07899694889783859,
        -0.15888583660125732,
        -0.08269276469945908,
        -0.014506779611110687,
        -0.03356150537729263,
        -0.6087565422058105,
        0.06388188898563385,
        0.49338090419769287,
        -0.059786275029182434,
        0.36280548572540283,
        -0.39674001932144165,
        0.07443250715732574,
        0.05551256611943245,
        0.18997296690940857,
        -0.3444118797779083,
        -0.13418875634670258,
        0.0021909098140895367,
        0.02662287838757038,
        0.10682056844234467,
        -0.01065786462277174,
        -0.08608480542898178,
        -0.13034069538116455,
        0.2598089575767517,
        -0.18444329500198364,
        0.3279828727245331,
        0.11198589950799942,
        -0.13932913541793823,
        -0.01082027517259121,
        0.035377755761146545,
        0.26156938076019287,
        0.25046244263648987,
        0.3989800810813904,
        0.03044845722615719,
        -0.1517510712146759,
        -0.555841326713562,
        0.05480155721306801,
        0.10831989347934723,
        0.028231192380189896,
        -0.04645254835486412,
        -0.05441896989941597,
        0.19852802157402039,
        -0.06304280459880829,
        0.2173590362071991,
        -0.18344512581825256,
        -0.1916670799255371,
        0.15819400548934937,
        0.17562562227249146,
        -0.03135290369391441,
        -0.03424355015158653,
        0.15259216725826263,
        -0.2682173550128937,
        -0.2181260883808136,
        0.018535999581217766,
        -0.043824970722198486,
        0.03923077881336212,
        -0.17781704664230347,
        0.08743506669998169,
        -0.014227000996470451,
        0.032765135169029236,
        -0.17168310284614563,
        -0.09995535016059875,
        0.12446016073226929,
        -0.03968153893947601,
        -0.22695758938789368,
        -0.15962554514408112,
        0.14557737112045288,
        -0.04238632321357727,
        0.22598379850387573,
        0.13300272822380066,
        -0.031872883439064026,
        -0.08916960656642914,
        -0.168931245803833,
        0.1295335292816162,
        -0.12017303705215454,
        -0.13495251536369324,
        -0.10319378972053528,
        0.18904516100883484,
        -0.25737464427948,
        0.22166386246681213,
        -0.033976733684539795,
        -0.1861935555934906,
        -0.001545041799545288,
        0.25642159581184387,
        -0.04258149862289429,
        0.2946328818798065,
        0.5276166200637817,
        -0.0565592385828495,
        0.26755231618881226,
        -0.10574369132518768,
        0.028857793658971786,
        0.2488163858652115,
        0.16955730319023132,
        0.0067794895730912685,
        -0.3400734066963196,
        0.18521377444267273,
        -0.1331784576177597,
        -0.12290199846029282,
        0.1974043995141983,
        -0.10772573202848434,
        -0.1468573808670044,
        0.18644417822360992,
        0.19061435759067535,
        0.22743357717990875,
        0.15676473081111908,
        0.4254592955112457,
        0.23258186876773834,
        0.05081111565232277,
        -0.14691516757011414,
        0.31774458289146423,
        0.20457372069358826,
        0.034355465322732925,
        0.20909307897090912,
        -0.058481164276599884,
        0.28168055415153503,
        0.10246735066175461,
        -0.24439814686775208,
        0.012202921323478222,
        0.05732535570859909,
        0.25879567861557007,
        -0.0021939559374004602,
        -0.29792091250419617,
        -0.23277077078819275,
        0.029966067522764206,
        0.2276151329278946,
        -0.4250289797782898,
        -0.37551912665367126,
        0.12907390296459198,
        0.5625346899032593,
        -0.42118844389915466,
        0.22402283549308777,
        0.04913581907749176,
        0.2284046709537506,
        -0.5199799537658691,
        -0.06179818883538246,
        -0.05018013343214989,
        -0.1535373330116272,
        0.10888499766588211,
        0.01963367871940136,
        0.02533467300236225,
        0.006192789413034916,
        0.310323029756546,
        -0.23075687885284424,
        0.33727797865867615,
        0.026474567130208015,
        -0.06252821534872055,
        0.05066048726439476,
        0.3999684453010559,
        0.15664644539356232,
        -0.0013609693851321936,
        0.3639224171638489,
        -0.5913616418838501,
        -0.1637900471687317,
        0.47211113572120667,
        -0.08531789481639862,
        -0.02793613262474537,
        -0.19036607444286346,
        -0.16795828938484192,
        -0.13054586946964264,
        0.33844995498657227,
        -0.03525148704648018,
        -0.28792619705200195,
        0.1303333044052124,
        -0.03185586631298065,
        0.02172955311834812,
        0.017454097047448158,
        0.0033294965978711843,
        0.07025493681430817,
        -0.13800987601280212,
        0.22184665501117706,
        0.01833880878984928,
        -0.23850373923778534,
        0.04446417838335037,
        -0.47684356570243835,
        0.6152566075325012,
        -0.28867393732070923,
        0.3625667095184326,
        -0.24632693827152252,
        0.22368167340755463,
        0.0008148017222993076,
        -0.02523707039654255,
        -0.10303866863250732,
        -0.06281483918428421,
        0.1667177677154541,
        0.15280336141586304,
        0.11066963523626328,
        0.02349737659096718,
        -0.1120869517326355,
        -0.04712512344121933,
        0.03030391037464142,
        0.2748134136199951,
        0.02381129004061222,
        0.034834522753953934,
        0.0326324962079525,
        -0.1377510279417038,
        0.19569386541843414,
        -0.23499833047389984,
        -0.05394380912184715,
        -0.35426121950149536,
        -0.014499868266284466,
        -0.43992528319358826,
        -0.5584323406219482,
        -0.4359045624732971,
        -0.42599642276763916,
        -0.013933545909821987,
        0.07372844219207764,
        0.12779194116592407,
        0.21661828458309174,
        -0.04536742344498634,
        0.14685317873954773,
        0.007009458262473345,
        -0.24262182414531708,
        0.25656458735466003,
        0.07562132924795151,
        0.2061588168144226,
        -0.22032301127910614,
        0.053358059376478195,
        0.2125398814678192,
        -0.1136714369058609,
        -0.13775241374969482,
        -0.1550089567899704,
        0.22553546726703644,
        0.015201459638774395,
        -0.19259028136730194,
        -0.1753120869398117,
        -0.029994960874319077,
        -0.05814511328935623,
        -0.1337181180715561,
        -0.04015529155731201,
        0.2968250513076782,
        -0.21122214198112488,
        -0.16911236941814423,
        0.05100495368242264,
        0.021226348355412483,
        -0.13989341259002686,
        0.11091896891593933,
        0.056651730090379715,
        0.7087346315383911,
        -0.4756397604942322,
        -0.07213927805423737,
        0.19612941145896912,
        0.11201070994138718,
        -0.026090849190950394,
        -0.2273397445678711,
        -0.046746183186769485,
        -0.8140079379081726,
        0.4835951030254364,
        -0.200816348195076,
        -0.0813315361738205,
        0.3033563494682312,
        0.3375791311264038,
        -0.15112218260765076,
        0.23193757236003876,
        0.009213604964315891,
        -0.20401597023010254,
        0.09221567958593369,
        0.04072875156998634,
        0.00900331698358059,
        -0.07033511996269226,
        0.08792922645807266,
        -0.03758915886282921,
        0.05500807985663414,
        -0.01496353093534708,
        0.001278423354960978,
        0.10605879127979279,
        0.3661518692970276,
        0.21617573499679565,
        0.32250258326530457,
        -0.03775816783308983,
        0.25444990396499634,
        0.23470132052898407,
        -0.4993106424808502,
        -0.38877421617507935,
        -0.006363986525684595,
        0.06303875893354416,
        0.08839207142591476,
        0.28972768783569336,
        0.3069356083869934,
        -0.08373565971851349,
        0.13069723546504974,
        0.08124180883169174,
        0.16365277767181396,
        -0.006759964860975742,
        -0.03834843263030052,
        -0.09968272596597672,
        0.1800578236579895,
        -0.21968106925487518,
        0.11342743784189224,
        0.01938343048095703,
        -0.04919577017426491,
        0.12166363000869751,
        0.09092553704977036,
        -0.014264560304582119,
        -0.38745900988578796,
        0.03586071357131004,
        0.33491984009742737,
        0.3168175518512726,
        -0.21723519265651703,
        -0.16149206459522247,
        0.2502972483634949,
        -0.166276216506958,
        0.43971553444862366,
        0.1649617701768875,
        0.045581746846437454,
        -0.10621140897274017,
        0.05020662769675255,
        0.06237637624144554,
        -0.05282675474882126,
        -0.050604160875082016,
        -0.250814825296402,
        -0.032919593155384064,
        0.2907850444316864,
        -0.08838164806365967,
        0.20585131645202637,
        -0.12408079952001572,
        0.1377532035112381,
        0.0997065082192421,
        -0.026959344744682312,
        0.35718002915382385,
        -0.7739267945289612,
        0.13830910623073578,
        -0.12226791679859161,
        0.4453163743019104,
        0.19471225142478943,
        -0.33611050248146057,
        -0.39048683643341064,
        -0.03570123389363289,
        0.18505223095417023,
        0.026585817337036133,
        -0.07850240170955658,
        -0.0876132994890213,
        -0.010275360196828842,
        0.03503948077559471,
        0.14657168090343475,
        0.13079488277435303,
        -0.36870330572128296,
        0.13200059533119202,
        -0.1420140415430069,
        0.20753003656864166,
        -0.08842046558856964,
        0.14676353335380554,
        -0.7506691217422485,
        0.5635731220245361,
        0.18914690613746643,
        0.36745139956474304,
        0.15787479281425476,
        -0.2483368217945099,
        -0.3102337419986725,
        0.039725206792354584,
        -0.1501697450876236,
        -0.1827143430709839,
        0.32207900285720825,
        -0.05035308375954628,
        0.0700066015124321,
        -0.212246373295784,
        -0.05388180911540985,
        0.1383626013994217,
        -0.15232621133327484,
        -0.11526044458150864,
        0.1339365690946579,
        0.2441619336605072,
        0.133091002702713,
        0.053504858165979385,
        -0.21294713020324707,
        0.14162352681159973,
        -0.2702297866344452,
        0.25276583433151245,
        -0.08785843104124069,
        0.42255672812461853,
        -0.5277358293533325,
        -0.09126207232475281,
        -0.10826832801103592,
        -0.18250291049480438,
        0.14664819836616516,
        -0.363886296749115,
        -0.1919495165348053,
        0.13855823874473572,
        0.013430272229015827,
        0.22332419455051422,
        -0.17612117528915405,
        0.08016304671764374,
        0.24239373207092285,
        -0.31459105014801025,
        0.16435085237026215,
        -0.12020034343004227,
        -0.24283376336097717,
        0.05719728395342827,
        -0.0658697634935379,
        0.20583491027355194,
        -0.5539764165878296,
        0.6544078588485718,
        0.123247429728508,
        0.13031890988349915,
        0.12359142303466797,
        0.2715398669242859,
        0.1260470598936081,
        -0.355327308177948,
        0.1683649718761444,
        -0.07765410840511322,
        -0.07103508710861206,
        -0.004996269941329956,
        0.23577091097831726,
        -0.13398456573486328,
        -0.059952512383461,
        0.18111056089401245,
        -0.039264798164367676,
        0.19573792815208435,
        0.02462366223335266,
        -0.177964448928833,
        -0.24897213280200958,
        -0.029561415314674377,
        0.17942649126052856,
        -0.05359111726284027,
        -0.10150015354156494,
        -0.0021083950996398926,
        -0.11719438433647156,
        -0.24914321303367615,
        0.08664646744728088,
        -0.1760450005531311,
        0.18586423993110657,
        -0.2136116623878479,
        -0.09382958710193634,
        0.031730830669403076,
        -0.14665085077285767,
        0.1749456822872162,
        0.22745996713638306,
        0.19387397170066833,
        -0.21888932585716248,
        0.19619300961494446,
        0.25486645102500916,
        -0.011229440569877625,
        -0.12667128443717957,
        -0.24359959363937378,
        -0.12703292071819305,
        -0.023561537265777588,
        -0.08127324283123016,
        0.013808727264404297,
        -0.19378817081451416,
        -0.2052268385887146,
        -0.2418891340494156,
        0.1924375593662262,
        0.16007402539253235,
        -0.1306910216808319,
        0.1339539885520935,
        0.21887364983558655,
        -0.5163663029670715,
        0.031447023153305054,
        -0.18407084047794342,
        0.06277794390916824,
        0.12581218779087067,
        -0.0365806519985199,
        0.011285891756415367,
        -0.0370367206633091,
        0.3094068467617035,
        0.10377024859189987,
        -0.37528809905052185,
        -0.2698748707771301,
        0.2754150927066803,
        0.2947755455970764,
        -0.07248580455780029,
        0.03884865716099739,
        -0.5566648840904236,
        -0.16758662462234497,
        0.24607443809509277,
        0.82854825258255,
        -0.4551135003566742,
        -0.2976832985877991,
        0.32917773723602295,
        -0.029406553134322166,
        0.28197574615478516,
        -0.17515681684017181,
        0.06636181473731995,
        0.27488136291503906,
        -0.03624851629137993,
        0.014115232974290848,
        -0.08320645987987518,
        0.008368882350623608,
        0.26066839694976807,
        -0.30538538098335266,
        -0.12611441314220428,
        0.12980356812477112,
        0.12340794503688812,
        0.11516296863555908,
        -0.06221245229244232,
        0.08205144107341766,
        -0.3938753008842468,
        0.9727348685264587,
        0.11764247715473175,
        -0.14488382637500763,
        -0.28402000665664673,
        -0.43447592854499817,
        0.32611364126205444,
        -0.2412656843662262,
        -0.057807400822639465,
        -0.04428859055042267,
        -0.08682875335216522,
        -0.16025686264038086,
        0.17978501319885254,
        -0.1892792284488678,
        0.08546587824821472,
        0.19049713015556335,
        -0.22415311634540558,
        0.017632126808166504,
        -0.2247498333454132,
        -0.258099228143692,
        0.22027325630187988,
        -0.05278944969177246,
        -0.25753071904182434,
        -0.12560111284255981,
        -0.23019097745418549,
        -0.18454068899154663,
        0.13109880685806274,
        -0.13451285660266876,
        -0.16530171036720276,
        0.1325170397758484,
        -0.07571767270565033,
        -0.14358067512512207,
        -0.09091268479824066,
        -0.12034055590629578,
        -0.19017334282398224,
        -0.1099027767777443,
        -0.058868784457445145,
        0.016707412898540497,
        0.11381828784942627,
        0.006383656989783049,
        0.13310372829437256,
        -0.09671088308095932,
        0.047501854598522186,
        0.06490350514650345,
        -0.010230010375380516,
        -0.15104474127292633,
        0.14059098064899445,
        -0.02036525122821331,
        -0.8391058444976807,
        0.5343930721282959,
        0.6584876775741577,
        -0.3424685597419739,
        -0.25795549154281616,
        0.1591038703918457,
        0.0708492249250412,
        0.01405536662787199,
        -0.1703760325908661,
        0.1746867150068283,
        -0.06669976562261581,
        0.19510287046432495,
        -0.1764674037694931,
        -0.23137418925762177,
        -0.22364076972007751,
        -0.03256193548440933,
        0.02284160628914833,
        0.10106180608272552,
        -0.1338416188955307,
        -0.1743546575307846,
        0.20810583233833313,
        -0.17950333654880524,
        0.04098295792937279,
        -0.08328285813331604,
        -0.12092745304107666,
        -0.25835463404655457,
        0.17421776056289673,
        0.14268942177295685,
        -0.002656163414940238,
        0.03556311875581741,
        -0.19001032412052155,
        -0.14882078766822815,
        0.19763849675655365,
        0.03190414980053902,
        -0.05543946474790573,
        0.13410218060016632,
        -0.13790585100650787,
        -0.04423360899090767,
        0.015344733372330666,
        -0.029361914843320847,
        0.07389415800571442,
        -0.21081019937992096,
        -0.2576301693916321,
        0.14019784331321716,
        -0.09248538315296173,
        0.12006416916847229,
        0.19424112141132355,
        -0.034572385251522064,
        -0.6345999240875244,
        0.29972073435783386,
        0.5849895477294922,
        0.10370424389839172,
        0.0016685719601809978,
        0.02985883504152298,
        -0.42465940117836,
        0.19081412255764008,
        0.04666244983673096,
        0.20106211304664612,
        -0.09696274995803833,
        -0.24414300918579102,
        -0.03810697793960571,
        0.14618131518363953,
        0.01566210389137268,
        0.07093429565429688,
        0.014597922563552856,
        -0.06876471638679504,
        0.15569153428077698,
        -0.18514025211334229,
        -0.12599998712539673,
        -0.06375238299369812,
        -0.24792464077472687,
        0.017526715993881226,
        0.1907956898212433,
        -0.03378380835056305,
        -0.07068833708763123,
        0.1382741928100586,
        0.2507089674472809,
        0.15525618195533752,
        0.23809188604354858,
        0.009888648986816406,
        -0.22725491225719452,
        -0.1608266830444336,
        -0.11077805608510971,
        0.05798995494842529,
        -0.11105304211378098,
        -0.001109493081457913,
        0.06313559412956238,
        0.08995382487773895,
        -0.115149587392807,
        0.2811364531517029,
        0.4052134156227112,
        0.12392960488796234,
        -0.8241165280342102,
        0.2537390887737274,
        0.36379536986351013,
        0.03330671787261963,
        0.131464421749115,
        -0.4584927558898926,
        0.06028769537806511,
        0.11993452161550522,
        0.5494006872177124,
        -0.3495767414569855,
        -0.05929029360413551,
        0.0804436132311821,
        0.06383249163627625,
        0.11014758050441742,
        -0.06292138993740082,
        -0.07570227235555649,
        0.16107307374477386,
        -0.09338001906871796,
        0.05254877731204033,
        -0.1368272751569748,
        0.11806780844926834,
        0.0688181221485138,
        -0.20412707328796387,
        0.18906259536743164,
        0.0336323082447052,
        -0.06316159665584564,
        0.23369774222373962,
        0.007851057685911655,
        -1.136745810508728,
        -0.7252423763275146,
        -0.5723357796669006,
        -0.09312985837459564,
        -0.39413729310035706,
        -0.2839353680610657,
        -0.11843504756689072,
        -0.12333495169878006,
        -0.02638362906873226,
        0.1924457550048828,
        0.03465517982840538,
        0.43387410044670105,
        -0.12296029180288315,
        0.17116492986679077,
        -0.2697773575782776,
        0.16547498106956482,
        -0.30522775650024414,
        0.036837492138147354,
        0.18318216502666473,
        -0.1859220266342163,
        -0.0641355887055397,
        -0.03915376216173172,
        0.14795655012130737,
        -0.2123306542634964,
        -0.3987976014614105,
        -0.2435295432806015,
        -0.18241319060325623,
        0.1960712969303131,
        0.33641406893730164,
        0.28893062472343445,
        0.3071751296520233,
        -0.17991086840629578,
        -0.19338631629943848,
        -0.14156940579414368,
        0.029958605766296387,
        0.13516193628311157,
        0.050713807344436646,
        -0.16643169522285461,
        -0.02008795738220215,
        -0.0347747802734375,
        0.23066356778144836,
        0.16310030221939087,
        -0.05567242205142975,
        0.2140180766582489,
        -0.01744210720062256,
        -0.22907531261444092,
        -0.1629258692264557,
        -0.118739053606987,
        -0.22090695798397064,
        -0.17765825986862183,
        -0.09702974557876587,
        -0.015237107872962952,
        -0.2356572151184082,
        -0.08944708108901978,
        -0.10854673385620117,
        -0.0634894073009491,
        0.06267815828323364,
        0.05146583914756775,
        0.06525465846061707,
        0.1994318962097168,
        0.12239772081375122,
        -0.07097116112709045,
        -0.13772229850292206,
        -0.01851271092891693,
        -0.0858798623085022,
        0.22814664244651794,
        -0.20309653878211975,
        0.11336690187454224,
        -0.11020034551620483,
        -0.20998325943946838,
        -0.23568885028362274,
        0.23096761107444763,
        -0.19925042986869812,
        0.17089495062828064,
        -0.1841435581445694,
        0.03703427314758301,
        -0.07751832902431488,
        -0.037861570715904236,
        -0.10985851287841797,
        0.18157148361206055,
        0.7214042544364929,
        0.12255386263132095,
        -0.055687759071588516,
        -0.14381754398345947,
        -0.2665906548500061,
        -0.06432507187128067,
        0.02277177944779396,
        -0.101230688393116,
        0.22080551087856293,
        0.014068379066884518,
        0.06020108610391617,
        0.19899626076221466,
        -0.13476283848285675,
        0.20793864130973816,
        0.08552410453557968,
        -0.12681332230567932,
        -0.2274065613746643,
        0.1493966281414032,
        -0.07651032507419586,
        -0.6543403267860413,
        -0.18093082308769226,
        -0.3319680094718933,
        -0.15001289546489716,
        -0.36820128560066223,
        -0.6678155064582825,
        0.3422045111656189,
        0.11584339290857315,
        0.02516397461295128,
        -0.24330778419971466,
        0.21812017261981964,
        -0.17300860583782196,
        0.13881544768810272,
        0.25880196690559387,
        0.20841942727565765,
        -0.13887088000774384,
        0.08012166619300842,
        0.07401087135076523,
        0.1081775426864624,
        -0.21785183250904083,
        0.03232688829302788,
        -0.15413834154605865,
        -0.38363340497016907,
        -0.273603618144989,
        -0.23726554214954376,
        0.2915174067020416,
        0.15523922443389893,
        -0.39052918553352356,
        0.43462157249450684,
        -0.04893375188112259,
        -0.18134476244449615,
        0.03112105093896389,
        -0.14286784827709198,
        -0.09567786753177643,
        -0.19312521815299988,
        0.20837408304214478,
        0.0364464707672596,
        -0.010012093000113964,
        -0.4249449074268341,
        0.24987071752548218,
        0.3579466938972473,
        -0.2736225724220276,
        0.06710021197795868,
        -0.018215496093034744,
        0.11504022777080536,
        -0.30718034505844116,
        0.11327005177736282,
        -0.3729903995990753,
        0.17976468801498413,
        0.175152987241745,
        -0.13951344788074493,
        0.14377576112747192,
        -0.0006643925444222987,
        -0.5345108509063721,
        0.17401805520057678,
        -0.04607190191745758,
        -0.2756277918815613,
        -0.07490155845880508,
        0.05475015193223953,
        0.24999293684959412,
        -0.10023222863674164,
        -0.3531237244606018,
        -0.005119512788951397,
        -0.11312549561262131,
        0.022562898695468903,
        0.05592619255185127,
        0.24281246960163116,
        -0.11740649491548538,
        0.054762374609708786,
        0.33331653475761414,
        0.16807085275650024,
        -0.131626158952713,
        -0.1768338531255722,
        -0.39960232377052307,
        -0.0038953491020947695,
        0.5595190525054932,
        -0.057557739317417145,
        0.043887972831726074,
        0.2267904281616211,
        0.22809436917304993,
        0.18349653482437134,
        -0.16701316833496094,
        -0.04896904528141022,
        -0.10562248528003693,
        0.22375404834747314,
        0.16867193579673767,
        0.04078146815299988,
        0.027676910161972046,
        -0.168382465839386,
        0.056842684745788574,
        -0.07756434381008148,
        -0.2203414887189865,
        0.06846925616264343,
        -0.059062451124191284,
        -0.04368303716182709,
        0.026221752166748047,
        0.04862794280052185,
        0.14826911687850952,
        -0.23018868267536163,
        0.10779455304145813,
        -0.20703959465026855,
        -0.18134856224060059,
        0.09885577857494354,
        0.04226407781243324,
        0.25130558013916016,
        0.025854015722870827,
        -0.22663182020187378,
        -0.13176727294921875,
        0.18893741071224213,
        0.26181718707084656,
        0.010318469256162643,
        0.32572486996650696,
        -0.20439304411411285,
        -0.32419559359550476,
        0.2016787976026535,
        -0.07296142727136612,
        0.08985977619886398,
        0.38193637132644653,
        -0.48865142464637756,
        -0.6287644505500793,
        -0.11212034523487091,
        -0.35741952061653137,
        0.4157000184059143,
        0.04294455796480179,
        0.050895970314741135,
        0.42619743943214417,
        0.16688430309295654,
        -0.15231384336948395,
        0.2356334924697876,
        -0.0029794781003147364,
        0.039988286793231964,
        -0.0038979200180619955,
        -0.060441698879003525,
        -0.11938809603452682,
        0.0914209857583046,
        -0.0422632209956646,
        0.30082467198371887,
        -0.31087467074394226,
        0.22509074211120605,
        -0.08997456729412079,
        0.07544513046741486,
        0.6298198103904724,
        0.22021803259849548,
        -0.45803970098495483,
        -0.6190305352210999,
        -0.21446238458156586,
        0.3317902386188507,
        0.250500351190567,
        -0.12337135523557663,
        -0.053303301334381104,
        0.009862043894827366,
        0.23980724811553955,
        0.07973501086235046,
        0.029949041083455086,
        -0.07578856498003006,
        -0.0832674577832222,
        -0.002224088180810213,
        -0.04496494308114052,
        -0.15506787598133087,
        0.3220394253730774,
        0.2240612804889679,
        0.27868375182151794,
        -0.06419072300195694,
        -0.05828193202614784,
        -0.08675774186849594,
        0.09596635401248932,
        0.3272947371006012,
        -0.3456628620624542,
        -0.5716161727905273,
        -0.29640501737594604,
        0.04442848637700081,
        0.3650827407836914,
        0.2713342607021332,
        0.38342833518981934,
        -0.10096822679042816,
        0.11999869346618652,
        -0.042544666677713394,
        -0.12112423777580261,
        -0.2143678367137909,
        0.053668200969696045,
        0.10475509613752365,
        -0.13426277041435242,
        0.14362551271915436,
        -0.14498449862003326,
        0.1385258436203003,
        -0.09175023436546326,
        0.05260395631194115,
        -0.29190951585769653,
        0.2780148386955261,
        -0.22759151458740234,
        0.026525331661105156,
        -0.03837788105010986,
        -0.4062590003013611,
        -0.06869810819625854,
        0.360171377658844,
        0.27090033888816833,
        0.185568168759346,
        0.2285735309123993,
        -0.43876221776008606,
        -0.2053104043006897,
        -0.06232691928744316,
        -0.10242265462875366,
        0.0692516341805458,
        0.05929483100771904,
        0.06313812732696533,
        -0.4617599844932556,
        -0.0026549948379397392,
        0.04610265791416168,
        -0.2261216789484024,
        0.0959068313241005,
        0.07407369464635849,
        -0.07178901135921478,
        -0.2520877420902252,
        -0.3540803790092468,
        0.23867042362689972,
        -0.20138682425022125,
        0.559196412563324,
        0.3646869659423828,
        0.013248497620224953,
        0.5123842358589172,
        -0.26534008979797363,
        0.26700249314308167,
        0.01732550375163555,
        0.22666475176811218,
        0.20758110284805298,
        -0.05813727527856827,
        0.17675408720970154,
        0.008172593079507351,
        -0.17416206002235413,
        0.37526875734329224,
        -0.12836326658725739,
        -0.08430913835763931,
        -0.3752231001853943,
        0.239926278591156,
        -0.25407925248146057,
        0.12572519481182098,
        0.14749090373516083,
        -0.5735796689987183,
        0.14739945530891418,
        0.14834463596343994,
        0.31662341952323914,
        -0.06005110591650009,
        -0.17938902974128723,
        -0.08240197598934174,
        0.08766724914312363,
        0.3976810574531555,
        0.09358977526426315,
        -0.04906832054257393,
        0.06875051558017731,
        -0.1749824434518814,
        -0.008297521620988846,
        0.11684621125459671,
        -0.11197660863399506,
        0.12996037304401398,
        0.010613183490931988,
        0.1882852464914322,
        -0.025986868888139725,
        -0.27914372086524963,
        -0.10850069671869278,
        0.3422474265098572,
        -0.044959913939237595,
        -0.33219167590141296,
        -0.24292419850826263,
        -0.5227839350700378,
        0.4567726254463196,
        0.602285623550415,
        0.12003513425588608,
        -0.21615183353424072,
        0.1411685347557068,
        -0.2974019944667816,
        -0.2839309573173523,
        0.16136892139911652,
        -0.1671438217163086,
        -0.24196599423885345,
        -0.10959825664758682,
        -0.11576054245233536,
        0.06628108769655228,
        -0.09217996150255203,
        0.23163926601409912,
        -0.23702046275138855,
        -0.17504854500293732,
        0.2519127130508423,
        -0.1318863034248352,
        -0.0956968367099762,
        0.07784364372491837,
        0.03534684702754021,
        -0.17044158279895782,
        -0.2576485276222229,
        -0.22836975753307343,
        0.12817242741584778,
        -0.05651560425758362,
        0.191426619887352,
        -0.04409186169505119,
        -0.23822243511676788,
        0.15556290745735168,
        -0.23972178995609283,
        -0.2198658585548401,
        0.010690420866012573,
        -0.10726022720336914,
        -0.17092165350914001,
        -0.049705713987350464,
        0.07183563709259033,
        0.1488702893257141,
        -0.2490040808916092,
        -0.14708246290683746,
        -0.14688175916671753,
        -0.13889330625534058,
        -0.20933455228805542,
        -0.18090155720710754,
        0.020019233226776123,
        -0.15153531730175018,
        -0.14993661642074585,
        -0.09619994461536407,
        0.08483460545539856,
        0.2512519061565399,
        -0.1427290290594101,
        0.06332623958587646,
        -0.031290534883737564,
        -0.10080686956644058,
        -0.22869062423706055,
        0.162161186337471,
        0.18405765295028687,
        0.03677115589380264,
        -0.11534232646226883,
        0.061038415879011154,
        0.16117063164710999,
        0.23089753091335297,
        -0.2191593199968338,
        -0.006230133585631847,
        -0.023740753531455994,
        -0.2718997895717621,
        0.13490019738674164,
        0.02650904655456543,
        -0.23296694457530975,
        -0.16888770461082458,
        0.19166117906570435,
        0.4573526978492737,
        -0.32932794094085693,
        0.4159395396709442,
        -0.17015425860881805,
        -0.07870415598154068,
        -0.15242838859558105,
        0.27749544382095337,
        0.17720015347003937,
        0.14288273453712463,
        -0.09017957001924515,
        -0.17817442119121552,
        0.1427079439163208,
        -0.16455711424350739,
        -0.024265915155410767,
        0.11712820082902908,
        0.17102131247520447,
        -0.0003539550525601953,
        -0.22821761667728424,
        -0.011740165762603283,
        0.04519226774573326,
        -0.05220011621713638,
        0.44003573060035706,
        0.10089799761772156,
        -0.5683062076568604,
        -0.3266662657260895,
        0.055899184197187424,
        0.5080927014350891,
        0.15084382891654968,
        0.2340734302997589,
        -0.06312049925327301,
        -0.2503921091556549,
        -0.0561688058078289,
        -0.033197108656167984,
        0.175842747092247,
        0.16156350076198578,
        -0.19912035763263702,
        0.24581733345985413,
        -0.23132051527500153,
        -0.1379888504743576,
        -0.07194650918245316,
        0.16178414225578308,
        -0.1612512469291687,
        0.036302197724580765,
        0.00459890766069293,
        -0.2002401500940323,
        -0.13607202470302582,
        -0.26077404618263245,
        0.09842871874570847,
        0.14532165229320526,
        -0.029863199219107628,
        0.06804253906011581,
        0.21330104768276215,
        -0.15133503079414368,
        0.16589488089084625,
        0.5352767705917358,
        -0.17422260344028473,
        -0.0886458158493042,
        -0.18492943048477173,
        0.025631386786699295,
        -0.08646080642938614,
        -0.008333384990692139,
        0.03911631181836128,
        0.10200254619121552,
        -0.19059047102928162,
        -0.013559309765696526,
        -0.06271751970052719,
        0.33362430334091187,
        -0.17462873458862305,
        -0.40094172954559326,
        0.44647282361984253,
        0.06930827349424362,
        0.11355376243591309,
        0.14545980095863342,
        0.28382325172424316,
        0.35519710183143616,
        -0.2598138153553009,
        -0.2881752550601959,
        0.06676305830478668,
        0.7890580296516418,
        -0.1206025779247284,
        -0.281720906496048,
        -0.12746617197990417,
        0.061042990535497665,
        0.0011330259731039405,
        -0.06225654110312462,
        0.17300312221050262,
        0.12059676647186279,
        -0.22833336889743805,
        0.3255343437194824,
        -0.20593447983264923,
        -0.207115039229393,
        0.032215312123298645,
        0.21635696291923523,
        0.7895300388336182,
        -0.08352961391210556,
        -0.08805608004331589,
        -0.21935583651065826,
        0.018513547256588936,
        0.02838701382279396,
        0.1525765210390091,
        0.039711982011795044,
        0.03870942443609238,
        0.21287061274051666,
        0.11973844468593597,
        0.084975965321064,
        0.10576868057250977,
        -0.04497995227575302,
        -0.07964563369750977,
        -0.08132905513048172,
        0.001632773783057928,
        0.23715560138225555,
        -0.31311121582984924,
        0.01487158052623272,
        0.19411757588386536,
        0.049300648272037506,
        -0.05740365758538246,
        0.09435554593801498,
        -0.11346622556447983,
        -0.6507954001426697,
        0.9742885231971741,
        -0.11405600607395172,
        -0.08187314867973328,
        0.2896246612071991,
        -0.20621594786643982,
        -0.234446182847023,
        0.0039420826360583305,
        -0.12525106966495514,
        -0.17890629172325134,
        0.01856117881834507,
        -0.19707155227661133,
        0.08784383535385132,
        0.043723661452531815,
        0.06353124231100082,
        -0.13167516887187958,
        0.056149885058403015,
        -0.2402244359254837,
        0.2509535551071167,
        -0.12000949680805206,
        0.062702976167202,
        0.10644117742776871,
        0.13808448612689972,
        0.50873202085495,
        -0.4817361831665039,
        0.43512460589408875,
        -0.6266851425170898,
        0.14580954611301422,
        0.345505952835083,
        -0.16899342834949493,
        -0.35989320278167725,
        0.19405896961688995,
        0.0585925318300724,
        0.006307161413133144,
        0.1887902468442917,
        -0.06109394505620003,
        -0.036829859018325806,
        0.15949805080890656,
        -0.17441518604755402,
        -0.15221691131591797,
        0.19750624895095825,
        -0.12920452654361725,
        0.1131761223077774,
        -0.1265619397163391,
        0.07736252248287201,
        -0.20875470340251923,
        0.10685954988002777,
        -0.12155051529407501,
        -0.052903756499290466,
        -0.20541998744010925,
        0.0696651041507721,
        0.10778237134218216,
        0.17930424213409424,
        0.051240865141153336,
        -0.15241524577140808,
        0.10339158773422241,
        0.09103992581367493,
        0.22198140621185303,
        -0.16670748591423035,
        0.08568844199180603,
        -0.13340136408805847,
        -0.06370127201080322,
        0.2356872260570526,
        -0.20167413353919983,
        -0.14063259959220886,
        0.010738492012023926,
        0.12776067852973938,
        0.2370709776878357,
        -0.21799422800540924,
        -0.22696319222450256,
        -0.19647839665412903,
        0.011756062507629395,
        -0.17627795040607452,
        -0.20488829910755157,
        -0.1382378339767456,
        -0.17874984443187714,
        0.11314120888710022,
        0.17816129326820374,
        0.015473872423171997,
        -0.3740050196647644,
        -0.14695100486278534,
        0.06072279438376427,
        0.050339166074991226,
        0.12376412004232407,
        -0.09807600826025009,
        -0.07840742915868759,
        -0.03337741643190384,
        0.13197582960128784,
        0.4385997951030731,
        -0.40129613876342773,
        -0.20051485300064087,
        0.46189168095588684,
        -0.07529745995998383,
        0.008009426295757294,
        0.061281654983758926,
        -0.41523686051368713,
        -0.15253491699695587,
        0.44255539774894714,
        0.04802782088518143,
        0.26921966671943665,
        0.16716676950454712,
        -0.0356081984937191,
        0.09724453836679459,
        -0.5499171018600464,
        -0.03992374986410141,
        -0.16972222924232483,
        -0.1806168556213379,
        -0.1555928885936737,
        0.18644869327545166,
        0.2384135127067566,
        -0.16895069181919098,
        0.021578852087259293,
        0.0876682847738266,
        0.22668719291687012,
        -0.05122462660074234,
        0.05216135084629059,
        -0.0281550120562315,
        -0.3139483630657196,
        0.002713667694479227,
        0.18535934388637543,
        -0.145192950963974,
        -0.08605722337961197,
        0.12460944056510925,
        0.18516024947166443,
        0.1368885487318039,
        0.1720278263092041,
        -0.4487485885620117,
        0.13837143778800964,
        0.3717779219150543,
        -0.10166015475988388,
        -0.15957756340503693,
        0.007602376397699118,
        0.0025593426544219255,
        -0.043489351868629456,
        0.27585506439208984,
        -0.1687738299369812,
        0.19789379835128784,
        -0.19355762004852295,
        -0.10618351399898529,
        0.06831260770559311,
        0.09662345796823502,
        0.10282725095748901,
        0.23673634231090546,
        -0.4360560476779938,
        -0.2550030052661896,
        -0.0194708239287138,
        -0.44523847103118896,
        -0.37891727685928345,
        0.03995455428957939,
        -0.4485335946083069,
        -0.358374685049057,
        -0.24202072620391846,
        -0.0359598845243454,
        -0.06577452272176743,
        0.02886035479605198,
        -0.08661961555480957,
        0.04276435077190399,
        0.0021095366682857275,
        0.05108219385147095,
        -0.1273365616798401,
        0.15187211334705353,
        0.13560907542705536,
        0.053769730031490326,
        0.3093850016593933,
        -0.24680186808109283,
        0.15460531413555145,
        -0.07825969159603119,
        0.7812249660491943,
        -0.41594037413597107,
        -0.1853816956281662,
        0.1483122706413269,
        -0.6422423720359802,
        0.33554351329803467,
        -0.17084486782550812,
        0.2085237056016922
      ]
    },
    {
      "architecture": "normalization",
      "bias": [
        0.005935103632509708,
        -0.0015929501969367266,
        -0.021892912685871124,
        -0.012842707335948944,
        -0.05866314470767975,
        -0.009663455188274384,
        0.0005188899813219905,
        -0.09009198099374771,
        -0.0031209615990519524,
        -0.0029145933222025633,
        -0.06929321587085724,
        -0.03154204413294792,
        -0.5123257637023926,
        -0.07261575013399124,
        0.0003049980732612312,
        0.0033594754058867693,
        -0.05530582368373871,
        -0.8042283058166504,
        -0.25519731640815735,
        -0.38786178827285767,
        -0.008829421363770962,
        -0.03732221573591232,
        -0.01881994865834713,
        -0.00013105930702295154,
        0.0030493526719510555,
        -0.06134657934308052,
        -0.02785005047917366,
        -0.003426190000027418,
        -0.02617197483778,
        0.003923818934708834,
        -0.055021073669195175,
        -0.005110959522426128,
        -0.3431236743927002,
        0.0013651715125888586,
        -0.06019444018602371,
        -6.37945822745678e-06,
        -0.004697864409536123,
        -0.06846631318330765,
        -0.013685344718396664,
        -0.17440500855445862,
        -0.14388254284858704,
        7.733045640634373e-05,
        -0.1695387363433838,
        -0.09108108282089233,
        -0.3691665828227997,
        -0.04142189025878906,
        -0.024848636239767075,
        -0.028018511831760406,
        -0.04482518136501312,
        -0.004168979357928038,
        0.003886304097250104,
        -0.044228650629520416,
        -0.0713493824005127,
        -1.4749106412637047e-05,
        -0.056113213300704956,
        -0.05438816547393799,
        -0.04315244406461716,
        -0.22166937589645386,
        0.003708080854266882,
        -0.0022867643274366856,
        -0.45002853870391846,
        -0.1764240711927414,
        0.0007530407747253776,
        -0.48921772837638855
      ],
      "weights": [
        31.622774124145508,
        31.622774124145508,
        43.669925689697266,
        34.309059143066406,
        24.20626449584961,
        17.0595645904541,
        36.08673858642578,
        32.03969955444336,
        30.806283950805664,
        31.622774124145508,
        8.711687088012695,
        21.327959060668945,
        14.69499683380127,
        22.42560386657715,
        32.46760559082031,
        31.322065353393555,
        27.88165855407715,
        22.616748809814453,
        16.01544189453125,
        38.06499481201172,
        36.168418884277344,
        17.683855056762695,
        23.15318489074707,
        31.622774124145508,
        31.622774124145508,
        36.68073654174805,
        38.82450485229492,
        31.622774124145508,
        43.65069580078125,
        31.398653030395508,
        28.04138946533203,
        31.622774124145508,
        24.38311004638672,
        33.113189697265625,
        11.30585765838623,
        31.622774124145508,
        31.622774124145508,
        9.125428199768066,
        29.33846092224121,
        12.039628982543945,
        19.42653465270996,
        31.622774124145508,
        13.201167106628418,
        21.192676544189453,
        32.02211380004883,
        12.193981170654297,
        21.100980758666992,
        23.103221893310547,
        31.166303634643555,
        31.60051727294922,
        31.622774124145508,
        22.67682456970215,
        24.1851863861084,
        31.548921585083008,
        8.650566101074219,
        12.175387382507324,
        40.40573501586914,
        31.843551635742188,
        31.527326583862305,
        31.622774124145508,
        9.957185745239258,
        7.756414890289307,
        24.21073341369629,
        38.75218963623047
      ]
    },
    {
      "activation": "rectified",
      "architecture": "dense",
      "bias": [
        -0.07808894664049149,
        -0.041836146265268326,
        -0.17823100090026855,
        -0.04599829763174057,
        -0.3350232243537903,
        0.00659845070913434,
        -0.0481950081884861,
        -0.15903402864933014,
        -0.2500777840614319,
        -0.19360381364822388,
        -0.055439602583646774,
        -0.08750410377979279,
        -0.1575072854757309,
        -0.218886598944664,
        -0.04976906627416611,
        -0.126099094748497,
        0.07130647450685501,
        -0.06673449277877808,
        -0.12363853305578232,
        -0.09449277073144913,
        -0.05479473993182182,
        -0.04246312752366066,
        -0.07594498991966248,
        -0.19279015064239502,
        0.039671823382377625,
        -0.006452473346143961,
        -0.2403324991464615,
        -0.13615791499614716,
        -0.29745328426361084,
        -0.052177850157022476,
        -0.14606742560863495,
        -0.1850045770406723
      ],
      "weights": [
        0.03721844404935837,
        -0.14922943711280823,
        0.4439305365085602,
        -0.05867380276322365,
        0.26801547408103943,
        -0.11783825606107712,
        0.09696299582719803,
        -0.3232508897781372,
        -0.09480324387550354,
        0.045984115451574326,
        0.05779765546321869,
        0.08839556574821472,
        0.02728971652686596,
        -0.10616601258516312,
        0.20440314710140228,
        -0.10855937004089355,
        -0.3660198748111725,
        0.014367856085300446,
        0.11503995954990387,
        0.27620622515678406,
        -0.21091274917125702,
        0.13341426849365234,
        -0.0828985795378685,
        -0.12136662751436234,
        -0.2554377615451813,
        0.4791775941848755,
        0.0858544260263443,
        0.09441880136728287,
        -0.2582794725894928,
        -0.2532746195793152,
        -0.4574485719203949,
        0.13389067351818085,
        0.03371642157435417,
        -0.21491441130638123,
        -0.021855885162949562,
        0.0013908316614106297,
        0.13212326169013977,
        0.12664011120796204,
        -0.0922224372625351,
        -0.0972323790192604,
        0.23996050655841827,
        -0.03148947283625603,
        0.2732923626899719,
        0.048851557075977325,
        0.16365624964237213,
        0.10244221985340118,
        0.2852838933467865,
        0.02120293118059635,
        -0.10985613614320755,
        -0.09604906290769577,
        0.10358307510614395,
        0.08340926468372345,
        -0.09017451852560043,
        -0.004114843439310789,
        -0.20336772501468658,
        0.14839163422584534,
        -0.1767045110464096,
        -0.1296197474002838,
        -0.17632152140140533,
        0.10384029895067215,
        -0.03465157002210617,
        -0.15256473422050476,
        -0.24098655581474304,
        0.19727648794651031,
        0.04368341341614723,
        0.05061113461852074,
        -0.02362828701734543,
        0.3451370596885681,
        -0.0048309024423360825,
        -0.05211637169122696,
        0.1287388652563095,
        -0.0017954912036657333,
        -0.081405408680439,
        0.19179795682430267,
        0.09809396415948868,
        -0.0009301499812863767,
        0.13453735411167145,
        0.06053760647773743,
        -0.1708589792251587,
        -0.01176729891449213,
        0.04824252054095268,
        0.2009640783071518,
        0.014274103567004204,
        0.08714769780635834,
        -0.2731648087501526,
        -0.0648830458521843,
        -0.1594216376543045,
        0.09335236251354218,
        -0.2205427587032318,
        -0.3157987594604492,
        -0.3884035348892212,
        0.011721312068402767,
        -0.4240785837173462,
        0.09728400409221649,
        -0.1635955274105072,
        0.06821266561746597,
        0.043734870851039886,
        -0.1332562118768692,
        0.056152962148189545,
        -0.0034506877418607473,
        0.025930292904376984,
        -0.1337948888540268,
        0.11589709669351578,
        0.02811780571937561,
        0.019418569281697273,
        0.004070487339049578,
        0.2506457567214966,
        0.22120147943496704,
        0.24814142286777496,
        0.0945277065038681,
        0.2976199984550476,
        -0.16224756836891174,
        0.1816491186618805,
        -0.12131810933351517,
        -0.18549203872680664,
        -0.08999738097190857,
        0.2441909909248352,
        -0.005156794562935829,
        0.018695419654250145,
        0.08535157144069672,
        -0.2840254008769989,
        -0.09700218588113785,
        -0.11781424283981323,
        0.08460308611392975,
        -0.12347055971622467,
        0.09339076280593872,
        0.043718960136175156,
        0.45617321133613586,
        -0.025930173695087433,
        0.242376908659935,
        0.04210042208433151,
        -0.23322968184947968,
        0.07594092935323715,
        0.16123008728027344,
        0.039601776748895645,
        0.06718060374259949,
        -0.025583654642105103,
        0.2512838542461395,
        0.21907779574394226,
        0.17634613811969757,
        -0.06835825741291046,
        -0.02392681874334812,
        0.10683009773492813,
        0.051409702748060226,
        0.0908559113740921,
        -0.21054834127426147,
        -0.21635940670967102,
        -0.32042402029037476,
        0.27786049246788025,
        0.31122350692749023,
        0.09112293273210526,
        0.04220699518918991,
        -0.22956442832946777,
        0.01938675343990326,
        0.11082781851291656,
        0.06485647708177567,
        0.6293807625770569,
        -0.21371960639953613,
        -0.21554401516914368,
        0.39982542395591736,
        0.002971661975607276,
        -0.24023497104644775,
        -0.09981609135866165,
        0.02270616590976715,
        -0.0386793427169323,
        0.07081808149814606,
        -0.5862581729888916,
        0.09433764964342117,
        0.1542845517396927,
        -0.005539591424167156,
        -0.13074082136154175,
        0.21802778542041779,
        -0.006837098393589258,
        -0.09788164496421814,
        -0.04960495978593826,
        -0.08803617209196091,
        -0.28984135389328003,
        -0.05004553869366646,
        -0.20679885149002075,
        -0.006862220354378223,
        -0.31696775555610657,
        0.039728794246912,
        -0.007209120783954859,
        -0.2349722981452942,
        0.044356442987918854,
        -0.013186397030949593,
        -0.13006828725337982,
        0.017264526337385178,
        -0.05355139821767807,
        0.13327814638614655,
        0.24620889127254486,
        -0.08000630885362625,
        0.09782763570547104,
        -0.09729356318712234,
        0.03765382990241051,
        -0.01853170059621334,
        -0.17760169506072998,
        -0.005641327705234289,
        -0.4183599054813385,
        -0.15818005800247192,
        0.2598704993724823,
        0.1222270131111145,
        -0.12797200679779053,
        -0.26359811425209045,
        0.2583262324333191,
        -0.006759831216186285,
        0.08103221654891968,
        -0.20104964077472687,
        0.09813053905963898,
        0.14540664851665497,
        -0.04336199536919594,
        0.1598924994468689,
        -0.08790566772222519,
        -0.08181022852659225,
        0.15204519033432007,
        -0.1364947259426117,
        0.14747828245162964,
        -0.2743203639984131,
        0.5276477336883545,
        0.2142847776412964,
        0.2329201102256775,
        -0.15046915411949158,
        -0.12761056423187256,
        -0.03625520318746567,
        -0.06896106898784637,
        -0.05141386017203331,
        -0.0568193756043911,
        0.00024954057880677283,
        0.255281537771225,
        0.1416112631559372,
        -0.18865029513835907,
        0.00710412859916687,
        0.06678492575883865,
        0.01960117183625698,
        -0.14632754027843475,
        0.1510590761899948,
        0.29954633116722107,
        0.051920436322689056,
        -0.08194306492805481,
        -0.055670227855443954,
        -0.15818773210048676,
        -0.165465846657753,
        0.12454979121685028,
        -0.27756157517433167,
        -0.039546359330415726,
        -0.012918345630168915,
        0.0683804601430893,
        0.11338357627391815,
        -0.1370128095149994,
        0.11750519275665283,
        0.13801047205924988,
        0.18346211314201355,
        -0.013699606992304325,
        0.0021152764093130827,
        -0.05514978989958763,
        -0.5181291699409485,
        -0.10217122733592987,
        0.3469478487968445,
        -0.039363712072372437,
        -0.042618803679943085,
        -0.32627683877944946,
        0.3552912175655365,
        0.18481504917144775,
        0.10117730498313904,
        0.5407498478889465,
        0.3025995194911957,
        -0.15842701494693756,
        0.026203515008091927,
        0.24274872243404388,
        0.012776383198797703,
        -0.2421434074640274,
        -0.14317888021469116,
        0.06538093835115433,
        0.14360444247722626,
        -0.24609078466892242,
        0.03686037287116051,
        -0.44756343960762024,
        0.0027399230748414993,
        -0.12983180582523346,
        0.22847521305084229,
        -0.0914948508143425,
        -0.12934191524982452,
        -0.115047886967659,
        0.16151267290115356,
        0.06739092618227005,
        -0.12218756973743439,
        -0.07671001553535461,
        0.2483208328485489,
        -0.254052072763443,
        -0.40796181559562683,
        -0.08768609911203384,
        -0.05977993085980415,
        0.5712083578109741,
        -0.2392386794090271,
        -0.3151945471763611,
        0.18766911327838898,
        -0.3596290051937103,
        0.10063683986663818,
        -0.12212289869785309,
        -0.26322484016418457,
        0.15974269807338715,
        0.02216261439025402,
        -0.07726416736841202,
        0.3387671113014221,
        -0.033683892339468,
        0.2556295692920685,
        -0.08957841992378235,
        0.10099940001964569,
        -0.22279036045074463,
        -0.0242490042001009,
        0.13296325504779816,
        0.16700465977191925,
        0.12139195203781128,
        -0.2552521824836731,
        -0.37532639503479004,
        0.40246275067329407,
        0.23147955536842346,
        -0.0655541941523552,
        -0.517988920211792,
        0.15921667218208313,
        -0.05564414709806442,
        -0.17892581224441528,
        -0.016976187005639076,
        0.10131537169218063,
        0.04266439378261566,
        -0.03664712607860565,
        0.056872811168432236,
        0.07592049986124039,
        0.08156320452690125,
        0.11591783165931702,
        0.31260791420936584,
        -0.11571821570396423,
        0.24439117312431335,
        0.2586720287799835,
        0.16374953091144562,
        -0.1979801207780838,
        0.1109980046749115,
        0.22897334396839142,
        -0.09171115607023239,
        0.32141345739364624,
        -0.16114678978919983,
        0.22676850855350494,
        0.006112222094088793,
        -0.0033933185040950775,
        0.006416827440261841,
        0.12268661707639694,
        0.09323235601186752,
        0.15152856707572937,
        0.25078582763671875,
        0.27205511927604675,
        -0.18037782609462738,
        -0.22877411544322968,
        -0.1009354293346405,
        0.26184654235839844,
        -0.29566022753715515,
        -0.003577347146347165,
        0.02814365178346634,
        -0.1138925552368164,
        -0.1705867499113083,
        -0.10522329807281494,
        0.07226219028234482,
        -0.20622408390045166,
        0.17519696056842804,
        -0.09621114283800125,
        0.19881859421730042,
        0.07387895882129669,
        0.049013447016477585,
        0.45872625708580017,
        0.07273557037115097,
        -0.19766753911972046,
        -0.15987102687358856,
        -0.005155432038009167,
        0.11497417092323303,
        -0.02725403383374214,
        0.21853549778461456,
        -0.07194286584854126,
        -0.2778395414352417,
        -0.20025303959846497,
        -0.11578231304883957,
        -0.18768617510795593,
        0.016540518030524254,
        0.07173595577478409,
        -0.0810520201921463,
        0.17948313057422638,
        -0.11349689215421677,
        0.0244926568120718,
        0.0375567227602005,
        -0.10295432060956955,
        0.14533956348896027,
        -0.005384833551943302,
        -0.2318342924118042,
        0.07043780386447906,
        0.3331663906574249,
        0.07053586840629578,
        -0.04034623131155968,
        0.27108702063560486,
        0.12856647372245789,
        -0.3229667842388153,
        0.06905269622802734,
        0.009556163102388382,
        -0.07679479569196701,
        0.29665592312812805,
        -0.1320374310016632,
        0.21364253759384155,
        0.06775788962841034,
        -0.18265292048454285,
        0.040355879813432693,
        -0.08078325539827347,
        0.07418522983789444,
        0.3009285032749176,
        -0.15598614513874054,
        -0.009977455250918865,
        0.23636701703071594,
        0.1251005083322525,
        -0.04543934017419815,
        0.0031379961874336004,
        0.08093699812889099,
        0.06775899976491928,
        0.20775263011455536,
        -0.017574939876794815,
        0.1790768802165985,
        -0.24375231564044952,
        -0.11868505924940109,
        0.022678444162011147,
        -0.12952612340450287,
        -0.001923447591252625,
        0.2376352995634079,
        -0.20620790123939514,
        0.014515033923089504,
        -0.011979339644312859,
        0.28449103236198425,
        0.21157033741474152,
        0.30182236433029175,
        0.22516056895256042,
        -0.14259175956249237,
        -0.3305914103984833,
        -0.34515878558158875,
        -0.000839959888253361,
        0.07041175663471222,
        -0.28610026836395264,
        -0.20932593941688538,
        0.07540589570999146,
        -0.0627940222620964,
        -0.12265707552433014,
        0.10362140089273453,
        -0.008874920196831226,
        -0.19890938699245453,
        0.06383558362722397,
        -0.41567790508270264,
        0.1569993644952774,
        -0.7932740449905396,
        -0.3687518537044525,
        -0.23480145633220673,
        0.5045647621154785,
        0.10658225417137146,
        0.07547281682491302,
        0.1168207898736,
        0.3281039893627167,
        -0.03188540041446686,
        -0.03628299757838249,
        0.17670480906963348,
        -0.030926134437322617,
        -0.03664262965321541,
        -0.16435153782367706,
        0.07004687190055847,
        0.010839621536433697,
        -0.021408915519714355,
        0.29456162452697754,
        0.34481295943260193,
        0.27041274309158325,
        0.04750438034534454,
        0.2777910530567169,
        -0.39226168394088745,
        -0.03120998479425907,
        0.4041009545326233,
        0.11016175895929337,
        0.006879397667944431,
        -0.2758755683898926,
        0.18384294211864471,
        0.09689570963382721,
        0.016409743577241898,
        0.03234117850661278,
        -0.22575756907463074,
        0.008173537440598011,
        0.2509825527667999,
        -0.06516583263874054,
        -0.017193255946040154,
        -0.07024072110652924,
        0.03806609660387039,
        -0.026728106662631035,
        0.05818532034754753,
        -0.13074234127998352,
        -0.3391282558441162,
        0.04140683636069298,
        -0.1626233607530594,
        -0.0244151521474123,
        0.09572828561067581,
        0.10317511111497879,
        -0.246733158826828,
        0.014333583414554596,
        -0.2931315004825592,
        -0.024042220786213875,
        -0.023263800889253616,
        -0.29977428913116455,
        -0.2820340096950531,
        -0.15036357939243317,
        0.01770452968776226,
        0.12410345673561096,
        -0.1885225474834442,
        -0.06924980878829956,
        -0.12549395859241486,
        -0.048786841332912445,
        -0.2418985664844513,
        0.13989636301994324,
        0.15026795864105225,
        -0.059883128851652145,
        0.09743137657642365,
        -0.29709649085998535,
        -0.3253340721130371,
        -0.39881396293640137,
        0.16735339164733887,
        0.14366771280765533,
        0.194947749376297,
        0.06988012790679932,
        0.2005685418844223,
        -0.19586120545864105,
        -0.011269732378423214,
        -0.36506387591362,
        0.0998324528336525,
        -0.0036048460751771927,
        -0.25969091057777405,
        -0.11079796403646469,
        0.27590009570121765,
        -0.4087577164173126,
        -0.1616608202457428,
        0.21953676640987396,
        -0.42883405089378357,
        0.04704802483320236,
        0.10427262634038925,
        0.4412238299846649,
        -0.19967223703861237,
        -0.2581060826778412,
        -0.17953495681285858,
        0.28859612345695496,
        -0.24714501202106476,
        -0.11088589578866959,
        -0.03260807693004608,
        0.05799330398440361,
        0.2960036098957062,
        -0.19875094294548035,
        0.16772858798503876,
        -0.235383078455925,
        0.10826793313026428,
        -0.07508571445941925,
        0.15234294533729553,
        0.0496000200510025,
        0.005850781686604023,
        -0.3282287120819092,
        -0.07732265442609787,
        0.13365207612514496,
        -0.1393560767173767,
        0.40652063488960266,
        -0.24151457846164703,
        -0.08166607469320297,
        0.15820147097110748,
        -0.03584015369415283,
        -0.030553698539733887,
        0.3458634316921234,
        -0.14566080272197723,
        0.21932090818881989,
        -0.12218742072582245,
        0.28847089409828186,
        -0.04786685109138489,
        0.08357445895671844,
        -0.2695159316062927,
        0.27863702178001404,
        -0.31919175386428833,
        0.32431283593177795,
        -0.24601972103118896,
        0.17990882694721222,
        -0.00415411964058876,
        -0.13889852166175842,
        -0.2873643934726715,
        0.32301607728004456,
        0.0806727334856987,
        0.3332318961620331,
        0.02700907737016678,
        -0.22295129299163818,
        -0.08018799126148224,
        -0.06255502998828888,
        -0.44560524821281433,
        -0.15332266688346863,
        -0.2717205584049225,
        0.0819598138332367,
        -0.20740164816379547,
        0.06478282064199448,
        -0.0062871589325368404,
        -0.035105373710393906,
        -0.2363930195569992,
        0.18879348039627075,
        -0.1311667114496231,
        -0.20308078825473785,
        0.20786140859127045,
        0.3550931513309479,
        -0.14160200953483582,
        -0.28639549016952515,
        0.1480308473110199,
        0.2971773147583008,
        -0.12684252858161926,
        -0.26559901237487793,
        -0.1813967376947403,
        -0.002798022236675024,
        0.2140362709760666,
        -0.14973779022693634,
        0.012850883416831493,
        0.06514357775449753,
        -0.04473933205008507,
        0.015265853144228458,
        -0.0536486878991127,
        0.2521907389163971,
        -0.16266198456287384,
        -0.12490431219339371,
        0.19595976173877716,
        -0.09555920958518982,
        -0.3258737623691559,
        0.12356396019458771,
        -0.39746466279029846,
        -0.13326817750930786,
        0.009977433830499649,
        0.01044168509542942,
        0.046007659286260605,
        0.14675016701221466,
        -0.09068581461906433,
        0.14567910134792328,
        -0.4073660969734192,
        0.2531629204750061,
        -0.2637028396129608,
        -0.2190486043691635,
        0.024790603667497635,
        0.40467163920402527,
        -0.02116440050303936,
        0.024808641523122787,
        0.27510926127433777,
        -0.20729652047157288,
        0.2657064199447632,
        0.05998082086443901,
        0.3335202932357788,
        0.2383280247449875,
        0.24370524287223816,
        0.25666317343711853,
        -0.17485594749450684,
        -0.2667783200740814,
        0.29310518503189087,
        0.06771194189786911,
        -0.17258188128471375,
        0.12808546423912048,
        0.007973935455083847,
        0.05166923999786377,
        -0.2500064969062805,
        0.13824790716171265,
        -0.46048811078071594,
        0.11116870492696762,
        -0.056660640984773636,
        0.04608786851167679,
        0.09853239357471466,
        0.36738839745521545,
        -0.0972430408000946,
        0.1382276713848114,
        -0.04722472280263901,
        -0.2697654962539673,
        -0.23855896294116974,
        0.04405790939927101,
        0.10586468130350113,
        0.42085152864456177,
        -0.07175743579864502,
        -0.1643332540988922,
        0.19380611181259155,
        -0.30276909470558167,
        -0.16934138536453247,
        0.012226272374391556,
        -0.11303548514842987,
        0.15164338052272797,
        -0.1435568630695343,
        -0.17977836728096008,
        0.1976477950811386,
        -0.08853979408740997,
        -0.05125569924712181,
        0.39924097061157227,
        0.17634977400302887,
        0.02480480447411537,
        -0.012001009657979012,
        0.22810211777687073,
        -0.22046999633312225,
        -0.0027461100835353136,
        0.21576520800590515,
        0.2110932320356369,
        0.09994618594646454,
        -0.20022818446159363,
        -0.16714821755886078,
        0.05561847612261772,
        -0.05478423088788986,
        -0.10589101165533066,
        -0.31751564145088196,
        0.23120850324630737,
        0.13550196588039398,
        0.21220318973064423,
        -0.16424135863780975,
        0.1348012089729309,
        -0.141483873128891,
        0.11286834627389908,
        -0.0848875641822815,
        0.04538613185286522,
        0.031272999942302704,
        0.14682987332344055,
        -0.26326125860214233,
        0.31332477927207947,
        -0.07427166402339935,
        -0.07303230464458466,
        -0.22772009670734406,
        0.17717143893241882,
        -0.0008401675731875002,
        0.09327041357755661,
        -0.032446324825286865,
        -0.17998546361923218,
        -0.2727513611316681,
        0.24642141163349152,
        0.07900860905647278,
        0.15106752514839172,
        -0.1311977505683899,
        0.33116114139556885,
        -0.05097940191626549,
        0.1697617620229721,
        0.04740730673074722,
        -0.08586291968822479,
        -0.025859985500574112,
        0.24803557991981506,
        0.3083491623401642,
        -0.42743948101997375,
        -0.008205653168261051,
        0.07503113150596619,
        0.28226688504219055,
        0.01908315345644951,
        0.20712029933929443,
        0.6867908835411072,
        -0.15200339257717133,
        -0.143700510263443,
        0.33109480142593384,
        0.2928040623664856,
        0.34818553924560547,
        0.3600877821445465,
        -0.3878801167011261,
        0.19937731325626373,
        0.2035914659500122,
        0.1263827085494995,
        -0.24777711927890778,
        -0.13923241198062897,
        0.040960174053907394,
        0.029334526509046555,
        -0.23243872821331024,
        -0.07702925056219101,
        0.13118207454681396,
        -0.05001186206936836,
        -0.17955733835697174,
        0.25154200196266174,
        -0.17010456323623657,
        -0.01549153495579958,
        0.16247227787971497,
        0.008572534658014774,
        -0.11794137209653854,
        0.39377015829086304,
        0.07247845828533173,
        0.027459749951958656,
        0.04261712357401848,
        0.01523266639560461,
        0.3080865144729614,
        0.1898515671491623,
        0.24813593924045563,
        0.011200071312487125,
        -0.1250128448009491,
        -0.07320348918437958,
        0.02535404823720455,
        0.1469039022922516,
        -0.09583932161331177,
        -0.10536757856607437,
        0.15384607017040253,
        -0.09922396391630173,
        0.20619206130504608,
        0.10207417607307434,
        0.19085651636123657,
        0.13349996507167816,
        -0.06927719712257385,
        0.1685866117477417,
        -0.3566942512989044,
        0.4810194969177246,
        -0.1728150099515915,
        0.0962057113647461,
        -0.21305006742477417,
        -0.21265149116516113,
        0.15758873522281647,
        0.27464088797569275,
        0.10593161731958389,
        -0.05739641934633255,
        0.16195891797542572,
        -0.05476338788866997,
        0.29046788811683655,
        -0.24064207077026367,
        0.013008389621973038,
        0.27478405833244324,
        -0.11047273129224777,
        -0.0206842590123415,
        0.009914210997521877,
        -0.1836230456829071,
        -0.2524328827857971,
        0.048180270940065384,
        0.08432803303003311,
        -0.19777247309684753,
        0.026234211400151253,
        0.1685878336429596,
        -0.2162512242794037,
        0.048799291253089905,
        -0.14798076450824738,
        -0.0021552920807152987,
        -0.225156769156456,
        0.04296125844120979,
        0.0017243660986423492,
        -0.20952394604682922,
        -0.32106053829193115,
        0.16807302832603455,
        -0.061032094061374664,
        0.027416031807661057,
        -0.0020158495754003525,
        -0.1403963416814804,
        -0.41844886541366577,
        0.1094048023223877,
        0.0830596387386322,
        0.23472726345062256,
        0.4143277108669281,
        -0.036385297775268555,
        -0.3095126450061798,
        0.20504514873027802,
        0.12457146495580673,
        0.15481066703796387,
        0.05916079878807068,
        0.09088277816772461,
        0.09441380947828293,
        -0.13531777262687683,
        -0.11364810913801193,
        -0.12414570152759552,
        0.27133187651634216,
        -0.11485904455184937,
        0.2075253576040268,
        0.0893382877111435,
        -0.1565367579460144,
        -0.01453134324401617,
        0.21431377530097961,
        0.12216882407665253,
        -0.11140426248311996,
        0.01913432404398918,
        0.2710394263267517,
        0.27383968234062195,
        0.1422196924686432,
        -0.1809365451335907,
        0.11718042194843292,
        0.1507726013660431,
        -0.28139352798461914,
        -0.10404889285564423,
        -0.03895793482661247,
        -0.06566831469535828,
        0.38851115107536316,
        -0.12194036692380905,
        0.012123443186283112,
        0.27813223004341125,
        0.1679597795009613,
        0.24959838390350342,
        0.20556314289569855,
        -0.28354907035827637,
        0.11716629564762115,
        -0.05619239807128906,
        0.026424812152981758,
        -0.2084285020828247,
        -0.008943307213485241,
        0.3700641989707947,
        0.02310456708073616,
        -0.33127060532569885,
        -0.03866531327366829,
        0.016931995749473572,
        -0.19905954599380493,
        0.1370258778333664,
        -0.001697783125564456,
        -0.02549988590180874,
        -0.017530934885144234,
        0.3178722560405731,
        -0.3039102554321289,
        0.025199981406331062,
        0.04355337470769882,
        -0.008304710499942303,
        0.11719147115945816,
        -0.009850400499999523,
        -0.25412875413894653,
        0.16777846217155457,
        0.06143171712756157,
        0.268267422914505,
        0.12131304293870926,
        -0.04015364497900009,
        0.009327499195933342,
        0.292378693819046,
        0.015489554032683372,
        0.26365044713020325,
        0.20739753544330597,
        -0.20774388313293457,
        -0.10785077512264252,
        -0.2812347412109375,
        0.2612943947315216,
        0.11229757219552994,
        0.10171333700418472,
        -0.1681298315525055,
        -0.36757540702819824,
        0.3712750971317291,
        0.05242887884378433,
        -0.14495113492012024,
        -0.2733350694179535,
        0.043370962142944336,
        0.1650705486536026,
        0.24594639241695404,
        -0.03899995982646942,
        0.1718868464231491,
        -0.38363954424858093,
        0.22698043286800385,
        0.48612096905708313,
        0.0014315983280539513,
        -0.10697328299283981,
        -0.11463703960180283,
        -0.08957836776971817,
        -0.04517735168337822,
        0.10635574162006378,
        -0.07165680080652237,
        0.06325038522481918,
        0.08334415405988693,
        -0.09677358716726303,
        0.1743139773607254,
        -0.19994400441646576,
        -0.195003941655159,
        0.2545998692512512,
        -0.11356331408023834,
        -0.6132267713546753,
        0.1004849299788475,
        0.15891669690608978,
        0.026739584282040596,
        -0.11211705952882767,
        -0.0338117890059948,
        -0.057355042546987534,
        -0.2899526059627533,
        -0.3565649390220642,
        -0.13974417746067047,
        0.0033121195156127214,
        0.2449970543384552,
        -0.18207888305187225,
        -0.1827685534954071,
        0.07486876845359802,
        0.17227785289287567,
        -0.30220621824264526,
        0.15566739439964294,
        -0.18166720867156982,
        0.16067254543304443,
        -0.0553395077586174,
        0.1742543876171112,
        0.1978043019771576,
        -0.08794447779655457,
        -0.06252807378768921,
        -0.02276449091732502,
        -0.05804192274808884,
        -0.26761072874069214,
        0.14285609126091003,
        0.2747113108634949,
        -0.007981366477906704,
        0.0246131494641304,
        -0.08236341923475266,
        0.12955540418624878,
        -0.20817019045352936,
        -0.11833753436803818,
        -0.4247426986694336,
        0.08899769186973572,
        0.023930540308356285,
        0.26184993982315063,
        0.10135602205991745,
        0.38270679116249084,
        -0.269647479057312,
        0.12379663437604904,
        -0.0082961181178689,
        -0.24649053812026978,
        -0.2199527472257614,
        0.18842993676662445,
        0.006138372700661421,
        0.039590589702129364,
        -0.13645407557487488,
        -0.08583742380142212,
        0.16406802833080292,
        -0.13200163841247559,
        0.5005689859390259,
        0.11099345982074738,
        0.3976020812988281,
        0.003001720877364278,
        -0.16411635279655457,
        0.154159277677536,
        -0.0862688198685646,
        0.09520039707422256,
        -0.008090432733297348,
        0.007967890240252018,
        -0.47427067160606384,
        0.2885816991329193,
        -0.02245287224650383,
        -0.014530467800796032,
        0.108860082924366,
        -0.004693308379501104,
        -0.15347382426261902,
        -0.13845059275627136,
        -0.3645821809768677,
        0.037532489746809006,
        -0.1690647304058075,
        -0.1193862035870552,
        0.12293615192174911,
        0.08904795348644257,
        -0.32051944732666016,
        0.0481986477971077,
        -0.04342922195792198,
        -0.08399872481822968,
        0.3114645183086395,
        0.14607921242713928,
        0.1594763994216919,
        -0.08966866135597229,
        0.16163553297519684,
        0.08052550256252289,
        -0.11113840341567993,
        -0.16167251765727997,
        0.12905676662921906,
        0.030511723831295967,
        -0.0766792893409729,
        0.16609033942222595,
        0.15469825267791748,
        0.029765091836452484,
        -0.5604344606399536,
        -0.21952910721302032,
        -0.26250889897346497,
        0.3032887279987335,
        0.33261504769325256,
        0.009281461127102375,
        0.08137835562229156,
        -0.1596910059452057,
        0.11933216452598572,
        -0.27806907892227173,
        0.0767832100391388,
        -0.06412852555513382,
        -0.016664540395140648,
        0.1507977396249771,
        0.16572074592113495,
        0.13434161245822906,
        0.3456493318080902,
        -0.49829766154289246,
        -0.2758820652961731,
        -0.12842732667922974,
        0.08472847938537598,
        -0.23455558717250824,
        -0.43096745014190674,
        0.017875077202916145,
        0.22111281752586365,
        -0.002910128328949213,
        -0.09148989617824554,
        -0.11110652983188629,
        -0.25527235865592957,
        0.005184987559914589,
        0.11209622770547867,
        0.010219895280897617,
        0.3680724799633026,
        0.11517500877380371,
        0.22543346881866455,
        -0.1139860451221466,
        0.31037163734436035,
        -0.1204560324549675,
        -0.16047710180282593,
        -0.00010075612226501107,
        0.22288526594638824,
        -0.06462731957435608,
        0.09180691093206406,
        -0.05102879926562309,
        -0.0356309674680233,
        0.16815701127052307,
        -0.28820621967315674,
        -0.16305787861347198,
        0.11729837208986282,
        -0.13014884293079376,
        -0.6064698696136475,
        -0.2945573627948761,
        0.3139803111553192,
        -0.15004973113536835,
        0.04427587613463402,
        0.1500040888786316,
        0.20709943771362305,
        -0.1167830377817154,
        0.06492570787668228,
        0.23988938331604004,
        0.1844494342803955,
        0.19584894180297852,
        -0.005772539880126715,
        0.05320921912789345,
        0.28837817907333374,
        -0.17605210840702057,
        0.402153342962265,
        0.32808029651641846,
        0.10556522011756897,
        0.0901261419057846,
        0.2176729142665863,
        -0.0339617058634758,
        -0.08874218910932541,
        0.19624033570289612,
        0.24149468541145325,
        0.22377750277519226,
        0.15425345301628113,
        0.11877645552158356,
        0.13486039638519287,
        0.09522808343172073,
        -0.3057793974876404,
        -0.15477369725704193,
        -0.07513723522424698,
        -0.005890600383281708,
        0.012422941625118256,
        0.16407956182956696,
        -0.16089537739753723,
        0.02928619086742401,
        -0.13892847299575806,
        -0.015074160881340504,
        0.025800518691539764,
        -0.07790709286928177,
        -0.09551504999399185,
        0.011181664653122425,
        -0.17729617655277252,
        0.15702341496944427,
        0.14626987278461456,
        0.2315576672554016,
        0.059149209409952164,
        0.1964263916015625,
        -0.12373781949281693,
        0.00906175933778286,
        0.05267498642206192,
        -0.19903339445590973,
        -0.07928191870450974,
        -0.1949593871831894,
        -0.04265041649341583,
        -0.024290429428219795,
        -0.0021069147624075413,
        -0.030293956398963928,
        -0.07715766876935959,
        -0.16646702587604523,
        -0.2577677369117737,
        0.19668787717819214,
        -0.32779550552368164,
        -0.277700275182724,
        -0.07545644789934158,
        0.0031853115651756525,
        0.15727293491363525,
        -0.16210044920444489,
        0.31929823756217957,
        0.14970730245113373,
        0.11438775062561035,
        0.059022050350904465,
        0.0887049213051796,
        -0.1575811207294464,
        -0.06168292835354805,
        -0.17696979641914368,
        0.3329389989376068,
        0.06699191778898239,
        -0.3380786180496216,
        0.15741191804409027,
        -0.20284080505371094,
        0.06391435116529465,
        -0.0462937094271183,
        0.01265509333461523,
        -0.19587592780590057,
        -0.31239762902259827,
        -0.34773698449134827,
        -0.06483641266822815,
        0.24160818755626678,
        -0.30275028944015503,
        0.11240963637828827,
        0.2791043817996979,
        -0.13881784677505493,
        -0.18208979070186615,
        0.1415710598230362,
        -0.009592938236892223,
        -0.03797100856900215,
        -0.07398759573698044,
        0.07031314074993134,
        -0.21305620670318604,
        -0.1230553612112999,
        -0.004084781743586063,
        0.043169643729925156,
        0.15049026906490326,
        -0.08943566679954529,
        -0.0785348191857338,
        0.010795854032039642,
        -0.039847053587436676,
        0.22099237143993378,
        -0.07359097898006439,
        0.09253495186567307,
        0.23834773898124695,
        0.1904178112745285,
        -0.006219637580215931,
        -0.11579538881778717,
        -0.012842413038015366,
        0.3244034945964813,
        0.41371026635169983,
        -0.29495739936828613,
        0.3505818247795105,
        0.07519330084323883,
        0.009071764536201954,
        -0.1118139922618866,
        0.2733100652694702,
        -0.00857839360833168,
        0.2795896530151367,
        0.09534501284360886,
        -0.008188615553081036,
        0.2482493817806244,
        -0.3757579028606415,
        0.03127346932888031,
        0.4950900971889496,
        0.2778843343257904,
        -0.12945117056369781,
        -0.10971155017614365,
        -0.18806475400924683,
        -0.1270771473646164,
        0.04657883569598198,
        -0.39646971225738525,
        -0.1403755098581314,
        0.32452961802482605,
        0.005486129783093929,
        -0.03425450995564461,
        -0.3031628131866455,
        -0.5060060024261475,
        0.12065255641937256,
        0.07881230115890503,
        0.0022385716438293457,
        0.11516633629798889,
        -0.05766583979129791,
        0.14112505316734314,
        0.3349878191947937,
        -0.07353892922401428,
        0.007642337121069431,
        -0.07396425306797028,
        -0.045463334769010544,
        -0.4201812446117401,
        -0.5078495144844055,
        -0.17872634530067444,
        0.04863571748137474,
        0.005389311350882053,
        -0.16743215918540955,
        -0.4925374984741211,
        -0.19085025787353516,
        0.14286234974861145,
        0.036552395671606064,
        -0.2455017864704132,
        0.037679076194763184,
        -0.1219426617026329,
        -0.09070110321044922,
        -0.20655228197574615,
        0.3101905286312103,
        -0.2118089646100998,
        0.02526424638926983,
        -0.27662307024002075,
        0.0005923587013967335,
        0.010076669976115227,
        0.03213220834732056,
        -0.11302898824214935,
        -0.13877572119235992,
        -0.16960279643535614,
        -0.28450676798820496,
        0.09021808207035065,
        0.34704527258872986,
        -0.07915668189525604,
        -0.22936493158340454,
        0.15551812946796417,
        -0.10527544468641281,
        -0.3312281668186188,
        -0.15575170516967773,
        -0.29507070779800415,
        -0.10844901949167252,
        -0.02004876546561718,
        0.3856964707374573,
        0.16672050952911377,
        -0.4492485225200653,
        0.2131287157535553,
        0.08238181471824646,
        -0.2930167019367218,
        -0.24766989052295685,
        0.04688984528183937,
        0.011942226439714432,
        -0.08283168822526932,
        -0.0012490064837038517,
        0.2987247407436371,
        0.15514910221099854,
        0.08868382126092911,
        0.06844445317983627,
        -0.6511061191558838,
        -0.21621404588222504,
        -0.08600938320159912,
        0.15804021060466766,
        -0.16151803731918335,
        -0.04084604233503342,
        0.10629548877477646,
        0.26410987973213196,
        -0.1453990787267685,
        -0.28556308150291443,
        0.21599017083644867,
        0.10269959270954132,
        0.042578913271427155,
        0.27068233489990234,
        -0.14922991394996643,
        0.08696392923593521,
        0.16645045578479767,
        0.011119687929749489,
        0.20860400795936584,
        0.08546461164951324,
        -0.36518046259880066,
        0.049155812710523605,
        0.16313722729682922,
        -0.05358411371707916,
        0.3027145564556122,
        0.11977367848157883,
        0.04503319412469864,
        0.3107004165649414,
        0.3210981786251068,
        -0.05138994753360748,
        -0.28161248564720154,
        -0.006507270038127899,
        -0.1853034943342209,
        -0.005258624441921711,
        -0.05133747681975365,
        -0.11646875739097595,
        0.22888976335525513,
        0.13794651627540588,
        -0.10396680235862732,
        0.06284696608781815,
        -0.10818573087453842,
        0.11810709536075592,
        0.27441808581352234,
        -0.2378065288066864,
        0.05151181295514107,
        -0.12533654272556305,
        0.4340815842151642,
        -0.3179219961166382,
        0.028554892167448997,
        -0.15888452529907227,
        0.20412853360176086,
        0.03538312762975693,
        -0.1774044930934906,
        0.07884953171014786,
        -0.24127143621444702,
        0.09534499794244766,
        -0.07668966054916382,
        -0.16095401346683502,
        0.03097236156463623,
        -0.014107923023402691,
        -0.27967193722724915,
        -0.22898074984550476,
        0.20946988463401794,
        -0.13241629302501678,
        -0.17695868015289307,
        -0.1844128668308258,
        0.07708550989627838,
        -0.14334091544151306,
        0.17069435119628906,
        0.06956982612609863,
        -0.27759385108947754,
        0.08007294684648514,
        0.00939569715410471,
        -0.022309252992272377,
        -0.05472560599446297,
        0.26901623606681824,
        0.09829343110322952,
        -0.07802383601665497,
        -0.14694927632808685,
        -0.008271480910480022,
        -0.12189440429210663,
        0.06264174729585648,
        -0.179933100938797,
        -0.1024799719452858,
        -0.08665420114994049,
        -0.0038313576951622963,
        -0.0013386780628934503,
        -0.10354132205247879,
        -0.36645805835723877,
        -0.0006907446659170091,
        -0.13305605947971344,
        -0.044043149799108505,
        -0.082145556807518,
        -0.018208518624305725,
        -0.037396788597106934,
        0.19990643858909607,
        -0.2668929994106293,
        0.0044584427960217,
        -0.22794102132320404,
        0.13793668150901794,
        0.590298056602478,
        0.3775545656681061,
        0.06030456721782684,
        -0.056748438626527786,
        0.18427516520023346,
        0.08793867379426956,
        0.008848719298839569,
        -0.003703973488882184,
        0.10339190810918808,
        0.2718759775161743,
        -0.03781607374548912,
        0.12921647727489471,
        0.373007208108902,
        0.0923532098531723,
        0.006521802395582199,
        0.07024924457073212,
        -0.14851659536361694,
        0.3159158229827881,
        -0.04020150378346443,
        0.25876083970069885,
        -0.3527106046676636,
        0.03796524181962013,
        -0.02764405496418476,
        -0.0860736221075058,
        -0.12004046142101288,
        -0.006593397818505764,
        0.03204445540904999,
        -0.09211214631795883,
        0.0229782834649086,
        0.1516113579273224,
        -0.07311003655195236,
        0.1156388446688652,
        0.01926359161734581,
        0.5565048456192017,
        0.1668250560760498,
        0.15006093680858612,
        0.14816606044769287,
        -0.0027404562570154667,
        0.18549473583698273,
        0.3008343279361725,
        -0.1332779824733734,
        -0.0649835467338562,
        0.11294881254434586,
        -0.006792598403990269,
        0.23712366819381714,
        -0.15893910825252533,
        -0.019653934985399246,
        -0.021942216902971268,
        0.09940245002508163,
        0.020603671669960022,
        0.014848217368125916,
        -0.2736520767211914,
        0.035592254251241684,
        -0.20094721019268036,
        0.09451700747013092,
        0.18255147337913513,
        -0.20023584365844727,
        0.17049822211265564,
        0.14066845178604126,
        -0.032687000930309296,
        -0.022175367921590805,
        -0.004651096183806658,
        0.05263367295265198,
        0.09617825597524643,
        0.0749523937702179,
        -0.3408067524433136,
        -0.16650390625,
        0.06539598107337952,
        0.02094433084130287,
        0.14182014763355255,
        -0.09661433845758438,
        0.5708461999893188,
        -0.2946416437625885,
        0.12021347880363464,
        0.2725841999053955,
        -0.07152284681797028,
        0.004485079552978277,
        -0.007328264880925417,
        0.027821674942970276,
        0.00531239528208971,
        0.05449657887220383,
        0.3246188163757324,
        -0.12974917888641357,
        -0.24783770740032196,
        -0.10112321376800537,
        -0.06387031823396683,
        0.012782895006239414,
        -0.3190730810165405,
        0.01935013383626938,
        0.14551885426044464,
        0.10567529499530792,
        -0.30682098865509033,
        0.12172897905111313,
        0.03974044695496559,
        0.14873699843883514,
        -0.18358182907104492,
        -0.3779242932796478,
        0.1984241008758545,
        -0.2510533034801483,
        0.38863134384155273,
        -0.4699608087539673,
        -0.3548884987831116,
        0.02065793052315712,
        0.43594807386398315,
        -0.13058631122112274,
        0.1355309933423996,
        -0.16845788061618805,
        -0.05030497536063194,
        0.27535006403923035,
        -0.14166948199272156,
        0.2967798411846161,
        0.11057943105697632,
        0.2592169940471649,
        0.07596120238304138,
        0.19082212448120117,
        -0.06387695670127869,
        -0.22923403978347778,
        0.032771944999694824,
        -0.03900523483753204,
        0.10237579047679901,
        -0.09309043735265732,
        0.14135518670082092,
        -0.3965633809566498,
        -0.1969754546880722,
        0.12382923811674118,
        -0.036974113434553146,
        -0.0034022347535938025,
        0.0879550650715828,
        0.15202254056930542,
        0.15445078909397125,
        -0.3374277949333191,
        0.37386366724967957,
        -0.042514603585004807,
        0.17312929034233093,
        0.39760223031044006,
        0.10289669036865234,
        0.024909840896725655,
        -0.05758937820792198,
        -0.29568469524383545,
        0.22996701300144196,
        0.23057115077972412,
        -0.04060985893011093,
        -0.030048957094550133,
        -0.2932964563369751,
        -0.3485281765460968,
        0.02808624878525734,
        0.06832482665777206,
        0.0029325331561267376,
        0.06007515266537666,
        -0.06030295044183731,
        -0.0038621642161160707,
        -0.0416969396173954,
        -0.5682118535041809,
        -0.196481853723526,
        0.028364676982164383,
        -0.3186817169189453,
        -0.0572391115128994,
        0.16020236909389496,
        -0.2771606147289276,
        0.15228277444839478,
        0.11878635734319687,
