{
  "input_sequences": [],
  "inputs": [
    {
      "name": "dNN",
      "variables": [
        {
          "name": "hitX1",
          "offset": 0,
          "scale": 1
        },
        {
          "name": "hitX2",
          "offset": 0,
          "scale": 1
        },
        {
          "name": "hitX3",
          "offset": 0,
          "scale": 1
        },
        {
          "name": "hitX4",
          "offset": 0,
          "scale": 1
        },
        {
          "name": "hitX5",
          "offset": 0,
          "scale": 1
        },
        {
          "name": "hitX6",
          "offset": 0,
          "scale": 1
        },
        {
          "name": "hitX7",
          "offset": 0,
          "scale": 1
        },
        {
          "name": "hitX8",
          "offset": 0,
          "scale": 1
        },
        {
          "name": "hitY1",
          "offset": 0,
          "scale": 1
        },
        {
          "name": "hitY2",
          "offset": 0,
          "scale": 1
        },
        {
          "name": "hitY3",
          "offset": 0,
          "scale": 1
        },
        {
          "name": "hitY4",
          "offset": 0,
          "scale": 1
        },
        {
          "name": "hitY5",
          "offset": 0,
          "scale": 1
        },
        {
          "name": "hitY6",
          "offset": 0,
          "scale": 1
        },
        {
          "name": "hitY7",
          "offset": 0,
          "scale": 1
        },
        {
          "name": "hitY8",
          "offset": 0,
          "scale": 1
        },
        {
          "name": "hitZ1",
          "offset": 0,
          "scale": 1
        },
        {
          "name": "hitZ2",
          "offset": 0,
          "scale": 1
        },
        {
          "name": "hitZ3",
          "offset": 0,
          "scale": 1
        },
        {
          "name": "hitZ4",
          "offset": 0,
          "scale": 1
        },
        {
          "name": "hitZ5",
          "offset": 0,
          "scale": 1
        },
        {
          "name": "hitZ6",
          "offset": 0,
          "scale": 1
        },
        {
          "name": "hitZ7",
          "offset": 0,
          "scale": 1
        },
        {
          "name": "hitZ8",
          "offset": 0,
          "scale": 1
        }
      ]
    }
  ],
  "layers": [
    {
      "activation": "rectified",
      "architecture": "dense",
      "bias": [
        0.0,
        -0.02265525795519352,
        -0.003680063644424081,
        0.005934893153607845,
        0.0,
        0.005309741944074631,
        0.0,
        0.03222224861383438,
        0.0,
        -0.009377310052514076,
        0.003703685011714697,
        0.015054323710501194,
        0.0,
        0.03526366502046585,
        -0.020983071997761726,
        0.0,
        -0.0007586777792312205,
        0.0061044408939778805,
        0.0,
        -0.00038101713289506733,
        -0.0074453530833125114,
        0.0,
        0.0,
        -7.775869016768411e-05,
        0.0,
        -0.009442262351512909,
        0.019792838022112846,
        -0.016461174935102463,
        0.033535074442625046,
        -0.001175598823465407,
        -0.004139034543186426,
        0.0,
        0.04546814784407616,
        0.012990211136639118,
        0.004809395410120487,
        0.0,
        0.0,
        0.013090193271636963,
        -0.012223201803863049,
        0.0,
        -0.011227583512663841,
        -0.008106851018965244,
        0.0,
        -0.011655176058411598,
        0.0,
        0.0077164750546216965,
        0.0,
        0.0,
        0.0061109354719519615,
        -0.03420884907245636,
        0.025616932660341263,
        0.015058335848152637,
        0.035227298736572266,
        0.0,
        0.0041115498170256615,
        0.0,
        -0.044704802334308624,
        -0.014678264036774635,
        0.0,
        0.01251982618123293,
        -0.013978701084852219,
        0.003624630393460393,
        -0.02819683589041233,
        0.03671925142407417
      ],
      "weights": [
        -0.18006236851215363,
        0.17752841114997864,
        -0.13933943212032318,
        0.01672261953353882,
        -0.2015330046415329,
        -0.2256649136543274,
        0.24051550030708313,
        0.059815436601638794,
        0.05918234586715698,
        -0.00388982892036438,
        -0.23086918890476227,
        0.18190431594848633,
        -0.26102596521377563,
        -0.12584708631038666,
        0.010013461112976074,
        -0.0011761188507080078,
        -0.15264469385147095,
        -0.015184178948402405,
        0.13411399722099304,
        -0.19683337211608887,
        0.24386247992515564,
        -0.011206716299057007,
        0.06424704194068909,
        0.13960009813308716,
        0.12699119746685028,
        0.1405733972787857,
        -0.09107322245836258,
        -0.0380757600069046,
        0.2254752218723297,
        0.1656220406293869,
        -0.2158500850200653,
        0.2320709079504013,
        -0.03530312329530716,
        -0.07545364648103714,
        -0.029522763565182686,
        0.2431849092245102,
        0.1107780933380127,
        0.10934124141931534,
        0.08743586391210556,
        0.05239430442452431,
        0.030831918120384216,
        0.056943051517009735,
        -0.3042179346084595,
        0.016499342396855354,
        -0.1540597826242447,
        -0.011163360439240932,
        0.057687580585479736,
        -0.1172533929347992,
        0.19646137952804565,
        0.1333075612783432,
        -0.19373297691345215,
        -0.17865414917469025,
        -0.1658620834350586,
        -0.15089082717895508,
        -0.20929162204265594,
        0.14493773877620697,
        0.19559679925441742,
        0.20085972547531128,
        -0.01605554111301899,
        -0.20904813706874847,
        0.18271714448928833,
        -0.13330310583114624,
        -0.08985503017902374,
        0.12956884503364563,
        -0.19220545887947083,
        -0.0411982424557209,
        -0.33383074402809143,
        0.006739950738847256,
        0.12947548925876617,
        0.02542145736515522,
        -0.04334456846117973,
        0.04056423157453537,
        -0.29943689703941345,
        -0.033265095204114914,
        0.08870738744735718,
        -0.10263717919588089,
        0.13367006182670593,
        0.21661530435085297,
        0.07111115008592606,
        0.07931406795978546,
        -0.10836029052734375,
        -0.1350211799144745,
        -0.20001211762428284,
        0.21266962587833405,
        -0.04519421607255936,
        0.04448612779378891,
        0.18833059072494507,
        -0.20799992978572845,
        -0.1932658851146698,
        -0.001332390122115612,
        -0.21317730844020844,
        -0.19395096600055695,
        -0.12106289714574814,
        0.09888717532157898,
        0.13428327441215515,
        0.17693495750427246,
        -0.020253926515579224,
        0.09477946162223816,
        0.19826865196228027,
        -0.2208387851715088,
        -0.13620203733444214,
        0.15015175938606262,
        0.21958675980567932,
        0.1665830910205841,
        -0.18657934665679932,
        0.07213431596755981,
        0.2557860314846039,
        -0.19059473276138306,
        0.21782273054122925,
        -0.17096790671348572,
        -0.18742632865905762,
        -0.10743945837020874,
        -0.1806480586528778,
        0.03302118182182312,
        0.11058515310287476,
        -0.21586604416370392,
        0.08913183212280273,
        0.18681997060775757,
        0.22289201617240906,
        0.014112532138824463,
        -0.1497052162885666,
        -0.06446272134780884,
        0.10523990541696548,
        -0.07002623379230499,
        -0.17424166202545166,
        -0.024158883839845657,
        -0.0934692770242691,
        0.18683654069900513,
        0.07716161012649536,
        0.05387492477893829,
        0.07911203801631927,
        0.26085609197616577,
        0.09778231382369995,
        -0.17815616726875305,
        -0.2501975893974304,
        0.06561355292797089,
        -0.10402703285217285,
        -0.07165218889713287,
        0.06497732549905777,
        -0.08053568005561829,
        0.04882005229592323,
        0.023474756628274918,
        -0.07602940499782562,
        0.021214816719293594,
        -0.04700273275375366,
        -0.23754186928272247,
        0.19273915886878967,
        0.23585107922554016,
        0.003323107957839966,
        -0.19832494854927063,
        0.026047885417938232,
        -0.20822598040103912,
        -0.15972596406936646,
        0.2371414303779602,
        -0.10336712002754211,
        0.11651924252510071,
        -0.12972526252269745,
        -0.25018903613090515,
        -0.13597536087036133,
        -0.035710468888282776,
        -0.012781202793121338,
        -0.1606137752532959,
        0.07550835609436035,
        0.04123038053512573,
        -0.04055453836917877,
        -0.25015655159950256,
        0.0771540105342865,
        -0.11361920833587646,
        -0.28759002685546875,
        -0.09332644194364548,
        -0.14864298701286316,
        -0.2825414538383484,
        0.2216370850801468,
        -0.1929219365119934,
        0.18992507457733154,
        -0.053428564220666885,
        -0.05308031663298607,
        0.09584083408117294,
        0.12243731319904327,
        0.10837648063898087,
        0.10052693635225296,
        -0.05910781770944595,
        -0.13878057897090912,
        -0.030878713354468346,
        0.36013156175613403,
        -0.33107131719589233,
        -0.34326744079589844,
        -0.0390092171728611,
        -0.06809849292039871,
        0.2564287483692169,
        -0.03450552374124527,
        0.0853375792503357,
        -0.017041370272636414,
        0.2196500301361084,
        0.01778477430343628,
        -0.1285763531923294,
        0.0833635926246643,
        -0.22072012722492218,
        0.07658812403678894,
        -0.10445645451545715,
        0.02916020154953003,
        0.10892915725708008,
        -0.14761623740196228,
        -0.22765956819057465,
        -0.20891091227531433,
        0.2541734278202057,
        -0.10623389482498169,
        -0.1549743413925171,
        0.25970587134361267,
        0.20432394742965698,
        0.17391660809516907,
        0.011975377798080444,
        -0.01426580548286438,
        -0.22212721407413483,
        -0.11174564063549042,
        0.1904633641242981,
        0.028077438473701477,
        0.013268177397549152,
        -0.24586115777492523,
        0.045151662081480026,
        0.17012974619865417,
        0.1322849541902542,
        -0.18820858001708984,
        0.1484990119934082,
        0.1952233463525772,
        0.09274005889892578,
        -0.20417381823062897,
        -0.1810464859008789,
        -0.045183729380369186,
        -0.004516004119068384,
        0.1314985156059265,
        0.17835336923599243,
        -0.5884771347045898,
        0.308578759431839,
        0.06934560090303421,
        0.06612180173397064,
        0.2861906588077545,
        -0.150782972574234,
        0.054896432906389236,
        -0.2088192105293274,
        -0.16825708746910095,
        -0.02584664337337017,
        0.07290355116128922,
        0.18114344775676727,
        0.11455690115690231,
        -0.2044702023267746,
        -0.2206181287765503,
        0.17235137522220612,
        0.13896910846233368,
        0.09568528085947037,
        0.10038963705301285,
        0.10330244153738022,
        -0.16261602938175201,
        0.23753981292247772,
        -0.04422122612595558,
        -0.1265307068824768,
        0.3338538706302643,
        -0.1513839215040207,
        -0.03980656713247299,
        -0.05233097821474075,
        0.04821357503533363,
        0.02931346744298935,
        -0.06509940326213837,
        0.2184138000011444,
        -0.18461917340755463,
        -0.17497171461582184,
        -0.12852875888347626,
        -0.19935153424739838,
        0.15527091920375824,
        0.207010880112648,
        -0.12328112125396729,
        0.10856032371520996,
        -0.14297400414943695,
        0.1543927937746048,
        -0.20329058170318604,
        0.016101175919175148,
        -0.050134435296058655,
        -0.16644996404647827,
        0.20441678166389465,
        0.10239199548959732,
        0.295550674200058,
        0.10357081145048141,
        -0.11800708621740341,
        -0.19621382653713226,
        -0.21220815181732178,
        0.18804581463336945,
        -0.06680043041706085,
        -0.17127786576747894,
        0.06097176671028137,
        -0.24600251019001007,
        0.013760656118392944,
        -0.1077842265367508,
        0.03512454032897949,
        -0.1773739457130432,
        -0.23921865224838257,
        -0.05296047031879425,
        0.1526755690574646,
        -0.2433706820011139,
        -0.2413061261177063,
        0.19838714599609375,
        0.05273255705833435,
        -0.21125897765159607,
        -0.05372758209705353,
        0.08163562417030334,
        -0.2285347580909729,
        0.07209411263465881,
        0.06265854835510254,
        -0.2026989758014679,
        0.06683743000030518,
        0.24239155650138855,
        -0.16643667221069336,
        -0.21014679968357086,
        0.005760998465120792,
        0.16717781126499176,
        -0.08812335133552551,
        0.023557450622320175,
        0.2258964478969574,
        0.11796633154153824,
        -0.03924725949764252,
        -0.1730208545923233,
        -0.19853711128234863,
        0.07890752702951431,
        -0.013364668004214764,
        -0.09439054131507874,
        0.06042131036520004,
        0.03361205384135246,
        0.1727033108472824,
        -0.0538453571498394,
        -0.13610702753067017,
        0.16339866816997528,
        -0.1554243564605713,
        0.01842363364994526,
        -0.2836003303527832,
        0.26937219500541687,
        -0.004925969988107681,
        -0.13618811964988708,
        0.07307672500610352,
        -0.29857587814331055,
        0.010566032491624355,
        -0.03206271305680275,
        -0.11625984311103821,
        0.011330424807965755,
        0.12514254450798035,
        0.041628144681453705,
        0.11953049898147583,
        -0.11750064790248871,
        -0.023196056485176086,
        0.1850631982088089,
        -0.06010938063263893,
        0.23876450955867767,
        -0.038661468774080276,
        0.10334938764572144,
        0.17526163160800934,
        -0.34253057837486267,
        0.00927222240716219,
        0.016755593940615654,
        0.1706288605928421,
        -0.42462536692619324,
        0.41143837571144104,
        -0.26989924907684326,
        -0.1829499453306198,
        -0.046115025877952576,
        -0.1833348572254181,
        0.21532678604125977,
        -0.22634050250053406,
        -0.046098098158836365,
        0.13938561081886292,
        -0.11513157188892365,
        -0.04810918867588043,
        0.17168408632278442,
        -0.1502399742603302,
        -0.13942402601242065,
        0.05596202611923218,
        -0.22822988033294678,
        0.05915111303329468,
        -0.06756250560283661,
        0.10212314128875732,
        -0.08818946778774261,
        0.05596277117729187,
        -0.25125035643577576,
        -0.008961498737335205,
        0.03984072804450989,
        0.12235671281814575,
        -0.10059943795204163,
        0.17033691704273224,
        0.1692693829536438,
        -0.11133872717618942,
        -0.020311987027525902,
        0.0874289870262146,
        -0.017045367509126663,
        -0.19486674666404724,
        0.24366769194602966,
        -0.023392973467707634,
        0.05854874476790428,
        0.1589917689561844,
        -0.07014402002096176,
        0.11767792701721191,
        -0.1266881823539734,
        -0.006120695732533932,
        -0.23678472638130188,
        0.11150437593460083,
        0.011394951492547989,
        0.12142563611268997,
        0.0553426668047905,
        -0.037428684532642365,
        -0.0561511293053627,
        -0.020184889435768127,
        -0.02738511562347412,
        0.18981467187404633,
        0.16909858584403992,
        -0.1586710661649704,
        0.16287970542907715,
        -0.2347867339849472,
        0.23313194513320923,
        -0.017757661640644073,
        0.23832851648330688,
        0.20283466577529907,
        0.23235370218753815,
        -0.22050367295742035,
        -0.07218553125858307,
        0.08988743275403976,
        0.11491075158119202,
        -0.24075765907764435,
        -0.15562035143375397,
        -0.20074540376663208,
        0.03968226537108421,
        0.06856134533882141,
        0.20899853110313416,
        0.18927054107189178,
        0.02204054594039917,
        -0.2853153645992279,
        0.11726216971874237,
        0.01476171612739563,
        0.17509609460830688,
        -0.2142736166715622,
        -0.24451953172683716,
        0.1621641218662262,
        -0.12924565374851227,
        0.17039740085601807,
        -0.17462259531021118,
        -0.21887433528900146,
        0.049036771059036255,
        -0.14778918027877808,
        0.05034077167510986,
        -0.048175230622291565,
        -0.19268451631069183,
        0.026956290006637573,
        -0.09152290225028992,
        0.23097166419029236,
        -0.15311703085899353,
        0.16205966472625732,
        0.09636175632476807,
        0.015185177326202393,
        0.08215689659118652,
        -0.11553728580474854,
        0.161698579788208,
        -0.005919697694480419,
        -0.14171990752220154,
        -0.1875336468219757,
        -0.058536745607852936,
        -0.18182581663131714,
        0.12292512506246567,
        0.11117115616798401,
        -0.06945998966693878,
        -0.033317193388938904,
        -0.13789643347263336,
        0.13714854419231415,
        0.053102366626262665,
        0.1719505935907364,
        -0.08225584775209427,
        -0.23201698064804077,
        0.1442657858133316,
        -0.2673594057559967,
        0.453672856092453,
        -0.20803983509540558,
        0.06427687406539917,
        -0.07534272968769073,
        0.35983410477638245,
        0.27411821484565735,
        -0.24751034379005432,
        0.08968476951122284,
        0.13002577424049377,
        0.11152999103069305,
        0.15180028975009918,
        -0.04917607828974724,
        0.11989908665418625,
        -0.1195368692278862,
        -0.1653428077697754,
        0.045651454478502274,
        0.05139060690999031,
        0.06706701964139938,
        0.011458765715360641,
        -0.1072295680642128,
        0.0776805505156517,
        0.07177549600601196,
        0.009632891044020653,
        0.5872284770011902,
        -0.42562049627304077,
        -0.09277404099702835,
        0.13176824152469635,
        -0.10932706296443939,
        -0.20279529690742493,
        0.0628427267074585,
        -0.02911543659865856,
        0.12320873141288757,
        0.1535143256187439,
        -0.12713396549224854,
        0.08557766675949097,
        -0.241272434592247,
        -0.0750502347946167,
        0.2497589886188507,
        0.058276474475860596,
        0.2518579065799713,
        -0.07102948427200317,
        -0.2589021325111389,
        0.14862346649169922,
        0.24929258227348328,
        -0.13513946533203125,
        -0.25317928194999695,
        -0.16080576181411743,
        0.18717369437217712,
        0.1608055830001831,
        0.2554375231266022,
        0.11524921655654907,
        0.1137610375881195,
        -0.04192221164703369,
        0.10536667704582214,
        0.05971008539199829,
        -0.24105790257453918,
        -0.0037988126277923584,
        0.05143222212791443,
        -0.054349809885025024,
        0.19927886128425598,
        0.08603021502494812,
        0.020328879356384277,
        -0.2511855661869049,
        -0.08340080082416534,
        -0.023371964693069458,
        -0.20976890623569489,
        -0.18376554548740387,
        -0.22711072862148285,
        -0.15137115120887756,
        -0.1544196605682373,
        0.17244839668273926,
        0.012632966041564941,
        0.09304067492485046,
        0.16407546401023865,
        -0.21611705422401428,
        0.17658984661102295,
        0.2142978310585022,
        0.07002300024032593,
        0.22165066003799438,
        -0.23254463076591492,
        -0.05092533677816391,
        0.13632690906524658,
        -0.041604433208703995,
        -0.11287258565425873,
        -0.11923796683549881,
        0.08680880069732666,
        0.01593458466231823,
        0.003016035770997405,
        -0.004673006944358349,
        -0.2278737872838974,
        -0.12503625452518463,
        0.07627430558204651,
        0.23300524055957794,
        -0.07064426690340042,
        -0.08771414309740067,
        0.27378368377685547,
        0.2537657916545868,
        0.2273368090391159,
        -0.22282959520816803,
        -0.13951237499713898,
        0.15941867232322693,
        -0.2153303623199463,
        -0.025933057069778442,
        0.0224057137966156,
        -0.21802666783332825,
        -0.10160797834396362,
        -0.060696035623550415,
        0.013587146997451782,
        -0.25965237617492676,
        -0.2219507247209549,
        0.013323992490768433,
        -0.17856371402740479,
        -0.10328873991966248,
        -0.1551383137702942,
        -0.2458404004573822,
        -0.16780492663383484,
        -0.11528073251247406,
        0.19707182049751282,
        -0.2442261278629303,
        -0.20154769718647003,
        0.14585641026496887,
        -0.2527698874473572,
        0.04364138841629028,
        -0.20888862013816833,
        0.0889226496219635,
        0.018043190240859985,
        -0.005041658878326416,
        0.04548526927828789,
        0.24653375148773193,
        0.2595651149749756,
        0.011075291782617569,
        0.2630246877670288,
        -0.019288668408989906,
        0.1498938798904419,
        -0.06906275451183319,
        0.06512554734945297,
        -0.09241842478513718,
        -0.009653578512370586,
        0.0038331744726747274,
        0.19071468710899353,
        -0.09700187295675278,
        -0.031111931428313255,
        0.2870543599128723,
        -0.13593338429927826,
        0.144687682390213,
        0.024832896888256073,
        -0.04586436226963997,
        0.056271426379680634,
        0.007437496911734343,
        -0.030491821467876434,
        0.11205891519784927,
        -0.25339746475219727,
        -0.19302324950695038,
        0.05411864444613457,
        -0.07391083985567093,
        0.04868851602077484,
        0.14638349413871765,
        0.06281370669603348,
        0.11880888789892197,
        0.1659889817237854,
        -0.026169756427407265,
        0.1573265939950943,
        -0.06690298020839691,
        -0.14114698767662048,
        0.17043714225292206,
        0.12255481630563736,
        0.008456175215542316,
        0.012225582264363766,
        -0.22041621804237366,
        0.3000250458717346,
        -0.13631953299045563,
        -0.1552300751209259,
        0.32016998529434204,
        -0.2507184147834778,
        0.2126666158437729,
        0.042501963675022125,
        -0.137171670794487,
        -0.09487821161746979,
        -0.07253773510456085,
        -0.15315912663936615,
        0.03172548487782478,
        -0.07468944787979126,
        0.1962955892086029,
        0.02781754359602928,
        0.13636678457260132,
        0.17249146103858948,
        0.2049858570098877,
        0.3239477574825287,
        0.07186097651720047,
        -0.09380480647087097,
        0.11988261342048645,
        -0.2670445740222931,
        -0.22479040920734406,
        0.1339108943939209,
        0.30380216240882874,
        0.09897568821907043,
        -0.06844192743301392,
        -0.3358744978904724,
        0.039664577692747116,
        -0.1252712905406952,
        -0.0393398255109787,
        -0.08107274770736694,
        -0.08824038505554199,
        0.08395057916641235,
        0.15507255494594574,
        -0.0665026605129242,
        -0.11095806211233139,
        0.11639156192541122,
        -0.1865302175283432,
        0.1449543833732605,
        -0.2922005355358124,
        0.029364699497818947,
        0.08282104134559631,
        0.1028672307729721,
        0.15098364651203156,
        0.012699130922555923,
        -0.14372524619102478,
        -0.12241759896278381,
        -0.02692842297255993,
        0.15141741931438446,
        0.32370343804359436,
        -0.06462857127189636,
        0.19963538646697998,
        -0.11056429147720337,
        0.09208890795707703,
        -0.036493171006441116,
        0.15696579217910767,
        -0.09396510571241379,
        -0.015152839943766594,
        0.007741065695881844,
        0.06456484645605087,
        0.006093868054449558,
        0.08063369989395142,
        0.12393023818731308,
        -0.05546921491622925,
        0.19570870697498322,
        0.05401144549250603,
        0.025905726477503777,
        -0.00685820821672678,
        0.11774112284183502,
        0.05347193777561188,
        -0.10827905684709549,
        -0.324642151594162,
        0.18430493772029877,
        -0.18716919422149658,
        0.22153230011463165,
        -0.007046865299344063,
        -0.1265934556722641,
        -0.1585024893283844,
        -0.02001243829727173,
        -0.19356513023376465,
        0.16259440779685974,
        0.13004039227962494,
        -0.015802808105945587,
        -0.23197993636131287,
        0.057572491466999054,
        -0.1812611073255539,
        -0.08984122425317764,
        0.21937783062458038,
        0.032752204686403275,
        0.228647381067276,
        0.09205202758312225,
        -0.1390717327594757,
        -0.21670694649219513,
        0.23552343249320984,
        0.21035118401050568,
        0.1515461951494217,
        -0.018516218289732933,
        0.12459058314561844,
        0.1695561707019806,
        -0.2826906144618988,
        0.07635888457298279,
        0.030146807432174683,
        -0.13975611329078674,
        0.18458014726638794,
        0.058321624994277954,
        0.20750561356544495,
        -0.18148452043533325,
        -0.24285808205604553,
        -0.25116854906082153,
        0.08639702200889587,
        0.18628233671188354,
        0.007884025573730469,
        0.031048893928527832,
        -0.019703403115272522,
        -0.1559716761112213,
        -0.08229683339595795,
        -0.10491408407688141,
        -0.17697489261627197,
        0.018822550773620605,
        0.03678232431411743,
        0.16450819373130798,
        0.21601152420043945,
        -0.14329493045806885,
        -0.23340371251106262,
        0.014425655826926231,
        -0.18274512887001038,
        0.10703513771295547,
        0.025488203391432762,
        0.1963500678539276,
        0.1036791279911995,
        0.19220536947250366,
        -0.21676191687583923,
        -0.09857674688100815,
        0.051669515669345856,
        0.059183377772569656,
        0.07934922724962234,
        -0.09139347821474075,
        -0.034247659146785736,
        0.22597654163837433,
        -0.18466219305992126,
        -0.04734283313155174,
        0.21961075067520142,
        -0.1997431516647339,
        -0.1668819934129715,
        0.2538369297981262,
        -0.16376987099647522,
        0.1103343814611435,
        0.1607186645269394,
        0.2330414205789566,
        -0.15908634662628174,
        -0.08382619172334671,
        0.2910315692424774,
        0.19795767962932587,
        -0.12717770040035248,
        -0.08680903166532516,
        0.1571430116891861,
        -0.1939883530139923,
        -0.24762436747550964,
        -0.0773998275399208,
        0.03304681181907654,
        0.09296990931034088,
        -0.18765950202941895,
        0.2612610459327698,
        -0.05253336951136589,
        0.11913067102432251,
        -0.06546279788017273,
        -0.0249549001455307,
        -0.12270290404558182,
        -0.15286460518836975,
        0.20372168719768524,
        -0.20189152657985687,
        0.16480576992034912,
        -0.1355060189962387,
        -0.25839364528656006,
        0.1044764518737793,
        -0.16161690652370453,
        0.18848583102226257,
        0.10602942854166031,
        -0.15041397511959076,
        -0.025846391916275024,
        -0.01431187056005001,
        -0.006233492866158485,
        0.1674179583787918,
        0.2754157781600952,
        0.05691957101225853,
        0.023365568369627,
        0.1181674599647522,
        0.2244213968515396,
        0.0714321881532669,
        -0.2801600992679596,
        -0.06241738423705101,
        -0.1583709865808487,
        0.07677073031663895,
        -0.16816547513008118,
        -0.0723394975066185,
        -0.02982363849878311,
        -0.013153806328773499,
        0.18909531831741333,
        0.1239895224571228,
        -0.054566219449043274,
        0.0295352041721344,
        0.03238058090209961,
        -0.0021384060382843018,
        0.09230631589889526,
        -0.15049466490745544,
        0.13339856266975403,
        -0.23686285316944122,
        0.05362316966056824,
        -0.14726853370666504,
        -0.1650613397359848,
        -0.2500744163990021,
        -0.20712736248970032,
        -0.09993948042392731,
        0.03577303886413574,
        0.179301917552948,
        -0.08487357199192047,
        0.10186970233917236,
        -0.13428525626659393,
        0.24246475100517273,
        0.13718116283416748,
        0.1965276300907135,
        0.17286047339439392,
        0.2607511579990387,
        -0.23774930834770203,
        0.07475021481513977,
        -0.24506713449954987,
        0.08992841839790344,
        -0.013196572661399841,
        -0.10710901021957397,
        0.13127553462982178,
        0.0043866634368896484,
        -0.06054094433784485,
        -0.14064037799835205,
        0.0792820155620575,
        -0.059025853872299194,
        0.008577108383178711,
        -0.23382568359375,
        -0.09366248548030853,
        -0.19640681147575378,
        -0.22555261850357056,
        0.08847913146018982,
        0.05188941955566406,
        0.008950889110565186,
        0.13474220037460327,
        0.21135467290878296,
        -0.14291135966777802,
        0.21581074595451355,
        -0.02678939700126648,
        0.14435340464115143,
        -0.23361627757549286,
        -0.19958588480949402,
        0.12968412041664124,
        0.05494440719485283,
        0.06650230288505554,
        -0.057580698281526566,
        0.13055622577667236,
        -0.05126860737800598,
        -0.12378283590078354,
        0.19018127024173737,
        0.16066552698612213,
        -0.04930776357650757,
        0.4169763922691345,
        -0.20953981578350067,
        -0.16761332750320435,
        -0.08008871972560883,
        -0.03505933657288551,
        -0.039133548736572266,
        -0.20374827086925507,
        -0.2376902848482132,
        -0.15445499122142792,
        -0.11760422587394714,
        0.04424266144633293,
        -0.09487570077180862,
        0.12379368394613266,
        -0.09871522337198257,
        -0.1604146510362625,
        0.26624926924705505,
        -0.04574109986424446,
        -0.10900203138589859,
        0.17611946165561676,
        0.05036119371652603,
        0.027383727952837944,
        0.022940343245863914,
        0.06305122375488281,
        0.2791450321674347,
        -0.11765143275260925,
        0.02682461403310299,
        -0.1627090722322464,
        -0.12900537252426147,
        0.3156777322292328,
        -0.09145452082157135,
        -0.2065654844045639,
        -0.04818594455718994,
        0.1342211365699768,
        -0.20779262483119965,
        0.22151705622673035,
        -0.15230852365493774,
        -0.1387416571378708,
        -0.05679437518119812,
        0.17694613337516785,
        0.08544489741325378,
        -0.11498893797397614,
        -0.1936296671628952,
        -0.24190974235534668,
        0.2084270715713501,
        -0.22332070767879486,
        -0.08496390283107758,
        -0.015978246927261353,
        0.1055871844291687,
        0.1835714876651764,
        -0.013335585594177246,
        -0.16174408793449402,
        0.2446506917476654,
        0.12770390510559082,
        -0.22635221481323242,
        -0.1932157278060913,
        0.053569454699754715,
        0.01760716550052166,
        0.225608229637146,
        0.2077697515487671,
        -0.13468009233474731,
        -0.25290679931640625,
        0.08970078080892563,
        0.07977544516324997,
        -0.11825232207775116,
        -0.18385274708271027,
        0.1787298321723938,
        0.05391056463122368,
        -0.09051944315433502,
        0.09293341636657715,
        0.05916324257850647,
        -0.03641919419169426,
        -0.4481036067008972,
        0.37324240803718567,
        0.09123292565345764,
        -0.3408389091491699,
        -0.14314396679401398,
        0.15893632173538208,
        0.1403639018535614,
        0.11785291135311127,
        -0.03504601866006851,
        0.19550316035747528,
        -0.17278867959976196,
        -0.15042567253112793,
        0.1276109218597412,
        0.009682713076472282,
        0.11175903677940369,
        -0.0077348193153738976,
        0.17920653522014618,
        0.12044115364551544,
        0.04008691385388374,
        0.1821403056383133,
        -0.0694861114025116,
        0.08717760443687439,
        0.2189435213804245,
        0.09531896561384201,
        0.10644235461950302,
        0.22229553759098053,
        -0.3988012671470642,
        0.04246138781309128,
        0.2737082540988922,
        -0.09337293356657028,
        -0.18205472826957703,
        0.08838951587677002,
        -0.05198468267917633,
        0.21187904477119446,
        -0.03513398766517639,
        0.1291881799697876,
        0.13605934381484985,
        -0.1660698652267456,
        -0.034798070788383484,
        0.09279391169548035,
        -0.14336788654327393,
        0.17706641554832458,
        -0.07567059993743896,
        0.016844332218170166,
        -0.08911308646202087,
        0.12028461694717407,
        -0.2418932467699051,
        0.04204380512237549,
        -0.059396892786026,
        -0.00781300663948059,
        0.07358890771865845,
        -0.24319443106651306,
        0.1054835319519043,
        0.0786009430885315,
        -0.246283158659935,
        0.2514791786670685,
        -0.18256498873233795,
        0.2374413162469864,
        -0.0666329562664032,
        -0.2233200967311859,
        0.018762771040201187,
        0.08217935264110565,
        -0.05032980814576149,
        0.0375557467341423,
        0.010886539705097675,
        0.21623015403747559,
        0.17011430859565735,
        -0.14048753678798676,
        0.041076019406318665,
        0.09136352688074112,
        0.06274733692407608,
        0.14334964752197266,
        -0.23924896121025085,
        -0.04451308771967888,
        -0.1739320456981659,
        -0.007076053414493799,
        -0.07871485501527786,
        -0.26629209518432617,
        -0.029051924124360085,
        0.20729076862335205,
        0.03495228290557861,
        -0.0012838244438171387,
        0.18693655729293823,
        0.2407495081424713,
        0.2011902928352356,
        -0.04493679106235504,
        0.23417821526527405,
        -0.0632501095533371,
        -0.06768222153186798,
        0.1214267909526825,
        -0.036508709192276,
        -0.11027069389820099,
        -0.025992348790168762,
        -0.24310000240802765,
        -0.09764650464057922,
        -0.25621122121810913,
        -0.09377099573612213,
        -0.11780984699726105,
        -0.1779838651418686,
        -0.24056659638881683,
        0.23193705081939697,
        -0.22513225674629211,
        0.21373379230499268,
        -0.18875834345817566,
        -0.12395735830068588,
        -0.22036150097846985,
        -0.006598676089197397,
        0.08469480276107788,
        0.17382487654685974,
        0.022549953311681747,
        -0.1262814849615097,
        0.14195245504379272,
        0.36740726232528687,
        -0.006161724217236042,
        0.003942772746086121,
        -0.10027056187391281,
        -0.16027683019638062,
        0.12951134145259857,
        0.0254987683147192,
        0.13804195821285248,
        0.06634287536144257,
        0.1767127960920334,
        -0.07559919357299805,
        0.025440551340579987,
        -0.12926717102527618,
        -0.13308514654636383,
        -0.029212214052677155,
        0.17232279479503632,
        -0.012935280799865723,
        -0.16713343560695648,
        0.2516559660434723,
        -0.07821284234523773,
        -0.19224978983402252,
        0.08858352899551392,
        0.10559111833572388,
        -0.020505309104919434,
        -0.23270390927791595,
        -0.08726747334003448,
        0.053218841552734375,
        0.12765884399414062,
        -0.22247715294361115,
        -0.22416377067565918,
        -0.24929630756378174,
        0.023650377988815308,
        -0.16994169354438782,
        -0.20254670083522797,
        -0.03874273598194122,
        0.13971593976020813,
        -0.11824768781661987,
        0.20311197638511658,
        0.017079174518585205,
        0.13448211550712585,
        0.1404779553413391,
        -0.03444918990135193,
        -0.09220074117183685,
        -0.038013845682144165,
        -0.05019727349281311,
        -0.1323498785495758,
        0.019192546606063843,
        0.07465273141860962,
        0.17895281314849854,
        -0.08418740332126617,
        0.12973585724830627,
        -0.05765269696712494,
        -0.07196375727653503,
        0.03459605574607849,
        -0.19195500016212463,
        -0.17927727103233337,
        0.12480586767196655,
        -0.1452837884426117,
        -0.07474848628044128,
        0.15879139304161072,
        0.20768997073173523,
        -0.11687265336513519,
        0.09104552865028381,
        0.009088099002838135,
        0.08813516050577164,
        0.23895145952701569,
        -0.21597963571548462,
        -0.2421969324350357,
        -0.023033877834677696,
        0.21945834159851074,
        -0.11573588848114014,
        -0.1076211929321289,
        0.17689061164855957,
        -0.06726410984992981,
        -0.1724974513053894,
        -0.019985342398285866,
        -0.13752374053001404,
        0.04003936052322388,
        0.18332049250602722,
        0.14839154481887817,
        0.33650487661361694,
        0.1552230715751648,
        -0.01767662726342678,
        -0.19285094738006592,
        -0.08977305144071579,
        0.27100586891174316,
        -0.02190103754401207,
        0.2801937460899353,
        0.17574431002140045,
        -0.10446523129940033,
        -0.027504542842507362,
        0.17423108220100403,
        -0.026646168902516365,
        0.00979717168956995,
        -0.1783723384141922,
        0.11325503885746002,
        0.13911981880664825,
        0.19121795892715454,
        0.007272818125784397,
        0.0385570153594017,
        0.09666509926319122,
        -0.2587589919567108,
        -0.08177433162927628,
        0.14394469559192657,
        -0.3947720527648926,
        0.38349294662475586,
        0.3558681607246399,
        0.08922874182462692,
        0.11886412650346756,
        -0.12267661094665527,
        0.18179047107696533,
        -0.24277815222740173,
        0.08911649882793427,
        -0.10521592944860458,
        0.08486311882734299,
        -0.19856369495391846,
        0.04104796424508095,
        0.0988527461886406,
        -0.0022314873058348894,
        0.048223305493593216,
        0.3470713794231415,
        -0.023731468245387077,
        -0.17906329035758972,
        0.22570030391216278,
        0.14959704875946045,
        -0.07879269123077393,
        0.12895514070987701,
        -0.11639202386140823,
        0.05267328768968582,
        0.18542954325675964,
        -0.3082199990749359,
        -0.13112470507621765,
        -0.20323942601680756,
        0.005824938882142305,
        0.01994236186146736,
        -0.21942830085754395,
        0.07104340940713882,
        0.12509343028068542,
        -0.1653464138507843,
        0.15003030002117157,
        0.12303206324577332,
        -0.07906750589609146,
        -0.05362432822585106,
        -0.05245339870452881,
        -0.1270371973514557,
        0.20730815827846527,
        -0.07334818691015244,
        0.057530153542757034,
        -0.009386667050421238,
        0.1853490173816681,
        -0.12271171808242798,
        0.13845449686050415,
        0.10650140047073364,
        -0.20843195915222168,
        -0.31175369024276733,
        -0.26171010732650757,
        0.20170150697231293,
        0.01856221631169319,
        0.12475738674402237,
        0.21599668264389038,
        0.07758011668920517,
        0.053184475749731064,
        0.15274406969547272,
        0.12556686997413635,
        0.04652029648423195,
        0.05136599391698837,
        -0.11716330051422119,
        -0.03251596912741661,
        -0.0252113975584507,
        0.11050333082675934,
        -0.13274969160556793,
        0.21414659917354584,
        0.016244567930698395,
        0.014806813560426235,
        -0.12150251865386963,
        0.07686818391084671,
        0.250004380941391,
        0.05778517201542854,
        -0.13431543111801147,
        -0.2738533616065979,
        -0.2755797505378723,
        0.28882378339767456,
        0.009576251730322838,
        -0.15436847507953644,
        0.07606342434883118,
        -0.07366088032722473,
        -0.18913722038269043,
        0.08073616027832031,
        -0.06342168152332306,
        0.08495089411735535,
        -0.12846733629703522,
        0.0030084848403930664,
        0.021185755729675293,
        0.066220223903656,
        0.18235230445861816,
        0.13129645586013794,
        -0.18338236212730408,
        -0.10748447477817535,
        -0.193979412317276,
        -0.1904003769159317,
        0.08867466449737549,
        -0.1509527862071991,
        -0.04315468668937683,
        -0.22553449869155884,
        -0.21833214163780212,
        0.11718890070915222,
        -0.051019296050071716,
        -0.2164359837770462,
        0.03743729367852211,
        -0.09693904966115952,
        0.13341499865055084,
        -0.13791391253471375,
        -0.14851416647434235,
        0.06661364436149597,
        -0.0872739776968956,
        0.23502343893051147,
        -0.013211525045335293,
        -0.2461601197719574,
        0.22439271211624146,
        -0.13694262504577637,
        0.19544947147369385,
        0.20190858840942383,
        -0.23297907412052155,
        -0.15651443600654602,
        0.0222481582313776,
        0.1790824830532074,
        -0.3766862750053406,
        0.15268810093402863,
        0.0770617201924324,
        0.22633057832717896,
        -0.1719094216823578,
        -0.007831952534615993,
        0.05287542939186096,
        -0.11042030155658722,
        0.08883032202720642,
        0.023019731044769287,
        0.057932913303375244,
        -0.19700887799263,
        0.05270770192146301,
        -0.123771071434021,
        -0.2118188440799713,
        0.2502720057964325,
        -0.13353265821933746,
        -0.1865682601928711,
        0.0550256073474884,
        0.0014845430850982666,
        -0.19503463804721832,
        0.04796212911605835,
        -0.011743918061256409,
        -0.0025808513164520264,
        0.11831846833229065,
        0.012949228286743164,
        -0.0762888491153717,
        0.006193637847900391,
        0.061909019947052,
        0.17767706513404846,
        0.07041452825069427,
        0.043519023805856705,
        -0.23683765530586243,
        0.2392795830965042,
        -0.1892939656972885,
        -0.057328902184963226,
        0.04388737678527832,
        0.13189208507537842,
        -0.07395876944065094,
        -0.155676007270813,
        0.25136205554008484,
        0.04602335765957832,
        0.2760002315044403,
        -0.2447972148656845,
        0.07740028947591782,
        -0.07709382474422455,
        0.20992785692214966,
        -0.4122042953968048,
        -0.3095511794090271,
        -0.008278018794953823,
        -0.002098261611536145,
        0.22470088303089142,
        0.09796404093503952,
        0.2622588276863098,
        0.06940757483243942,
        -0.0009784107096493244,
        -0.1579272598028183,
        0.06066414341330528,
        0.24970018863677979,
        -0.19973032176494598,
        -0.11081879585981369,
        -0.2744911015033722,
        -0.021381191909313202,
        -0.027608368545770645,
        -0.07392510771751404,
        -0.0009762044064700603,
        0.04687991738319397,
        0.17291860282421112,
        -0.09191536158323288,
        -0.12782341241836548,
        0.22061927616596222,
        0.3337468206882477,
        -0.1451428085565567,
        0.14972546696662903,
        -0.20953190326690674,
        0.09754487872123718,
        -0.16555966436862946,
        0.061129726469516754,
        -0.1436290442943573,
        -0.047931820154190063,
        0.15312537550926208,
        -0.08996628224849701,
        0.0018416941165924072,
        -0.18691161274909973,
        0.06213897466659546,
        -0.16643095016479492,
        -0.0021440088748931885,
        -0.036727964878082275,
        0.1002328097820282,
        -0.17302767932415009,
        -0.08270977437496185,
        -0.14388012886047363,
        -0.25728827714920044,
        -0.10987432301044464,
        -0.037546753883361816,
        -0.19487638771533966,
        -0.047000423073768616,
        -0.1009761393070221,
        0.04586726427078247,
        0.1655469834804535,
        0.13163194060325623,
        -0.03456971049308777,
        -0.12127069383859634,
        -0.14187659323215485,
        -0.1673119217157364,
        -0.035504475235939026,
        0.1517689973115921,
        -0.13026289641857147,
        -0.03722076490521431,
        0.18854188919067383,
        -0.18049177527427673,
        -0.01852015219628811,
        0.2568577826023102,
        -0.22692036628723145,
        -0.18564188480377197,
        0.2307184785604477,
        0.06386725604534149,
        -0.16413018107414246,
        -0.03428158909082413,
        0.05009898170828819,
        0.11797230690717697,
        -0.28676918148994446,
        0.045909468084573746,
        0.23299723863601685,
        -0.08269758522510529,
        -0.2605634033679962,
        0.01825692690908909,
        -0.16696414351463318,
        -0.10334289819002151,
        -0.12187793850898743,
        0.16444113850593567,
        0.1772659868001938,
        0.21464213728904724,
        0.2264990210533142,
        0.19583453238010406,
        -0.1739421933889389,
        -0.0409112386405468,
        0.05588986352086067,
        -0.0016671938356012106,
        -0.2243654876947403,
        0.08103833347558975,
        -0.19501639902591705,
        0.26591435074806213,
        -0.16345979273319244,
        0.2157212644815445,
        0.21681785583496094,
        -0.12538722157478333,
        -0.13891489803791046,
        0.03561381250619888,
        0.24175754189491272,
        -0.22353395819664001,
        -0.14138281345367432,
        -0.24709740281105042,
        0.2564844489097595,
        -0.013832461088895798,
        0.1114809662103653,
        0.02243299037218094,
        -0.20750738680362701,
        0.11450933665037155,
        0.055519916117191315,
        0.3322839140892029,
        -0.02559548243880272,
        -0.01944047585129738,
        0.16209878027439117,
        -0.14655321836471558,
        0.0063254088163375854,
        -0.24054639041423798,
        0.2078934907913208,
        0.25212961435317993,
        0.21196101605892181,
        -0.2715403735637665,
        -0.12444207072257996,
        -0.03682873398065567,
        -0.16952860355377197,
        -0.19483715295791626,
        0.12224903702735901,
        0.021063799038529396,
        -0.14407193660736084,
        -0.14613358676433563,
        -0.0018991321558132768,
        0.21109148859977722,
        -0.09403099119663239,
        0.0669742226600647,
        -0.04180942848324776,
        -0.11580067873001099,
        0.125916987657547,
        0.013838705606758595,
        0.14255648851394653,
        0.010648570954799652,
        0.06975212693214417,
        0.16076995432376862,
        -0.006453837268054485,
        -0.05519568920135498,
        0.29578498005867004,
        -0.14578621089458466,
        0.014701562002301216,
        -0.09359297156333923,
        0.280585378408432,
        -0.2299577295780182,
        0.034756291657686234,
        0.1025594100356102,
        0.0318731926381588,
        0.08081036061048508,
        -0.23205704987049103,
        -0.06521711498498917,
        -0.14019514620304108,
        0.26085126399993896,
        -0.03973603621125221,
        -0.2017981857061386,
        0.13494230806827545,
        -0.18339118361473083,
        0.06129766255617142,
        0.15009263157844543,
        -0.02985730767250061,
        0.14446672797203064,
        -0.13720841705799103,
        -0.010269161313772202,
        0.09888998419046402,
        -0.05154622346162796,
        -0.20826679468154907,
        -0.21761839091777802,
        0.08162625879049301
      ]
    },
    {
      "architecture": "normalization",
      "bias": [
        0.0009890487417578697,
        -0.35067513585090637,
        -0.018897518515586853,
        -0.09315353631973267,
        -0.0003407458425499499,
        0.00012165037333033979,
        0.0005955302040092647,
        -0.07001588493585587,
        0.000757698668166995,
        -0.04466870427131653,
        -0.21398718655109406,
        -0.019664306193590164,
        -0.0002127936895703897,
        -0.16699735820293427,
        -0.23559248447418213,
        -0.0010706211905926466,
        -0.014115465804934502,
        0.0010586585849523544,
        0.0009096038993448019,
        -0.012288635596632957,
        -0.1281740516424179,
        -0.0010252271313220263,
        -0.00042686625965870917,
        -0.00396034074947238,
        -0.0010863997740671039,
        -0.09966576099395752,
        -0.2695803642272949,
        -0.5173364281654358,
        -0.13561832904815674,
        -0.2778717875480652,
        -0.3265846371650696,
        -0.0004302924789953977,
        -0.19455131888389587,
        7.606623694300652e-05,
        -0.4978761374950409,
        -3.960747199016623e-05,
        -8.379582141060382e-05,
        -0.18235798180103302,
        -0.2001727670431137,
        0.0003354200453031808,
        -0.06882873177528381,
        -0.49775230884552,
        -0.0016773897223174572,
        -0.2709512710571289,
        0.0009214304154738784,
        -0.10963938385248184,
        0.0005622801254503429,
        -0.0016226036241278052,
        -0.10075008124113083,
        -0.016241643577814102,
        -0.27526095509529114,
        -0.13146230578422546,
        -0.059786733239889145,
        0.0009693473693914711,
        -0.030037425458431244,
        0.000533915706910193,
        -0.08584512025117874,
        -0.025768453255295753,
        -0.0012933359248563647,
        -0.0514213889837265,
        -0.00020130026678089052,
        -0.20739468932151794,
        -0.1709292232990265,
        -0.10658207535743713
      ],
      "weights": [
        31.622774124145508,
        22.52256202697754,
        19.65035629272461,
        12.47643756866455,
        31.622774124145508,
        36.65697479248047,
        31.622774124145508,
        27.011518478393555,
        31.622774124145508,
        14.184532165527344,
        10.691764831542969,
        22.12045669555664,
        31.622774124145508,
        21.52688217163086,
        26.974239349365234,
        31.622774124145508,
        23.848054885864258,
        28.649667739868164,
        31.622774124145508,
        28.84694480895996,
        28.038177490234375,
        31.622774124145508,
        31.622774124145508,
        27.821258544921875,
        31.622774124145508,
        6.8924031257629395,
        25.671480178833008,
        18.307598114013672,
        10.84804630279541,
        33.40449905395508,
        8.662561416625977,
        31.622774124145508,
        10.403210639953613,
        36.609249114990234,
        10.773392677307129,
        31.622774124145508,
        31.622774124145508,
        12.066163063049316,
        25.276798248291016,
        31.622774124145508,
        24.256031036376953,
        21.132118225097656,
        31.622774124145508,
        12.273153305053711,
        31.622774124145508,
        13.353082656860352,
        31.622774124145508,
        31.622774124145508,
        12.218400955200195,
        24.879867553710938,
        12.952449798583984,
        15.927587509155273,
        25.72361946105957,
        31.622774124145508,
        24.678852081298828,
        31.622774124145508,
        26.581724166870117,
        24.97737693786621,
        31.622774124145508,
        18.744613647460938,
        31.789012908935547,
        24.583234786987305,
        23.783466339111328,
        18.56355857849121
      ]
    },
    {
      "activation": "rectified",
      "architecture": "dense",
      "bias": [
        -0.03144848346710205,
        -0.0059989141300320625,
        -0.027260521426796913,
        -0.04957367852330208,
        0.0004011949640698731,
        -0.06514271348714828,
        -0.08823883533477783,
        -0.025635143741965294,
        -0.018801191821694374,
        -0.02216467820107937,
        -0.02145746350288391,
        -0.013539581559598446,
        -0.033150043338537216,
        -0.09651403874158859,
        -0.05479070916771889,
        -0.06242978200316429,
        -0.0664139837026596,
        0.053431056439876556,
        0.0011754398001357913,
        -0.017849182710051537,
        0.02962093986570835,
        0.026441192254424095,
        0.0031138653866946697,
        -0.02404901199042797,
        -0.024098888039588928,
        -0.01988660916686058,
        -0.0386502705514431,
        -0.06019068881869316,
        -0.045069340616464615,
        -0.057268399745225906,
        0.05762142315506935,
        -0.02352576144039631
      ],
      "weights": [
        0.20237241685390472,
        -0.14907018840312958,
        -0.058525215834379196,
        -0.06791152060031891,
        0.06406640261411667,
        -0.3086215853691101,
        -0.1812310814857483,
        -0.07630221545696259,
        -0.1075395718216896,
        0.07158265262842178,
        -0.08224227279424667,
        -0.17634040117263794,
        -0.21693216264247894,
        -0.11608725786209106,
        0.12583591043949127,
        -0.013001765124499798,
        -0.07322899252176285,
        -0.10910623520612717,
        -0.05531502515077591,
        0.012758861295878887,
        -0.0032816368620842695,
        0.2826816737651825,
        0.1432058960199356,
        0.03874582052230835,
        0.05158692225813866,
        -0.19512173533439636,
        0.03678979352116585,
        0.1589106023311615,
        -0.17862623929977417,
        -0.161447212100029,
        -0.0703769251704216,
        -0.1613093465566635,
        0.021802982315421104,
        0.10615552961826324,
        0.17783673107624054,
        -0.10726022720336914,
        0.041905224323272705,
        -0.10587374120950699,
        0.0884547308087349,
        0.21083645522594452,
        -0.18730737268924713,
        0.17786574363708496,
        0.23709507286548615,
        -0.04017546400427818,
        -0.23157788813114166,
        -0.2103709727525711,
        0.07371921837329865,
        0.22116383910179138,
        -0.22173909842967987,
        -0.0851007029414177,
        -0.08302482217550278,
        0.1655830442905426,
        -0.3452971875667572,
        0.01682649552822113,
        0.0654078871011734,
        -0.1906801462173462,
        -0.025189999490976334,
        -0.06570997834205627,
        0.04290192201733589,
        -0.09032442420721054,
        -0.15319401025772095,
        -0.055504538118839264,
        -0.12506715953350067,
        -0.07156617939472198,
        -0.12086416035890579,
        0.015663903206586838,
        -0.13363853096961975,
        -0.17963139712810516,
        -0.06147855147719383,
        -0.3045431971549988,
        -0.17355239391326904,
        -0.2186625450849533,
        -0.3371046185493469,
        -0.1874317079782486,
        0.08869010210037231,
        -0.1286698281764984,
        0.31270480155944824,
        -0.06928896903991699,
        0.281245619058609,
        0.11776435375213623,
        -0.10639306157827377,
        0.08427294343709946,
        0.04085838422179222,
        0.1691104918718338,
        0.019794408231973648,
        0.16009210050106049,
        -0.11442320793867111,
        0.05888217315077782,
        0.02069060318171978,
        0.022999119013547897,
        -0.1302318572998047,
        -0.1591842919588089,
        -0.26087871193885803,
        0.1783662587404251,
        0.04440169408917427,
        0.11828475445508957,
        -0.1355893909931183,
        0.2587036192417145,
        0.21571961045265198,
        -0.03018793836236,
        -0.0988810807466507,
        -0.11308646947145462,
        0.0141775943338871,
        -0.28099724650382996,
        0.01487154420465231,
        -0.10248606652021408,
        -0.08947745710611343,
        0.11708139628171921,
        0.021737955510616302,
        -0.051444802433252335,
        0.14848078787326813,
        -0.23228563368320465,
        -0.013382562436163425,
        0.20823466777801514,
        0.09730885922908783,
        -0.07505661249160767,
        -0.010840443894267082,
        -0.01728074625134468,
        -0.10184385627508163,
        0.06471983343362808,
        -0.09755366295576096,
        -0.20717616379261017,
        0.11889485269784927,
        0.04548012092709541,
        -0.01703290268778801,
        -0.08745348453521729,
        -0.24651853740215302,
        -0.09557845443487167,
        0.11557408422231674,
        -0.14568042755126953,
        0.21113784611225128,
        -0.041494280099868774,
        -0.1067877933382988,
        0.37630707025527954,
        -0.19547365605831146,
        0.038917239755392075,
        -0.0018177013844251633,
        -0.24383026361465454,
        -0.07271160930395126,
        0.0512920506298542,
        0.04456489160656929,
        0.06742528080940247,
        -0.13516487181186676,
        0.03960282728075981,
        0.062139689922332764,
        -0.14610914885997772,
        -0.2213001549243927,
        0.23677286505699158,
        0.21016910672187805,
        0.06912053376436234,
        -0.212482288479805,
        -0.23178495466709137,
        0.10724107176065445,
        -0.15771092474460602,
        -0.25299620628356934,
        0.09952215850353241,
        -0.08251255005598068,
        0.22027753293514252,
        0.23340687155723572,
        0.031154269352555275,
        -0.22455674409866333,
        -0.05894088372588158,
        -0.20566512644290924,
        0.14059680700302124,
        -0.1335786134004593,
        0.060867685824632645,
        0.1936141848564148,
        0.1818564087152481,
        -0.12679176032543182,
        -0.0248629841953516,
        0.18800917267799377,
        0.022340809926390648,
        0.18538112938404083,
        -0.06800057739019394,
        0.13636355102062225,
        -0.028755519539117813,
        0.17839474976062775,
        0.11551067233085632,
        0.08710771054029465,
        0.20483137667179108,
        0.17896346747875214,
        0.12393757700920105,
        0.09793699532747269,
        -0.19738921523094177,
        -0.004432652145624161,
        0.23091700673103333,
        -0.17393580079078674,
        0.07122600823640823,
        0.11681739240884781,
        -0.17361986637115479,
        -0.15452028810977936,
        -0.014383971691131592,
        -0.2021741271018982,
        0.01918318122625351,
        0.04138828441500664,
        0.17485351860523224,
        0.024545850232243538,
        -0.06658824533224106,
        -0.28124332427978516,
        -0.19773469865322113,
        -0.2074926495552063,
        0.2611997425556183,
        0.04179232940077782,
        -0.025725504383444786,
        0.0844915583729744,
        0.1897675096988678,
        -0.11407116800546646,
        -0.13969287276268005,
        0.06900827586650848,
        0.1897234320640564,
        -0.12728047370910645,
        0.11789856851100922,
        -0.30137932300567627,
        -0.10570970177650452,
        0.09611698985099792,
        -0.03659830242395401,
        0.2589435279369354,
        0.045323409140110016,
        -0.16338889300823212,
        0.17962519824504852,
        -0.09898918867111206,
        -0.09133099764585495,
        0.09800103306770325,
        -0.10172024369239807,
        0.06402705609798431,
        -0.04756335914134979,
        0.049102358520030975,
        0.11993855237960815,
        -0.03128255531191826,
        0.10349670797586441,
        -0.09247352927923203,
        -0.02494913339614868,
        0.2466067671775818,
        -0.03268320485949516,
        0.2355998456478119,
        0.08059195429086685,
        -0.12343944609165192,
        0.11311772465705872,
        0.16969150304794312,
        -0.1843021810054779,
        -0.010968232527375221,
        0.12895996868610382,
        0.06362248957157135,
        -0.23672515153884888,
        -0.13633592426776886,
        -0.16079828143119812,
        0.011864942498505116,
        -0.2913428544998169,
        -0.1822517216205597,
        0.08852090686559677,
        0.04493558034300804,
        -0.1943189799785614,
        -0.0447101891040802,
        0.2098844349384308,
        0.031642258167266846,
        2.4635450245114043e-05,
        -0.07783191651105881,
        -0.05925888568162918,
        0.06277037411928177,
        0.10615949332714081,
        0.1679873764514923,
        -0.07769239693880081,
        0.08913514018058777,
        0.21716082096099854,
        0.06017880141735077,
        -0.2285730242729187,
        0.26434236764907837,
        0.10118316113948822,
        0.1189066469669342,
        -0.0553605891764164,
        0.2368418574333191,
        -0.10710522532463074,
        -0.06860385835170746,
        -0.06057276204228401,
        -0.21985743939876556,
        -0.15922297537326813,
        0.2587752938270569,
        -0.029890088364481926,
        -0.1498282104730606,
        0.10003355890512466,
        -0.05530679225921631,
        -0.11131390184164047,
        -0.1842450201511383,
        -0.24180038273334503,
        0.16493530571460724,
        0.14691399037837982,
        -0.24494454264640808,
        -0.09530820697546005,
        -0.14825090765953064,
        0.05312184989452362,
        0.06346921622753143,
        0.06512321531772614,
        0.2282874435186386,
        -0.06197073310613632,
        -0.04177253320813179,
        -0.238706573843956,
        -0.11908756196498871,
        0.07723432034254074,
        0.16460862755775452,
        -0.11026383191347122,
        0.19024062156677246,
        0.23489010334014893,
        0.25622299313545227,
        -0.2274792641401291,
        -0.07148955762386322,
        -0.06656279414892197,
        -0.018026018515229225,
        0.030199335888028145,
        -0.038468968123197556,
        0.03953472897410393,
        0.19810408353805542,
        -0.16562633216381073,
        0.1391521394252777,
        -0.09679850190877914,
        0.22224543988704681,
        -0.18339388072490692,
        -0.09150344133377075,
        -0.15119606256484985,
        0.058294542133808136,
        -0.14308659732341766,
        -0.2917577624320984,
        -0.017929261550307274,
        -0.16392984986305237,
        -0.15246239304542542,
        0.15614266693592072,
        0.3907216787338257,
        -0.0978485569357872,
        -0.10353567451238632,
        0.13394948840141296,
        -0.19939732551574707,
        0.03079015202820301,
        0.16710439324378967,
        -0.2871541976928711,
        0.14464415609836578,
        0.060673944652080536,
        -0.08164910227060318,
        0.07928219437599182,
        -0.04412546753883362,
        -0.3013050854206085,
        0.08611587435007095,
        0.20539385080337524,
        0.23539428412914276,
        -0.014181756414473057,
        -0.1434544324874878,
        -0.07899070531129837,
        0.21389298141002655,
        -0.04855451360344887,
        -0.20955225825309753,
        -0.208912193775177,
        -0.20123054087162018,
        0.12115095555782318,
        -0.07807473838329315,
        -0.060467325150966644,
        -0.2574910819530487,
        -0.23415379226207733,
        -0.024535540491342545,
        0.28908783197402954,
        0.13577298820018768,
        0.0011118348920717835,
        -0.23426757752895355,
        -0.021942852064967155,
        -0.10548100620508194,
        0.20228423178195953,
        0.22514066100120544,
        0.06281246244907379,
        -0.005091794766485691,
        -0.1929653286933899,
        0.01516599953174591,
        -0.15478599071502686,
        -0.1928686797618866,
        -0.0917033776640892,
        -0.041302639991045,
        0.1795252412557602,
        -0.2036331743001938,
        0.01876205950975418,
        -0.053901951760053635,
        -0.2714424431324005,
        -0.22898460924625397,
        0.3002106249332428,
        0.022839104756712914,
        -0.06395478546619415,
        -0.28675201535224915,
        -0.04599900543689728,
        -0.04266204312443733,
        -0.013747334480285645,
        0.006677808240056038,
        -0.04796851798892021,
        0.2552200257778168,
        0.027204480022192,
        0.2719036638736725,
        0.12207624316215515,
        0.26076626777648926,
        -0.0342201329767704,
        -0.04396083578467369,
        0.05229315161705017,
        0.21161232888698578,
        -0.2866571247577667,
        -0.19032275676727295,
        -0.14858531951904297,
        0.1090838685631752,
        0.2128038853406906,
        -0.28676289319992065,
        -0.2825533151626587,
        0.06501578539609909,
        -0.1635272204875946,
        0.18368472158908844,
        -0.08177099376916885,
        -0.10791456699371338,
        -0.09025660902261734,
        0.0011317013995721936,
        0.03260338306427002,
        -0.014051785692572594,
        -0.05157755687832832,
        -0.012691156007349491,
        0.3187220096588135,
        -0.06068408116698265,
        -0.1779516339302063,
        -0.014462594874203205,
        0.21656179428100586,
        -0.04441927373409271,
        -0.231108158826828,
        0.03764353320002556,
        -0.1576954573392868,
        -0.11013693362474442,
        -0.16037426888942719,
        0.16709914803504944,
        0.23535002768039703,
        0.19299665093421936,
        -0.19170315563678741,
        0.1492914855480194,
        -0.1589236706495285,
        0.33682337403297424,
        0.2118464708328247,
        -0.027716565877199173,
        -0.20674102008342743,
        0.08086616545915604,
        0.12766778469085693,
        -0.21926802396774292,
        0.009843134321272373,
        -0.32954779267311096,
        -0.23538395762443542,
        -0.05292613431811333,
        0.13563038408756256,
        -0.16238978505134583,
        -0.1128690093755722,
        0.041245318949222565,
        0.27445968985557556,
        -0.0948503240942955,
        0.16635704040527344,
        -0.17765560746192932,
        -0.14562326669692993,
        0.16491059958934784,
        -0.19330818951129913,
        0.08859846740961075,
        0.1495838463306427,
        -0.1889737844467163,
        0.14097081124782562,
        0.20820195972919464,
        -0.2155546396970749,
        0.24809671938419342,
        0.22287698090076447,
        0.1618531495332718,
        0.25876110792160034,
        0.284355103969574,
        -0.14090725779533386,
        -0.06752710044384003,
        -0.22963957488536835,
        0.15263649821281433,
        -0.09836070984601974,
        0.18001236021518707,
        -0.09011663496494293,
        -0.18214210867881775,
        0.23499034345149994,
        0.03441707417368889,
        -0.2289167046546936,
        0.2129208743572235,
        0.0896795392036438,
        -0.19906996190547943,
        0.10103894770145416,
        0.2053847312927246,
        0.12569572031497955,
        0.29132217168807983,
        0.01911011151969433,
        -0.1280842274427414,
        0.14025118947029114,
        -0.1603470891714096,
        0.20819780230522156,
        -0.21170108020305634,
        -0.021480996161699295,
        0.16836316883563995,
        0.24566106498241425,
        -0.06790193915367126,
        -0.17835888266563416,
        -0.2096705138683319,
        -0.18548482656478882,
        0.238462895154953,
        -0.14051765203475952,
        -0.28941798210144043,
        -0.14127331972122192,
        -0.14821049571037292,
        0.1392919421195984,
        -0.1452639400959015,
        0.1650126874446869,
        -0.20564623177051544,
        0.22783905267715454,
        0.12375982105731964,
        -0.031664393842220306,
        0.23604924976825714,
        0.19027450680732727,
        -0.12569090723991394,
        0.1267557442188263,
        -0.10446233302354813,
        0.04169461131095886,
        0.12729603052139282,
        -0.12668290734291077,
        -0.12119843810796738,
        -0.1624719202518463,
        0.18478552997112274,
        -0.18052217364311218,
        -0.14201542735099792,
        -0.1972866952419281,
        -0.2291644662618637,
        0.18255308270454407,
        0.0943988636136055,
        -0.1760854572057724,
        0.02051861770451069,
        0.21487201750278473,
        -0.17830930650234222,
        0.07707102596759796,
        0.2644824981689453,
        -0.1818271279335022,
        -0.0047763013280928135,
        0.23168542981147766,
        -0.20595398545265198,
        0.12276441603899002,
        -0.331145316362381,
        -0.04024427384138107,
        -0.1066509485244751,
        -0.11670780181884766,
        -0.14844533801078796,
        0.0480639822781086,
        0.10694694519042969,
        -0.07879853248596191,
        0.11576433479785919,
        0.14517934620380402,
        -0.24904778599739075,
        -0.15456576645374298,
        0.14611193537712097,
        0.26007723808288574,
        0.21504712104797363,
        -0.1013304740190506,
        -0.19224266707897186,
        0.03620036691427231,
        0.2530730366706848,
        0.11740376055240631,
        -0.15260641276836395,
        -0.21576374769210815,
        0.16098308563232422,
        -0.19478470087051392,
        0.08831798285245895,
        -0.116834856569767,
        -0.16421836614608765,
        0.0076478756964206696,
        0.27932965755462646,
        0.058443523943424225,
        -0.06610695272684097,
        0.11251591891050339,
        -0.02982104942202568,
        0.08055207878351212,
        0.1343408077955246,
        -0.003599191550165415,
        -0.11624063551425934,
        -0.21601635217666626,
        0.06051253154873848,
        0.08827663213014603,
        0.040980659425258636,
        -0.23732902109622955,
        0.24155843257904053,
        0.13929563760757446,
        -0.004346346016973257,
        0.13286609947681427,
        0.24489901959896088,
        -0.16627942025661469,
        -0.1587696224451065,
        0.05951788276433945,
        -0.13100482523441315,
        -0.18691396713256836,
        0.003329324070364237,
        -0.12903107702732086,
        -0.2534014880657196,
        -0.1304105669260025,
        0.031513649970293045,
        -0.15889765322208405,
        0.027229566127061844,
        0.1861417442560196,
        -0.13360695540905,
        0.14714427292346954,
        -0.11078106611967087,
        0.2647850811481476,
        -0.13030141592025757,
        -0.11564815789461136,
        0.0835140272974968,
        0.2526416480541229,
        0.09493301808834076,
        0.10574881732463837,
        -0.08128158003091812,
        0.20691965520381927,
        -0.16039983928203583,
        0.0957900807261467,
        -0.06365801393985748,
        -0.036973852664232254,
        0.23886536061763763,
        -0.215376079082489,
        -0.07295025140047073,
        0.16153807938098907,
        -0.1023397296667099,
        -0.028084052726626396,
        0.26649558544158936,
        0.009353620931506157,
        0.1527932733297348,
        0.09833642095327377,
        -0.18556740880012512,
        -0.19450904428958893,
        0.14302368462085724,
        0.2661188542842865,
        -0.057936541736125946,
        -0.031719453632831573,
        0.15763643383979797,
        -0.025181951001286507,
        -0.04403752461075783,
        0.12007059156894684,
        -0.10927695035934448,
        -0.11848992109298706,
        -0.14534565806388855,
        0.07478497922420502,
        -0.28443676233291626,
        0.06934749335050583,
        0.02449287660419941,
        0.23603743314743042,
        -0.05164870619773865,
        -0.24113544821739197,
        0.18701590597629547,
        0.0594077967107296,
        -0.06887360662221909,
        0.19864584505558014,
        -0.220739483833313,
        -0.24502632021903992,
        0.12434393167495728,
        -0.13825611770153046,
        0.09517845511436462,
        -0.06551657617092133,
        -0.15001434087753296,
        -0.1998988538980484,
        0.08270012587308884,
        -0.11333990842103958,
        0.21435041725635529,
        -0.14264452457427979,
        -0.013316061347723007,
        -0.245753675699234,
        -0.08883615583181381,
        -0.017546774819493294,
        0.23901532590389252,
        -0.136826753616333,
        -0.06126250699162483,
        0.16590088605880737,
        0.1230597272515297,
        0.13045746088027954,
        -0.018466738983988762,
        -0.08134613931179047,
        0.06128319352865219,
        0.07412545382976532,
        0.2167806625366211,
        0.20550663769245148,
        -0.17803174257278442,
        0.1920233815908432,
        0.12331970036029816,
        0.04103672504425049,
        -0.14861960709095,
        0.10889597237110138,
        -0.08317257463932037,
        -0.09650667756795883,
        0.1280229538679123,
        0.1839504987001419,
        0.03236103430390358,
        -0.24694514274597168,
        0.0112723084166646,
        -0.23371751606464386,
        -0.055092453956604004,
        -0.11804068088531494,
        0.10646583884954453,
        -0.2179594784975052,
        -0.09399600327014923,
        -0.036702483892440796,
        -0.16953077912330627,
        0.11226389557123184,
        -0.219770148396492,
        0.19181658327579498,
        -0.23262174427509308,
        -0.11913152039051056,
        -0.001088700839318335,
        -0.02864711359143257,
        0.24379006028175354,
        -0.12747126817703247,
        -0.10054784268140793,
        -0.18863022327423096,
        0.04245205223560333,
        0.12487775832414627,
        0.11339877545833588,
        -0.027499647811055183,
        -0.2148568332195282,
        0.16768841445446014,
        0.16922268271446228,
        -0.10652544349431992,
        -0.09736446291208267,
        0.1652553826570511,
        0.1531604826450348,
        -0.13191041350364685,
        0.14359945058822632,
        -0.19728213548660278,
        0.1846729964017868,
        -0.021159466356039047,
        -0.1194496601819992,
        -0.004302913323044777,
        0.31680965423583984,
        -0.06544546782970428,
        0.10096833109855652,
        -0.20455917716026306,
        0.02941538207232952,
        -0.06962272524833679,
        -0.04223296791315079,
        -0.04143272340297699,
        -0.11162267625331879,
        0.02120715193450451,
        -0.10176185518503189,
        -0.23595651984214783,
        -0.17063087224960327,
        0.07358688861131668,
        -0.09265994280576706,
        0.14825250208377838,
        0.01656344346702099,
        0.09094683825969696,
        -0.07149174809455872,
        0.19821538031101227,
        -0.22996756434440613,
        0.057040534913539886,
        0.2334165871143341,
        -0.11148061603307724,
        -0.2517310082912445,
        0.04142359271645546,
        0.22042173147201538,
        0.03982055187225342,
        -0.17479285597801208,
        0.16687548160552979,
        -0.1597239226102829,
        0.21965676546096802,
        0.1134800836443901,
        0.13225804269313812,
        -0.043064191937446594,
        0.19096310436725616,
        0.1167895570397377,
        0.028669988736510277,
        -0.005108285695314407,
        0.07069003582000732,
        0.10962148755788803,
        0.1911395937204361,
        -0.14923836290836334,
        -0.18676237761974335,
        -0.25914332270622253,
        0.0198868066072464,
        -0.13988229632377625,
        -0.2816299498081207,
        -0.03402462229132652,
        0.05080665647983551,
        0.35753610730171204,
        -0.24371370673179626,
        -0.14663542807102203,
        0.020038699731230736,
        -0.014559785835444927,
        -0.06897357851266861,
        -0.23296907544136047,
        -0.21581177413463593,
        -0.2076409012079239,
        0.22630396485328674,
        -0.12317496538162231,
        0.2606657147407532,
        0.08252210915088654,
        -0.25103604793548584,
        -0.010579004883766174,
        0.028027597814798355,
        0.27253469824790955,
        0.2609245777130127,
        -0.15480868518352509,
        -0.18335798382759094,
        0.07653143256902695,
        0.002271354431286454,
        0.022345270961523056,
        0.17138028144836426,
        -0.06684401631355286,
        0.008660386316478252,
        0.1914995312690735,
        -0.18898248672485352,
        0.0015914927935227752,
        -0.18250784277915955,
        -0.00241494900546968,
        -0.18316422402858734,
        -0.050030212849378586,
        0.017135482281446457,
        -0.1318269670009613,
        0.11011410504579544,
        -0.14570148289203644,
        -0.035583071410655975,
        0.2277050018310547,
        -0.2711220681667328,
        -0.18546314537525177,
        -0.081821970641613,
        0.047056570649147034,
        0.07427102327346802,
        -0.21246075630187988,
        0.10694019496440887,
        -0.1094096228480339,
        0.2516936659812927,
        0.0017927854787558317,
        0.09739736467599869,
        0.039813097566366196,
        -0.15138843655586243,
        0.10685119032859802,
        0.18085597455501556,
        -0.11211837083101273,
        0.01671532168984413,
        -0.15246985852718353,
        -0.05954638496041298,
        0.09003747254610062,
        -0.08975207060575485,
        0.13073045015335083,
        -0.030482633039355278,
        -0.14931172132492065,
        0.24142353236675262,
        0.08404183387756348,
        0.03467538207769394,
        0.1566421240568161,
        0.0212290920317173,
        0.050632502883672714,
        -0.04769684374332428,
        0.15429362654685974,
        -0.20907574892044067,
        0.19401505589485168,
        -0.07261108607053757,
        0.10480594635009766,
        -0.1304338127374649,
        -0.21022087335586548,
        -0.05671458691358566,
        0.06094784289598465,
        0.10235472023487091,
        -0.1309666484594345,
        0.17193260788917542,
        -0.32367607951164246,
        0.3142991065979004,
        -0.21545900404453278,
        -0.2461872547864914,
        0.017847849056124687,
        -0.023782579228281975,
        0.02944355458021164,
        0.008974931202828884,
        0.2781616747379303,
        -0.1388288289308548,
        -0.09980875253677368,
        0.0501328706741333,
        -0.13821974396705627,
        0.2651565372943878,
        -0.02609521709382534,
        -0.1479630172252655,
        -0.16167838871479034,
        -0.0003957002772949636,
        -0.06506220251321793,
        0.16708803176879883,
        -0.11536198109388351,
        0.007984998635947704,
        0.23460228741168976,
        -0.11753673851490021,
        0.2473994344472885,
        0.1457846611738205,
        -0.18996404111385345,
        0.15409372746944427,
        -0.1975313127040863,
        -0.1288684755563736,
        -0.036939837038517,
        -0.08917608857154846,
        0.08907142281532288,
        -0.07410140335559845,
        0.24885587394237518,
        0.048606280237436295,
        -0.08391664922237396,
        0.037121597677469254,
        0.04624197259545326,
        0.1372620314359665,
        -0.07030460983514786,
        -0.0802132710814476,
        -0.2208351343870163,
        -0.15900415182113647,
        0.20649699866771698,
        0.02259496971964836,
        0.2442365437746048,
        -0.07004443556070328,
        0.01671583577990532,
        0.18135099112987518,
        -0.20735642313957214,
        -0.08224108070135117,
        -0.08617525547742844,
        0.1566416323184967,
        0.1594306081533432,
        0.30661436915397644,
        -0.10578788071870804,
        -0.04967672750353813,
        -0.019329054281115532,
        0.03888736292719841,
        0.07470928877592087,
        -0.10038938373327255,
        0.26409485936164856,
        0.2974207103252411,
        0.1702370047569275,
        0.28757962584495544,
        0.23408247530460358,
        -0.06277181953191757,
        -0.043853022158145905,
        -0.2126236855983734,
        -0.1047840490937233,
        0.09166031330823898,
        0.14264899492263794,
        0.21286334097385406,
        0.3449283838272095,
        -0.0017344102961942554,
        0.14574800431728363,
        -0.0015169309917837381,
        -0.2302531599998474,
        0.19342464208602905,
        0.017209986224770546,
        0.06434627622365952,
        0.15460099279880524,
        0.012248176150023937,
        0.13075590133666992,
        -0.0829714983701706,
        0.23231887817382812,
        -0.1364513486623764,
        0.1964525729417801,
        0.21975809335708618,
        -0.03101596049964428,
        -0.17669564485549927,
        -0.03253135457634926,
        0.23371559381484985,
        -0.11983834952116013,
        0.1059328094124794,
        -0.15787148475646973,
        0.058512162417173386,
        -0.21236766874790192,
        0.13896192610263824,
        -0.15657803416252136,
        0.15809431672096252,
        -0.17988792061805725,
        0.22444726526737213,
        0.13510476052761078,
        -0.15878824889659882,
        -0.24063657224178314,
        0.16166456043720245,
        0.0889734998345375,
        -0.07517436891794205,
        -0.22230006754398346,
        0.10019589215517044,
        -0.07378096878528595,
        -0.0893496423959732,
        -0.1599183827638626,
        -0.12028593569993973,
        0.12644736468791962,
        0.17273569107055664,
        0.09171716868877411,
        0.19260761141777039,
        0.2353125661611557,
        0.03073057532310486,
        -0.1386570930480957,
        0.05007811263203621,
        -0.1230519488453865,
        0.026369087398052216,
        0.033428043127059937,
        0.18900667130947113,
        -0.14247873425483704,
        0.22528403997421265,
        -0.14182879030704498,
        0.015149479731917381,
        0.09815886616706848,
        -0.2131236344575882,
        0.2180497795343399,
        0.02345448173582554,
        -0.004796127323061228,
        0.17382821440696716,
        -0.25165700912475586,
        0.18678677082061768,
        -0.09069263190031052,
        0.006625340320169926,
        0.2333034723997116,
        0.06244806572794914,
        -0.09175137430429459,
        0.135822132229805,
        -0.11267420649528503,
        0.09927759319543839,
        -0.06486845016479492,
        -0.07859744876623154,
        0.10394034534692764,
        -0.1303982436656952,
        0.2329145222902298,
        -0.0869484543800354,
        -0.1644212007522583,
        0.22787851095199585,
        -0.15203480422496796,
        -0.02197103202342987,
        -0.2702447175979614,
        -0.08889253437519073,
        0.030110428109765053,
        0.11201249063014984,
        -0.011041448451578617,
        0.2146688550710678,
        -0.25169050693511963,
        -0.23761671781539917,
        -0.15610286593437195,
        0.22366705536842346,
        -0.24188105762004852,
        0.003562002908438444,
        0.1439676433801651,
        -0.18316185474395752,
        0.20409560203552246,
        0.21040353178977966,
        -0.25256943702697754,
        -0.2457582801580429,
        0.14887389540672302,
        -0.3013649582862854,
        -0.23212388157844543,
        -0.229202538728714,
        0.11167537420988083,
        0.2516045868396759,
        -0.20901639759540558,
        -0.06968187540769577,
        0.3099481165409088,
        -0.0026022654492408037,
        -0.1495123952627182,
        -0.03934687748551369,
        -0.22682669758796692,
        0.1927408128976822,
        0.2823203206062317,
        0.18934473395347595,
        0.13831757009029388,
        -0.10912205278873444,
        0.20409424602985382,
        -0.10151374340057373,
        -0.1019880399107933,
        0.04009106382727623,
        0.2510192096233368,
        -0.12157975882291794,
        -0.11910603940486908,
        0.15930013358592987,
        -0.21029861271381378,
        -0.06398169696331024,
        -0.05554661154747009,
        -0.0705043226480484,
        0.0978095605969429,
        0.011242849752306938,
        -0.1118682473897934,
        -0.07516223937273026,
        -0.1324077993631363,
        0.27568069100379944,
        -0.1712302267551422,
        0.03710788115859032,
        0.06599852442741394,
        -0.122531957924366,
        0.1003582775592804,
        0.2806663513183594,
        -0.07711027562618256,
        -0.08525451272726059,
        0.198624387383461,
        -0.048103392124176025,
        0.11626743525266647,
        -0.012629729695618153,
        0.13369862735271454,
        0.0588887520134449,
        -0.018477225676178932,
        0.255166620016098,
        -0.11819997429847717,
        0.24906674027442932,
        0.10522139817476273,
        0.01914345473051071,
        -0.010987321846187115,
        0.03645799309015274,
        -0.13505825400352478,
        -0.015444283373653889,
        0.0014354041777551174,
        -0.16685009002685547,
        0.14571057260036469,
        -0.040259573608636856,
        -0.09372083842754364,
        -0.21198371052742004,
        -0.037167806178331375,
        0.1943386346101761,
        0.1627454161643982,
        0.14393004775047302,
        0.1402759999036789,
        0.02563663385808468,
        -0.11540119349956512,
        0.12198731303215027,
        0.3179446756839752,
        0.22800447046756744,
        -0.182905375957489,
        -0.04216134175658226,
        0.05986456573009491,
        -0.18397292494773865,
        0.051907818764448166,
        -0.08943486958742142,
        -0.1560029238462448,
        -0.23322804272174835,
        -0.1717604696750641,
        -0.14425066113471985,
        -0.1511409431695938,
        0.2134433388710022,
        -0.28410604596138,
        0.08532455563545227,
        -0.09768430888652802,
        -0.22388820350170135,
        -0.02943822741508484,
        -0.030345823615789413,
        0.17935392260551453,
        0.13598427176475525,
        -0.06820070743560791,
        -0.17390261590480804,
        -0.16927793622016907,
        0.16657282412052155,
        0.07241253554821014,
        0.1696593463420868,
        -0.12926575541496277,
        0.11162692308425903,
        -0.030763529241085052,
        0.07459699362516403,
        -0.04187152534723282,
        -0.2747715711593628,
        0.057980120182037354,
        0.20965732634067535,
        0.15849557518959045,
        -0.17528709769248962,
        0.10456496477127075,
        -0.009665417484939098,
        -0.20144441723823547,
        -0.14196854829788208,
        -0.18344999849796295,
        0.004700185265392065,
        -0.22877150774002075,
        0.10974880307912827,
        0.12656402587890625,
        -0.16741447150707245,
        -0.11071725934743881,
        -0.04421881213784218,
        0.028171496465802193,
        0.15459853410720825,
        0.05700155720114708,
        -0.11125048249959946,
        -0.04024560749530792,
        0.06738901138305664,
        0.07010789215564728,
        0.15753231942653656,
        -0.08784809708595276,
        -0.15574613213539124,
        0.18412767350673676,
        -0.08317844569683075,
        0.10888098180294037,
        0.0339001789689064,
        0.13558891415596008,
        -0.21213597059249878,
        -0.28771254420280457,
        -0.00884403195232153,
        -0.14969375729560852,
        0.12172523885965347,
        0.03699169680476189,
        0.11521277576684952,
        -0.08742333948612213,
        0.27489787340164185,
        0.23462072014808655,
        0.09357479214668274,
        -0.24220393598079681,
        -0.2500503957271576,
        -0.17259246110916138,
        -0.1143859401345253,
        -0.32754719257354736,
        0.2182462513446808,
        -0.15781398117542267,
        0.17960792779922485,
        -0.11387485265731812,
        0.07515325397253036,
        -0.18372541666030884,
        -0.22179976105690002,
        -0.16958625614643097,
        0.17523661255836487,
        -0.11961625516414642,
        0.21735049784183502,
        -0.1253337264060974,
        0.07774963229894638,
        0.038923878222703934,
        -0.07696504890918732,
        -0.013203606940805912,
        -0.14816300570964813,
        -0.10931826382875443,
        0.11084403097629547,
        0.17884819209575653,
        -0.12621870636940002,
        0.24347324669361115,
        0.19279371201992035,
        0.15073253214359283,
        -0.0603126659989357,
        0.0816257894039154,
        -0.08136790990829468,
        -0.04340926557779312,
        0.2635846436023712,
        0.04083312302827835,
        -0.014096146449446678,
        -0.10727252811193466,
        0.11535337567329407,
        0.19801615178585052,
        -0.14966396987438202,
        -0.18927600979804993,
        -0.1516905426979065,
        -0.2174002230167389,
        0.0908176526427269,
        -0.06163410842418671,
        -0.0074545820243656635,
        0.2152920812368393,
        -0.01655762828886509,
        0.234808549284935,
        -0.09719222038984299,
        0.16235508024692535,
        -0.2340889722108841,
        0.05434942990541458,
        0.050705086439847946,
        0.1371641606092453,
        0.13473622500896454,
        0.24926647543907166,
        -0.21890200674533844,
        0.13801328837871552,
        0.13940943777561188,
        -0.03683030232787132,
        -0.1364016830921173,
        0.20732103288173676,
        -0.1635696440935135,
        -0.11812318861484528,
        -0.11200154572725296,
        0.03566816449165344,
        0.18020223081111908,
        -0.034878216683864594,
        -0.27895087003707886,
        0.17660975456237793,
        -0.08870703727006912,
        0.06654493510723114,
        -0.016809778288006783,
        -0.07889248430728912,
        0.04443379491567612,
        0.008401722647249699,
        0.15822382271289825,
        -0.01351475715637207,
        0.01415236759930849,
        0.1336084008216858,
        -0.15117162466049194,
        0.08608768880367279,
        -0.21426314115524292,
        0.039348091930150986,
        0.11223869770765305,
        0.006451182533055544,
        -0.10160835087299347,
        -0.14617222547531128,
        -0.15326128900051117,
        -0.18040886521339417,
        -0.08595998585224152,
        0.20835134387016296,
        -0.007198199164122343,
        0.1575441062450409,
        -0.2064024806022644,
        0.23962225019931793,
        -0.10758743435144424,
        -0.2043936848640442,
        0.1592201292514801,
        -0.12167738378047943,
        0.07388057559728622,
        0.0017908510053530335,
        0.058593232184648514,
        0.23394009470939636,
        0.19868294894695282,
        0.17971718311309814,
        0.2549876570701599,
        -0.14613845944404602,
        0.14714589715003967,
        0.03829258680343628,
        -0.12753425538539886,
        0.1549404263496399,
        0.20745529234409332,
        0.05140189826488495,
        0.17851290106773376,
        0.21108263731002808,
        -0.11708977818489075,
        0.15265119075775146,
        0.05063318461179733,
        0.03334265574812889,
        0.12348131835460663,
        -0.07270302623510361,
        -0.14278799295425415,
        -0.0537622906267643,
        -0.22892369329929352,
        0.24651464819908142,
        -0.21110863983631134,
        -0.05044979974627495,
        0.1259099841117859,
        -0.23314155638217926,
        -0.13185495138168335,
        0.03429710865020752,
        -0.03624245524406433,
        -0.10084360092878342,
        -0.16696588695049286,
        0.1476152390241623,
        0.1885608583688736,
        0.0461508147418499,
        -0.19111569225788116,
        -0.1842014044523239,
        0.2052300125360489,
        -0.13096025586128235,
        0.016697967424988747,
        0.22749550640583038,
        -0.22944436967372894,
        -0.041961196810007095,
        -0.18217115104198456,
        0.06987538188695908,
        -0.22079695761203766,
        -0.18542732298374176,
        0.08646269142627716,
        0.09431780129671097,
        0.16714993119239807,
        -0.02870141714811325,
        -0.020099980756640434,
        -0.018591176718473434,
        -0.28760644793510437,
        0.04192500188946724,
        -0.21606498956680298,
        -0.2723332643508911,
        0.17182660102844238,
        0.1754516065120697,
        0.16129301488399506,
        0.18656295537948608,
        -0.14871706068515778,
        0.26128527522087097,
        -0.0010810171952471137,
        0.07074236869812012,
        0.11732713133096695,
        0.007148885168135166,
        0.020330239087343216,
        0.2067260444164276,
        0.18495002388954163,
        0.06669540703296661,
        0.013857652433216572,
        -0.1310673952102661,
        0.1297934204339981,
        -0.2636043429374695,
        0.16567450761795044,
        -0.1745719015598297,
        -0.19356732070446014,
        0.17275162041187286,
        -0.06923405081033707,
        -0.2542670965194702,
        0.09659318625926971,
        -0.42073094844818115,
        -0.13807886838912964,
        -0.11331874132156372,
        0.18870756030082703,
        -0.12073474377393723,
        -0.1605932116508484,
        0.16160550713539124,
        -0.19993586838245392,
        -0.0923074260354042,
        -0.23272117972373962,
        0.25781193375587463,
        0.2719561755657196,
        0.004056510981172323,
        -0.1870463788509369,
        0.08107085525989532,
        0.08993477374315262,
        -0.04976135492324829,
        0.19517245888710022,
        0.082231305539608,
        -0.22824664413928986,
        -0.03531712293624878,
        -0.10064976662397385,
        -0.06413696706295013,
        0.22974833846092224,
        -0.16646239161491394,
        -0.16192947328090668,
        0.00803533848375082,
        -0.02390262857079506,
        -0.12881968915462494,
        -0.06099629029631615,
        0.06272337585687637,
        0.2654975354671478,
        -0.16396375000476837,
        -0.11876700073480606,
        0.1365801990032196,
        0.1087946966290474,
        -0.1429046094417572,
        -0.24019645154476166,
        0.008007198572158813,
        -0.014889487065374851,
        -0.20520484447479248,
        -0.035119716078042984,
        0.22313529253005981,
        -0.09002391248941422,
        -0.19848309457302094,
        -0.08954471349716187,
        -0.17573554813861847,
        -0.037298936396837234,
        0.10137509554624557,
        -0.08580803126096725,
        0.15854895114898682,
        0.051600586622953415,
        0.07189799845218658,
        -0.11017008125782013,
        -0.20189793407917023,
        0.19103071093559265,
        -0.03782910108566284,
        0.08496349304914474,
        0.024249551817774773,
        -0.20120011270046234,
        0.12808510661125183,
        0.10101780295372009,
        0.11266075074672699,
        -0.20250527560710907,
        -0.09514015167951584,
        -0.1923213005065918,
        -0.16866546869277954,
        0.12737709283828735,
        -0.1681419461965561,
        0.2417064905166626,
        -0.005764048080891371,
        -0.13665787875652313,
        0.1387941688299179,
        0.0060820430517196655,
        0.3332165777683258,
        -0.1902935653924942,
        0.08802327513694763,
        0.026315268129110336,
        -0.038824815303087234,
        0.07452814280986786,
        -0.06502652913331985,
        -0.14413541555404663,
        -0.19353781640529633,
        -0.026233358308672905,
        -0.18719923496246338,
        0.19142208993434906,
        0.22004163265228271,
        -0.12890516221523285,
        -0.0288984514772892,
        -0.056755632162094116,
        -0.08369603753089905,
        -0.003243105486035347,
        0.16042560338974,
        0.002003007335588336,
        0.06591310352087021,
        0.06714626401662827,
        0.1783587783575058,
        -0.28534361720085144,
        -0.11538958549499512,
        0.17861704528331757,
        -0.00042898269020952284,
        -0.026268212124705315,
        -0.029932063072919846,
        -0.025234796106815338,
        0.10956408083438873,
        0.1869855672121048,
        -0.10491514950990677,
        -0.025595875456929207,
        0.26139160990715027,
        0.21202409267425537,
        -0.19231578707695007,
        0.17531545460224152,
        0.040251247584819794,
        -0.09171824157238007,
        -0.038277264684438705,
        -0.17890191078186035,
        0.0052795978263020515,
        0.1484089493751526,
        -0.15274882316589355,
        0.13320982456207275,
        0.19587112963199615,
        0.06573605537414551,
        0.1520342230796814,
        -0.07963725179433823,
        0.17595215141773224,
        0.03769657015800476,
        0.23553498089313507,
        -0.015374228358268738,
        -0.039330095052719116,
        0.034048136323690414,
        -0.08691000193357468,
        -0.09927307814359665,
        -0.11492329090833664,
        -0.07714184373617172,
        0.34452539682388306,
        -0.1272871047258377,
        0.1195194348692894,
        -0.005781557876616716,
        -0.15083643794059753,
        0.15034332871437073,
        -0.1054738312959671,
        0.2813561260700226,
        1.4958677638787776e-06,
        0.18995532393455505,
        0.06384367495775223,
        0.3021840751171112,
        0.09340866655111313,
        0.10400769859552383,
        -0.1724368929862976,
        0.011806110851466656,
        0.07228799164295197,
        -0.13307546079158783,
        0.0524030439555645,
        0.03012154810130596,
        0.08788973838090897,
        0.023773973807692528,
        -0.06323544681072235,
        0.06917648762464523,
        0.12920862436294556,
        -0.08248839527368546,
        -0.15905646979808807,
        -0.22714194655418396,
        0.006459386553615332,
        0.2780982255935669,
        0.08487037569284439,
        0.08743853121995926,
        -0.15311430394649506,
        -0.2567889988422394,
        -0.178809255361557,
        -0.04459964111447334,
        0.11421211063861847,
        -0.020175723358988762,
        0.21071970462799072,
        -0.008204623125493526,
        -0.2674885094165802,
        0.004780837334692478,
        0.0008038751548156142,
        0.03072165884077549,
        0.027087539434432983,
        0.1183835119009018,
        0.04566498100757599,
        0.10593653470277786,
        -0.14395825564861298,
        0.1720578521490097,
        0.0711769312620163,
        0.0769389420747757,
        0.14227472245693207,
        0.03690892830491066,
        -0.1892581284046173,
        0.1831929087638855,
        0.1414015293121338,
