{
  "input_sequences": [],
  "inputs": [
    {
      "name": "node_0",
      "variables": [
        {
          "name": "hitX1",
          "offset": 0,
          "scale": 1
        },
        {
          "name": "hitX2",
          "offset": 0,
          "scale": 1
        },
        {
          "name": "hitX3",
          "offset": 0,
          "scale": 1
        },
        {
          "name": "hitX4",
          "offset": 0,
          "scale": 1
        },
        {
          "name": "hitX5",
          "offset": 0,
          "scale": 1
        },
        {
          "name": "hitX6",
          "offset": 0,
          "scale": 1
        },
        {
          "name": "hitX7",
          "offset": 0,
          "scale": 1
        },
        {
          "name": "hitX8",
          "offset": 0,
          "scale": 1
        },
        {
          "name": "hitX9",
          "offset": 0,
          "scale": 1
        },
        {
          "name": "hitX10",
          "offset": 0,
          "scale": 1
        },
        {
          "name": "hitX11",
          "offset": 0,
          "scale": 1
        },
        {
          "name": "hitX12",
          "offset": 0,
          "scale": 1
        },
        {
          "name": "hitY1",
          "offset": 0,
          "scale": 1
        },
        {
          "name": "hitY2",
          "offset": 0,
          "scale": 1
        },
        {
          "name": "hitY3",
          "offset": 0,
          "scale": 1
        },
        {
          "name": "hitY4",
          "offset": 0,
          "scale": 1
        },
        {
          "name": "hitY5",
          "offset": 0,
          "scale": 1
        },
        {
          "name": "hitY6",
          "offset": 0,
          "scale": 1
        },
        {
          "name": "hitY7",
          "offset": 0,
          "scale": 1
        },
        {
          "name": "hitY8",
          "offset": 0,
          "scale": 1
        },
        {
          "name": "hitY9",
          "offset": 0,
          "scale": 1
        },
        {
          "name": "hitY10",
          "offset": 0,
          "scale": 1
        },
        {
          "name": "hitY11",
          "offset": 0,
          "scale": 1
        },
        {
          "name": "hitY12",
          "offset": 0,
          "scale": 1
        },
        {
          "name": "hitZ1",
          "offset": 0,
          "scale": 1
        },
        {
          "name": "hitZ2",
          "offset": 0,
          "scale": 1
        },
        {
          "name": "hitZ3",
          "offset": 0,
          "scale": 1
        },
        {
          "name": "hitZ4",
          "offset": 0,
          "scale": 1
        },
        {
          "name": "hitZ5",
          "offset": 0,
          "scale": 1
        },
        {
          "name": "hitZ6",
          "offset": 0,
          "scale": 1
        },
        {
          "name": "hitZ7",
          "offset": 0,
          "scale": 1
        },
        {
          "name": "hitZ8",
          "offset": 0,
          "scale": 1
        },
        {
          "name": "hitZ9",
          "offset": 0,
          "scale": 1
        },
        {
          "name": "hitZ10",
          "offset": 0,
          "scale": 1
        },
        {
          "name": "hitZ11",
          "offset": 0,
          "scale": 1
        },
        {
          "name": "hitZ12",
          "offset": 0,
          "scale": 1
        }
      ]
    }
  ],
  "layers": [
    {
      "activation": "rectified",
      "architecture": "dense",
      "bias": [
        0.27456364035606384,
        -0.5475101470947266,
        -0.015661386772990227,
        -0.4344976246356964,
        -0.010620752349495888,
        0.11210864782333374,
        0.06319107860326767,
        0.51088947057724,
        -0.058826249092817307,
        -0.004605489782989025,
        -0.06083355471491814,
        0.0,
        -0.013990993611514568,
        -0.0345175676047802,
        0.01854577101767063,
        0.0,
        0.1272728145122528,
        -0.4628681540489197,
        -0.028477570042014122,
        -0.023421628400683403,
        0.18749186396598816,
        -0.012824169360101223,
        0.0791214257478714,
        0.0,
        0.11904395371675491,
        0.18428009748458862,
        -0.2021692395210266,
        -0.2349168211221695,
        -0.050461385399103165,
        0.19786880910396576,
        -0.2821144163608551,
        0.0,
        -0.932467520236969,
        -0.36930781602859497,
        -0.06485243141651154,
        0.11271264404058456,
        -0.004520402289927006,
        -0.008776739239692688,
        -0.007985356263816357,
        -0.027350571006536484,
        -0.41488534212112427,
        -0.04433675855398178,
        -0.27616167068481445,
        -0.12483497709035873,
        0.46074482798576355,
        -0.06180628016591072,
        -0.1603306233882904,
        0.09827225655317307,
        0.0,
        -0.0013077653711661696,
        1.6362743377685547,
        -0.0028628059662878513,
        -0.06776844710111618,
        0.11238885670900345,
        0.0,
        -0.14316459000110626,
        -0.02566291019320488,
        -0.3092949688434601,
        -0.10106858611106873,
        -0.006034277845174074,
        -0.8868871331214905,
        -0.07915541529655457,
        0.02559465914964676,
        0.0
      ],
      "weights": [
        0.08284959197044373,
        1.5441771745681763,
        -0.8927779793739319,
        -1.348062515258789,
        1.1283644437789917,
        -0.5299768447875977,
        1.4773685932159424,
        1.0476770401000977,
        0.5599219799041748,
        -0.46453091502189636,
        0.09196006506681442,
        -0.18588164448738098,
        1.3211725950241089,
        0.12422321736812592,
        0.12158352881669998,
        -0.3338085412979126,
        0.23295718431472778,
        -0.10154258459806442,
        0.16779646277427673,
        -0.18746539950370789,
        -0.56061851978302,
        -0.3435076177120209,
        -0.1921362280845642,
        -0.19965368509292603,
        -0.25984346866607666,
        0.7709088325500488,
        0.6868468523025513,
        0.5616896748542786,
        -0.5006106495857239,
        -0.7273721694946289,
        -0.5238227844238281,
        -0.00989722739905119,
        -0.1995251625776291,
        1.6646738052368164,
        -0.15922704339027405,
        -0.23383888602256775,
        -0.1749601811170578,
        -0.39132145047187805,
        0.6626761555671692,
        0.7835271954536438,
        -0.007360711693763733,
        -0.40831416845321655,
        0.4105376601219177,
        0.2552081346511841,
        0.11058245599269867,
        0.5069464445114136,
        -0.5443170070648193,
        -0.028851646929979324,
        0.09949073940515518,
        0.0590541772544384,
        0.467546284198761,
        -0.8174171447753906,
        1.0878726243972778,
        0.00043343781726434827,
        -0.09326067566871643,
        0.007995679043233395,
        0.5056754350662231,
        -0.08703438192605972,
        0.4253883361816406,
        -0.030759179964661598,
        0.7407050132751465,
        -0.4360411763191223,
        0.7528539896011353,
        3.1154065132141113,
        1.505313754081726,
        0.2323712408542633,
        3.1265676021575928,
        -0.454603374004364,
        -1.2558332681655884,
        0.37159937620162964,
        -0.2272070348262787,
        -3.899517297744751,
        0.07808805257081985,
        0.3581537902355194,
        0.2805004417896271,
        -0.03068717010319233,
        0.17430844902992249,
        -0.10257941484451294,
        -0.09300756454467773,
        0.3642667829990387,
        0.034824710339307785,
        0.19263115525245667,
        -0.13897299766540527,
        -0.08074962347745895,
        -0.14979510009288788,
        0.1559496372938156,
        -0.14201977849006653,
        0.17664098739624023,
        -0.16830679774284363,
        0.16734370589256287,
        -0.18133820593357086,
        0.0660625621676445,
        -0.2822100520133972,
        -0.2240968644618988,
        0.11668843775987625,
        0.20815522968769073,
        -0.5638813376426697,
        0.34019556641578674,
        0.4320584833621979,
        0.16044382750988007,
        0.4156639575958252,
        0.35540705919265747,
        0.01932877115905285,
        -0.018049228936433792,
        -0.20642566680908203,
        -0.1412774920463562,
        -0.2330823838710785,
        -0.05840512737631798,
        0.10092147439718246,
        0.4625016450881958,
        1.3884201049804688,
        -1.1226972341537476,
        -0.355851948261261,
        -0.02191278152167797,
        -0.09825780987739563,
        0.24470652639865875,
        -0.32203981280326843,
        -0.4389597773551941,
        0.29323098063468933,
        0.19905227422714233,
        -1.0003247261047363,
        0.21664966642856598,
        0.11307343095541,
        0.12459401041269302,
        0.4454669952392578,
        0.7506802082061768,
        -0.8210905194282532,
        1.2483841180801392,
        -0.8381343483924866,
        0.40529295802116394,
        -0.18105505406856537,
        0.3165211081504822,
        1.8534984588623047,
        1.1680506467819214,
        1.0620851516723633,
        -4.091847896575928,
        2.656684637069702,
        2.5944783687591553,
        0.8565801382064819,
        0.5170071125030518,
        -3.9459917545318604,
        1.119077444076538,
        -0.8377623558044434,
        1.2556145191192627,
        -0.06245436519384384,
        0.6591438055038452,
        0.5780767798423767,
        0.3992055058479309,
        -0.618696391582489,
        -0.3513014614582062,
        -0.2900284230709076,
        0.2636054456233978,
        0.16351403295993805,
        -0.061731696128845215,
        -0.09616581350564957,
        0.31965136528015137,
        -0.5658366084098816,
        0.5599702000617981,
        0.5293287038803101,
        0.5302284955978394,
        -0.48574966192245483,
        -0.17474980652332306,
        0.6571748852729797,
        0.40394261479377747,
        -0.8782510757446289,
        0.07510405033826828,
        0.000723168661352247,
        0.08497584611177444,
        -0.1755865514278412,
        0.5456193089485168,
        -0.5286145210266113,
        0.6945163011550903,
        -0.09921613335609436,
        -2.611748456954956,
        4.2486138343811035,
        1.2755963802337646,
        -4.021152019500732,
        0.2596973776817322,
        -0.13335682451725006,
        0.5610468983650208,
        -0.14569444954395294,
        -0.6622118949890137,
        0.04451458528637886,
        -0.5027203559875488,
        -0.22110989689826965,
        0.282084196805954,
        0.7283453941345215,
        -0.30131304264068604,
        -0.4323992133140564,
        -0.812059760093689,
        0.24866776168346405,
        -0.08040405064821243,
        0.22597528994083405,
        -0.3353630006313324,
        0.6189375519752502,
        0.2951206564903259,
        -0.2360064834356308,
        0.9656019806861877,
        -0.5207559466362,
        -0.8488965630531311,
        0.3858816623687744,
        -0.40914174914360046,
        -0.2471475601196289,
        0.07077929377555847,
        -1.6549534797668457,
        1.602384328842163,
        0.06801397353410721,
        -0.9305397868156433,
        0.5126293897628784,
        -0.8037915229797363,
        0.5884290337562561,
        0.2423590123653412,
        -0.10182914137840271,
        -0.17803896963596344,
        -0.10600098967552185,
        -0.07299211621284485,
        -0.1781153529882431,
        1.336434006690979,
        0.5648342967033386,
        -0.4351365268230438,
        0.32671716809272766,
        -0.24426095187664032,
        -0.08630682528018951,
        -0.0012805365258827806,
        0.14252711832523346,
        -0.1475982815027237,
        0.06641485542058945,
        -0.09615365415811539,
        0.4609816074371338,
        0.19727125763893127,
        -0.625029981136322,
        -0.5046231746673584,
        0.049717653542757034,
        -0.06140463426709175,
        -0.02314121276140213,
        0.0003292400506325066,
        -0.1220935583114624,
        0.32797905802726746,
        0.008614114485681057,
        0.04769931733608246,
        -9.299779891967773,
        1.45107901096344,
        5.210506439208984,
        5.058812141418457,
        0.672995924949646,
        -0.510884165763855,
        -0.7276617288589478,
        -0.9982316493988037,
        -0.29930996894836426,
        -0.040767401456832886,
        -0.6204204559326172,
        -0.1240021213889122,
        -0.23981456458568573,
        -1.7867485284805298,
        0.8498251438140869,
        -0.4199422299861908,
        -1.0367261171340942,
        0.6473418474197388,
        -1.0082764625549316,
        -0.38968905806541443,
        0.2671900689601898,
        0.3551104664802551,
        -0.5488268733024597,
        0.5778481364250183,
        2.9932992458343506,
        0.022535331547260284,
        0.7956224679946899,
        -1.8815937042236328,
        0.8818190693855286,
        0.12791313230991364,
        -0.6362926959991455,
        0.7278610467910767,
        -0.3336978256702423,
        0.08206233382225037,
        -0.15968802571296692,
        0.14990490674972534,
        -0.49721360206604004,
        0.09188424050807953,
        -0.0849197506904602,
        -2.547800064086914,
        -0.07317069172859192,
        0.6195890307426453,
        2.083765745162964,
        1.549038052558899,
        -1.0425142049789429,
        -2.5396335124969482,
        1.1544427871704102,
        1.505641222000122,
        -0.05313695967197418,
        -0.39993566274642944,
        0.003679004032164812,
        -0.20015139877796173,
        -0.09496833384037018,
        -0.10457929968833923,
        -0.06446484476327896,
        0.072843998670578,
        0.07002298533916473,
        -0.023249896243214607,
        -0.042531486600637436,
        0.045836325734853745,
        0.33725935220718384,
        -0.06073324382305145,
        -0.11278486251831055,
        -0.11632491648197174,
        0.08669957518577576,
        -0.09594552963972092,
        -0.12445008009672165,
        0.006208016071468592,
        -0.028743820264935493,
        -0.017531517893075943,
        -0.01085861586034298,
        -0.004969870205968618,
        -0.3364640176296234,
        -1.289919376373291,
        1.983673334121704,
        0.2408463954925537,
        -0.5590676665306091,
        -0.567203164100647,
        0.10481765121221542,
        0.023252196609973907,
        0.05242389440536499,
        -0.047639667987823486,
        0.015238733030855656,
        -0.013657462783157825,
        -0.1080937385559082,
        0.23080076277256012,
        0.0054130349308252335,
        0.07961738109588623,
        -0.09673555940389633,
        -0.002605280140414834,
        -0.09499829262495041,
        -0.10546468198299408,
        0.23401369154453278,
        0.08457910269498825,
        -0.10019287467002869,
        0.13967759907245636,
        -0.18929874897003174,
        0.15100659430027008,
        -0.2291683405637741,
        0.18211926519870758,
        0.09686499834060669,
        -0.15798798203468323,
        -0.043234240263700485,
        -0.0566510334610939,
        -0.17129720747470856,
        0.15372034907341003,
        -0.16909977793693542,
        0.14354632794857025,
        -0.1747802495956421,
        -0.13866926729679108,
        0.055049072951078415,
        0.14499957859516144,
        -0.15320736169815063,
        0.2367909997701645,
        0.10801350325345993,
        0.1402442306280136,
        -0.006723096128553152,
        -0.2374826967716217,
        0.13422657549381256,
        -0.11137449741363525,
        0.14954689145088196,
        0.26097217202186584,
        -0.844724714756012,
        0.3002544343471527,
        0.792823851108551,
        0.3640125095844269,
        0.2790261209011078,
        -0.08304399996995926,
        -0.08025769889354706,
        -0.4711446762084961,
        0.4367746114730835,
        -0.18469981849193573,
        -0.3298785388469696,
        0.29259994626045227,
        0.1657509207725525,
        -0.4135836064815521,
        -0.403178334236145,
        -0.7646551728248596,
        0.03188985586166382,
        -0.31428006291389465,
        -0.07784378528594971,
        0.059472233057022095,
        0.14499729871749878,
        0.6712927222251892,
        -2.1761367321014404,
        0.17932166159152985,
        0.9578105211257935,
        0.42305055260658264,
        -1.4373427629470825,
        0.5905481576919556,
        2.0850038528442383,
        -0.0849207416176796,
        0.9209221005439758,
        3.6664223670959473,
        -0.6614157557487488,
        -3.0783019065856934,
        0.18034528195858002,
        -0.11510692536830902,
        0.08178664743900299,
        0.08473481237888336,
        0.16170604526996613,
        -0.16628190875053406,
        -0.19458435475826263,
        0.05483357608318329,
        0.2257402092218399,
        -0.16170746088027954,
        0.1466747373342514,
        -0.2346358746290207,
        -0.1204168051481247,
        0.18667800724506378,
        0.010783061385154724,
        0.10441376268863678,
        -0.19378286600112915,
        -0.129608154296875,
        -0.19564053416252136,
        0.07527698576450348,
        -0.16143354773521423,
        -0.02948261797428131,
        0.029566481709480286,
        -0.10735712945461273,
        0.11496864259243011,
        -0.16738928854465485,
        -0.011684924364089966,
        0.11794798076152802,
        0.2313261479139328,
        0.14550818502902985,
        -0.06758606433868408,
        0.15123258531093597,
        0.19684363901615143,
        -0.018181443214416504,
        -0.12924011051654816,
        0.10318447649478912,
        0.07815121859312057,
        -0.07317914813756943,
        -0.024440597742795944,
        0.07578116655349731,
        -0.08777356892824173,
        -0.18943774700164795,
        -0.010814997367560863,
        0.10863469541072845,
        -0.14590448141098022,
        -0.20034512877464294,
        0.07108139991760254,
        0.10753075778484344,
        -0.07867990434169769,
        -0.0994960218667984,
        -0.12335232645273209,
        -0.142400860786438,
        -0.03001362457871437,
        -0.0770161896944046,
        -0.2337898313999176,
        0.2054256647825241,
        -0.2102130949497223,
        0.17256785929203033,
        -0.06266751885414124,
        0.02674071490764618,
        -0.03140736371278763,
        0.08502478152513504,
        0.23157525062561035,
        -0.08586326986551285,
        -0.05620120093226433,
        -0.020144326612353325,
        -0.09991434216499329,
        0.06830806285142899,
        0.02603670209646225,
        -0.1349104940891266,
        0.06509075313806534,
        0.06143651902675629,
        -0.23325861990451813,
        -0.6142838597297668,
        -0.18670818209648132,
        0.34898507595062256,
        0.028648480772972107,
        -0.11536460369825363,
        -0.025106405839323997,
        -0.004013858735561371,
        0.05047912895679474,
        -0.03469603881239891,
        0.04725436493754387,
        -0.004853538237512112,
        0.19093510508537292,
        0.35735607147216797,
        0.21715731918811798,
        -0.383989542722702,
        0.09181623160839081,
        0.02747359871864319,
        -0.2046547532081604,
        0.18736706674098969,
        -0.00807640515267849,
        0.05101766064763069,
        -0.057306040078401566,
        0.058124180883169174,
        0.7248162031173706,
        -4.325808048248291,
        -3.418588161468506,
        8.029158592224121,
        1.2511825561523438,
        -1.3868675231933594,
        1.5871175527572632,
        -1.926426887512207,
        -0.08723516762256622,
        -0.6534558534622192,
        0.4405428469181061,
        -0.6035072803497314,
        0.034866396337747574,
        0.08291937410831451,
        -0.3253461420536041,
        0.14630049467086792,
        -0.06797578930854797,
        -0.06857077032327652,
        0.07072238624095917,
        0.018542693927884102,
        -0.029217632487416267,
        0.021680891513824463,
        -0.02229681797325611,
        -0.0008072687778621912,
        0.5550190806388855,
        -0.3021884560585022,
        -0.07260856032371521,
        -0.020351948216557503,
        0.05890296772122383,
        0.012071751058101654,
        -0.007011219393461943,
        -0.002383194398134947,
        0.009528381749987602,
        0.0018272306770086288,
        8.455938223050907e-05,
        -0.006137460935860872,
        -10.144216537475586,
        8.132489204406738,
        3.9885928630828857,
        0.05235651507973671,
        -0.5829804539680481,
        -0.013286031782627106,
        -0.673984706401825,
        -0.12259522825479507,
        -0.5384830236434937,
        -0.03386656939983368,
        -0.11263857036828995,
        -0.0055622803047299385,
        0.0665314644575119,
        -0.2097811996936798,
        -0.04540501534938812,
        0.14247457683086395,
        0.21278174221515656,
        -0.11006598174571991,
        0.0029028505086898804,
        0.035292938351631165,
        -0.001351967453956604,
        0.20353637635707855,
        0.1178174763917923,
        -0.05932433903217316,
        0.22878910601139069,
        -0.02717655897140503,
        0.097780242562294,
        -0.09574790298938751,
        -0.14655232429504395,
        0.002624228596687317,
        0.12057511508464813,
        -0.19646263122558594,
        0.008835449814796448,
        -0.06149846315383911,
        -0.15520095825195312,
        0.15687160193920135,
        0.09313057363033295,
        0.22555123269557953,
        -0.16815094649791718,
        -0.09493999183177948,
        -0.08413036167621613,
        0.06283320486545563,
        0.16534744203090668,
        0.21017445623874664,
        -0.23036989569664001,
        -0.15657609701156616,
        0.09261880815029144,
        0.08263467252254486,
        0.21519199013710022,
        -0.1552145779132843,
        -0.5538565516471863,
        -0.029917988926172256,
        0.1793992966413498,
        0.1129743903875351,
        -0.1414899379014969,
        -0.0454903207719326,
        0.07383749634027481,
        0.0005734532605856657,
        0.03472868725657463,
        -0.04242943227291107,
        0.07958099246025085,
        -0.08694791048765182,
        -0.03793742135167122,
        -0.07619176059961319,
        -0.003456742037087679,
        0.023081330582499504,
        -0.034831397235393524,
        0.0481453612446785,
        -0.08529595285654068,
        0.025825386866927147,
        -0.013323214836418629,
        0.012170120142400265,
        -1.2347488403320312,
        8.081361770629883,
        -8.130810737609863,
        1.5430830717086792,
        -0.9900324940681458,
        0.26596799492836,
        0.6502287983894348,
        -0.41926777362823486,
        0.5535616278648376,
        -0.15496636927127838,
        0.14905455708503723,
        -0.005150304641574621,
        0.009256166405975819,
        1.3608355522155762,
        0.2663564085960388,
        0.47764596343040466,
        2.00516414642334,
        -0.3168789744377136,
        0.3465223014354706,
        -0.14211174845695496,
        0.10155820101499557,
        -0.013283479027450085,
        -0.19482217729091644,
        -0.01804322563111782,
        2.6287600994110107,
        1.191195011138916,
        -1.4685362577438354,
        -1.4070872068405151,
        -0.979411244392395,
        0.3209763765335083,
        -0.11745079606771469,
        0.8646181225776672,
        0.4009617269039154,
        0.16291950643062592,
        0.05661110207438469,
        0.31353631615638733,
        4.254263401031494,
        5.202052593231201,
        -0.8882114887237549,
        -4.018670558929443,
        -2.9229543209075928,
        0.6930654048919678,
        -2.3629438877105713,
        -1.054407000541687,
        0.42605218291282654,
        1.88237464427948,
        0.3634215295314789,
        0.38421952724456787,
        0.05010867118835449,
        -0.11446616053581238,
        -0.12371022254228592,
        -0.10557060688734055,
        0.1384914368391037,
        0.13770024478435516,
        -0.10249889642000198,
        0.039118196815252304,
        -0.09542021155357361,
        0.24199050664901733,
        0.05120213329792023,
        0.09464167058467865,
        0.08328468352556229,
        0.13293585181236267,
        0.03823002427816391,
        -0.06328277289867401,
        -0.18497617542743683,
        -0.1305062472820282,
        0.10353906452655792,
        -0.04095306620001793,
        0.002956852549687028,
        -0.1036212146282196,
        -0.16977757215499878,
        -0.13680437207221985,
        0.04707501083612442,
        0.08998065441846848,
        -0.09387465566396713,
        0.26010507345199585,
        -0.07845503836870193,
        0.2629290223121643,
        0.22479236125946045,
        -0.15520219504833221,
        -0.022548317909240723,
        -0.16978994011878967,
        -0.006598547101020813,
        -0.1809605360031128,
        -0.1806069165468216,
        0.20810306072235107,
        0.04797074571251869,
        -0.21434758603572845,
        0.20155642926692963,
        -0.1437050700187683,
        0.1418071687221527,
        0.04451174661517143,
        0.013850683346390724,
        -0.10791806876659393,
        0.09813147783279419,
        -0.007633927743881941,
        -0.07089237868785858,
        -0.2169225811958313,
        0.06608062982559204,
        -0.2532523572444916,
        -0.1522606462240219,
        0.18311075866222382,
        -0.15186521410942078,
        0.14443333446979523,
        -0.03742507845163345,
        0.015110899694263935,
        -0.09658658504486084,
        0.12736402451992035,
        0.19647015631198883,
        -0.23121435940265656,
        -0.0765405148267746,
        0.16562387347221375,
        -0.06855496019124985,
        0.119305819272995,
        -0.2104083150625229,
        -0.0045881131663918495,
        0.11425608396530151,
        -0.1651342362165451,
        0.15731608867645264,
        0.11553648859262466,
        0.0455595888197422,
        -0.2704668641090393,
        -0.37545737624168396,
        0.92247474193573,
        0.24432078003883362,
        0.3146154284477234,
        -0.2900131046772003,
        0.08860456943511963,
        -0.2025463879108429,
        -0.1536455750465393,
        0.033469006419181824,
        0.020893385633826256,
        0.8129653334617615,
        0.10251079499721527,
        0.11264049261808395,
        -0.5459039807319641,
        0.6018860340118408,
        0.09454289823770523,
        -0.46870580315589905,
        0.09468170255422592,
        -0.28668010234832764,
        0.09220090508460999,
        -0.06353273242712021,
        0.07995729893445969,
        7.12819242477417,
        -3.4869487285614014,
        1.3785724639892578,
        0.11272315680980682,
        -3.710113525390625,
        -2.1345877647399902,
        1.1344654560089111,
        2.0031661987304688,
        0.13502904772758484,
        1.2470945119857788,
        -1.4086668491363525,
        0.7316654324531555,
        0.045740947127342224,
        -0.18056073784828186,
        0.0993930771946907,
        0.1771950125694275,
        0.05833321437239647,
        0.23768801987171173,
        -0.08997756242752075,
        -0.16238075494766235,
        -0.14742963016033173,
        0.0796571895480156,
        -0.1202990934252739,
        -0.05772610381245613,
        -0.21187523007392883,
        0.07205580174922943,
        0.13885638117790222,
        -0.04649057984352112,
        0.21365109086036682,
        0.08512815088033676,
        -0.23430562019348145,
        -0.23514339327812195,
        -0.1526714563369751,
        0.13566367328166962,
        -0.08090653270483017,
        0.12156912684440613,
        0.21833422780036926,
        0.22584637999534607,
        -0.008928588591516018,
        -0.04076536372303963,
        -0.01586296409368515,
        0.09747393429279327,
        -0.2101350724697113,
        -0.210486501455307,
        0.14203059673309326,
        -0.19607190787792206,
        0.03402857109904289,
        -0.20239365100860596,
        0.1284852921962738,
        -0.7709126472473145,
        -3.262887716293335,
        -2.535137891769409,
        1.3630716800689697,
        1.3921955823898315,
        0.9708148241043091,
        1.4450069665908813,
        1.4249494075775146,
        0.0729534775018692,
        2.0399587154388428,
        2.6213910579681396,
        0.26853448152542114,
        -0.1733139008283615,
        -0.7016977667808533,
        -0.26201364398002625,
        0.3983752429485321,
        -0.0023836372420191765,
        -0.017893487587571144,
        0.37087756395339966,
        0.08739977329969406,
        0.5972099900245667,
        -0.24493950605392456,
        0.3031948506832123,
        2.42394757270813,
        -1.4545328617095947,
        0.8409497737884521,
        1.705675721168518,
        -0.19417881965637207,
        -1.396834135055542,
        -0.2987307906150818,
        -1.0231748819351196,
        1.680654525756836,
        0.7339844107627869,
        -0.9588574171066284,
        -1.2438558340072632,
        0.053612783551216125,
        -0.1883387267589569,
        -0.1093430370092392,
        -0.22541923820972443,
        -0.243416890501976,
        -0.19202958047389984,
        0.03999434411525726,
        -0.016773760318756104,
        0.22650893032550812,
        0.043221667408943176,
        -0.02016553282737732,
        0.19412492215633392,
        0.13114051520824432,
        -0.18739691376686096,
        -0.07183107733726501,
        -0.14378109574317932,
        -0.24194911122322083,
        0.22239957749843597,
        -0.2153184860944748,
        -0.1311156451702118,
        0.10222019255161285,
        -0.11804872751235962,
        0.14927826821804047,
        -0.1096898764371872,
        0.24450431764125824,
        -0.24314101040363312,
        0.24446465075016022,
        -0.11419640481472015,
        -0.0970163494348526,
        -0.19561950862407684,
        -0.11250162124633789,
        -0.21060988306999207,
        -0.07779432833194733,
        0.01205967366695404,
        -0.11001802980899811,
        -0.015230178833007812,
        -0.07352083921432495,
        -1.1758997440338135,
        -1.1364195346832275,
        0.025277648121118546,
        0.1165231242775917,
        0.03668695688247681,
        -0.08683771640062332,
        -0.04293961077928543,
        0.10260342806577682,
        0.0018712570890784264,
        -0.008510266430675983,
        0.05345655605196953,
        0.10708589851856232,
        0.8002064824104309,
        -0.4525570273399353,
        -0.25894445180892944,
        -0.0034455307759344578,
        0.010064841248095036,
        -0.03621546924114227,
        0.036035869270563126,
        -0.02354530617594719,
        0.02069440297782421,
        -0.005153645761311054,
        0.0169055312871933,
        -1.8874644041061401,
        -7.23417329788208,
        8.381649017333984,
        1.2788552045822144,
        1.810598611831665,
        -0.014867645688354969,
        -0.6312996745109558,
        -0.6658900380134583,
        -0.7290462851524353,
        -0.1991361379623413,
        0.09894448518753052,
        -0.29538649320602417,
        -0.15765799582004547,
        0.8306074738502502,
        1.601954698562622,
        1.4838069677352905,
        -0.6579293608665466,
        -0.9913883805274963,
        0.5706750154495239,
        -0.0014984776498749852,
        0.3564136028289795,
        -0.30682799220085144,
        0.18824437260627747,
        -0.5349091291427612,
        -3.126863718032837,
        -1.4252986907958984,
        1.6056879758834839,
        1.925288438796997,
        1.9199930429458618,
        0.33547258377075195,
        -0.24508441984653473,
        -0.8895511627197266,
        0.6050711870193481,
        -0.562399685382843,
        0.23967096209526062,
        0.006187233608216047,
        2.306682586669922,
        1.415462613105774,
        -0.8588651418685913,
        -0.7519238591194153,
        -1.76076078414917,
        2.4267313480377197,
        -0.8754324316978455,
        -0.1784006506204605,
        -0.9886599779129028,
        -1.4462487697601318,
        -0.9731783866882324,
        2.1115660667419434,
        0.20198512077331543,
        0.26330021023750305,
        1.5232726335525513,
        1.0852938890457153,
        0.8682441115379333,
        1.1082044839859009,
        0.4370396137237549,
        -0.35650473833084106,
        0.8881953954696655,
        -0.11676604300737381,
        0.7203403115272522,
        2.2118427753448486,
        -1.0414934158325195,
        0.4495735168457031,
        0.016239577904343605,
        -0.01580299623310566,
        -0.08368156105279922,
        0.36756613850593567,
        -0.049534089863300323,
        -0.273336797952652,
        -0.34322109818458557,
        -0.006423542276024818,
        0.28660261631011963,
        -0.22338715195655823,
        -1.2587014436721802,
        3.631894111633301,
        3.376227855682373,
        0.420571893453598,
        1.0109893083572388,
        1.307100772857666,
        0.356488972902298,
        -0.4103274345397949,
        -1.9730857610702515,
        -0.5275358557701111,
        1.6373183727264404,
        -0.5153753757476807,
        -0.1234954446554184,
        4.587841033935547,
        0.8641729354858398,
        1.1859639883041382,
        1.3500382900238037,
        0.5589431524276733,
        -0.6219800710678101,
        -1.7163469791412354,
        -1.560839056968689,
        0.09194695949554443,
        -0.44685766100883484,
        -1.4110503196716309,
        0.2481476366519928,
        0.3906765878200531,
        0.8335579037666321,
        -0.36517852544784546,
        -0.5038049817085266,
        0.47895100712776184,
        -0.34290561079978943,
        -0.1926545351743698,
        0.21383370459079742,
        0.3270527124404907,
        -0.32295528054237366,
        -0.29983386397361755,
        0.39593052864074707,
        4.007078647613525,
        3.155829668045044,
        0.5284040570259094,
        1.0672657489776611,
        1.6065186262130737,
        -1.5040578842163086,
        -2.6937882900238037,
        1.8707367181777954,
        -0.013623906299471855,
        -1.074601650238037,
        -0.263746052980423,
        -0.043407000601291656,
        -0.80461186170578,
        -0.5427550673484802,
        0.5999964475631714,
        -0.37652650475502014,
        -0.34244072437286377,
        0.3230963349342346,
        -0.12713660299777985,
        0.256196528673172,
        -0.1356775462627411,
        0.017085885629057884,
        0.05100708082318306,
        0.8085934519767761,
        0.6454659700393677,
        0.04356243088841438,
        -0.18268150091171265,
        -0.3492928147315979,
        0.22492465376853943,
        0.04374685883522034,
        0.4083831310272217,
        -0.4132130742073059,
        0.11728253215551376,
        -0.010537258349359035,
        0.07088574767112732,
        4.32783317565918,
        -2.3908371925354004,
        -2.3979759216308594,
        -0.6762617826461792,
        2.8237171173095703,
        2.786285877227783,
        -3.3459908962249756,
        -2.533135175704956,
        2.6098272800445557,
        0.024829735979437828,
        -0.04192701354622841,
        -0.14976546168327332,
        -0.004032873082906008,
        -3.060607671737671,
        -0.27385619282722473,
        2.387906074523926,
        -1.301924228668213,
        -0.34430891275405884,
        -0.01446949690580368,
        -0.2989596426486969,
        -0.08313870429992676,
        -0.11429354548454285,
        0.10791701078414917,
        1.3151805400848389,
        4.555795669555664,
        -0.3440788984298706,
        -1.0443531274795532,
        -0.8155752420425415,
        -1.7995861768722534,
        1.3949027061462402,
        1.3069841861724854,
        -0.14533597230911255,
        0.1907096803188324,
        0.32952019572257996,
        0.22824406623840332,
        0.0670032650232315,
        0.41695255041122437,
        -1.898410677909851,
        -1.8263798952102661,
        0.7837252020835876,
        1.714754581451416,
        -0.9551475644111633,
        1.1608368158340454,
        0.49479708075523376,
        -1.2430378198623657,
        -2.028919219970703,
        -2.3149971961975098,
        1.0427699089050293,
        -0.12815316021442413,
        0.14605841040611267,
        0.05737040191888809,
        -0.641391932964325,
        1.0627576112747192,
        -0.2569313645362854,
        -0.5365471243858337,
        -0.158319890499115,
        0.07718272507190704,
        0.08419914543628693,
        0.12513557076454163,
        -0.1274017095565796,
        0.8375237584114075,
        0.04332466796040535,
        -0.6899275183677673,
        -0.7351593971252441,
        0.3064528703689575,
        -0.13697907328605652,
        -0.05570803955197334,
        -0.06930280476808548,
        0.12494976818561554,
        0.5976613759994507,
        0.029028987511992455,
        0.08194667845964432,
        7.0058674812316895,
        -0.8231417536735535,
        -1.0492602586746216,
        -5.322219371795654,
        -1.8729723691940308,
        0.4869770109653473,
        -2.5898990631103516,
        -0.7101743817329407,
        -0.021497271955013275,
        2.789433002471924,
        0.5319105982780457,
        1.0391770601272583,
        0.21375219523906708,
        0.0874626487493515,
        0.1397361308336258,
        0.03530360758304596,
        0.15343569219112396,
        0.2444850355386734,
        -0.12488122284412384,
        -0.20988129079341888,
        0.0642094761133194,
        -0.11108517646789551,
        0.03183896839618683,
        -0.20534159243106842,
        0.16845007240772247,
        -0.2405885010957718,
        0.008518055081367493,
        -0.07409338653087616,
        -0.07885418832302094,
        -0.13203293085098267,
        -0.08914193511009216,
        0.19343610107898712,
        -0.1850658506155014,
        -0.00017789006233215332,
        -0.20496894419193268,
        -0.15005680918693542,
        -0.23997260630130768,
        -0.11744585633277893,
        0.02946813404560089,
        0.17049922049045563,
        0.16397689282894135,
        0.13467524945735931,
        0.15162311494350433,
        -0.06189057230949402,
        -0.050523921847343445,
        -0.0707254409790039,
        -0.1916579157114029,
        -0.11662048101425171,
        -0.05767177790403366,
        -1.0297902822494507,
        -0.40115898847579956,
        -2.3432164192199707,
        0.5026700496673584,
        -0.04993904381990433,
        0.6153256297111511,
        -0.34328263998031616,
        0.17088323831558228,
        0.1720440536737442,
        0.07855935394763947,
        -0.8549362421035767,
        0.9294506311416626,
        0.8445349335670471,
        -1.7871859073638916,
        1.354065179824829,
        -2.119824171066284,
        0.258786141872406,
        -0.5913135409355164,
        1.876598596572876,
        0.5261244177818298,
        0.5964487791061401,
        -0.21247313916683197,
        0.3902539312839508,
        2.2729485034942627,
        1.7327510118484497,
        2.151137113571167,
        -2.8356378078460693,
        -1.0489205121994019,
        -1.0241965055465698,
        2.829742431640625,
        1.0724631547927856,
        -2.1124155521392822,
        0.14000606536865234,
        0.8176178336143494,
        1.1238377094268799,
        -0.05922821909189224,
        1.9051324129104614,
        0.983222246170044,
        -0.5539620518684387,
        0.3153461515903473,
        -0.5836959481239319,
        -0.09049156308174133,
        0.03205418959259987,
        0.0041037616319954395,
        0.07979597896337509,
        0.0985172688961029,
        -0.05852147564291954,
        -0.19138483703136444,
        -0.4277082085609436,
        -0.14578823745250702,
        0.0373988039791584,
        -0.5553364157676697,
        0.014916985295712948,
        -0.0825563594698906,
        0.3851524889469147,
        0.006144952028989792,
        0.04882282763719559,
        0.4525319039821625,
        0.100442074239254,
        2.9916763305664062,
        0.30002135038375854,
        -0.1602669209241867,
        0.01938769593834877,
        1.9782907962799072,
        -3.421309471130371,
        -1.7164092063903809,
        -0.8020468950271606,
        -1.8285757303237915,
        -1.284515142440796,
        4.363311767578125,
        -0.04807707294821739,
        -0.22633084654808044,
        -4.0602126121521,
        -2.7080466747283936,
        -0.8969030976295471,
        0.09806331992149353,
        -0.4408966600894928,
        -0.08383941650390625,
        0.021235669031739235,
        -0.6055991649627686,
        0.4642251431941986,
        0.3783625364303589,
        0.19600795209407806,
        0.40054789185523987,
        -0.31410565972328186,
        -0.21834281086921692,
        -0.3554820716381073,
        -0.8849644064903259,
        -0.11633602529764175,
        -0.2456432580947876,
        -0.028338445350527763,
        -0.1299244463443756,
        0.40306517481803894,
        0.5050928592681885,
        0.0776108130812645,
        1.0093399286270142,
        -2.4680466651916504,
        -1.1280317306518555,
        1.5368596315383911,
        0.5152416229248047,
        0.5616130232810974,
        1.7590876817703247,
        3.0420403480529785,
        1.934549331665039,
        -0.7716923356056213,
        -4.028325080871582,
        0.3670029640197754,
        0.24221505224704742,
        1.6455862522125244,
        0.980079710483551,
        0.5198184251785278,
        -0.24907802045345306,
        0.5039559006690979,
        -0.21846137940883636,
        -0.5736167430877686,
        0.3354054093360901,
        -0.00019557855557650328,
        0.0031948075629770756,
        -0.11467920243740082,
        -0.4965689480304718,
        0.222150981426239,
        0.5715692043304443,
        0.161030113697052,
        0.38005152344703674,
        0.34356239438056946,
        -0.21069645881652832,
        -0.33111733198165894,
        -0.30982720851898193,
        0.004168068524450064,
        -0.37699243426322937,
        0.36910325288772583,
        -4.550601959228516,
        3.1719837188720703,
        1.6309459209442139,
        3.481677293777466,
        1.949681043624878,
        0.9423677325248718,
        -1.990323781967163,
        -3.810720920562744,
        0.6986905336380005,
        -0.3597725033760071,
        2.6268818378448486,
        -1.9843746423721313,
        -0.0034522830974310637,
        0.0739208310842514,
        0.1687626987695694,
        0.04588533937931061,
        0.2083255797624588,
        -0.16462820768356323,
        0.21944572031497955,
        0.21888013184070587,
        -0.007675032131373882,
        0.23277418315410614,
        -0.23152464628219604,
        0.041863277554512024,
        0.17032183706760406,
        -0.06826175004243851,
        0.20189456641674042,
        -0.059532009065151215,
        -0.13413026928901672,
        -0.008315417915582657,
        -0.019270524382591248,
        -0.024090923368930817,
        -0.0749032199382782,
        -0.1854591816663742,
        -0.13664457201957703,
        -0.16834858059883118,
        -0.08770225942134857,
        -0.2095993459224701,
        0.1021018996834755,
        0.11322508007287979,
        0.22840143740177155,
        -0.10536611080169678,
        -0.03983553871512413,
        0.15329422056674957,
        -0.21452553570270538,
        0.13334260880947113,
        0.16789503395557404,
        0.10867772996425629,
        -0.05232167989015579,
        0.23051941394805908,
        -0.22923485934734344,
        0.1689511239528656,
        -0.12181645631790161,
        0.07188497483730316,
        -0.17076824605464935,
        -0.07962868362665176,
        0.10118108242750168,
        0.03303668648004532,
        0.006625380367040634,
        0.10411946475505829,
        -0.09136982262134552,
        -0.10884600877761841,
        0.07132229208946228,
        0.15354003012180328,
        -0.15722492337226868,
        -0.021934518590569496,
        -0.22771987318992615,
        0.23212161660194397,
        -0.20757991075515747,
        -0.09745579957962036,
        0.1488456428050995,
        -0.23044487833976746,
        0.19270777702331543,
        -0.1959126591682434,
        0.17685416340827942,
        0.04341013729572296,
        -0.05409344658255577,
        0.07178051024675369,
        -0.07098010927438736,
        -0.003933823201805353,
        -0.014074333012104034,
        0.1333359330892563,
        -0.002857014536857605,
        -0.22335810959339142,
        0.055048711597919464,
        0.026674456894397736,
        0.13418442010879517,
        0.11687801778316498,
        -0.12440149486064911,
        0.02873622626066208,
        0.05193951725959778,
        -0.07229605317115784,
        0.13174785673618317,
        -0.14215600490570068,
        0.07273779809474945,
        -0.16571971774101257,
        -0.05932024493813515,
        -0.025041699409484863,
        -0.14081382751464844,
        -0.05633646994829178,
        -0.15178821980953217,
        0.22538095712661743,
        0.007542325649410486,
        -0.010105653665959835,
        -0.1398855447769165,
        0.006508843507617712,
        -0.12736333906650543,
        0.15681762993335724,
        0.06803184747695923,
        -0.08200628310441971,
        0.06025861203670502,
        -0.10223816335201263,
        0.1798730045557022,
        0.05034726485610008,
        -0.11134380847215652,
        0.037221334874629974,
        -0.18959037959575653,
        0.14973168075084686,
        -0.16632050275802612,
        0.0026928631123155355,
        -0.17633551359176636,
        -0.13286004960536957,
        -0.1449415385723114,
        0.01846705749630928,
        -0.1629897654056549,
        -0.1467772126197815,
        -0.10296681523323059,
        -0.09960924088954926,
        0.053787779062986374,
        0.1400570422410965,
        0.1945195347070694,
        -0.14798325300216675,
        -0.14369294047355652,
        -0.10841190814971924,
        -0.11817476898431778,
        -0.21394316852092743,
        0.06593416631221771,
        0.07360474765300751,
        0.0300487969070673,
        0.12232436239719391,
        -0.19251711666584015,
        -0.21233147382736206,
        -0.16101208329200745,
        0.16707976162433624,
        -0.09266526252031326,
        0.0683741495013237,
        -0.14612844586372375,
        -0.2438664436340332,
        0.012661210261285305,
        0.20101691782474518,
        0.16750574111938477,
        -0.12198946624994278,
        -0.18764080107212067,
        -0.014398783445358276,
        -0.0017707645893096924,
        -0.12120509147644043,
        0.06971809267997742,
        0.02672608755528927,
        -0.594543993473053,
        -0.7314653992652893,
        0.721900463104248,
        -0.038347989320755005,
        0.827066957950592,
        -0.17813672125339508,
        -0.16225005686283112,
        -0.28840532898902893,
        0.2591729164123535,
        -0.2949955463409424,
        0.4778565764427185,
        0.10384419560432434,
        -2.6670048236846924,
        0.012938021682202816,
        -1.035038709640503,
        0.10900640487670898,
        0.7456943392753601,
        0.7457658648490906,
        -0.024877747520804405,
        0.17411798238754272,
        0.24525125324726105,
        0.1704750508069992,
        -5.026398658752441,
        -0.6046382188796997,
        3.3439807891845703,
        0.40727144479751587,
        1.4751077890396118,
        2.202765941619873,
        -1.2752983570098877,
        0.7324363589286804,
        2.6386892795562744,
        -0.6077734231948853,
        -1.877020239830017,
        -0.5971246957778931,
        -0.001205079723149538,
        -0.5017601251602173,
        -0.51836097240448,
        0.0018640697235241532,
        0.027619369328022003,
        -0.16297540068626404,
        -0.13976532220840454,
        -0.22334924340248108,
        -0.3099175989627838,
        -0.18999895453453064,
        -0.28417542576789856,
        0.11820192635059357,
        -0.27748799324035645,
        -0.12383515387773514,
        -0.0166311077773571,
        0.08930348604917526,
        0.08016596734523773,
        -0.16789671778678894,
        0.0801648423075676,
        -0.20785358548164368,
        -0.26911303400993347,
        0.1395825445652008,
        -0.09405488520860672,
        -0.1501578986644745,
        -0.24721507728099823,
        0.20452181994915009,
        0.09656041115522385,
        -0.2498064637184143,
        -0.08632133156061172,
        0.0317641980946064,
        -0.18799415230751038,
        -0.03061952441930771,
        -0.32080236077308655,
        -0.14809496700763702,
        0.5004371404647827,
        0.2207529991865158,
        0.017681680619716644,
        0.03073783963918686,
        -0.7598876357078552,
        -0.31070476770401,
        0.7955361008644104,
        0.8133293986320496,
        -0.810392439365387,
        -1.3246337175369263,
        -0.6209988594055176,
        0.644058346748352,
        -1.484165906906128,
        -1.3035427331924438,
        0.5420452952384949,
        0.3980875015258789,
        0.5801717042922974,
        0.8889732956886292,
        -0.6380783319473267,
        -0.21969333291053772,
        -0.21985581517219543,
        0.28462108969688416,
        0.14352485537528992,
        -0.4271545112133026,
        0.4718840420246124,
        -0.01052168384194374,
        -2.4713292121887207,
        -1.636184811592102,
        -1.2925235033035278,
        -1.4996678829193115,
        -1.4208900928497314,
        -0.10290942341089249,
        0.718813955783844,
        -0.6077825427055359,
        -1.083658218383789,
        -0.18988144397735596,
        -1.474491834640503,
        -0.196364164352417,
        -0.10714428126811981,
        -8.03464126586914,
        -3.77402925491333,
        -2.1766178607940674,
        -1.4607501029968262,
        -2.3180816173553467,
        -0.0986715778708458,
        0.050670135766267776,
        0.6995648741722107,
        0.20726267993450165,
        1.2258626222610474,
        1.426935076713562,
        -0.8454062938690186,
        -0.22343502938747406,
        -0.4463629424571991,
        -0.17565250396728516,
        0.015165048651397228,
        -0.3261365592479706,
        0.062492407858371735,
        0.03649907559156418,
        -0.41725215315818787,
        -0.038699936121702194,
        0.3088667690753937,
        0.2786466181278229,
        -3.301208972930908,
        -1.1923245191574097,
        -0.8669357895851135,
        0.21086759865283966,
        -0.24101321399211884,
        1.9166229963302612,
        0.8722103834152222,
        1.0963826179504395,
        1.720656156539917,
        1.5326499938964844,
        -0.09577465802431107,
        0.7999206781387329,
        0.20107173919677734,
        0.3052141070365906,
        1.327942132949829,
        2.0263583660125732,
        0.13648518919944763,
        1.2401705980300903,
        -0.8004351854324341,
        -0.8525442481040955,
        -0.749215841293335,
        -1.576646327972412,
        0.2604731023311615,
        -0.12211152911186218,
        0.7624894976615906,
        -0.1595170795917511,
        -0.1778837889432907,
        -0.5378649830818176,
        -0.12997949123382568,
        -0.3122479021549225,
        -0.31729480624198914,
        0.0721522867679596,
        -0.455310583114624,
        0.3547031283378601,
        -0.13151611387729645,
        -0.28939390182495117,
        -2.3571088314056396,
        0.3659844994544983,
        0.16271473467350006,
        -0.329063355922699,
        1.1032593250274658,
        1.3214012384414673,
        -0.7760149836540222,
        -0.8563340902328491,
        0.6912215352058411,
        -0.981273889541626,
        0.3361750543117523,
        -0.008372337557375431,
        -0.03812955319881439,
        -1.6977860927581787,
        0.4616832137107849,
        0.051927994936704636,
        -0.31199705600738525,
        0.17665228247642517,
        0.008982589468359947,
        0.020637433975934982,
        -0.1866617351770401,
        0.26662585139274597,
        -0.21051310002803802,
        0.23164477944374084,
        -0.0459103025496006,
        -0.3038370609283447,
        0.3475995361804962,
        1.6362353563308716,
        -0.4712558090686798,
        -0.7983847260475159,
        -0.3799227476119995,
        0.3874489665031433,
        0.013869328424334526,
        0.10991867631673813,
        -0.01958758942782879,
        0.13157899677753448,
        -0.3693971037864685,
        -0.157060906291008,
        -1.2869592905044556,
        -6.322508335113525,
        3.4490365982055664,
        4.292449474334717,
        0.25416964292526245,
        1.6493077278137207,
        -0.6040191054344177,
        -0.4051479697227478,
        -1.0021321773529053,
        -0.00233366503380239,
        0.15158633887767792,
        3.902709484100342,
        0.16880665719509125,
        -0.09556528925895691,
        -0.009630651213228703,
        0.16626973450183868,
        0.22099168598651886,
        -0.20343194901943207,
        -0.13781163096427917,
        -0.06310519576072693,
        0.04973611235618591,
        0.06000678986310959,
        0.06749831885099411,
        0.34799838066101074,
        -0.008870615623891354,
        0.34818562865257263,
        -0.023401690647006035,
        0.04771579056978226,
        -0.028605490922927856,
        0.35983332991600037,
        -0.2909715175628662,
        0.10537053644657135,
        -0.014529452659189701,
        0.08319254964590073,
        -0.11423715949058533,
        0.4638499915599823,
        3.8851895332336426,
        2.419097900390625,
        -4.960821151733398,
        -2.4426991939544678,
        -1.0856389999389648,
        -0.22876182198524475,
        3.333143711090088,
        -0.8008466362953186,
        0.1715226024389267,
        -0.03988538682460785,
        -0.09996363520622253,
        2.211259365081787,
        1.1076570749282837,
        -0.09263331443071365,
        1.0131206512451172,
        -0.4852822422981262,
        0.9683951139450073,
        -0.6724703311920166,
        0.06307852268218994,
        -0.6225252151489258,
        -0.2685634195804596,
        -0.05133151262998581,
        -0.5206668376922607,
        1.1358489990234375,
        0.49426552653312683,
        0.2990362346172333,
        0.22256311774253845,
        1.1191494464874268,
        -0.860774040222168,
        -0.16264021396636963,
        -0.8165466785430908,
        0.2418261468410492,
        -0.42527246475219727,
        -0.04591677337884903,
        -2.1058857440948486,
        0.4471253454685211,
        -0.6426035761833191,
        -0.6896957159042358,
        -1.5816751718521118,
        -0.8862142562866211,
        1.2430238723754883,
        2.150123119354248,
        1.523543357849121,
        0.77418452501297,
        -0.7308422327041626,
        -0.45725399255752563,
        0.2025005966424942,
        0.016357257962226868,
        -0.18936097621917725,
        -0.10374811291694641,
        -0.004134684801101685,
        0.08352260291576385,
        -0.2340947836637497,
        -0.19469058513641357,
        0.20859326422214508,
        -0.1735558956861496,
        -0.16057127714157104,
        0.15310491621494293,
        0.08854730427265167,
        -0.2438489943742752,
        0.18550153076648712,
        0.057872965931892395,
        0.1397770494222641,
        -0.0912129282951355,
        -0.12315846979618073,
        0.07277967035770416,
        -0.223899245262146,
        -0.10741262137889862,
        -0.17197325825691223,
        0.17592753469944,
        0.15059275925159454,
        0.0749988704919815,
        0.1839589923620224,
        -0.13678567111492157,
        0.04336877167224884,
        -0.07669804990291595,
        -0.017961278557777405,
        -0.21652457118034363,
        0.2367621213197708,
        0.003557458519935608,
        -0.1625455617904663,
        0.03767772018909454,
        0.2330244779586792,
        0.18617801368236542,
        0.16015589237213135,
        0.03540866822004318,
        0.027170071378350258,
        -0.020844610407948494,
        0.07008490711450577,
        0.05903658643364906,
        -0.05533105507493019,
        0.13216710090637207,
        -0.17796094715595245,
        -0.015877947211265564,
        -0.009304637089371681,
        0.05946187302470207,
        -0.11727798730134964,
        -0.018621230497956276,
        0.18263956904411316,
        0.0016222402919083834,
        -0.15466953814029694,
        -0.2072993516921997,
        0.09966728091239929,
        -0.23021216690540314,
        0.17365767061710358,
        0.02176302671432495,
        -0.15665997564792633,
        0.07552064210176468,
        0.23516470193862915,
        0.11869727075099945,
        -0.025285914540290833,
        -0.06755097955465317,
        0.0065717315301299095,
        -0.20933321118354797,
        0.056665387004613876,
        0.027402369305491447,
        0.14780858159065247,
        -0.1029401421546936,
        0.1024312898516655,
        -0.7790736556053162,
        0.2152397483587265,
        -0.4256397485733032,
        -0.1455388069152832,
        -0.8601877093315125,
        -0.4764494299888611,
        0.28866294026374817,
        0.5710805058479309,
        -0.5912395715713501,
        0.24245820939540863,
        0.07769623398780823,
        -6.3315043449401855,
        0.6010698676109314,
        -0.37151697278022766,
        -0.5915833115577698,
        0.4224379360675812,
        -0.7119576930999756,
        0.23329447209835052,
        -0.3725980818271637,
        0.6729333400726318,
        -0.10764720290899277,
        0.12069206684827805,
        0.10217448323965073,
        -1.5122758150100708,
        -1.3902567625045776,
        0.1787654459476471,
        0.8976131677627563,
        1.8676038980484009,
        0.4078667163848877,
        -2.0275042057037354,
        0.6848344206809998,
        1.6853855848312378,
        -1.5556803941726685,
        0.9179925322532654,
        -0.24173866212368011,
        0.18765626847743988,
        -0.1658550351858139,
        0.07546298950910568,
        -0.19948723912239075,
        0.002389841480180621,
        0.21196961402893066,
        -0.10947029292583466,
        0.23325742781162262,
        -0.2247338593006134,
        0.048283424228429794,
        0.21279563009738922,
        -0.23864144086837769,
        0.21927669644355774,
        -0.24305593967437744,
        -0.007121948059648275,
        -0.04990676790475845,
        -0.13978175818920135,
        -0.05295812338590622,
        -0.24701805412769318,
        0.08976457267999649,
        0.08204460144042969,
        0.03152704983949661,
        -0.23005324602127075,
        0.0393931120634079,
        0.1347130388021469,
        -0.12980276346206665,
        -0.2337600141763687,
        -0.0718410313129425,
        -0.03166501596570015,
        0.0232834629714489,
        0.0921032577753067,
        -0.03225962072610855,
        0.19723494350910187,
        0.22794951498508453,
        0.10097654163837433,
        0.08812196552753448,
        -0.042471472173929214,
        0.32135114073753357,
        -0.0015808644238859415,
        -0.03497627377510071,
        0.3298868238925934,
        0.10044196993112564,
        0.3144834339618683,
        0.15042343735694885,
        0.28769344091415405,
        0.10694389045238495,
        -0.1879185438156128,
        0.056231752038002014,
        -0.08213832974433899,
        -0.002674954477697611,
        -0.21247103810310364,
        -0.07933586090803146,
        -0.10279946774244308,
        0.06736432760953903,
        0.04960359260439873,
        -0.24440112709999084,
        0.07913444936275482,
        -0.04608606919646263,
        -0.09547096490859985,
        0.002757027745246887,
        0.47992733120918274,
        0.05824340134859085,
        -0.16219693422317505,
        -0.24360820651054382,
        0.1252138465642929,
        -0.08672766387462616,
        -0.04988732933998108,
        0.06538412719964981,
        -0.02374890260398388,
        0.11046594381332397,
        0.12820707261562347,
        -0.2324693351984024,
        -0.04668843746185303,
        -0.3030601739883423,
        0.29660606384277344,
        -1.542921781539917,
        0.18699461221694946,
        -0.5957038402557373,
        0.11615321785211563,
        0.3791096806526184,
        0.3266763389110565,
        -0.770091712474823,
        0.4841415286064148,
        -0.5591346621513367,
        -0.6952782869338989,
        -0.8469951152801514,
        0.5930158495903015,
        0.8816129565238953,
        -0.14930318295955658,
        0.42558401823043823,
        -0.29728472232818604,
        -0.08435612916946411,
        -0.5856859087944031,
        0.1473923623561859,
        -0.17662203311920166,
        0.09289983659982681,
        5.299543380737305,
        1.7161023616790771,
        1.622831106185913,
        -1.0171008110046387,
        3.48236346244812,
        1.2175285816192627,
        -0.7556981444358826,
        0.6663662791252136,
        -2.3263869285583496,
        -0.6237828731536865,
        -0.3253105878829956,
        1.2020851373672485,
        -0.11695815622806549,
        -0.05489613115787506,
        0.1421821564435959,
        0.2179860919713974,
        0.08772514760494232,
        0.005972549319267273,
        0.19905100762844086,
        -0.1391219198703766,
        0.09385530650615692,
        -0.14052902162075043,
        0.07987169921398163,
        -0.14435645937919617,
        0.17937327921390533,
        0.11559019982814789,
        -0.0004132390022277832,
        0.2356957644224167,
        -0.1657623052597046,
        -0.08793748915195465,
        -0.12089820206165314,
        -0.1383131444454193,
        -0.08072148263454437,
        -0.10737483203411102,
        -0.21820421516895294,
        0.22222904860973358,
        0.18633927404880524,
        0.19487245380878448,
        0.19446779787540436,
        -0.09041383862495422,
        0.20874015986919403,
        -0.09883727133274078,
        0.01751859486103058,
        -0.19562961161136627,
        0.0881638377904892,
        -0.20304131507873535,
        -0.2090722620487213,
        -0.06104831397533417,
        -0.1667127162218094,
        -2.246188163757324,
        0.7696746587753296,
        0.44183120131492615,
        -0.0752851665019989,
        0.13706658780574799,
        -0.10923305153846741,
        0.32689169049263,
        -0.22289501130580902,
        0.234619602560997,
        -0.17775501310825348,
        -0.7439548373222351,
        -0.6026975512504578,
        -0.19897565245628357,
        -0.7975739240646362,
        0.09996957331895828,
        1.1083842515945435,
        1.1528762578964233,
        -0.024492813274264336,
        -0.40583205223083496,
        -0.6444439888000488,
        -0.13352541625499725,
        0.10994831472635269,
        -0.03556577488780022,
        -1.0516431331634521,
        -1.7517448663711548,
        -1.0944087505340576,
        -1.4073566198349,
        -2.172182321548462,
        0.09669426083564758,
        3.3216357231140137,
        3.4296586513519287,
        3.174598217010498,
        1.528199315071106,
        -1.0306990146636963,
        -0.07215841859579086,
        0.05867217481136322,
        -1.5300627946853638,
        -0.5245940089225769,
        0.3968580365180969,
        -0.04872548207640648,
        0.08303814381361008,
        -0.00017642872990109026,
        0.061669256538152695,
        0.04797019436955452,
        -0.00967749860137701,
        0.04349453002214432,
        0.03146175667643547,
        0.28646519780158997,
        0.004262150265276432,
        -0.18812081217765808,
        -0.2777943015098572,
        -0.08242650330066681,
        -0.06277091801166534,
        -0.03904002904891968,
        -0.13061878085136414,
        -0.04952368140220642,
        -0.11243724077939987,
        -0.06120236963033676,
        -0.054378509521484375,
        -0.2680531144142151,
        1.1438356637954712,
        -4.033540725708008,
        1.3636023998260498,
        1.4082516431808472,
        0.616824746131897,
        0.5200643539428711,
        -0.34837138652801514,
        -0.6592769026756287,
        -0.08866052329540253,
        -0.026570286601781845,
        -0.026142382994294167,
        -0.0780639499425888,
        -0.6479816436767578,
        0.535711944103241,
        -1.573655366897583,
        -1.4481399059295654,
        -0.6280918717384338,
        1.1482815742492676,
        -0.2070310115814209,
        0.25517702102661133,
        -0.7205854058265686,
        0.17240798473358154,
        -0.28363531827926636,
        0.49386098980903625,
        0.22887445986270905,
        -0.9637211561203003,
        -0.2748976945877075,
        -0.6356708407402039,
        0.934873104095459,
        -0.5485308766365051,
        0.4637896716594696,
        0.11946125328540802,
        -0.3496561050415039,
        -0.5335099697113037,
        0.04630196467041969,
        0.416300505399704,
        -0.018262695521116257,
        -0.059100717306137085,
        1.0776921510696411,
        -1.7177995443344116,
        3.1555702686309814,
        2.1382462978363037,
        1.547351360321045,
        -0.7915124297142029,
        0.39720913767814636,
        -0.4929739236831665,
        0.061572153121232986,
        0.032828427851200104,
        0.7739167809486389,
        -1.989412546157837,
        -0.8875527381896973,
        -1.150304913520813,
        0.20134635269641876,
        -0.2394619733095169,
        0.8730073571205139,
        0.017622850835323334,
        0.15806125104427338,
        -0.3536657691001892,
        -0.07720691710710526,
        0.30223309993743896,
        0.5266551375389099,
        0.13864164054393768,
        0.07623909413814545,
        -0.199513778090477,
        -0.45837119221687317,
        -0.13791196048259735,
        -0.35880962014198303,
        0.338670939207077,
        -0.4779536724090576,
        0.2772049009799957,
        0.30376186966896057,
        -1.9102847576141357,
        -0.6194322109222412,
        -0.9974879622459412,
        1.7903629541397095,
        1.559008002281189,
        2.215555191040039,
        1.0341111421585083,
        0.26526445150375366,
        0.15780003368854523,
        2.0378246307373047,
        -4.345740795135498,
        -0.05812409892678261,
        0.19260220229625702,
        -0.05374633148312569,
        0.22887267172336578,
        0.14654085040092468,
        0.20585815608501434,
        -0.020851025357842445,
        0.24380891025066376,
        -0.12508422136306763,
        -0.2322603166103363,
        0.09727384150028229,
        -0.12274236977100372,
        0.12395639717578888,
        -0.01444187294691801,
        -0.07340221107006073,
        -0.24179112911224365,
        -0.18923181295394897,
        -0.03744487091898918,
        -0.18726254999637604,
        -0.10623510181903839,
        0.17327778041362762,
        -0.011014525778591633,
        -0.022651001811027527,
        -0.03978526592254639,
        -0.05450081825256348,
        -0.19057834148406982,
        0.1315237581729889,
        0.10650067776441574,
        0.011576799675822258,
        -0.02181062661111355,
        -0.13080920279026031,
        0.23080363869667053,
        -0.008294371888041496,
        -0.2333890050649643,
        -0.10295800864696503,
        -0.23152540624141693,
        0.09974031150341034,
        -0.13654737174510956,
        0.15450620651245117,
        -0.2784256935119629,
        -0.6180153489112854,
        0.13599632680416107,
        -1.596532940864563,
        0.5921188592910767,
        0.11197582632303238,
        0.9271421432495117,
        -0.47551053762435913,
        0.00019292983051855117,
        -0.8573893904685974,
        -1.0596007108688354,
        -1.5094244480133057,
        -1.4090981483459473,
        -1.3433431386947632,
        0.5448594689369202,
        0.4009556174278259,
        0.33167964220046997,
        0.5607383847236633,
        0.08206355571746826,
        0.5173825025558472,
        0.3898504078388214,
        0.32427430152893066,
        3.777655601501465,
        1.3310319185256958,
        2.661182165145874,
        1.2922543287277222,
        1.9241856336593628,
        1.575892448425293,
        0.4407230615615845,
        -0.26897263526916504,
        1.1953777074813843,
        -3.1046762466430664,
        -1.2360100746154785,
        -1.4912220239639282,
        -0.08702125400304794,
        0.006402415689080954,
        -0.1863664984703064,
        0.29634037613868713,
        -0.1603626161813736,
        0.02074030600488186,
        0.19593068957328796,
        0.03498971089720726,
        0.062012411653995514,
        -0.23524942994117737,
        -0.08619169145822525,
        -0.022347435355186462,
        0.19289608299732208,
        -0.17096145451068878,
        0.1554885059595108,
        -0.08136256784200668,
        -0.008340083993971348,
        -0.1362338364124298,
        -0.16818726062774658,
        -0.17687058448791504,
        0.13952365517616272,
        -0.2942260801792145,
        0.07639585435390472,
        -0.23897992074489594,
        0.2677484154701233,
        0.4442163407802582,
        0.381076455116272,
        0.08341402560472488,
        0.1795872300863266,
        0.10517271608114243,
        0.15617354214191437,
        -0.01590505614876747,
        0.21190495789051056,
        -0.014820786193013191,
        0.10124149173498154,
        -0.06574095785617828,
        0.14965344965457916,
        -5.647308349609375,
        -2.137510061264038,
        -0.8450334668159485,
        0.5166216492652893,
        0.12147766351699829,
        0.538328230381012,
        -0.9339314699172974,
        0.5665311217308044,
        0.9627915024757385,
        0.5801011919975281,
        0.5348594784736633,
        0.12458226829767227,
        -0.3262832462787628,
        -0.060604047030210495,
        -0.032692261040210724,
        0.31063729524612427,
        -0.18414995074272156,
        -0.1015101745724678,
        0.43141379952430725,
        -0.6319867372512817,
        0.4551425278186798,
        -0.16061809659004211,
        -0.011304817162454128,
        0.49224159121513367,
        1.0499143600463867,
        0.45219743251800537,
        -0.04863838106393814,
        -0.9885736107826233,
        -1.1228903532028198,
        -1.3828105926513672,
        -2.2515616416931152,
        0.68819659948349,
        1.2149134874343872,
        0.16143521666526794,
        -2.7816154956817627,
        0.16309066116809845,
        0.2018776386976242,
        -0.057446300983428955,
        -0.07474169135093689,
        0.22666703164577484,
        0.0013909190893173218,
        0.07146455347537994,
        0.23022861778736115,
        -0.2181643843650818,
        0.13277111947536469,
        -0.14921244978904724,
        -0.21608096361160278,
        0.12627063691616058,
        -0.1826387345790863,
        -0.19372352957725525,
        -0.08295874297618866,
        -0.2155936062335968,
        -0.008509933948516846,
        0.2190665453672409,
        -0.24419723451137543,
        -0.23244234919548035,
        0.1470945030450821,
        -0.15725192427635193,
        0.23644517362117767,
        -0.00567220151424408,
        -0.008008450269699097,
        -0.20523208379745483,
        0.2366119772195816,
        -0.012905076146125793,
        -0.0544365793466568,
        -0.14102180302143097,
        -0.2244662046432495,
        -0.02038511633872986,
        0.08804886043071747,
        -0.09158505499362946,
        -0.05323942005634308
      ]
    },
    {
      "architecture": "normalization",
      "bias": [
        -0.011071907356381416,
        -0.3606727123260498,
        -0.00014403596287593246,
        -0.08599257469177246,
        -0.06572162359952927,
        -0.026169588789343834,
        -0.031423017382621765,
        -0.7200469970703125,
        -0.0006260931259021163,
        7.092301075317664e-06,
        -0.010222666896879673,
        -0.00011431978055043146,
        0.03841281682252884,
        -0.07733440399169922,
        -0.04955833777785301,
        0.00013647077139467,
        -0.0661877989768982,
        -0.12413991242647171,
        2.8591965019586496e-05,
        -0.035769496113061905,
        -0.10373245924711227,
        -0.00022854175767861307,
        -0.7865064144134521,
        -0.0002780923678074032,
        -0.09911561757326126,
        -0.8804690837860107,
        -0.02195063605904579,
        -0.13390277326107025,
        -0.14828082919120789,
        -1.1012892723083496,
        -0.09520396590232849,
        0.0001513846218585968,
        -0.41523873805999756,
        -0.046290695667266846,
        -0.016534840688109398,
        -0.029219890013337135,
        -0.0002899870160035789,
        8.376537880394608e-05,
        0.00046421834849752486,
        -0.00045441227848641574,
        -0.04523318260908127,
        -0.0006177063914947212,
        -0.13449257612228394,
        -0.015538949519395828,
        -0.032023798674345016,
        -0.10029182583093643,
        -0.11717233061790466,
        -0.02587195672094822,
        -0.0007155405473895371,
        -0.030734306201338768,
        -1.0746300220489502,
        0.031244033947587013,
        0.0002022526750806719,
        -0.03331627696752548,
        0.0005390536971390247,
        -0.14405284821987152,
        0.00019218737725168467,
        -0.07712511718273163,
        -0.002860260894522071,
        -8.661417086841539e-05,
        -0.09505261480808258,
        0.00033326473203487694,
        -0.06605400145053864,
        -0.0212263111025095
      ],
      "weights": [
        22.669063568115234,
        8.115614891052246,
        21.038253784179688,
        16.297658920288086,
        26.045494079589844,
        19.538637161254883,
        30.495235443115234,
        9.853041648864746,
        49.32730484008789,
        31.563291549682617,
        34.367286682128906,
        31.622774124145508,
        30.826557159423828,
        40.91233444213867,
        71.31690979003906,
        31.622774124145508,
        40.734657287597656,
        11.818448066711426,
        30.430753707885742,
        31.2069034576416,
        20.247976303100586,
        31.061891555786133,
        3.850435733795166,
        31.622774124145508,
        38.32810974121094,
        4.651900768280029,
        12.474639892578125,
        5.666439056396484,
        30.31783103942871,
        5.762916088104248,
        21.680479049682617,
        31.622774124145508,
        8.034050941467285,
        39.403541564941406,
        33.79418182373047,
        35.26163864135742,
        31.553165435791016,
        31.545696258544922,
        31.559236526489258,
        29.96112823486328,
        17.653858184814453,
        20.508684158325195,
        8.888943672180176,
        16.429296493530273,
        18.10311508178711,
        26.948083877563477,
        43.11287307739258,
        10.552696228027344,
        31.622774124145508,
        31.55059814453125,
        9.676684379577637,
        31.565927505493164,
        22.884626388549805,
        10.353124618530273,
        31.622774124145508,
        8.912885665893555,
        87.96882629394531,
        9.758564949035645,
        21.17610740661621,
        31.49823570251465,
        12.504770278930664,
        28.905536651611328,
        13.00394344329834,
        31.622774124145508
      ]
    },
    {
      "activation": "rectified",
      "architecture": "dense",
      "bias": [
        -1.5125014781951904,
        -0.5084712505340576,
        -0.6237750053405762,
        -1.19370436668396,
        -0.20131166279315948,
        0.8194940686225891,
        0.6509391665458679,
        -1.3424104452133179,
        -0.07336867600679398,
        -1.318101406097412,
        -0.15900641679763794,
        -0.9158090353012085,
        -0.7204362154006958,
        -0.5805356502532959,
        -1.7328511476516724,
        -0.9247005581855774,
        -0.2646740674972534,
        1.5272274017333984,
        0.4564953148365021,
        0.05154005438089371,
        -0.135170117020607,
        0.011794459074735641,
        -0.3793170750141144,
        -0.11823532730340958,
        0.4282679855823517,
        -0.5613870024681091,
        -1.7161977291107178,
        0.7906564474105835,
        -0.24849596619606018,
        -0.12695352733135223,
        -0.5898349285125732,
        -0.7201631665229797
      ],
      "weights": [
        -0.2789008617401123,
        0.1655762493610382,
        -0.23385819792747498,
        -1.7765793800354004,
        0.7588425278663635,
        -0.7257872819900513,
        1.532272219657898,
        0.6510887145996094,
        -0.07855953276157379,
        0.308118611574173,
        -1.0041289329528809,
        0.1222774013876915,
        -1.57662034034729,
        -0.7624141573905945,
        -0.4950658679008484,
        -0.1301669329404831,
        -0.6998792886734009,
        1.007752537727356,
        -0.29736965894699097,
        1.5935883522033691,
        -0.21290704607963562,
        0.12493936717510223,
        -1.253771185874939,
        0.0019419187447056174,
        -0.8207745552062988,
        0.9246947765350342,
        -4.246016979217529,
        -1.4739785194396973,
        1.1482471227645874,
        1.4220117330551147,
        1.1071748733520508,
        0.2638068199157715,
        -1.019529938697815,
        0.69748455286026,
        0.44091153144836426,
        0.08703368157148361,
        -0.04093829169869423,
        0.30819806456565857,
        -0.15360313653945923,
        0.038660936057567596,
        0.2553061246871948,
        -0.1522103250026703,
        -0.8964897394180298,
        -1.8006426095962524,
        0.8143230080604553,
        0.4903709888458252,
        0.4218028783798218,
        0.6146912574768066,
        0.10412052273750305,
        1.160141110420227,
        -2.2226343154907227,
        -1.3001664876937866,
        0.31754782795906067,
        -1.5750614404678345,
        -0.24243983626365662,
        -0.7309441566467285,
        0.1145927906036377,
        0.3944823443889618,
        -3.6780483722686768,
        0.008383761160075665,
        -0.5371200442314148,
        0.047845203429460526,
        -0.10107748210430145,
        1.3002725839614868,
        0.2644971013069153,
        1.9292502403259277,
        0.11810006946325302,
        1.02229905128479,
        0.3005155622959137,
        0.26614463329315186,
        0.503905713558197,
        -1.716102123260498,
        0.06006678193807602,
        -0.020587347447872162,
        3.2784228324890137,
        -0.11860871315002441,
        -0.5156775116920471,
        -0.43660280108451843,
        -0.025581462308764458,
        0.13012318313121796,
        -0.1818627268075943,
        0.6680462956428528,
        0.09897896647453308,
        0.74765545129776,
        0.13460594415664673,
        -0.05075622349977493,
        -0.12737330794334412,
        0.011694815009832382,
        0.6574056148529053,
        -1.9723868370056152,
        0.11018651723861694,
        2.6372382640838623,
        0.9438950419425964,
        -0.8774072527885437,
        2.229205846786499,
        -0.15424305200576782,
        -0.3238815367221832,
        0.5536983013153076,
        -2.9868903160095215,
        1.7413040399551392,
        -0.053771719336509705,
        -0.08409010618925095,
        0.06596246361732483,
        -0.034855399280786514,
        -0.33912965655326843,
        0.00493111414834857,
        0.5892164707183838,
        1.1768755912780762,
        0.3471393287181854,
        -0.4101223051548004,
        -1.6850882768630981,
        0.12882199883460999,
        -0.04415038973093033,
        0.6925565600395203,
        -1.6914530992507935,
        -0.4121799170970917,
        -0.04468705877661705,
        -2.6734514236450195,
        0.09965451061725616,
        -0.13436995446681976,
        -0.07975713163614273,
        2.179107189178467,
        1.6954888105392456,
        -0.03246201202273369,
        -0.35874253511428833,
        -0.07874666899442673,
        1.2661367654800415,
        0.425409197807312,
        1.0479649305343628,
        -0.9949823021888733,
        0.04869210720062256,
        0.6310098767280579,
        0.2129581868648529,
        2.2130088806152344,
        -0.6079983711242676,
        -0.7207552194595337,
        0.013339600525796413,
        0.024879325181245804,
        -3.8996596336364746,
        -0.02557801641523838,
        -0.5662522912025452,
        -1.113835334777832,
        -0.2367856204509735,
        0.034302543848752975,
        -0.198393315076828,
        -0.8211809396743774,
        0.014646549709141254,
        0.9260256290435791,
        -1.2412073612213135,
        -0.06355228275060654,
        -0.9700807332992554,
        -0.06917762756347656,
        -0.08093228936195374,
        -1.4975714683532715,
        2.354809522628784,
        -0.6194756031036377,
        -0.146538645029068,
        0.5610316395759583,
        0.21036092936992645,
        -0.06867844611406326,
        0.519938588142395,
        1.7973289489746094,
        -0.2454555779695511,
        0.6025448441505432,
        -0.06237076595425606,
        -0.04484472796320915,
        -0.06979851424694061,
        0.053132444620132446,
        0.27047082781791687,
        -0.002985383616760373,
        -0.18179461359977722,
        0.25790029764175415,
        -0.8666984438896179,
        1.2463093996047974,
        -1.9630118608474731,
        0.9011406302452087,
        0.0015148906968533993,
        0.6443617343902588,
        1.1163103580474854,
        -0.6377241611480713,
        -0.010125760920345783,
        3.1309614181518555,
        -0.026224251836538315,
        -0.7736908793449402,
        -0.07220777869224548,
        1.013969898223877,
        -1.3190628290176392,
        0.02780979499220848,
        0.785759449005127,
        0.02241329662501812,
        -0.6144759058952332,
        0.5364146828651428,
        0.9905171990394592,
        -1.214379906654358,
        -0.031437672674655914,
        0.41591235995292664,
        0.2788838744163513,
        -0.29171475768089294,
        -0.31307676434516907,
        0.576452910900116,
        -0.057671308517456055,
        0.02659808285534382,
        1.0358201265335083,
        0.030261052772402763,
        -1.2750098705291748,
        0.09580370783805847,
        0.16046172380447388,
        -0.0488002710044384,
        0.1961725801229477,
        -0.06944315135478973,
        -0.09344973415136337,
        1.0220165252685547,
        -0.4581032395362854,
        -0.007826246321201324,
        -1.9238654375076294,
        -0.07842143625020981,
        -0.3345843255519867,
        -1.1965713500976562,
        0.42783358693122864,
        1.1793490648269653,
        -0.2817080616950989,
        0.21454821527004242,
        0.025530872866511345,
        0.046514738351106644,
        0.11796924471855164,
        -0.017830977216362953,
        0.379677951335907,
        -0.4506816864013672,
        0.05944894254207611,
        0.08759216219186783,
        0.030637430027127266,
        0.16814957559108734,
        -0.17016495764255524,
        0.04227802902460098,
        -2.4733362197875977,
        -1.696168303489685,
        -0.7640848755836487,
        -0.1980300396680832,
        -0.04400640353560448,
        0.2720658481121063,
        0.049346283078193665,
        0.9000188112258911,
        -0.7020376324653625,
        -1.2215759754180908,
        -0.0012536018621176481,
        -0.0411253459751606,
        -0.12360169738531113,
        1.0010128021240234,
        0.09193532913923264,
        -0.4688968062400818,
        0.08935248851776123,
        0.10587453842163086,
        -0.49364417791366577,
        0.08057483285665512,
        -1.6629245281219482,
        1.068691372871399,
        -3.205395221710205,
        -0.8404289484024048,
        0.024745216593146324,
        0.4396277964115143,
        -0.16344597935676575,
        -0.170266255736351,
        0.9924737215042114,
        -0.20733128488063812,
        -0.012630490586161613,
        0.06939833611249924,
        -0.41605669260025024,
        -0.02243785560131073,
        -0.2106715589761734,
        -0.08222188800573349,
        -0.31597602367401123,
        0.026572680100798607,
        -0.4592832922935486,
        -0.2623138725757599,
        0.036653704941272736,
        0.44154635071754456,
        -0.004300691653043032,
        -0.028339460492134094,
        0.602845311164856,
        0.03555300459265709,
        -0.14245907962322235,
        0.4799666106700897,
        0.35511234402656555,
        0.3213188052177429,
        -0.1820412129163742,
        -0.5751196146011353,
        0.33043932914733887,
        -0.04884864762425423,
        0.5414373874664307,
        -1.3106192350387573,
        0.0739767774939537,
        -0.15765464305877686,
        0.009150782600045204,
        -0.03230593726038933,
        -0.019826287403702736,
        -0.02513190731406212,
        0.41649532318115234,
        -0.03403295576572418,
        -1.071357011795044,
        -0.7479228973388672,
        -6.054247856140137,
        -0.04155460745096207,
        0.06894322484731674,
        0.355226069688797,
        -0.017368566244840622,
        0.40649059414863586,
        -0.3225700855255127,
        -0.2219386249780655,
        0.004261331167072058,
        0.00023692786635365337,
        -0.0023908286821097136,
        0.0033417341765016317,
        -0.13721096515655518,
        -0.09660541266202927,
        1.2697677612304688,
        -0.002440728945657611,
        0.08587392419576645,
        -0.016445720568299294,
        -0.4253166615962982,
        0.11285892874002457,
        -0.05828535556793213,
        0.5305867195129395,
        0.36577868461608887,
        -0.07819430530071259,
        -0.513052225112915,
        -0.7705932259559631,
        0.2110346406698227,
        -0.174687460064888,
        -0.14801979064941406,
        -0.47405076026916504,
        0.34921661019325256,
        -0.07208387553691864,
        0.8611173629760742,
        -0.9830780625343323,
        -0.7202006578445435,
        0.06960313022136688,
        -1.283799648284912,
        -0.4663923680782318,
        0.37548190355300903,
        -0.7382059693336487,
        1.5590763092041016,
        -0.1267843395471573,
        -1.0687609910964966,
        0.062056586146354675,
        -0.068706214427948,
        -1.5097033977508545,
        -0.7787817120552063,
        -0.31376394629478455,
        0.5237283706665039,
        -1.1470547914505005,
        0.005788811016827822,
        -0.291010320186615,
        -2.1225171089172363,
        -0.1372125893831253,
        1.281708002090454,
        -0.3374755084514618,
        -0.08851126581430435,
        -0.2709977626800537,
        0.35083651542663574,
        -0.39850759506225586,
        -0.2060314118862152,
        0.16688773036003113,
        0.5422176718711853,
        0.3894181549549103,
        -0.11618108302354813,
        0.31149592995643616,
        0.7903191447257996,
        0.4657578468322754,
        -0.3894064724445343,
        -0.4239513874053955,
        0.8934721350669861,
        0.5365521311759949,
        -0.3327352702617645,
        0.2620621621608734,
        0.5384864211082458,
        -0.14262273907661438,
        -0.12353023886680603,
        -0.7394804358482361,
        0.17893823981285095,
        -0.15311315655708313,
        1.2510368824005127,
        -0.15819509327411652,
        -0.4108225703239441,
        -0.5204878449440002,
        0.9506447315216064,
        0.1769854724407196,
        0.030883928760886192,
        -0.6303175687789917,
        -0.3095044791698456,
        0.9902083873748779,
        0.27525392174720764,
        -0.2233017235994339,
        -0.04627488553524017,
        -0.05424922704696655,
        -0.04094555974006653,
        0.07618845999240875,
        0.7410926222801208,
        -1.0845940113067627,
        0.3373103737831116,
        -0.05828501656651497,
        0.2601079046726227,
        -0.8902153968811035,
        -0.007812412455677986,
        -0.4259876608848572,
        -0.15439076721668243,
        0.04249853268265724,
        -1.6006665229797363,
        0.02641237899661064,
        -0.5832666754722595,
        0.3917980194091797,
        1.698011040687561,
        -0.5599342584609985,
        -1.0128968954086304,
        -0.8612529635429382,
        -0.006332650315016508,
        0.06635326147079468,
        0.7307131886482239,
        0.3214914798736572,
        0.2240859568119049,
        0.0975031703710556,
        0.0041203685104846954,
        0.0031130865681916475,
        -0.0048413886688649654,
        0.07389221340417862,
        0.16659672558307648,
        -0.03041672334074974,
        0.9567906856536865,
        -1.8755532503128052,
        0.6352893114089966,
        -0.26028740406036377,
        -0.24530893564224243,
        2.057957172393799,
        0.059899818152189255,
        -0.7667711973190308,
        0.24833926558494568,
        0.7805358171463013,
        0.00600078608840704,
        0.09542794525623322,
        0.07315639406442642,
        1.4707833528518677,
        0.04854113236069679,
        1.4553875923156738,
        0.7298136949539185,
        0.02469310164451599,
        0.903557300567627,
        0.09061295539140701,
        1.776950478553772,
        -0.6270194053649902,
        0.45785051584243774,
        0.39184093475341797,
        -0.026880335062742233,
        0.3576279580593109,
        0.3464924097061157,
        1.269248604774475,
        0.5436047315597534,
        0.30026721954345703,
        -0.028013400733470917,
        0.022632578387856483,
        -3.0371603965759277,
        -0.03590038791298866,
        -1.1394532918930054,
        -0.06564599275588989,
        0.7305603623390198,
        0.01831856183707714,
        0.15372009575366974,
        0.6571382284164429,
        -0.021414630115032196,
        1.0984935760498047,
        0.3368934690952301,
        0.06407560408115387,
        1.1473132371902466,
        0.01193779706954956,
        -0.1672685593366623,
        -1.4060653448104858,
        -1.169313669204712,
        0.14581193029880524,
        0.01297307014465332,
        -0.44190141558647156,
        0.11967279762029648,
        0.05416363477706909,
        -0.7318636178970337,
        0.07031253725290298,
        0.4356403052806854,
        0.2898246645927429,
        -0.024975067004561424,
        0.05219268053770065,
        -0.013914466835558414,
        0.0613335557281971,
        0.44247671961784363,
        0.023040583357214928,
        0.6249097585678101,
        -0.5726233124732971,
        -1.748047947883606,
        0.5265271067619324,
        0.39781221747398376,
        -0.5091925859451294,
        0.03263797610998154,
        0.965933084487915,
        -0.3874920904636383,
        -0.9701617360115051,
        0.029481448233127594,
        -0.8711152076721191,
        -0.010818062350153923,
        -0.41108250617980957,
        0.07788832485675812,
        -0.8051532506942749,
        0.8413600921630859,
        -0.030580194666981697,
        -2.9882771968841553,
        0.07542231678962708,
        -1.5911048650741577,
        1.2479802370071411,
        -0.17756064236164093,
        0.7039574980735779,
        -0.002125325845554471,
        -0.47412770986557007,
        -1.4953200817108154,
        0.8547882437705994,
        -0.8355776071548462,
        0.5292049050331116,
        -0.02450035884976387,
        -0.0057410853914916515,
        -0.06655726581811905,
        -0.0202823206782341,
        -0.12939830124378204,
        -1.0899722576141357,
        0.3998295068740845,
        0.014278186485171318,
        1.2567873001098633,
        0.8183153867721558,
        0.01930745504796505,
        -0.14447447657585144,
        -1.8020596504211426,
        -0.020070701837539673,
        0.27820849418640137,
        -0.014959084801375866,
        -1.999712586402893,
        -0.5067847967147827,
        0.10210973024368286,
        1.1301546096801758,
        1.5406943559646606,
        -0.9126056432723999,
        0.03222741186618805,
        0.010678465478122234,
        -0.38123059272766113,
        0.8499304056167603,
        -1.1459652185440063,
        0.8331881761550903,
        -0.00430263252928853,
        0.010320174507796764,
        0.03242066875100136,
        -0.014141889289021492,
        -0.3676418662071228,
        -0.0031372925732284784,
        -0.024781985208392143,
        0.035281963646411896,
        0.38453182578086853,
        0.3461325168609619,
        0.18208305537700653,
        1.5350998640060425,
        -0.01963585615158081,
        0.12622034549713135,
        0.8571611046791077,
        -0.1451912224292755,
        0.01136715803295374,
        0.7725011706352234,
        0.011261834762990475,
        -0.43794143199920654,
        -0.001679673558101058,
        -1.1675153970718384,
        -1.2712881565093994,
        -0.03477396443486214,
        0.5925132036209106,
        -0.02226567268371582,
        0.049014318734407425,
        0.03590715676546097,
        0.5212112069129944,
        -0.3383992910385132,
        -0.03096640668809414,
        -0.0448576882481575,
        -0.24552786350250244,
        -0.03496932610869408,
        -0.22692640125751495,
        0.33493122458457947,
        0.03179897740483284,
        0.04491971805691719,
        -0.04326377809047699,
        0.10160156339406967,
        -1.1501221656799316,
        -4.4600629806518555,
        0.47051137685775757,
        -0.11337016522884369,
        -0.525529146194458,
        0.9426829218864441,
        0.05731308087706566,
        1.2730286121368408,
        0.4611618220806122,
        0.08229752629995346,
        0.26229292154312134,
        0.04986510053277016,
        -0.2559036910533905,
        -0.794721782207489,
        -0.550935685634613,
        -0.4187038242816925,
        -0.28908711671829224,
        0.1715991199016571,
        0.2909280061721802,
        0.0055156489834189415,
        -0.8599894046783447,
        -0.0199770275503397,
        0.13635088503360748,
        -0.7056373357772827,
        0.0961037278175354,
        -0.023696275427937508,
        -0.07935768365859985,
        0.05812564119696617,
        -0.19069230556488037,
        0.04376604035496712,
        0.1190081387758255,
        0.021399887278676033,
        0.5556281208992004,
        0.41100868582725525,
        -0.023742225021123886,
        -1.0495988130569458,
        0.081363745033741,
        1.1410313844680786,
        0.4365585446357727,
        -1.0775742530822754,
        0.033935077488422394,
        -1.1202930212020874,
        -0.05048375204205513,
        1.1707597970962524,
        0.012290924787521362,
        -0.37187254428863525,
        0.5912959575653076,
        0.09282202273607254,
        0.013162057846784592,
        0.017194325104355812,
        -0.007373665925115347,
        0.920945942401886,
        0.022268863394856453,
        0.7753074765205383,
        -0.0326816700398922,
        -0.1890614926815033,
        0.8945108652114868,
        -0.2838227152824402,
        0.5615109205245972,
        1.0934909582138062,
        -0.058309972286224365,
        0.023870455101132393,
        1.20624840259552,
        -0.0371503010392189,
        -0.23658360540866852,
        -1.6563260555267334,
        -0.06064710393548012,
        0.0299358107149601,
        -3.3107330799102783,
        -0.12913092970848083,
        -0.020782161504030228,
        0.08761075139045715,
        -0.03055438958108425,
        -0.04546428471803665,
        0.66619473695755,
        -0.0037062978371977806,
        1.2987980842590332,
        -1.33048415184021,
        0.13948498666286469,
        0.6795641779899597,
        -1.3654892444610596,
        -0.6410613656044006,
        -0.4731627106666565,
        0.0523054301738739,
        0.4573846161365509,
        1.4262579679489136,
        -0.8559885025024414,
        0.7192287445068359,
        -0.021837936714291573,
        0.05058032274246216,
        0.012106556445360184,
        -0.03409695625305176,
        -0.31350091099739075,
        -0.057614054530858994,
        -0.10332503914833069,
        -1.5254004001617432,
        -0.13327792286872864,
        -1.0202910900115967,
        0.48001202940940857,
        1.1989123821258545,
        -0.05242017284035683,
        -0.14718224108219147,
        -0.22360724210739136,
        -0.1302594095468521,
        0.02821650169789791,
        0.38948509097099304,
        0.007335538975894451,
        -0.31105300784111023,
        0.0649503692984581,
        1.12485671043396,
        -1.3271458148956299,
        -0.025683151558041573,
        0.3009878098964691,
        0.011807220056653023,
        -0.058314889669418335,
        0.11556954681873322,
        -0.07232441753149033,
        0.2863777279853821,
        0.025948964059352875,
        -0.9199323058128357,
        -0.6962233185768127,
        -0.9016761183738708,
        -0.4805494248867035,
        0.35767725110054016,
        0.04494297131896019,
        0.06521174311637878,
        0.3621998727321625,
        -0.09823089092969894,
        -0.8064598441123962,
        -0.8130061030387878,
        -0.2943352162837982,
        0.086908258497715,
        0.8978532552719116,
        -0.9903304576873779,
        -0.058353494852781296,
        0.7563492655754089,
        1.7463783025741577,
        -0.06937327980995178,
        -0.47308531403541565,
        -0.008145153522491455,
        -1.2132197618484497,
        -0.27547699213027954,
        -0.9158067107200623,
        0.48707643151283264,
        -0.25020503997802734,
        -0.5887416005134583,
        -0.008290250785648823,
        -0.00455516716465354,
        -1.2225292921066284,
        -0.3826492726802826,
        0.6264014840126038,
        0.23845688998699188,
        -0.04296834021806717,
        0.038623154163360596,
        0.01866080053150654,
        0.04564245790243149,
        0.701201856136322,
        -0.060924410820007324,
        1.4984796047210693,
        0.8127613663673401,
        0.37032708525657654,
        -0.8273102641105652,
        2.098682403564453,
        -0.6717799305915833,
        -0.016892490908503532,
        0.7620136737823486,
        -0.12486598640680313,
        -0.7918404340744019,
        0.029078537598252296,
        -0.1967347115278244,
        -0.016510071232914925,
        2.763045310974121,
        0.006407494191080332,
        -0.4332444369792938,
        -1.6760302782058716,
        -0.036342352628707886,
        -0.2542974352836609,
        -0.01111763808876276,
        1.354060411453247,
        0.8177165985107422,
        0.4509763717651367,
        0.13267701864242554,
        0.0026830288115888834,
        -0.2490912675857544,
        -0.3496823310852051,
        0.5839946866035461,
        -2.0387790203094482,
        0.6385453343391418,
        -0.013059308752417564,
        -0.005663410760462284,
        0.3605364263057709,
        -0.018786555156111717,
        -0.8354714512825012,
        0.19684062898159027,
        -4.519603729248047,
        0.015226354822516441,
        -0.29658374190330505,
