{
  "input_sequences": [],
  "inputs": [
    {
      "name": "node_0",
      "variables": [
        {
          "name": "hitX1",
          "offset": 0,
          "scale": 1
        },
        {
          "name": "hitX2",
          "offset": 0,
          "scale": 1
        },
        {
          "name": "hitX3",
          "offset": 0,
          "scale": 1
        },
        {
          "name": "hitX4",
          "offset": 0,
          "scale": 1
        },
        {
          "name": "hitX5",
          "offset": 0,
          "scale": 1
        },
        {
          "name": "hitX6",
          "offset": 0,
          "scale": 1
        },
        {
          "name": "hitX7",
          "offset": 0,
          "scale": 1
        },
        {
          "name": "hitX8",
          "offset": 0,
          "scale": 1
        },
        {
          "name": "hitX9",
          "offset": 0,
          "scale": 1
        },
        {
          "name": "hitX10",
          "offset": 0,
          "scale": 1
        },
        {
          "name": "hitX11",
          "offset": 0,
          "scale": 1
        },
        {
          "name": "hitY1",
          "offset": 0,
          "scale": 1
        },
        {
          "name": "hitY2",
          "offset": 0,
          "scale": 1
        },
        {
          "name": "hitY3",
          "offset": 0,
          "scale": 1
        },
        {
          "name": "hitY4",
          "offset": 0,
          "scale": 1
        },
        {
          "name": "hitY5",
          "offset": 0,
          "scale": 1
        },
        {
          "name": "hitY6",
          "offset": 0,
          "scale": 1
        },
        {
          "name": "hitY7",
          "offset": 0,
          "scale": 1
        },
        {
          "name": "hitY8",
          "offset": 0,
          "scale": 1
        },
        {
          "name": "hitY9",
          "offset": 0,
          "scale": 1
        },
        {
          "name": "hitY10",
          "offset": 0,
          "scale": 1
        },
        {
          "name": "hitY11",
          "offset": 0,
          "scale": 1
        },
        {
          "name": "hitZ1",
          "offset": 0,
          "scale": 1
        },
        {
          "name": "hitZ2",
          "offset": 0,
          "scale": 1
        },
        {
          "name": "hitZ3",
          "offset": 0,
          "scale": 1
        },
        {
          "name": "hitZ4",
          "offset": 0,
          "scale": 1
        },
        {
          "name": "hitZ5",
          "offset": 0,
          "scale": 1
        },
        {
          "name": "hitZ6",
          "offset": 0,
          "scale": 1
        },
        {
          "name": "hitZ7",
          "offset": 0,
          "scale": 1
        },
        {
          "name": "hitZ8",
          "offset": 0,
          "scale": 1
        },
        {
          "name": "hitZ9",
          "offset": 0,
          "scale": 1
        },
        {
          "name": "hitZ10",
          "offset": 0,
          "scale": 1
        },
        {
          "name": "hitZ11",
          "offset": 0,
          "scale": 1
        }
      ]
    }
  ],
  "layers": [
    {
      "activation": "rectified",
      "architecture": "dense",
      "bias": [
        -0.6297581791877747,
        -0.1586351841688156,
        -0.010509585030376911,
        -0.2522372901439667,
        -0.4097103774547577,
        0.0,
        0.035734038800001144,
        -0.03222072869539261,
        0.0,
        -0.15458394587039948,
        0.2751966714859009,
        -0.16212745010852814,
        -0.11455592513084412,
        0.4895141124725342,
        -0.09001321345567703,
        -0.12629634141921997,
        0.21913951635360718,
        -0.43289944529533386,
        -0.3345485031604767,
        -0.021043062210083008,
        -0.014265160076320171,
        0.08884327113628387,
        0.23011727631092072,
        0.0,
        0.10419723391532898,
        0.0004291689256206155,
        -0.4791192412376404,
        -0.022654306143522263,
        -0.23160666227340698,
        -0.1985766589641571,
        -0.1167202815413475,
        0.12186939269304276,
        0.0,
        -0.09075618535280228,
        0.10255324095487595,
        0.010866778902709484,
        0.1245560422539711,
        -0.05717209726572037,
        0.0019228847231715918,
        0.0,
        -0.06752662360668182,
        -0.15443389117717743,
        -0.03840121626853943,
        -0.2068694829940796,
        -0.2695191204547882,
        -0.09339357912540436,
        -0.30495521426200867,
        0.0257379412651062,
        -0.06290072202682495,
        0.009840404614806175,
        -0.5880208611488342,
        0.19178925454616547,
        0.8173379302024841,
        -0.14878027141094208,
        -0.6636372208595276,
        -0.026871541514992714,
        -0.04594140499830246,
        0.0,
        -0.032196614891290665,
        -0.016528628766536713,
        -0.5018797516822815,
        0.15322129428386688,
        0.0,
        -0.11604917794466019
      ],
      "weights": [
        -0.06879580765962601,
        -0.4677754044532776,
        -1.006761074066162,
        -0.9921581745147705,
        0.03305894508957863,
        -0.26446905732154846,
        0.4158000946044922,
        1.010222315788269,
        0.2984466552734375,
        -0.6986796259880066,
        0.6496270298957825,
        0.599972665309906,
        -0.39837172627449036,
        -0.24741017818450928,
        0.7522534132003784,
        0.05224849283695221,
        -0.135427325963974,
        0.29577845335006714,
        0.29272979497909546,
        0.09381923824548721,
        0.08861052244901657,
        0.07034654915332794,
        -1.623183250427246,
        -2.7691614627838135,
        0.4622882306575775,
        -0.5810890793800354,
        0.3642808198928833,
        1.3990757465362549,
        0.12975125014781952,
        -0.3728927671909332,
        -0.11142438650131226,
        0.5004788637161255,
        -0.059560324996709824,
        0.06744173169136047,
        -2.2084403038024902,
        -0.15280325710773468,
        0.10964455455541611,
        -1.086456060409546,
        -0.6240708231925964,
        0.055056799203157425,
        -0.14212627708911896,
        0.651371955871582,
        -0.42128896713256836,
        -0.19323213398456573,
        0.10316534340381622,
        -0.38137468695640564,
        0.1799243688583374,
        0.19175058603286743,
        -0.07333865761756897,
        -0.06069909408688545,
        0.14739345014095306,
        0.05585182085633278,
        0.11332016438245773,
        -0.0009466499323025346,
        -0.022498223930597305,
        -4.3316240310668945,
        -0.20716693997383118,
        0.26315510272979736,
        -0.9035318493843079,
        -0.8922556638717651,
        0.9214438199996948,
        1.5514076948165894,
        0.39260032773017883,
        -0.10414770245552063,
        -0.7143093347549438,
        0.327334463596344,
        -0.06040186062455177,
        0.13716138899326324,
        -0.013473795726895332,
        -0.2501566708087921,
        -0.18049532175064087,
        0.21666589379310608,
        0.10209444165229797,
        -0.11008407920598984,
        -0.0004445434606168419,
        -0.14301276206970215,
        0.17263050377368927,
        0.20226828753948212,
        -0.20858100056648254,
        -0.13236403465270996,
        0.11059117317199707,
        -0.12409279495477676,
        -0.1596623957157135,
        -0.13455937802791595,
        0.08722430467605591,
        -0.001924019423313439,
        -0.17044463753700256,
        0.1945926994085312,
        -0.14528252184391022,
        0.03846122324466705,
        -0.16959309577941895,
        0.14530740678310394,
        0.20645293593406677,
        0.1743861883878708,
        -0.010708766989409924,
        -0.0874776691198349,
        -0.03479473665356636,
        -0.16103072464466095,
        0.07823533564805984,
        0.012720107100903988,
        0.9080824851989746,
        -0.21567164361476898,
        0.5948536396026611,
        0.4601900279521942,
        0.670759916305542,
        1.000834345817566,
        0.6415919065475464,
        0.694801926612854,
        0.10557326674461365,
        0.44702380895614624,
        -0.3657222092151642,
        -0.2188674360513687,
        0.8082454204559326,
        0.8394590020179749,
        0.12454710155725479,
        0.11398971080780029,
        -0.1832568496465683,
        -0.15139183402061462,
        0.21519142389297485,
        -0.0794840008020401,
        0.015843750908970833,
        1.2242106199264526,
        -2.3216567039489746,
        0.9899095892906189,
        -0.42054465413093567,
        0.840478777885437,
        0.11889750510454178,
        -0.9936121106147766,
        -0.4213877022266388,
        0.48184722661972046,
        -0.5547539591789246,
        -0.7501614093780518,
        -0.11809337884187698,
        -1.7402342557907104,
        2.0550477504730225,
        1.8961197137832642,
        0.9028365015983582,
        0.467284232378006,
        1.2235512733459473,
        -0.5370005965232849,
        0.41720500588417053,
        -1.459532618522644,
        -0.14127250015735626,
        0.051728878170251846,
        -0.8737525343894958,
        0.008479059673845768,
        0.3694705665111542,
        0.19750984013080597,
        0.08263994008302689,
        -0.10203281790018082,
        -0.08670677989721298,
        0.10684970021247864,
        -0.18707755208015442,
        -0.3732089698314667,
        2.279564619064331,
        1.3673499822616577,
        1.5276957750320435,
        1.475367784500122,
        0.454998642206192,
        0.2822037935256958,
        1.0743149518966675,
        0.21795423328876495,
        -0.3478372395038605,
        0.37463051080703735,
        -0.00022297371469903737,
        0.01003815233707428,
        -0.12328861653804779,
        0.0995752364397049,
        0.06338106095790863,
        0.0627487450838089,
        -0.05672936141490936,
        -0.10246524214744568,
        0.1533687859773636,
        -0.15682855248451233,
        0.08292417228221893,
        0.18536387383937836,
        0.214128777384758,
        0.24648158252239227,
        -0.08163091540336609,
        -0.0016591250896453857,
        0.015692606568336487,
        -0.18745163083076477,
        -0.14852359890937805,
        0.06881372630596161,
        -0.19478556513786316,
        -0.17045223712921143,
        0.17683784663677216,
        -0.2459242045879364,
        -0.12426463514566422,
        -0.21676455438137054,
        -0.02911873161792755,
        -0.11614182591438293,
        -0.12668785452842712,
        -0.2193836271762848,
        0.09843747317790985,
        0.0023922771215438843,
        -0.03836295008659363,
        0.20418210327625275,
        0.06219601258635521,
        -0.5998042821884155,
        -1.2655407190322876,
        0.3889364004135132,
        -0.16167517006397247,
        -0.029062651097774506,
        0.3835686445236206,
        0.2249835580587387,
        0.33045971393585205,
        0.11479678004980087,
        -0.24167223274707794,
        -1.8356730937957764,
        -0.9123188853263855,
        -0.6932586431503296,
        0.008318312466144562,
        -0.2800913155078888,
        0.26136189699172974,
        0.1447259932756424,
        -0.31131067872047424,
        0.15823695063591003,
        0.6516101360321045,
        -0.08126197010278702,
        1.6924759149551392,
        0.13071927428245544,
        -1.1198077201843262,
        -0.5983541011810303,
        -1.1442469358444214,
        -0.2762698829174042,
        0.8134461045265198,
        0.26247069239616394,
        -0.07764488458633423,
        -0.08709466457366943,
        0.11153973639011383,
        0.04037249833345413,
        0.1369534730911255,
        -0.12190574407577515,
        -0.05083535611629486,
        0.057571858167648315,
        0.17542757093906403,
        -0.28144997358322144,
        0.019185664132237434,
        0.11154741048812866,
        0.09162934124469757,
        0.15948322415351868,
        -0.2608582079410553,
        0.13228954374790192,
        0.14848661422729492,
        0.0003719249798450619,
        -0.19902805984020233,
        0.18955431878566742,
        -0.24006913602352142,
        -0.21472392976284027,
        -0.21981151401996613,
        0.13252666592597961,
        0.1335524469614029,
        -0.028118569403886795,
        -0.06913389265537262,
        -0.10712495446205139,
        0.18370167911052704,
        -0.0918644592165947,
        -0.07369527220726013,
        -0.06608860939741135,
        0.020988747477531433,
        -0.03488088771700859,
        -0.06012590229511261,
        0.21475547552108765,
        0.1640242487192154,
        0.17847506701946259,
        0.12227101624011993,
        0.004528716206550598,
        0.07019893825054169,
        0.23484010994434357,
        -0.199193075299263,
        0.16857893764972687,
        -0.24502597749233246,
        -0.010297149419784546,
        0.21873997151851654,
        -0.06636404991149902,
        0.1867324858903885,
        0.11646701395511627,
        -0.2221040427684784,
        -0.2196541428565979,
        -0.20300708711147308,
        0.05608771741390228,
        -0.1639774739742279,
        0.039760276675224304,
        -0.061982572078704834,
        0.14576296508312225,
        0.14531664550304413,
        -0.23383842408657074,
        0.0756823867559433,
        -0.2054443061351776,
        -0.12690043449401855,
        0.00535447895526886,
        -0.007858216762542725,
        0.06172759830951691,
        0.017886653542518616,
        0.23303483426570892,
        -0.08204242587089539,
        0.8805509805679321,
        -1.1630078554153442,
        0.8288877010345459,
        -1.133199691772461,
        0.6471222043037415,
        0.10128675401210785,
        0.7335530519485474,
        0.7698326706886292,
        -0.3194662928581238,
        -0.9754253625869751,
        -0.16006255149841309,
        0.04585199058055878,
        0.5339224934577942,
        0.1632028967142105,
        0.3672984540462494,
        -0.31591367721557617,
        -0.1496855765581131,
        0.16756492853164673,
        -0.12378329038619995,
        0.05424835905432701,
        0.08738324791193008,
        -0.30684927105903625,
        -2.625190258026123,
        0.8536666035652161,
        0.7233167886734009,
        -0.7318816781044006,
        -0.22531379759311676,
        -3.083685874938965,
        -0.4085109233856201,
        0.4926842749118805,
        1.7228527069091797,
        -1.4433832168579102,
        0.08637804538011551,
        -0.06853269040584564,
        1.6641013622283936,
        2.137932062149048,
        0.9365648031234741,
        -0.1693001538515091,
        0.3602229654788971,
        0.9945858120918274,
        0.10469406098127365,
        -0.7770801186561584,
        -1.1114871501922607,
        -0.3995324671268463,
        -0.5876141786575317,
        -0.038460373878479004,
        0.41423335671424866,
        0.8396021723747253,
        -0.25658753514289856,
        -0.546325147151947,
        -0.22002989053726196,
        0.6208934783935547,
        0.001413371879607439,
        0.05965011194348335,
        0.012856924906373024,
        1.0192190408706665,
        -0.781735897064209,
        0.5487409234046936,
        -0.1472848653793335,
        -0.18063360452651978,
        -0.4027203321456909,
        1.1988210678100586,
        0.2662803828716278,
        -0.3251310884952545,
        -0.15824063122272491,
        -0.1260296106338501,
        -0.10396762192249298,
        -2.475377082824707,
        -2.135197877883911,
        -0.9110451936721802,
        1.6956526041030884,
        0.22024331986904144,
        0.3420696258544922,
        0.7291591763496399,
        -0.013996563851833344,
        -0.3501643240451813,
        -0.1709970384836197,
        -0.4672713875770569,
        -0.3356953263282776,
        0.3472479581832886,
        0.25509047508239746,
        -0.08103881031274796,
        0.25049906969070435,
        -0.29714757204055786,
        -0.0867915153503418,
        0.19209028780460358,
        0.09176541119813919,
        -0.03177148476243019,
        4.170948505401611,
        1.8386168479919434,
        0.04474668577313423,
        -2.1855082511901855,
        -1.3377752304077148,
        -0.24048899114131927,
        0.23594775795936584,
        0.3416924774646759,
        0.13361366093158722,
        0.11105698347091675,
        0.3947345018386841,
        -0.13781647384166718,
        2.1072232723236084,
        0.3867999315261841,
        0.21728545427322388,
        -0.41782745718955994,
        -0.49978986382484436,
        0.8042920231819153,
        0.5539827346801758,
        0.2616126835346222,
        -0.4673972725868225,
        0.06925930827856064,
        0.10308389365673065,
        -0.03642694652080536,
        0.3843197226524353,
        -0.3667951226234436,
        0.2739444971084595,
        -0.11771055310964584,
        -0.10695507377386093,
        0.20828589797019958,
        -0.056656364351511,
        0.059875939041376114,
        0.04084891453385353,
        2.7188305854797363,
        0.4787234663963318,
        2.1952548027038574,
        -0.4141962230205536,
        1.3490098714828491,
        0.5455608367919922,
        -0.07351120561361313,
        -1.8110957145690918,
        -1.1035497188568115,
        0.05627712979912758,
        -0.8537033796310425,
        0.17153123021125793,
        0.5955122709274292,
        0.34495335817337036,
        2.081083059310913,
        0.6695802211761475,
        0.052222348749637604,
        -0.25854888558387756,
        -0.20330499112606049,
        -0.7381793260574341,
        0.6148392558097839,
        0.6036714911460876,
        0.5325891375541687,
        -0.36462563276290894,
        0.010952351614832878,
        -0.6071190237998962,
        -0.28117361664772034,
        -0.32338932156562805,
        -0.08961078524589539,
        0.5204669237136841,
        -0.01277373917400837,
        -0.07951503247022629,
        -0.06146978214383125,
        3.2062950134277344,
        -0.004934575408697128,
        -0.4052850306034088,
        -1.030593752861023,
        1.0000911951065063,
        0.6537265777587891,
        -0.930518388748169,
        -0.3452726900577545,
        -0.6972949504852295,
        -0.11189187318086624,
        0.5557663440704346,
        0.09897006303071976,
        -1.3669782876968384,
        -0.2743203341960907,
        -0.96635502576828,
        0.17177024483680725,
        -0.1509263664484024,
        -0.1293482780456543,
        0.4195484220981598,
        -0.03600992634892464,
        -0.2224767804145813,
        -0.19613215327262878,
        0.0844372808933258,
        -0.25202518701553345,
        -0.045879755169153214,
        -0.34710076451301575,
        -0.2029298096895218,
        0.3874005377292633,
        0.07214556634426117,
        0.2651596665382385,
        -0.3763967752456665,
        -0.1770099252462387,
        -0.18477536737918854,
        -0.15859930217266083,
        -2.8319900035858154,
        2.2456300258636475,
        1.5786058902740479,
        0.5271365642547607,
        0.03241369500756264,
        -1.0772749185562134,
        0.03896380215883255,
        -0.0716300904750824,
        0.03423389047384262,
        0.19443842768669128,
        0.058023083955049515,
        0.3367675244808197,
        -3.0467467308044434,
        1.0194964408874512,
        -0.9635674357414246,
        -0.2742495834827423,
        -0.1992068886756897,
        -0.10571690648794174,
        0.6218141317367554,
        -0.026288539171218872,
        0.24925999343395233,
        0.1112523227930069,
        -0.10912220180034637,
        0.16535750031471252,
        0.14908967912197113,
        0.2845538556575775,
        0.38344883918762207,
        0.24125857651233673,
        -0.737131655216217,
        0.1628599762916565,
        0.055168308317661285,
        -0.3609146177768707,
        0.3489269018173218,
        1.3563960790634155,
        0.4199948310852051,
        -0.3720564842224121,
        1.5723469257354736,
        -1.4805083274841309,
        -0.0351836122572422,
        1.4855995178222656,
        -0.8526164889335632,
        -1.2066738605499268,
        0.07905364781618118,
        -0.1017521396279335,
        7.036508560180664,
        -4.272469997406006,
        -1.8839179277420044,
        -0.26632416248321533,
        1.0180315971374512,
        -2.5761282444000244,
        -1.35116446018219,
        -0.033749524503946304,
        -0.1645163595676422,
        -0.07701563835144043,
        0.13431870937347412,
        0.4855256676673889,
        -0.34178146719932556,
        -0.38172703981399536,
        -0.019413013011217117,
        0.14155349135398865,
        -0.15925058722496033,
        0.21961462497711182,
        -0.6142768263816833,
        0.5228717923164368,
        -0.2443179339170456,
        -1.4678910970687866,
        -1.18463134765625,
        0.3187088370323181,
        -0.18727117776870728,
        0.03724607080221176,
        -0.5284238457679749,
        0.5702753663063049,
        0.4470469653606415,
        -1.2597765922546387,
        0.5196265578269958,
        0.8714475631713867,
        0.32405954599380493,
        -0.556916356086731,
        -0.6272211670875549,
        -1.0433320999145508,
        -0.04919838160276413,
        -2.6936895847320557,
        -1.6123085021972656,
        -1.5206031799316406,
        -1.6175975799560547,
        0.09218498319387436,
        -0.6091846823692322,
        -0.34120669960975647,
        0.39146605134010315,
        0.24363648891448975,
        0.3948265016078949,
        0.40979182720184326,
        0.13105717301368713,
        -0.1926860809326172,
        -0.007666849531233311,
        0.027136031538248062,
        -0.07896531373262405,
        0.21456022560596466,
        0.12400293350219727,
        0.19327467679977417,
        0.9113190770149231,
        -0.40290746092796326,
        0.972161591053009,
        0.38328078389167786,
        0.36268678307533264,
        1.3518511056900024,
        0.34340721368789673,
        0.2801773250102997,
        -1.025124192237854,
        -0.08394568413496017,
        -1.8298336267471313,
        -0.5163035988807678,
        0.26939624547958374,
        -0.09235639870166779,
        0.787084698677063,
        0.04084848612546921,
        0.08289667218923569,
        0.015568947419524193,
        -0.029691634699702263,
        0.21639207005500793,
        1.2447454929351807,
        0.31379881501197815,
        -0.8384772539138794,
        -0.7028299570083618,
        0.08852562308311462,
        0.22559915482997894,
        -0.1412726789712906,
        -0.11455468833446503,
        0.33493587374687195,
        0.6293990015983582,
        0.061842530965805054,
        0.2690103054046631,
        -1.0467987060546875,
        0.7229591012001038,
        -0.6081682443618774,
        0.05383686348795891,
        -0.4263053238391876,
        0.473796010017395,
        1.2350327968597412,
        -0.2198016345500946,
        0.09690652787685394,
        0.17684093117713928,
        -0.03867412358522415,
        -0.20538026094436646,
        0.10860680043697357,
        -0.07808618992567062,
        0.048376016318798065,
        0.08291295170783997,
        -0.001326067140325904,
        0.170745387673378,
        0.05212501809000969,
        -0.08162295818328857,
        -0.22298291325569153,
        -0.20518611371517181,
        0.12861642241477966,
        -0.05599890649318695,
        -0.16534356772899628,
        0.061962779611349106,
        -0.04667485132813454,
        -0.17262902855873108,
        0.13735255599021912,
        -0.14166411757469177,
        -0.16551640629768372,
        0.1688736230134964,
        -0.260768324136734,
        0.2120925784111023,
        -0.22720837593078613,
        0.006811434868723154,
        -0.044522371143102646,
        -0.20289303362369537,
        0.07015987485647202,
        -0.06287982314825058,
        0.24798111617565155,
        0.030572807416319847,
        0.11852635443210602,
        0.10362140834331512,
        -0.08041954785585403,
        0.1270231306552887,
        -0.051447074860334396,
        -0.0016444926150143147,
        0.23068253695964813,
        -0.10278601199388504,
        0.21857976913452148,
        0.05601782724261284,
        0.15123659372329712,
        -0.18528476357460022,
        -0.12557321786880493,
        -0.02773066610097885,
        -0.1429983675479889,
        -0.21396684646606445,
        -0.04331306740641594,
        -0.17595311999320984,
        0.04462434723973274,
        -0.16903182864189148,
        -0.07408455014228821,
        0.04691881313920021,
        0.2109214812517166,
        -0.022039106115698814,
        -0.14380058646202087,
        0.06085894629359245,
        -0.03730089217424393,
        0.16300684213638306,
        -0.12110567837953568,
        -0.08646196871995926,
        0.19746123254299164,
        0.27287983894348145,
        -0.0200541652739048,
        -0.1757117211818695,
        0.03441840037703514,
        -4.023901462554932,
        -1.2435053586959839,
        -1.2790478467941284,
        0.38854512572288513,
        -0.32112905383110046,
        0.6643810272216797,
        0.36533641815185547,
        0.46633052825927734,
        -1.2402392625808716,
        0.5684480667114258,
        -0.04916053265333176,
        0.3416260778903961,
        -0.16405300796031952,
        -0.19606688618659973,
        0.5072358250617981,
        -0.33699607849121094,
        0.19031046330928802,
        -0.17062585055828094,
        0.030426254495978355,
        -0.07015647739171982,
        0.13205839693546295,
        2.168663501739502,
        -1.3602497577667236,
        0.8602962493896484,
        0.04856165871024132,
        0.37407535314559937,
        -0.7873311042785645,
        -0.7550164461135864,
        0.17237119376659393,
        -0.10437090694904327,
        0.606784999370575,
        -0.12844178080558777,
        0.07038711756467819,
        4.8443121910095215,
        4.6554999351501465,
        0.6568890810012817,
        0.4750778377056122,
        -0.04119378328323364,
        -0.0008540808339603245,
        -0.9172859787940979,
        0.6468626856803894,
        -0.03531045466661453,
        -0.4814814329147339,
        -0.06132793799042702,
        -0.6381082534790039,
        -0.3546575605869293,
        0.08117808401584625,
        0.24411407113075256,
        -0.3036993145942688,
        0.08374205976724625,
        -0.05952950939536095,
        0.34939083456993103,
        -0.16097219288349152,
        -0.048763517290353775,
        0.19474166631698608,
        -1.5920355319976807,
        -1.1448663473129272,
        -1.254645824432373,
        -1.7629668712615967,
        0.4174424409866333,
        1.5291203260421753,
        -1.4101256132125854,
        -1.932057499885559,
        0.4404953420162201,
        -0.24288322031497955,
        -0.045780837535858154,
        0.1325935572385788,
        0.21213839948177338,
        -0.06259617209434509,
        -0.0040984004735946655,
        -0.053826794028282166,
        0.15263451635837555,
        0.18610845506191254,
        -0.23267188668251038,
        0.13794536888599396,
        0.17371420562267303,
        -0.04876309633255005,
        0.12511880695819855,
        -0.12696102261543274,
        -0.15083420276641846,
        -0.18017730116844177,
        0.05069594085216522,
        0.03788726031780243,
        -0.22439448535442352,
        -0.08245204389095306,
        -0.2390388548374176,
        0.0014526396989822388,
        -0.19487415254116058,
        0.10163433849811554,
        -0.20537355542182922,
        0.2117321640253067,
        -0.07229068875312805,
        -0.24179092049598694,
        0.09036146104335785,
        -0.14583934843540192,
        0.23917736113071442,
        -0.15991339087486267,
        -0.08141666650772095,
        -0.00967220775783062,
        0.15273764729499817,
        1.1138646602630615,
        2.116513729095459,
        -0.868064284324646,
        -0.7885943055152893,
        -0.0038415517192333937,
        0.14866399765014648,
        0.09028756618499756,
        -0.29550573229789734,
        0.6227471828460693,
        0.018700746819376945,
        0.3910319209098816,
        -0.21551591157913208,
        1.379793643951416,
        0.17292189598083496,
        0.19720418751239777,
        0.07186844199895859,
        -0.3493020832538605,
        0.02314263954758644,
        0.23245571553707123,
        0.05156432464718819,
        0.4610280990600586,
        0.9985273480415344,
        -0.7747172713279724,
        -0.7087779641151428,
        0.18890470266342163,
        -0.1267731934785843,
        -0.2542145848274231,
        0.8847813606262207,
        -0.9577836990356445,
        -0.3660379946231842,
        0.17053687572479248,
        0.3551701009273529,
        -1.7530229091644287,
        0.40452009439468384,
        -0.3999699354171753,
        -0.5786208510398865,
        -0.4491475820541382,
        -0.04147437959909439,
        0.07441835105419159,
        -0.5888214707374573,
        -0.19573207199573517,
        -0.07420743256807327,
        0.3832379877567291,
        0.27211424708366394,
        0.406931608915329,
        0.16162200272083282,
        -0.3717036843299866,
        -0.19229687750339508,
        -0.17984090745449066,
        -0.05789762735366821,
        -0.19078612327575684,
        0.07728464901447296,
        -0.26673823595046997,
        -2.079653739929199,
        -1.968185544013977,
        0.8251282572746277,
        0.07125033438205719,
        0.3546391725540161,
        1.4236429929733276,
        0.7013151049613953,
        1.1750576496124268,
        -0.30563884973526,
        -0.08631245046854019,
        -0.36307471990585327,
        -0.14522141218185425,
        -0.14434154331684113,
        -0.6566622853279114,
        0.697003960609436,
        1.1991783380508423,
        1.3682574033737183,
        0.7615597248077393,
        0.5252842307090759,
        0.2308950275182724,
        -0.6567046642303467,
        -0.3443467617034912,
        0.5073674917221069,
        0.15022581815719604,
        -0.2501183748245239,
        0.2571772634983063,
        -0.11823849380016327,
        -0.6292083859443665,
        0.47716522216796875,
        0.8724204301834106,
        0.026534516364336014,
        -0.09144279360771179,
        0.03179364278912544,
        -0.14270353317260742,
        1.3260852098464966,
        -0.7682156562805176,
        0.6848808526992798,
        0.7934956550598145,
        -0.24022705852985382,
        0.059748850762844086,
        0.3325023055076599,
        0.13009992241859436,
        -0.6498832702636719,
        0.4876779615879059,
        -0.17434406280517578,
        -0.11474721133708954,
        0.2821546196937561,
        -0.05281355232000351,
        0.6444857716560364,
        -0.9028510451316833,
        0.12784166634082794,
        -0.3986872434616089,
        0.8983502388000488,
        0.1794230043888092,
        0.11993811279535294,
        1.113600492477417,
        0.34978461265563965,
        -0.0894845575094223,
        -0.11924491077661514,
        -0.7064326405525208,
        -0.027443118393421173,
        -0.1901872754096985,
        -0.19199955463409424,
        0.03498336300253868,
        0.3203066289424896,
        0.08811870217323303,
        -3.0833146572113037,
        0.14582961797714233,
        0.9454031586647034,
        1.3360873460769653,
        1.8912659883499146,
        -0.0024771434254944324,
        0.06784550845623016,
        1.652774453163147,
        -0.383453369140625,
        -1.180275797843933,
        -0.679844319820404,
        0.1867390275001526,
        3.2647554874420166,
        2.675532102584839,
        1.292047381401062,
        -0.18042883276939392,
        -0.13116519153118134,
        -0.2191009223461151,
        0.2678835093975067,
        0.33750593662261963,
        0.13946475088596344,
        0.17591780424118042,
        0.10899962484836578,
        0.7204535603523254,
        0.10640637576580048,
        -0.28206413984298706,
        -0.2042408287525177,
        0.26459625363349915,
        0.0790969505906105,
        -0.08179758489131927,
        -0.10307689011096954,
        0.054984867572784424,
        0.14408503472805023,
        -2.0287680625915527,
        1.1780498027801514,
        2.6163864135742188,
        1.6214137077331543,
        -0.16529250144958496,
        -1.430303931236267,
        -0.9464724063873291,
        -0.15695543587207794,
        -2.647341728210449,
        0.132353737950325,
        1.3597941398620605,
        0.1953279674053192,
        3.381866455078125,
        -2.7137675285339355,
        3.908722400665283,
        0.590422511100769,
        1.4804058074951172,
        0.03446820750832558,
        1.0471141338348389,
        1.748644232749939,
        -1.223516583442688,
        -0.3696019649505615,
        0.3313496708869934,
        -0.10232756286859512,
        0.1820809692144394,
        0.16732926666736603,
        0.21526366472244263,
        0.020460348576307297,
        -0.00966264121234417,
        -0.1430222988128662,
        0.002446250757202506,
        -0.17451249063014984,
        -0.3335717022418976,
        -1.856419324874878,
        -2.9511992931365967,
        -1.0870157480239868,
        -0.9741371273994446,
        0.9096966981887817,
        1.398571252822876,
        0.2306540161371231,
        0.3345426619052887,
        -0.058735717087984085,
        0.4408738911151886,
        -0.3758968114852905,
        -0.1517724245786667,
        -0.7314310669898987,
        2.0485804080963135,
        -1.4032659530639648,
        0.19332855939865112,
        -0.6112079620361328,
        -1.8606423139572144,
        -1.9906113147735596,
        -1.2619056701660156,
        1.135420799255371,
        -0.7530477046966553,
        0.029267562553286552,
        -0.2283540517091751,
        0.25266897678375244,
        0.4468887150287628,
        -0.05579141899943352,
        0.12826775014400482,
        0.18378332257270813,
        -0.08868708461523056,
        0.09356699138879776,
        0.019802700728178024,
        -0.5565245747566223,
        -0.16496506333351135,
        -0.5630220174789429,
        -1.4840975999832153,
        0.8976048827171326,
        -0.2063218057155609,
        -0.425957590341568,
        -1.0750499963760376,
        -0.10643668472766876,
        0.41660767793655396,
        -0.4973697364330292,
        -0.09833603352308273,
        -0.07771711051464081,
        1.0088905096054077,
        1.76665198802948,
        1.237535834312439,
        -0.953009843826294,
        -0.1852075755596161,
        -0.4379793703556061,
        -0.01784171350300312,
        0.08148674666881561,
        -0.3219906985759735,
        0.049207545816898346,
        -0.34505146741867065,
        0.022330818697810173,
        0.41767454147338867,
        0.12865494191646576,
        0.4356413781642914,
        1.2599971294403076,
        -0.28437739610671997,
        -0.8719256520271301,
        -0.013504276983439922,
        0.13866549730300903,
        -0.5915168523788452,
        0.5864673256874084,
        0.3202371597290039,
        -0.5269657969474792,
        -0.7899694442749023,
        0.6294858455657959,
        -0.18233442306518555,
        0.5189992189407349,
        -0.08881755918264389,
        -0.35603421926498413,
        -0.34043824672698975,
        -0.06239943951368332,
        -0.08964383602142334,
        0.18210290372371674,
        -0.07843641936779022,
        -0.05583439767360687,
        -0.11602845788002014,
        0.17435739934444427,
        -0.1888095885515213,
        0.19993658363819122,
        0.09741897881031036,
        0.2284552901983261,
        -0.015038803219795227,
        -0.1706533133983612,
        0.07280011475086212,
        0.22662730515003204,
        -0.03934590518474579,
        0.07019205391407013,
        -0.05939841270446777,
        0.013652577996253967,
        -0.1944272220134735,
        -0.13422830402851105,
        -0.23786228895187378,
        0.1707569807767868,
        0.010800167918205261,
        0.24538780748844147,
        0.2294326275587082,
        0.005165919661521912,
        -0.08046139776706696,
        -0.16918453574180603,
        -0.1709538996219635,
        -0.17469564080238342,
        -0.09909957647323608,
        -0.0510479211807251,
        0.0668085366487503,
        0.14796042442321777,
        1.4760445356369019,
        0.3952478766441345,
        1.763731598854065,
        0.6776467561721802,
        0.21903379261493683,
        -1.0409759283065796,
        -0.6071495413780212,
        0.008450350724160671,
        -0.2822851836681366,
        0.15090908110141754,
        0.5307537317276001,
        -0.9758607745170593,
        0.03824346140027046,
        0.49585428833961487,
        -0.10707908123731613,
        0.05482674390077591,
        0.010205376893281937,
        0.2567342519760132,
        0.03460264950990677,
        -0.09732037037611008,
        0.09770766645669937,
        -1.904923677444458,
        -1.0888477563858032,
        0.949606716632843,
        0.4466712772846222,
        1.300643801689148,
        -0.4586498737335205,
        -0.22230422496795654,
        -0.11048708111047745,
        -1.014907956123352,
        0.34882527589797974,
        0.8357783555984497,
        -0.1994107961654663,
        -1.1788846254348755,
        -0.8580459952354431,
        -0.4116746783256531,
        0.013933778740465641,
        -0.36537644267082214,
        0.11743202805519104,
        -0.008712265640497208,
        0.5702810287475586,
        -0.16227345168590546,
        0.23746448755264282,
        -2.3383560180664062,
        -0.9811371564865112,
        -0.8222024440765381,
        -0.18656723201274872,
        -0.5896837711334229,
        0.055182844400405884,
        0.35706907510757446,
        -0.14683644473552704,
        -0.048455219715833664,
        0.12701623141765594,
        0.7491470575332642,
        0.8634818196296692,
        0.5181816816329956,
        -0.8195387721061707,
        0.06460843980312347,
        -1.2779521942138672,
        -0.27399030327796936,
        -0.4157915413379669,
        0.2338995784521103,
        0.23289136588573456,
        -0.0962008610367775,
        -0.07225926220417023,
        -0.002025325084105134,
        1.266502857208252,
        1.6677513122558594,
        1.173368215560913,
        0.18744193017482758,
        -0.24609188735485077,
        0.5615798234939575,
        -0.01079957652837038,
        -0.11821567267179489,
        0.363493949174881,
        0.1519775688648224,
        0.041918665170669556,
        0.3426049053668976,
        -0.21577873826026917,
        0.40597182512283325,
        -0.12299350649118423,
        -0.0355219803750515,
        0.11384028941392899,
        -0.25960302352905273,
        0.01981780119240284,
        -0.0065964823588728905,
        -0.05316444858908653,
        3.732279062271118,
        -3.788719892501831,
        1.0157843828201294,
        -1.4393372535705566,
        0.22084741294384003,
        1.179181694984436,
        -0.18208733201026917,
        1.4729095697402954,
        0.11978914588689804,
        -0.16946887969970703,
        -0.1847413182258606,
        0.09553869068622589,
        1.197803020477295,
        0.025835897773504257,
        -0.8348846435546875,
        0.5551701188087463,
        -0.6261434555053711,
        -0.44001564383506775,
        -0.7020189166069031,
        -0.07959950715303421,
        -0.23970234394073486,
        1.211724877357483,
        -1.014865517616272,
        -0.8807216882705688,
        -0.46124547719955444,
        -0.2508307993412018,
        -0.12190371006727219,
        0.21181614696979523,
        -0.1960366666316986,
        0.23944243788719177,
        0.09429499506950378,
        0.22077268362045288,
        -0.3659980595111847,
        -0.24561040103435516,
        0.09334931522607803,
        0.44156208634376526,
        0.37471804022789,
        0.9114941358566284,
        0.10277747362852097,
        -0.7283270359039307,
        -0.5663599371910095,
        0.13581672310829163,
        -0.2203100174665451,
        -0.1411755084991455,
        0.29043465852737427,
        -0.19114255905151367,
        1.7768528461456299,
        0.9868566393852234,
        -0.5812784433364868,
        -0.27824386954307556,
        -0.44112589955329895,
        -0.49157068133354187,
        0.19624066352844238,
        1.0202584266662598,
        -1.0022215843200684,
        0.009875426068902016,
        -0.6079743504524231,
        0.28552910685539246,
        -0.5345487594604492,
        0.3309645652770996,
        1.298292636871338,
        0.09516818076372147,
        -0.02681729383766651,
        0.06630995869636536,
        0.14872121810913086,
        0.2276296764612198,
        -0.3048262596130371,
        -0.6593919396400452,
        0.09774856269359589,
        -0.08468101918697357,
        0.48997581005096436,
        -0.8954648375511169,
        -0.5468658208847046,
        -0.11091648042201996,
        0.3231933116912842,
        0.849104106426239,
        -0.36969098448753357,
        0.15717776119709015,
        4.26160192489624,
        -0.734907329082489,
        0.7607672214508057,
        0.11499989032745361,
        0.1462998390197754,
        0.1570700705051422,
        -0.8387054204940796,
        -1.1971668004989624,
        0.9976586103439331,
        -0.23160037398338318,
        -0.1394798755645752,
        0.12114456295967102,
        0.15484139323234558,
        0.5050439834594727,
        -0.5968942642211914,
        0.320224404335022,
        0.21041715145111084,
        -0.22571034729480743,
        -0.16896101832389832,
        0.11788596212863922,
        -0.2915506362915039,
        -1.318793773651123,
        -0.4506382346153259,
        0.5979299545288086,
        -1.5554301738739014,
        0.07724595069885254,
        -0.46575799584388733,
        1.52838134765625,
        0.2351868599653244,
        -0.9857221841812134,
        -0.14866600930690765,
        -0.305381178855896,
        0.11706389486789703,
        -0.13599446415901184,
        0.10231511294841766,
        -0.17925713956356049,
        -0.025762245059013367,
        0.17033930122852325,
        0.07214482128620148,
        -0.003997772932052612,
        0.2011490911245346,
        -0.038951948285102844,
        -0.23596295714378357,
        0.19194786250591278,
        0.2144576758146286,
        -0.1175900399684906,
        0.042114511132240295,
        0.17977751791477203,
        -0.11309713125228882,
        -0.10093267261981964,
        -0.209910050034523,
        -0.15516890585422516,
        -0.18328480422496796,
        -0.03872571885585785,
        -0.1760706603527069,
        0.22999612987041473,
        0.19193269312381744,
        0.07596169412136078,
        -0.08434948325157166,
        -0.1604124903678894,
        -0.1944189816713333,
        0.07041983306407928,
        -0.11807228624820709,
        0.22179047763347626,
        -0.23100239038467407,
        -0.5060453414916992,
        -0.3124694228172302,
        -2.001155138015747,
        -0.3538825511932373,
        -0.02232220582664013,
        0.3339548408985138,
        0.45092976093292236,
        -0.27781495451927185,
        0.35528409481048584,
        -0.30365002155303955,
        -0.5334863066673279,
        -0.00772898131981492,
        0.9056194424629211,
        0.5714187026023865,
        -0.3558938205242157,
        -0.4504445195198059,
        -0.34989118576049805,
        0.22065046429634094,
        0.08792292326688766,
        0.02562430128455162,
        -0.06841582804918289,
        0.0026631157379597425,
        3.443249464035034,
        -0.9775712490081787,
        -2.386369466781616,
        -1.0390968322753906,
        0.9490503072738647,
        0.906869113445282,
        -0.07221715897321701,
        -0.07328807562589645,
        -0.17698879539966583,
        0.013476832769811153,
        0.6534999012947083,
        0.2284998744726181,
        2.0455377101898193,
        -2.393864870071411,
        0.144819438457489,
        -1.6469204425811768,
        -0.933380126953125,
        0.2506418228149414,
        -0.42012161016464233,
        0.25684571266174316,
        0.21625027060508728,
        0.5724215507507324,
        -0.06307443976402283,
        0.1708250343799591,
        -0.15325085818767548,
        0.34264880418777466,
        0.5441421270370483,
        -0.02896120958030224,
        -0.2945796251296997,
        -0.29680800437927246,
        0.21812431514263153,
        -0.03995943441987038,
        0.11594094336032867,
        -0.2348393201828003,
        -0.5256680846214294,
        0.537176251411438,
        0.6481203436851501,
        1.2458913326263428,
        2.635087490081787,
        -0.5796948671340942,
        -0.8118513226509094,
        -0.796192467212677,
        -0.4331738352775574,
        -0.1481872797012329,
        0.151898592710495,
        0.970088541507721,
        2.0120723247528076,
        1.1980767250061035,
        -0.9257926344871521,
        -0.8950181007385254,
        -0.06830943375825882,
        -0.20715756714344025,
        0.4755222499370575,
        0.25667324662208557,
        -0.9084192514419556,
        -0.11660701781511307,
        0.24826489388942719,
        0.8236850500106812,
        -0.2531624436378479,
        -0.27328306436538696,
        0.9063707590103149,
        -0.2579077184200287,
        -0.24294763803482056,
        0.014713838696479797,
        0.02915080636739731,
        0.05369722843170166,
        -0.9300071001052856,
        -0.828178346157074,
        1.3076622486114502,
        -0.24546700716018677,
        0.3589134216308594,
        -1.0591522455215454,
        -0.1985177844762802,
        0.5529246926307678,
        -0.2723287343978882,
        -0.05052226409316063,
        0.10367268323898315,
        0.02589665725827217,
        -1.644773006439209,
        -3.0954062938690186,
        -0.4466478228569031,
        0.3645966649055481,
        0.8441885709762573,
        0.029578186571598053,
        -0.45107874274253845,
        0.4117882251739502,
        0.009987524710595608,
        -0.1637108474969864,
        -0.3016012907028198,
        -0.1640472114086151,
        0.368748277425766,
        0.2952209413051605,
        -0.04645976051688194,
        0.16489897668361664,
        0.22384163737297058,
        -0.1076449528336525,
        0.02597821317613125,
        0.0023939060047268867,
        0.02478337287902832,
        -0.7351906299591064,
        -1.8475898504257202,
        -2.085986375808716,
        0.19803525507450104,
        0.2178291231393814,
        -1.1482124328613281,
        1.2921258211135864,
        1.2089173793792725,
        0.4074951708316803,
        -0.6954853534698486,
        0.32313576340675354,
        -0.2685084640979767,
        -1.2706429958343506,
        -1.3074451684951782,
        1.1080573797225952,
        -0.11257445812225342,
        0.05512509495019913,
        -0.31219804286956787,
        -0.15035566687583923,
        0.33020275831222534,
        0.42629092931747437,
        0.17289961874485016,
        0.16779235005378723,
        -0.24055908620357513,
        0.03978515788912773,
        0.2986604571342468,
        0.11363939195871353,
        0.4914211630821228,
        -0.03935791552066803,
        -0.28053078055381775,
        0.09595196694135666,
        -0.1333894431591034,
        -0.33305591344833374,
        0.004465217236429453,
        4.350703716278076,
        0.8969331979751587,
        0.04491211846470833,
        0.39814862608909607,
        -1.2046350240707397,
        -1.0527366399765015,
        -0.3004562556743622,
        0.03970229625701904,
        0.9172635674476624,
        -0.23329664766788483,
        0.040982991456985474,
        1.0548659563064575,
        0.43091627955436707,
        -1.6260738372802734,
        -0.020811669528484344,
        0.1558331400156021,
        0.17941303551197052,
        -0.26310327649116516,
        0.00679946132004261,
        -0.0019795680418610573,
        -0.4877234995365143,
        0.0154514005407691,
        -0.07702662795782089,
        -0.09864053875207901,
        0.260500967502594,
        -0.31459280848503113,
        -0.12156219780445099,
        -0.3498881459236145,
        0.1193685308098793,
        0.16850993037223816,
        -0.29067927598953247,
        0.28143805265426636,
        1.2168684005737305,
        2.4060614109039307,
        1.6195876598358154,
        1.3706066608428955,
        3.0723650455474854,
        -1.0595126152038574,
        -1.0302941799163818,
        -2.5797441005706787,
        -2.145507574081421,
        0.9125977754592896,
        0.893936276435852,
        -0.9361770153045654,
        -0.527518093585968,
        -3.1438052654266357,
        0.4407804310321808,
        -0.0032747401855885983,
        0.7500355839729309,
        0.17029711604118347,
        0.4415092170238495,
        0.7489497661590576,
        0.2775711715221405,
        -0.6004384756088257,
        0.6745942234992981,
        1.4007201194763184,
        -0.2467188984155655,
        0.1384490579366684,
        -0.1895456612110138,
        -0.18543244898319244,
        0.1839473843574524,
        -0.28622570633888245,
        -0.3783631920814514,
        0.2850858271121979,
        0.31249624490737915,
        0.5820368528366089,
        -1.5467214584350586,
        -0.26657599210739136,
        0.20382843911647797,
        -1.8473566770553589,
        -0.7112748026847839,
        0.5651307702064514,
        0.7686836123466492,
        0.789212703704834,
        0.1192384883761406,
        -0.42502444982528687,
        1.241305947303772,
        -1.3231786489486694,
        1.0445865392684937,
        -1.0291603803634644,
        -0.8756545782089233,
        -1.453231692314148,
        0.04362785071134567,
        1.041550636291504,
        0.2654635012149811,
        0.14804038405418396,
        -0.24702301621437073,
        -0.23305381834506989,
        -0.17537595331668854,
        0.2425917237997055,
        0.3331138491630554,
        -0.06441012769937515,
        0.33948636054992676,
        -0.15854166448116302,
        -0.11790929734706879,
        -0.1623479425907135,
        -0.18316039443016052,
        -0.1600395292043686,
        -5.057197093963623,
        0.6485204696655273,
        -1.696433424949646,
        -0.9888878464698792,
        1.1519719362258911,
        -0.8712238073348999,
        -1.3608309030532837,
        0.9221628904342651,
        -0.09884253144264221,
        0.3704405128955841,
        -0.12691952288150787,
        -0.0686694085597992,
        0.3960493803024292,
        5.53067684173584,
        1.3281948566436768,
        1.0873472690582275,
        0.7211136221885681,
        0.8192502856254578,
        0.6242895722389221,
        0.9625823497772217,
        0.19034017622470856,
        -0.44466257095336914,
        0.5339769721031189,
        0.32081836462020874,
        -0.6991242170333862,
        0.15314514935016632,
        -0.36111417412757874,
        -0.06710754334926605,
        0.1659047156572342,
        0.3579549789428711,
        -0.013159391470253468,
        -0.2106456607580185,
        -0.037580035626888275,
        1.5949318408966064,
        0.08224702626466751,
        0.24669037759304047,
        -1.6773841381072998,
        -0.6053626537322998,
        -1.1094247102737427,
        0.7766372561454773,
        0.9677122235298157,
        0.08987952768802643,
        0.3042634129524231,
        1.0805660486221313,
        0.35162845253944397,
        -0.4772181212902069,
        0.19999463856220245,
        -0.36066070199012756,
        -0.0210354495793581,
        -0.46923935413360596,
        -0.014019448310136795,
        0.528252124786377,
        -0.14198487997055054,
        0.14776571094989777,
        0.05716043338179588,
        0.41890060901641846,
        -0.18235890567302704,
        0.25018662214279175,
        0.2909696102142334,
        -0.07897071540355682,
        -0.08949349075555801,
        0.29166513681411743,
        -0.3430095314979553,
        0.06903818249702454,
        -0.11308716237545013,
        0.11293372511863708,
        -3.490493059158325,
        2.1618270874023438,
        2.362703323364258,
        0.5009726285934448,
        0.2976284921169281,
        0.3515658974647522,
        -1.0140562057495117,
        -0.9100856781005859,
        0.18770064413547516,
        0.02504858560860157,
        0.18113012611865997,
        0.3154886066913605,
        2.180936574935913,
        2.0226633548736572,
        0.8784396648406982,
        -0.5273427367210388,
        -0.3702518045902252,
        0.18160368502140045,
        0.3264409005641937,
        0.8197572231292725,
        -0.6299872398376465,
        -1.1017885208129883,
        0.03866254910826683,
        0.58232182264328,
        0.4946919083595276,
        0.07827627658843994,
        0.8439273834228516,
        -0.6153169274330139,
        0.09463754296302795,
        0.11200003325939178,
        0.12309714406728745,
        0.0632399395108223,
        -0.09789104759693146,
        0.2255582958459854,
        1.7959277629852295,
        1.679530382156372,
        0.3213060796260834,
        -0.4891331195831299,
        -0.2466597706079483,
        0.09925251454114914,
        0.5784116983413696,
        0.7376136779785156,
        -0.7243607640266418,
        -0.23200364410877228,
        0.45636990666389465,
        -1.095418095588684,
        3.3826234340667725,
        0.09674970805644989,
        -0.22689418494701385,
        -0.980238139629364,
        -0.13775849342346191,
        0.2148905098438263,
        0.04558578506112099,
        -0.31037551164627075,
        0.28349360823631287,
        0.36867961287498474,
        0.3596712350845337,
        -0.46295809745788574,
        -1.0399466753005981,
        0.15438306331634521,
        0.923413097858429,
        0.2706535756587982,
        0.26352831721305847,
        0.1591092348098755,
        0.05380046367645264,
        0.012746812775731087,
        0.15518902242183685,
        0.3108784854412079,
        1.130948543548584,
        0.08998897671699524,
        0.28186529874801636,
        0.15742993354797363,
        -0.6992874145507812,
        -0.10267305374145508,
        -0.446738600730896,
        -0.5374358892440796,
        0.5776894092559814,
        -0.23384681344032288,
        -0.7031552791595459,
        -1.3533742427825928,
        -0.17910559475421906,
        0.08877337723970413,
        -0.2761836647987366,
        0.02678201161324978,
        0.27881571650505066,
        0.2999044358730316,
        -0.005420420318841934,
        -0.1532885879278183,
        -5.419924736022949,
        -0.5247586369514465,
        -0.012465130537748337,
        -0.6837630271911621,
        0.48864036798477173,
        0.4047777056694031,
        -0.04244082421064377,
        -0.4205074608325958,
        0.04061579331755638,
        0.16447629034519196,
        0.049429185688495636,
        -0.5092925429344177,
        0.18524350225925446,
        -0.22913865745067596,
        0.08591955155134201,
        0.7067327499389648,
        0.2684476375579834,
        0.4940391778945923,
        0.02330385148525238,
        0.00024286098778247833,
        -0.19966882467269897,
        -0.10321464389562607,
        -0.30727314949035645,
        1.2289154529571533,
        -2.313275098800659,
        -1.1085928678512573,
        -1.2836158275604248,
        -0.06490636616945267,
        -1.687231421470642,
        -1.3785392045974731,
        -0.040368080139160156,
        0.06150941550731659,
        1.1219854354858398,
        -0.2919275164604187,
        0.17551001906394958,
        -0.3945615291595459,
        0.13840214908123016,
        -0.22965401411056519,
        0.09768660366535187,
        -0.15742988884449005,
        0.13311152160167694,
        0.06069500744342804,
        -0.26685279607772827,
        -0.037892360240221024,
        -0.29962465167045593,
        0.3430902659893036,
        -0.07519106566905975,
        0.2374284714460373,
        0.6675536036491394,
        0.23682677745819092,
        0.40614011883735657,
        1.0721076726913452,
        0.8290325999259949,
        1.0721063613891602,
        0.6081303358078003,
        -0.289229154586792,
        -1.9024642705917358,
        -3.55910062789917,
        -0.0783195048570633,
        -0.29503118991851807,
        0.6846501231193542,
        0.10141493380069733,
        0.6134040355682373,
        0.5759965777397156,
        -0.8608716726303101,
        0.5535648465156555,
        -0.013808154501020908,
        -0.5971137881278992,
        -0.04167424887418747,
        0.21439605951309204,
        0.5302243232727051,
        0.2267337143421173,
        0.39548155665397644,
        -0.2612624168395996,
        0.2606234550476074,
        0.1160455271601677,
        0.2682421803474426,
        -0.7952861189842224,
        2.155942916870117,
        0.7346528172492981,
        0.7421063184738159,
        2.1820530891418457,
        -0.07168009877204895,
        -0.2161291092634201,
        -0.47950708866119385,
        0.19513916969299316,
        -0.535514771938324,
        0.06749279052019119,
        0.14391757547855377,
        -0.010394120588898659,
        -0.23142801225185394,
        0.1430947184562683,
        0.09632644802331924,
        -0.19909274578094482,
        -0.24939236044883728,
        -0.0017526261508464813,
        0.024531157687306404,
        0.07121516764163971,
        -0.04810485243797302,
        -0.04032832011580467,
        0.1651052087545395,
        0.12375316768884659,
        -0.09505628794431686,
        -0.11950166523456573,
        0.011194264516234398,
        -0.22868648171424866,
        -0.030810503289103508,
        0.060710299760103226,
        -0.16912026703357697,
        -0.0667852908372879,
        -0.13940377533435822,
        0.000588818802498281,
        -0.13101601600646973,
        0.15953432023525238,
        0.162380650639534,
        0.15873704850673676,
        -0.11065937578678131,
        0.2079073190689087,
        0.1591957062482834,
        -0.14438965916633606,
        -0.12227624654769897,
        0.21195800602436066,
        1.400653600692749,
        2.777113676071167,
        0.8542001843452454,
        1.1691497564315796,
        0.48925238847732544,
        -0.1355990171432495,
        -0.3610267639160156,
        -0.04203915223479271,
        -0.23940882086753845,
        0.09985795617103577,
        -0.7143404483795166,
        -0.030716106295585632,
        -0.5020871758460999,
        0.2551000714302063,
        -0.08773783594369888,
        -0.249114990234375,
        -0.017514152452349663,
        0.1077413558959961,
        0.07221658527851105,
        0.1794504076242447,
        -0.08038575947284698,
        3.431382179260254,
        -2.6747217178344727,
        1.5829414129257202,
        0.30250924825668335,
        -0.00031195810879580677,
        0.1593800038099289,
        0.9427952766418457,
        0.6719364523887634,
        -0.6162180304527283,
        -0.27652692794799805,
        -0.10904397815465927,
        -0.006632328033447266,
        0.24276195466518402,
        0.060873016715049744,
        0.0705270916223526,
        -0.09637762606143951,
        0.1880323737859726,
        -0.06347987055778503,
        -0.030283376574516296,
        0.10427753627300262,
        0.18696807324886322,
        0.09658350050449371,
        -0.17930665612220764,
        -0.03221839666366577,
        -0.13890603184700012,
        0.019311293959617615,
        -0.1405722200870514,
        -0.05000530183315277,
        -0.24811218678951263,
        -0.24275894463062286,
        0.17119987308979034,
        0.03739522397518158,
        0.010528400540351868,
        0.19261600077152252,
        -0.18809321522712708,
        0.1563483029603958,
        -0.12406308948993683,
        -0.1414482593536377,
        0.17089922726154327,
        0.08560438454151154,
        0.022111698985099792,
        0.24457870423793793,
        -0.22622407972812653,
        0.1525232046842575,
        0.22664256393909454,
        0.1474008858203888,
        -0.06305351853370667,
        -0.016467709094285965,
        -0.27081498503685,
        -0.06480701267719269,
        -0.22957700490951538,
        -0.3151779770851135,
        0.14709369838237762,
        0.1279108077287674,
        -0.1625773161649704,
        -0.18566326797008514,
        -0.2236781269311905,
        0.05811537802219391,
        -0.06596747040748596,
        -0.2398882955312729,
        -0.14816813170909882,
        -0.07818779349327087,
        0.007633086293935776,
        0.09874039143323898,
        0.09171758592128754,
        -0.10437890887260437,
        0.04316650331020355,
        0.15679694712162018,
        0.06337625533342361,
        0.24154594540596008,
        -0.022393155843019485,
        -0.04697404429316521,
        -0.08585358411073685,
        0.028364118188619614,
        -0.19268417358398438,
        -0.0347142331302166,
        0.13611793518066406,
        0.5223588347434998,
        0.023678148165345192,
        -0.25922891497612,
        -4.41768217086792,
        -0.5168241858482361,
        -3.127502679824829,
        -0.08501589298248291,
        0.22732612490653992,
        -0.42581164836883545,
        -0.01920348033308983,
        -0.034461405128240585,
        0.8611154556274414,
        0.16516737639904022,
        -0.2442133128643036,
        -0.2967638373374939,
        -0.031996894627809525,
        -0.06926344335079193,
        -0.05517008900642395,
        -0.01811687834560871,
        0.004086009226739407,
        0.02745661698281765,
        0.08534305542707443,
        -0.2348739206790924,
        3.0764739513397217,
        0.885766863822937,
        0.45379531383514404,
        -1.2705671787261963,
        -0.0891411080956459,
        0.9931719899177551,
        -0.5644913911819458,
        -0.034505199640989304,
        -0.06090587377548218,
        0.1766454428434372,
        -0.05380847305059433,
        -1.29880952835083,
        -2.753483533859253,
        -1.6850517988204956,
        -1.7698267698287964,
        -1.2826098203659058,
        -2.0640408992767334,
        -1.6462584733963013,
        -1.0268068313598633,
        0.05220334976911545,
        1.0642054080963135,
        0.9427528977394104,
        0.22955749928951263,
        -0.08027279376983643,
        -0.16415710747241974,
        -0.03992313891649246,
        -0.23497964441776276,
        -0.14416788518428802,
        -0.16706545650959015,
        0.057307105511426926,
        0.3256731331348419,
        0.4579237103462219,
        -1.1761813163757324,
        -1.333922266960144,
        -2.3832273483276367,
        -2.1736583709716797,
        -1.830290675163269,
        -1.3553212881088257,
        -0.5032424926757812,
        -0.14730022847652435,
        0.06232355162501335,
        1.050572395324707,
        1.996706485748291,
        -0.0950150415301323,
        0.2681771218776703,
        -1.3198319673538208,
        0.928493320941925,
        0.1699477881193161,
        1.1121011972427368,
        -0.2960231602191925,
        -0.4967513680458069,
        0.38373786211013794,
        -1.4725583791732788,
        -0.5403308868408203,
        0.29164236783981323,
        -0.048549436032772064,
        -0.37293073534965515,
        0.11530384421348572,
        -0.3572320342063904,
        0.2428414523601532,
        0.42393767833709717,
        -0.37758615612983704,
        0.02592332847416401,
        -0.1888747662305832,
        0.00591650977730751,
        -0.0871056616306305,
        -1.5666583776474,
        0.47114628553390503,
        1.0021800994873047,
        0.9026396870613098,
        0.8392826914787292,
        -0.653283953666687,
        -0.9231700897216797,
        0.7790701985359192,
        0.47738078236579895,
        0.7171880602836609,
        0.04174505174160004,
        0.06805868446826935,
        0.03522135317325592,
        0.17679883539676666,
        -0.09194348752498627,
        -0.22094745934009552,
        0.16540829837322235,
        0.2461651712656021,
        -0.17609378695487976,
        -0.22966867685317993,
        -0.24696668982505798,
        -0.21465721726417542,
        -0.06514105200767517,
        -0.2061087191104889,
        0.10154496133327484,
        -0.17274056375026703,
        -0.06691788136959076,
        -0.17524003982543945,
        -0.13092073798179626,
        0.1589093953371048,
        -0.019110411405563354,
        -0.15752723813056946,
        0.24625886976718903,
        -0.0131092369556427,
        0.21086157858371735,
        0.07401557266712189,
        0.05710102617740631,
        0.2460690587759018,
        -0.055336132645606995,
        -0.20608073472976685,
        -0.11392022669315338,
        -0.044309452176094055,
        -0.22445958852767944,
        -0.3187945485115051,
        -1.155415415763855,
        -0.19487395882606506,
        0.2085293084383011,
        -0.2943462133407593,
        -0.5931262373924255,
        -0.6727745532989502,
        -0.08763674646615982,
        -0.004671646282076836,
        0.23856239020824432,
        -0.2635762691497803,
        -0.24166060984134674,
        0.30707699060440063,
        0.3270920515060425,
        0.2532690763473511,
        -0.25519561767578125,
        0.04273657128214836,
        -0.08538903295993805,
        -0.03703509643673897,
        -0.06905610859394073,
        -0.013024832122027874,
        0.055818814784288406,
        4.760016918182373,
        0.18536606431007385,
        0.3211689889431,
        -0.5207675099372864,
        -0.13184578716754913,
        1.4034119844436646,
        -1.6615227460861206,
        -0.14013652503490448,
        0.1702405959367752,
        -0.4814545512199402,
        0.3657887279987335
      ]
    },
    {
      "architecture": "normalization",
      "bias": [
        -0.10218331962823868,
        -0.029164377599954605,
        2.05808305508981e-06,
        -0.28955569863319397,
        -0.02492622472345829,
        0.00602034293115139,
        -0.09380891919136047,
        0.004623807035386562,
        -0.011693962849676609,
        -0.016630904749035835,
        -0.6325779557228088,
        -0.0298734400421381,
        -0.1317952573299408,
        -0.18560121953487396,
        -0.046254247426986694,
        -0.12694315612316132,
        -0.07843953371047974,
        -0.15083976089954376,
        -0.009079515933990479,
        3.800213016802445e-05,
        -0.003487691981717944,
        -0.11371224373579025,
        -0.06734071671962738,
        -0.0024956357665359974,
        -0.8089104890823364,
        -0.010101432912051678,
        -0.44187483191490173,
        -0.014868403784930706,
        -0.0053549353033304214,
        -0.04945332184433937,
        -0.2330213189125061,
        -0.3959539532661438,
        -0.008615477941930294,
        -0.14187224209308624,
        -0.08041250705718994,
        -0.11725445836782455,
        -0.07152734696865082,
        -0.7672080397605896,
        -0.06218802556395531,
        0.009807380847632885,
        -0.09495458006858826,
        -0.03046625480055809,
        -0.16324180364608765,
        -0.054714690893888474,
        -0.07100170850753784,
        -0.023278076201677322,
        -0.018001049757003784,
        -0.004110070411115885,
        -0.17580321431159973,
        -0.0851457267999649,
        -0.2986063063144684,
        -0.9927014708518982,
        -0.13807739317417145,
        -0.05877922847867012,
        -0.059018880128860474,
        -0.006216038018465042,
        -0.017841659486293793,
        0.01223078928887844,
        -2.961260179290548e-05,
        -0.06627491861581802,
        0.0025372058153152466,
        -0.09062749147415161,
        -0.011723455041646957,
        -0.04872843250632286
      ],
      "weights": [
        14.664767265319824,
        27.013290405273438,
        31.473894119262695,
        5.212061405181885,
        9.472432136535645,
        31.622774124145508,
        8.462363243103027,
        31.049585342407227,
        31.622774124145508,
        25.031774520874023,
        3.9007515907287598,
        13.050007820129395,
        7.9220428466796875,
        7.137712478637695,
        12.368553161621094,
        7.409736156463623,
        6.416563510894775,
        4.68138313293457,
        4.634477138519287,
        26.644392013549805,
        30.47134017944336,
        8.701916694641113,
        10.797419548034668,
        31.622774124145508,
        6.291848182678223,
        21.500892639160156,
        4.638919830322266,
        28.014604568481445,
        16.734216690063477,
        7.592310905456543,
        5.130897521972656,
        6.867856979370117,
        31.622774124145508,
        8.658454895019531,
        6.109049320220947,
        16.578022003173828,
        9.795502662658691,
        2.768866777420044,
        13.408909797668457,
        31.622774124145508,
        15.516845703125,
        14.196462631225586,
        7.796918869018555,
        13.547362327575684,
        11.712482452392578,
        13.141237258911133,
        19.154888153076172,
        38.08504104614258,
        8.076156616210938,
        13.957300186157227,
        3.9564716815948486,
        5.712656021118164,
        5.53444766998291,
        9.048421859741211,
        5.78283166885376,
        30.60232925415039,
        12.770187377929688,
        31.622774124145508,
        30.288650512695312,
        16.338409423828125,
        7.2267608642578125,
        8.43381118774414,
        31.622774124145508,
        19.076839447021484
      ]
    },
    {
      "activation": "rectified",
      "architecture": "dense",
      "bias": [
        -0.5235509276390076,
        -0.7994441390037537,
        -0.6418939828872681,
        0.5705783367156982,
        -1.0977799892425537,
        -0.4660162329673767,
        0.26896563172340393,
        -0.06503795087337494,
        -0.27634042501449585,
        -0.014148727059364319,
        -0.3105877637863159,
        -1.3262320756912231,
        -0.2467617690563202,
        -2.0788323879241943,
        -0.5887876749038696,
        -0.8951603770256042,
        0.0833916962146759,
        1.0751452445983887,
        0.334602952003479,
        -0.10781537741422653,
        -1.185484766960144,
        -0.27979177236557007,
        -0.3410770893096924,
        0.08821236342191696,
        -0.8105382919311523,
        -0.6591634750366211,
        -0.6620305776596069,
        -0.9694810509681702,
        -0.6590545773506165,
        0.022896988317370415,
        0.0923444926738739,
        -0.3863561153411865
      ],
      "weights": [
        0.14777429401874542,
        0.6016000509262085,
        0.020990878343582153,
        -0.33282220363616943,
        -0.1994781792163849,
        -0.5717785358428955,
        -0.17709234356880188,
        -0.48853379487991333,
        0.7275338172912598,
        0.09966530650854111,
        0.2343391329050064,
        -0.21386979520320892,
        0.44365984201431274,
        0.10913386195898056,
        -0.029916584491729736,
        -0.08777432888746262,
        -3.983335018157959,
        -0.5755525827407837,
        0.28802773356437683,
        0.032128870487213135,
        0.4944807291030884,
        0.8276110887527466,
        -0.3474430739879608,
        0.4947759807109833,
        0.013020091690123081,
        -0.09578144550323486,
        -0.5512903928756714,
        0.33600053191185,
        -0.0262779351323843,
        1.0162947177886963,
        -1.5788840055465698,
        0.31399303674697876,
        0.437140554189682,
        -0.1245802789926529,
        -0.49923330545425415,
        0.17037980258464813,
        1.4231163263320923,
        -0.20308199524879456,
        0.05060959234833717,
        -0.45304620265960693,
        -0.02910291776061058,
        -0.28668302297592163,
        -0.08137291669845581,
        -0.28179803490638733,
        0.7530401945114136,
        0.3493160307407379,
        0.4955531060695648,
        0.3979603946208954,
        -0.5530833005905151,
        0.06624026596546173,
        -0.03001718781888485,
        0.23781464993953705,
        -0.4196128845214844,
        0.6708458065986633,
        0.1636119931936264,
        0.546954333782196,
        0.5087683796882629,
        -0.3820841610431671,
        0.0014319882029667497,
        -0.5917479991912842,
        3.4786887168884277,
        0.21958361566066742,
        0.5402150750160217,
        1.0105475187301636,
        -0.14345908164978027,
        -0.06462658196687698,
        -0.03937471657991409,
        -0.4058774411678314,
        0.04408727586269379,
        -0.8869941830635071,
        0.31484687328338623,
        -0.27814048528671265,
        0.7420280575752258,
        0.5268934369087219,
        -0.2321842610836029,
        0.1382891982793808,
        -0.7742215991020203,
        -0.6609340310096741,
        -0.9663184881210327,
        0.0578598827123642,
        -0.5897068977355957,
        -0.17833806574344635,
        -0.5059361457824707,
        -0.012391176074743271,
        0.641379177570343,
        0.27750518918037415,
        -0.22220022976398468,
        0.6960412263870239,
        0.48899585008621216,
        0.4950108826160431,
        0.6682578921318054,
        0.7164183855056763,
        0.47216692566871643,
        -0.4747907817363739,
        0.21382291615009308,
        -0.0374283641576767,
        0.7353695034980774,
        -0.4466865360736847,
        0.4989927411079407,
        -1.1705306768417358,
        0.8231433033943176,
        -0.4782226085662842,
        -1.440071940422058,
        -0.8023611903190613,
        -0.5560272336006165,
        -1.1011106967926025,
        -0.12824895977973938,
        0.29059019684791565,
        0.3276617228984833,
        1.2519197463989258,
        -0.22901104390621185,
        -0.3817734718322754,
        0.09332464635372162,
        -0.019059225916862488,
        0.9130868315696716,
        0.08730587363243103,
        0.26502907276153564,
        0.15750765800476074,
        -0.13428522646427155,
        0.658318817615509,
        0.22966407239437103,
        -0.5757139325141907,
        -0.01088672410696745,
        0.15026627480983734,
        0.5955159664154053,
        -0.05473612993955612,
        0.6702819466590881,
        -0.7910892367362976,
        0.2652997374534607,
        0.2788310945034027,
        -0.011521060019731522,
        0.05749071389436722,
        -0.3933645486831665,
        -0.6788933873176575,
        0.02060866355895996,
        -0.24211907386779785,
        0.6100249886512756,
        -0.04103349149227142,
        0.0039842389523983,
        0.7361670732498169,
        -0.5686454772949219,
        -0.5511185526847839,
        0.14866091310977936,
        -0.1714666783809662,
        0.10209020227193832,
        -0.5434001088142395,
        -0.12100207060575485,
        -0.020516330376267433,
        0.22496825456619263,
        0.09439895302057266,
        0.31681984663009644,
        0.426353394985199,
        -0.1517680436372757,
        -0.20377466082572937,
        -0.07614921778440475,
        -0.4078841805458069,
        0.05537175014615059,
        0.0328303761780262,
        -0.7217363119125366,
        -0.12336890399456024,
        0.7746926546096802,
        -0.23651650547981262,
        -0.2804718315601349,
        0.3026905357837677,
        0.28398481011390686,
        0.13746695220470428,
        0.25254788994789124,
        -0.4799671471118927,
        -0.033720776438713074,
        0.5690791606903076,
        -0.5122337937355042,
        -0.6232512593269348,
        -0.2478725016117096,
        -0.2596784830093384,
        0.8551101088523865,
        -0.009198215790092945,
        -1.0245076417922974,
        0.6553214192390442,
        0.22986267507076263,
        -1.0423667430877686,
        0.029355380684137344,
        0.693543016910553,
        -0.10701092332601547,
        0.735491156578064,
        -0.3799610435962677,
        -0.6408374905586243,
        0.03074515238404274,
        0.07367824018001556,
        0.32128357887268066,
        0.11906108260154724,
        0.4581473767757416,
        -0.267121821641922,
        -0.23396210372447968,
        0.47381487488746643,
        0.022740092128515244,
        -0.745915412902832,
        -0.3172021508216858,
        0.634110152721405,
        0.2523481845855713,
        0.5765585899353027,
        -0.6229279637336731,
        -0.6191458702087402,
        0.027717825025320053,
        0.6193163394927979,
        0.0032007689587771893,
        0.2699430286884308,
        -0.11543496698141098,
        -0.24865657091140747,
        -0.2626364529132843,
        0.49402356147766113,
        -0.36176207661628723,
        0.013495695777237415,
        -0.7844060659408569,
        0.35812827944755554,
        -0.6546844244003296,
        -0.7238112092018127,
        0.17071597278118134,
        0.11138879507780075,
        0.24137866497039795,
        -0.7240117192268372,
        -0.32400861382484436,
        0.5696751475334167,
        0.2511746883392334,
        0.028576789423823357,
        -0.6827763915061951,
        -0.4408285915851593,
        0.42963337898254395,
        0.09869230538606644,
        0.7259253859519958,
        -0.23701345920562744,
        -0.20041272044181824,
        0.5804988741874695,
        -0.6167174577713013,
        -0.253172904253006,
        -0.660243570804596,
        -0.885492205619812,
        0.44426897168159485,
        0.35702088475227356,
        0.9743607044219971,
        -0.09715954214334488,
        0.22077813744544983,
        0.5880343317985535,
        0.4253770112991333,
        0.338760107755661,
        0.28948721289634705,
        -0.4557653069496155,
        -0.032629262655973434,
        -0.39274734258651733,
        -0.028775380924344063,
        0.7460249662399292,
        0.021723631769418716,
        0.31561821699142456,
        -0.47854727506637573,
        -0.1485271453857422,
        -0.6318117380142212,
        0.46435025334358215,
        1.118190884590149,
        -0.7547776699066162,
        0.042994678020477295,
        0.03362138569355011,
        -3.9949140548706055,
        -0.8756022453308105,
        0.41461023688316345,
        -0.5202394127845764,
        1.2373172044754028,
        -2.0418224334716797,
        0.008966570720076561,
        -0.013976069167256355,
        -0.866001307964325,
        0.22848905622959137,
        0.2115125060081482,
        -0.9325247406959534,
        0.6420310139656067,
        -0.47024744749069214,
        -0.27419596910476685,
        0.0647469311952591,
        0.6125349998474121,
        -0.8982082009315491,
        0.3121267557144165,
        1.015871524810791,
        0.4486713409423828,
        -1.3158154487609863,
        0.08763083070516586,
        -1.4679902791976929,
        -0.5637374520301819,
        0.455454558134079,
        -0.7268997430801392,
        0.1986701786518097,
        0.7913857102394104,
        -0.17964737117290497,
        0.7370465397834778,
        0.34080052375793457,
        0.7248685956001282,
        -0.34839963912963867,
        -2.171555519104004,
        -0.9181099534034729,
        0.8926551938056946,
        -0.6784310340881348,
        -0.4512280523777008,
        -0.5672590136528015,
        -1.2186708450317383,
        -0.8452657461166382,
        0.6130542755126953,
        -0.5010947585105896,
        0.2245996743440628,
        0.10165084898471832,
        -0.10187877714633942,
        0.9983034729957581,
        -0.006252811290323734,
        0.8438239097595215,
        0.16398343443870544,
        0.8844630718231201,
        -0.039167456328868866,
        -1.0274463891983032,
        -0.0004161687393207103,
        0.2054852694272995,
        0.39714446663856506,
        0.6278809905052185,
        1.301832914352417,
        -0.11427336186170578,
        0.0072815609164536,
        -0.33418551087379456,
        0.0011367072584107518,
        0.2781471312046051,
        -0.02446652203798294,
        -0.38221514225006104,
        0.5977493524551392,
        -0.04299356788396835,
        0.6162905693054199,
        0.11674822866916656,
        -0.29871201515197754,
        0.11657867580652237,
        0.657768189907074,
        0.11194393783807755,
        -1.047134280204773,
        0.06719958782196045,
        -0.691326379776001,
        0.8728113770484924,
        -0.453974187374115,
        -0.003018259536474943,
        0.2580181062221527,
        0.15274706482887268,
        -0.1941012442111969,
        0.30383893847465515,
        0.27906158566474915,
        -0.5258803367614746,
        -0.04080063849687576,
        0.2759743630886078,
        -1.066868782043457,
        0.10572803020477295,
        -0.014410060830414295,
        0.30396756529808044,
        0.619933545589447,
        -0.48165440559387207,
        0.3455599546432495,
        0.718758761882782,
        0.5573312640190125,
        -0.025346996262669563,
        -0.22025711834430695,
        -0.4703163802623749,
        0.693617582321167,
        0.23932701349258423,
        -0.03051755204796791,
        0.5529450178146362,
        -1.8364976644515991,
        -0.0898229330778122,
        -0.5122321844100952,
        -0.1896689385175705,
        -0.22656318545341492,
        -1.5399022102355957,
        -0.17782652378082275,
        -0.10540789365768433,
        0.37326571345329285,
        -0.205299511551857,
        -1.2040733098983765,
        0.3517679274082184,
        -0.49918079376220703,
        -0.46692830324172974,
        0.018260573968291283,
        -0.6163415908813477,
        0.4988163411617279,
        0.4268072843551636,
        0.4635639190673828,
        0.15710796415805817,
        0.6019501686096191,
        0.9431295394897461,
        -0.02224353514611721,
        -0.47585660219192505,
        -0.21230944991111755,
        0.3837895691394806,
        0.00681103253737092,
        0.4177701473236084,
        -0.0918898805975914,
        0.5095785856246948,
        0.16214218735694885,
        0.633231520652771,
        -0.07407251000404358,
        -0.056203123182058334,
        0.46011024713516235,
        -0.3739244341850281,
        -0.40835660696029663,
        0.5421730279922485,
        -0.33941754698753357,
        0.01420136820524931,
        -0.4193560779094696,
        -0.16003960371017456,
        0.47419318556785583,
        -0.13413554430007935,
        -0.3101693093776703,
        -0.07778459042310715,
        -0.09765681624412537,
        0.38476353883743286,
        0.09743169695138931,
        -0.8400595784187317,
        -0.2084694653749466,
        -0.1909656524658203,
        -0.31705036759376526,
        0.482806533575058,
        0.22355593740940094,
        0.5681036710739136,
        -0.797321617603302,
        -0.2533658444881439,
        0.07951619476079941,
        0.4700084626674652,
        -0.6051782369613647,
        -0.37649065256118774,
        -0.24262204766273499,
        -0.4041077494621277,
        0.875581681728363,
        0.7127740979194641,
        -0.06015125662088394,
        0.17945407330989838,
        0.20449045300483704,
        0.12647745013237,
        0.5509849190711975,
        -0.23582898080348969,
        -0.33523720502853394,
        -0.4729336202144623,
        -0.021525144577026367,
        -0.15320880711078644,
        0.9421569108963013,
        0.46464407444000244,
        0.013764063827693462,
        -0.3805762827396393,
        1.3063163757324219,
        0.679253339767456,
        -0.4627470374107361,
        0.6374016404151917,
        0.11506033688783646,
        0.45912641286849976,
        -0.024892469868063927,
        0.5903003811836243,
        -0.2637622356414795,
        0.04016556963324547,
        0.43121328949928284,
        0.07498162984848022,
        0.2056962102651596,
        -0.002097039483487606,
        0.03888804465532303,
        -0.7060248255729675,
        0.28550148010253906,
        0.9269810914993286,
        -0.1225757971405983,
        0.44852784276008606,
        -0.0611058734357357,
        -0.4959302544593811,
        0.9864417910575867,
        -0.021297870203852654,
        0.22467203438282013,
        0.6661390662193298,
        -1.5627853870391846,
        0.20112770795822144,
        1.0433932542800903,
        0.3528146743774414,
        0.25273263454437256,
        0.011390279047191143,
        0.1011570617556572,
        -0.23320594429969788,
        -0.08803101629018784,
        -0.2272651046514511,
        0.12722545862197876,
        -0.03165334090590477,
        0.10168972611427307,
        -0.5099402070045471,
        0.5814453363418579,
        -0.17085619270801544,
        0.19639790058135986,
        0.0027651283890008926,
        0.1777462363243103,
        -0.28564953804016113,
        0.6208479404449463,
        -0.11761771142482758,
        0.7104316353797913,
        1.5112535953521729,
        -0.8497113585472107,
        -0.021794751286506653,
        0.2684750258922577,
        0.07191857695579529,
        -0.08151629567146301,
        0.03390116989612579,
        0.09575959295034409,
        0.22211985290050507,
        0.09117821604013443,
        -0.07973677664995193,
        -1.425806999206543,
        -0.2746935784816742,
        -0.01610775664448738,
        -0.3277619481086731,
        0.4788399636745453,
        -0.14571607112884521,
        0.02929968759417534,
        0.625869631767273,
        0.47085756063461304,
        0.6270256042480469,
        -0.002227860502898693,
        -0.3724784553050995,
        0.8536136746406555,
        -0.28872278332710266,
        -0.13915155827999115,
        -0.07183592766523361,
        0.276530921459198,
        -1.7127009630203247,
        -0.47208791971206665,
        -0.006991000846028328,
        0.3461960256099701,
        0.1772141456604004,
        -0.063571497797966,
        0.09437847137451172,
        -0.34026047587394714,
        -0.08954841643571854,
        -0.37682998180389404,
        -0.01114002987742424,
        0.2541888952255249,
        0.5995984673500061,
        0.7154580950737,
        0.066547691822052,
        0.3037489354610443,
        -1.1561369895935059,
        0.04270028695464134,
        0.25745755434036255,
        0.07853695750236511,
        -0.9378662705421448,
        0.15453700721263885,
        -0.1733662635087967,
        0.28080204129219055,
        -0.30754896998405457,
        -0.40838900208473206,
        -0.8477650880813599,
        -0.39170384407043457,
        -0.26586851477622986,
        0.16630356013774872,
        -0.43416979908943176,
        0.7784802913665771,
        0.2567020058631897,
        -0.7832622528076172,
        0.06043706089258194,
        -0.6968510150909424,
        -0.342923104763031,
        0.44054362177848816,
        0.13700230419635773,
        0.09818587452173233,
        0.12807977199554443,
        -0.41680318117141724,
        -0.3827502727508545,
        -0.7803466320037842,
        0.11966901272535324,
        0.20687982439994812,
        0.3344677984714508,
        0.6895365118980408,
        -0.3311825096607208,
        0.014046953991055489,
        0.34144628047943115,
        -0.3574143052101135,
        0.052546508610248566,
        0.17108525335788727,
        0.36231309175491333,
        0.2186836153268814,
        -0.20161083340644836,
        0.001274478854611516,
        0.10131944715976715,
        -0.2211993783712387,
        -0.1114935427904129,
        -0.30578863620758057,
        -0.012620151042938232,
        0.13266369700431824,
        -0.3990984559059143,
        0.28136393427848816,
        0.21422874927520752,
        -0.3293299973011017,
        0.3707376718521118,
        -0.020508235320448875,
        0.49848952889442444,
        0.311137855052948,
        -0.10999701917171478,
        0.13526572287082672,
        0.006030377000570297,
        -0.015699107199907303,
        -0.39797693490982056,
        -0.6660588383674622,
        -0.2391139417886734,
        -0.5122467875480652,
        -0.5496927499771118,
        -0.32530879974365234,
        -0.2559855282306671,
        0.1513766199350357,
        -0.27297407388687134,
        0.0969121903181076,
        -0.32159629464149475,
        -0.2729319632053375,
        -0.3474486470222473,
        0.22281163930892944,
        -0.4920494556427002,
        0.08851967751979828,
        0.13542985916137695,
        -0.06860470026731491,
        0.13281570374965668,
        0.04678482189774513,
        0.613142728805542,
        -0.12399046868085861,
        0.10965258628129959,
        -0.1321815550327301,
        -0.24767325818538666,
        0.009995733387768269,
        0.022568976506590843,
        0.5940674543380737,
        -0.4409782886505127,
        0.16108790040016174,
        0.370217502117157,
        -0.15178737044334412,
        -0.851525604724884,
        -0.045356154441833496,
        -0.05079885572195053,
        -0.3028566837310791,
        0.09089401364326477,
        0.004474592860788107,
        0.5596494674682617,
        -0.18716782331466675,
        -0.3054039776325226,
        -0.14434082806110382,
        -0.15539026260375977,
        -0.6293459534645081,
        0.30273717641830444,
        0.02127627655863762,
        -0.48530733585357666,
        -1.3531091213226318,
        -0.29364386200904846,
        -0.08935750275850296,
        -0.16707362234592438,
        0.25665587186813354,
        -0.06812556087970734,
        -0.370990514755249,
        0.4091669023036957,
        -0.31585657596588135,
        0.013597487471997738,
        0.6625466346740723,
        -0.4362880289554596,
        0.04193922132253647,
        -0.43965840339660645,
        0.129799947142601,
        0.018293416127562523,
        0.13329413533210754,
        -0.6085478067398071,
        -0.008132429793477058,
        0.4380563497543335,
        0.01199426967650652,
        0.3823048770427704,
        0.7595765590667725,
        -0.7866611480712891,
        0.3180120587348938,
        2.0547266006469727,
        0.12211308628320694,
        0.15646815299987793,
        0.30003491044044495,
        -0.16676725447177887,
        -0.03771068900823593,
        -0.1501341462135315,
        0.12197911739349365,
        -0.031846653670072556,
        -0.45675575733184814,
        -0.18801626563072205,
        -0.25456997752189636,
        0.3895244896411896,
        -0.36864539980888367,
        -0.42352065443992615,
        0.20852799713611603,
        0.095522940158844,
        0.6521651744842529,
        -0.5912456512451172,
        -1.783986210823059,
        0.5679636001586914,
        0.09788849204778671,
        -0.08204826712608337,
        -0.021650103852152824,
        -0.12750156223773956,
        -0.14677563309669495,
        0.30904528498649597,
        0.001564915175549686,
        -0.12163527309894562,
        0.017775611951947212,
        0.6195847392082214,
        0.08318718522787094,
        0.5926825404167175,
        0.3743646442890167,
        -0.20521695911884308,
        -0.27490586042404175,
        -0.23947085440158844,
        0.0013975135516375303,
        -0.35450485348701477,
        0.7081087827682495,
        -0.9772971272468567,
        0.6652445793151855,
        -0.7444351315498352,
        1.1426854133605957,
        0.1695573329925537,
        -0.4168550670146942,
        -0.033590950071811676,
        -0.8573915362358093,
        -0.6289108991622925,
        -0.8060438632965088,
        0.09095561504364014,
        -0.15243442356586456,
        0.012159638106822968,
        -0.09667418152093887,
        -0.00095285166753456,
        0.9105536937713623,
        -0.07536395639181137,
        -0.034286949783563614,
        1.1202577352523804,
        0.544066309928894,
        0.17936749756336212,
        -1.397210717201233,
        -0.05892898142337799,
        0.44536951184272766,
        0.4099646210670471,
        0.0615382194519043,
        0.6548938751220703,
        1.2407070398330688,
        -0.25375276803970337,
        0.41558530926704407,
        0.07919571548700333,
        0.01413669902831316,
        0.42635685205459595,
        0.2717079520225525,
        -1.378235936164856,
        -0.11059056222438812,
        -0.10480444133281708,
        0.4095635414123535,
        -0.31914880871772766,
        0.31505540013313293,
        0.06315384805202484,
        -0.4304143190383911,
        0.07426656037569046,
        0.3304443657398224,
        0.39937424659729004,
        0.06825936585664749,
        0.2758995592594147,
        0.5076269507408142,
        -1.4528682231903076,
        -0.0771854817867279,
        1.088021993637085,
        0.2647402882575989,
        -1.4890007972717285,
        0.013278181664645672,
        0.27663367986679077,
        -3.6494154930114746,
        -0.1817888617515564,
        1.1752305030822754,
        0.09088747948408127,
        -0.32280072569847107,
        -0.7290729880332947,
        0.010931355878710747,
        -0.24207721650600433,
        -0.12136496603488922,
        -0.17537812888622284,
        -0.075938381254673,
        -0.09281328320503235,
        0.47133007645606995,
        0.17643554508686066,
        -0.4429824650287628,
        -0.23391664028167725,
        -0.4483526051044464,
        0.12359599024057388,
        0.632115364074707,
        0.5090852975845337,
        -1.048812747001648,
        -1.3686256408691406,
        0.5016773343086243,
        0.0048645008355379105,
        0.09772839397192001,
        0.34647902846336365,
        -0.72628253698349,
        0.17459814250469208,
        -0.0761353075504303,
        0.9837372899055481,
        -0.5732395648956299,
        -0.2643347382545471,
        -0.0970979630947113,
        0.5672110915184021,
        -0.7662191987037659,
        0.11115527898073196,
        0.28736796975135803,
        0.20685064792633057,
        -0.10961376875638962,
        0.191573366522789,
        0.3739265203475952,
        0.18678508698940277,
        -0.300439715385437,
        -0.15587586164474487,
        0.009297458454966545,
        -0.09602761268615723,
        0.23634272813796997,
        -0.20102965831756592,
        -0.13962775468826294,
        1.0952733755111694,
        -0.43673381209373474,
        -0.5679289102554321,
        0.4940513074398041,
        0.5727031826972961,
        -0.46284857392311096,
        0.4545406699180603,
        -0.6116030216217041,
        1.8509175777435303,
        -0.0999056026339531,
        0.2862798571586609,
        0.3678709864616394,
        -0.1898430734872818,
        -0.033674854785203934,
        -0.37897932529449463,
        2.422417163848877,
        0.13501225411891937,
        0.3906698524951935,
        -0.6515028476715088,
        -0.07088898122310638,
        0.08588239550590515,
        0.04916726052761078,
        0.01700698398053646,
        0.8643476366996765,
        -1.9634722471237183,
        1.3610044717788696,
        -1.632187008857727,
        2.2306602001190186,
        0.3376481831073761,
        0.08142542093992233,
        0.15658189356327057,
        -0.10681860893964767,
        -0.41029977798461914,
        0.7935943603515625,
        0.19168488681316376,
        -0.1287762075662613,
        -0.017442522570490837,
        -0.644178569316864,
        0.055336326360702515,
        1.6320645809173584,
        -0.2762249708175659,
        0.34623223543167114,
        1.7004445791244507,
        -0.3648504912853241,
        0.5725470185279846,
        0.42819860577583313,
        0.5302935838699341,
        0.18004806339740753,
        0.006695629097521305,
        0.07025996595621109,
        0.42626017332077026,
        2.110978603363037,
        -0.2355470508337021,
        2.1936113834381104,
        0.43738627433776855,
        0.9997332692146301,
        0.009085295721888542,
        0.1593746840953827,
        -2.1133148670196533,
        0.7056658864021301,
        0.007704375311732292,
        -0.30857351422309875,
        0.017037779092788696,
        0.32607001066207886,
        1.3081493377685547,
        0.3287033438682556,
        0.7795761823654175,
        0.053813591599464417,
        -0.9819145798683167,
        0.1452065259218216,
        0.11623048782348633,
        1.2947455644607544,
        0.3989281952381134,
        -0.16793474555015564,
        1.902895212173462,
        0.3035034239292145,
        -2.2530455589294434,
        -0.06605405360460281,
        0.11387158930301666,
        -0.09691160172224045,
        0.04621399939060211,
        2.1316676139831543,
        0.04789008945226669,
        0.02822083793580532,
        -0.4392104148864746,
        -0.0011031462345272303,
        -0.0646129846572876,
        -1.2503533363342285,
        -0.27971625328063965,
        -0.04165007546544075,
        -0.15462735295295715,
        0.4860755205154419,
        -0.0013793206308037043,
        0.3163003921508789,
        -0.4534452259540558,
        -0.04334370419383049,
        -0.3658755421638489,
        -0.3125680685043335,
        0.09036095440387726,
        0.2155567705631256,
        -0.7596957683563232,
        -0.629345715045929,
        -0.0015720126684755087,
        0.1636090874671936,
        -0.05179267004132271,
        0.19294743239879608,
        0.2303595393896103,
        0.21579840779304504,
        -0.025917058810591698,
        0.16441811621189117,
        -0.03037160448729992,
        -0.6944258809089661,
        -1.8312138319015503,
        -0.22953791916370392,
        0.06324667483568192,
        0.4445215165615082,
        -0.05095022916793823,
        0.1944044530391693,
        0.0911034569144249,
        0.173028364777565,
        -0.07522057741880417,
        0.03054971620440483,
        -0.5644164085388184,
        -0.08628223091363907,
        0.2069016993045807,
        0.18014483153820038,
        0.05416109412908554,
        -0.16943156719207764,
        0.12355378270149231,
        0.005429620388895273,
        0.09918045997619629,
        0.3379155993461609,
        -0.0783533900976181,
        0.12000937759876251,
        0.08393539488315582,
        -0.10837949067354202,
        0.7531843781471252,
        0.15008851885795593,
        0.40356576442718506,
        -0.1892034113407135,
        -0.6665623784065247,
        0.0019036476733163,
        -0.030987504869699478,
        0.3316285014152527,
        0.08489813655614853,
        0.47911497950553894,
        -0.049724992364645004,
        0.273379385471344,
        -0.0014989885967224836,
        -0.012722852639853954,
        -1.4115126132965088,
        -0.30632853507995605,
        -0.9750750064849854,
        0.4927717447280884,
        -0.5894703269004822,
        0.7106544971466064,
        -1.0381420850753784,
        -0.3837626874446869,
        0.9420022368431091,
        -0.2695067822933197,
        -0.029390238225460052,
        0.925408661365509,
        -1.2575385570526123,
        0.20411480963230133,
        -0.5167328715324402,
        -1.2408405542373657,
        -0.00302080437541008,
        0.44436922669410706,
        0.10088896006345749,
        -1.1721309423446655,
        0.5696921348571777,
        -0.16058103740215302,
        -1.1013327836990356,
        -0.035093531012535095,
        -0.3057287335395813,
        0.6953112483024597,
        0.4028143584728241,
        0.7615134119987488,
        0.39439475536346436,
        0.6873045563697815,
        0.24136479198932648,
