{
  "input_sequences": [],
  "inputs": [
    {
      "name": "node_0",
      "variables": [
        {
          "name": "hitX1",
          "offset": 0,
          "scale": 1
        },
        {
          "name": "hitX2",
          "offset": 0,
          "scale": 1
        },
        {
          "name": "hitX3",
          "offset": 0,
          "scale": 1
        },
        {
          "name": "hitX4",
          "offset": 0,
          "scale": 1
        },
        {
          "name": "hitX5",
          "offset": 0,
          "scale": 1
        },
        {
          "name": "hitX6",
          "offset": 0,
          "scale": 1
        },
        {
          "name": "hitX7",
          "offset": 0,
          "scale": 1
        },
        {
          "name": "hitX8",
          "offset": 0,
          "scale": 1
        },
        {
          "name": "hitX9",
          "offset": 0,
          "scale": 1
        },
        {
          "name": "hitX10",
          "offset": 0,
          "scale": 1
        },
        {
          "name": "hitX11",
          "offset": 0,
          "scale": 1
        },
        {
          "name": "hitY1",
          "offset": 0,
          "scale": 1
        },
        {
          "name": "hitY2",
          "offset": 0,
          "scale": 1
        },
        {
          "name": "hitY3",
          "offset": 0,
          "scale": 1
        },
        {
          "name": "hitY4",
          "offset": 0,
          "scale": 1
        },
        {
          "name": "hitY5",
          "offset": 0,
          "scale": 1
        },
        {
          "name": "hitY6",
          "offset": 0,
          "scale": 1
        },
        {
          "name": "hitY7",
          "offset": 0,
          "scale": 1
        },
        {
          "name": "hitY8",
          "offset": 0,
          "scale": 1
        },
        {
          "name": "hitY9",
          "offset": 0,
          "scale": 1
        },
        {
          "name": "hitY10",
          "offset": 0,
          "scale": 1
        },
        {
          "name": "hitY11",
          "offset": 0,
          "scale": 1
        },
        {
          "name": "hitZ1",
          "offset": 0,
          "scale": 1
        },
        {
          "name": "hitZ2",
          "offset": 0,
          "scale": 1
        },
        {
          "name": "hitZ3",
          "offset": 0,
          "scale": 1
        },
        {
          "name": "hitZ4",
          "offset": 0,
          "scale": 1
        },
        {
          "name": "hitZ5",
          "offset": 0,
          "scale": 1
        },
        {
          "name": "hitZ6",
          "offset": 0,
          "scale": 1
        },
        {
          "name": "hitZ7",
          "offset": 0,
          "scale": 1
        },
        {
          "name": "hitZ8",
          "offset": 0,
          "scale": 1
        },
        {
          "name": "hitZ9",
          "offset": 0,
          "scale": 1
        },
        {
          "name": "hitZ10",
          "offset": 0,
          "scale": 1
        },
        {
          "name": "hitZ11",
          "offset": 0,
          "scale": 1
        }
      ]
    }
  ],
  "layers": [
    {
      "activation": "rectified",
      "architecture": "dense",
      "bias": [
        -0.32653307914733887,
        0.0,
        0.1322934776544571,
        0.0,
        0.11876903474330902,
        -0.4237799346446991,
        0.054535966366529465,
        -0.031498342752456665,
        0.0,
        0.3015417754650116,
        0.030156245455145836,
        0.5075337290763855,
        -0.04301929846405983,
        0.0,
        0.07555213570594788,
        0.4744073450565338,
        -0.289627343416214,
        0.0,
        -0.07054144889116287,
        0.0,
        0.0470418781042099,
        0.02297929860651493,
        0.0,
        0.0,
        0.136504665017128,
        0.0,
        -0.008146867156028748,
        -0.18366415798664093,
        -0.10737519711256027,
        0.0706038847565651,
        0.03175042197108269,
        -0.18884997069835663,
        0.2958771288394928,
        -0.02990238182246685,
        -0.0008764131343923509,
        0.0,
        -0.045851413160562515,
        -0.10931310057640076,
        0.5842129588127136,
        0.0,
        0.4326198399066925,
        0.012639397755265236,
        -0.021401848644018173,
        -0.06618224829435349,
        -0.6855276226997375,
        0.12987349927425385,
        0.0,
        -0.40233245491981506,
        -0.03614188730716705,
        -0.08667267858982086,
        0.011817734688520432,
        0.1281999796628952,
        -0.010408133268356323,
        0.011558729223906994,
        0.30486878752708435,
        -0.1694568693637848,
        0.0,
        0.029607312753796577,
        -0.22589771449565887,
        -0.019019266590476036,
        -0.1355087161064148,
        -0.11679314821958542,
        -0.3132650852203369,
        0.0
      ],
      "weights": [
        -0.2650264501571655,
        1.0020898580551147,
        0.2633136212825775,
        -0.2392275631427765,
        -0.4860636293888092,
        0.19514234364032745,
        0.11972299963235855,
        -0.0758114606142044,
        0.017289822921156883,
        -0.022734619677066803,
        -0.00665223179385066,
        0.12393230199813843,
        0.06799568980932236,
        0.2228650599718094,
        0.32388177514076233,
        -0.17299270629882812,
        0.1434348225593567,
        0.05901050567626953,
        -0.10025667399168015,
        0.027711698785424232,
        -0.6032477021217346,
        0.10569595545530319,
        6.61396598815918,
        5.291302680969238,
        0.4525791108608246,
        -1.610846996307373,
        -1.252699851989746,
        -1.2145479917526245,
        -2.7259182929992676,
        -4.949453353881836,
        -1.9740480184555054,
        -0.00747819896787405,
        0.5413585305213928,
        0.10274003446102142,
        0.1880626231431961,
        -0.12113520503044128,
        0.031286850571632385,
        0.14920775592327118,
        -0.18998579680919647,
        -0.042385101318359375,
        0.2039666324853897,
        0.012980148196220398,
        -0.06242775917053223,
        0.1645507663488388,
        -0.22606664896011353,
        0.12767721712589264,
        -0.22851447761058807,
        -0.2399393916130066,
        -0.24642957746982574,
        0.008078321814537048,
        -0.05399833619594574,
        0.21916119754314423,
        -0.1690054088830948,
        0.0027033835649490356,
        0.08225132524967194,
        -0.15232817828655243,
        -0.049980223178863525,
        -0.18961399793624878,
        0.24447230994701385,
        -0.10477924346923828,
        0.21305395662784576,
        -0.03721924126148224,
        -0.013205647468566895,
        0.23982582986354828,
        -0.023427322506904602,
        0.18933655321598053,
        -0.20601384341716766,
        0.12862609326839447,
        0.0436253659427166,
        0.3604733645915985,
        -0.2659264802932739,
        0.0320957712829113,
        -0.049624793231487274,
        -0.059450652450323105,
        0.14453458786010742,
        -0.009354171343147755,
        0.03699648380279541,
        1.8942495584487915,
        0.9602546095848083,
        -0.22828541696071625,
        -1.797636866569519,
        -0.8209285140037537,
        -0.0819215178489685,
        0.051750265061855316,
        0.6946710348129272,
        0.0047486694529652596,
        0.03660948947072029,
        0.06367749720811844,
        -5.153162956237793,
        -0.836494505405426,
        -1.6544182300567627,
        1.1567425727844238,
        2.7814784049987793,
        1.5689365863800049,
        1.1855930089950562,
        1.0295746326446533,
        -0.5929756164550781,
        -0.8042770028114319,
        -2.2936787605285645,
        0.2356477528810501,
        -0.2390470951795578,
        0.0351877361536026,
        0.24426306784152985,
        -0.2189941704273224,
        -0.24708350002765656,
        -0.0442022979259491,
        0.12216074764728546,
        -0.16004380583763123,
        -0.21024887263774872,
        0.029097214341163635,
        0.1258362978696823,
        0.2320380061864853,
        -0.19326163828372955,
        -0.09253804385662079,
        -0.18133306503295898,
        -0.10135343670845032,
        -0.058023154735565186,
        -0.03657230734825134,
        0.04156087338924408,
        -0.04216836392879486,
        -0.16188916563987732,
        0.1332581490278244,
        0.17339317500591278,
        -0.11637759208679199,
        -0.08167271316051483,
        0.13937614858150482,
        0.10658065974712372,
        -0.23412548005580902,
        0.027130261063575745,
        0.1397317498922348,
        -0.23022767901420593,
        -0.17638978362083435,
        0.11514074355363846,
        0.0017112069763243198,
        0.25933733582496643,
        -0.1562943458557129,
        0.1362764835357666,
        -0.21834738552570343,
        0.22432121634483337,
        -0.23941372334957123,
        0.15642838180065155,
        -0.012392955832183361,
        -0.022698452696204185,
        0.098102867603302,
        -0.1979283094406128,
        0.10271690040826797,
        2.0139424800872803,
        -0.6336550116539001,
        -1.016502857208252,
        -0.04004720225930214,
        0.07811297476291656,
        -0.03815745562314987,
        0.011938638053834438,
        -0.3619123697280884,
        0.23108233511447906,
        2.291985273361206,
        1.8229176998138428,
        2.383552074432373,
        -2.515881061553955,
        -3.2799220085144043,
        -0.2388789802789688,
        -0.24706344306468964,
        -0.42748358845710754,
        -0.06465747952461243,
        -1.5570400953292847,
        0.2130327969789505,
        0.19655568897724152,
        -0.40043872594833374,
        -0.2661305069923401,
        0.08964058756828308,
        0.008707987144589424,
        0.18728557229042053,
        -0.11098872870206833,
        0.11394832283258438,
        -0.029579678550362587,
        0.05324755981564522,
        -0.5142331719398499,
        -0.027425728738307953,
        -0.08101435750722885,
        -0.24043767154216766,
        0.11197209358215332,
        0.41653189063072205,
        0.07166950404644012,
        -0.2197011113166809,
        0.037760958075523376,
        -0.0244850255548954,
        0.03610282391309738,
        5.511171340942383,
        4.290843963623047,
        2.438403367996216,
        1.5217225551605225,
        -0.7334074974060059,
        -0.24266137182712555,
        -0.8560157418251038,
        -2.9671404361724854,
        -0.06694039702415466,
        -0.0007553004543296993,
        -0.4796106815338135,
        0.463468462228775,
        0.08757944405078888,
        -0.03208169341087341,
        -0.03902456536889076,
        -0.10725872963666916,
        0.10195606201887131,
        0.008194333873689175,
        -0.02818661369383335,
        0.00670133251696825,
        -0.008665366098284721,
        -0.01904221810400486,
        -0.20444674789905548,
        -0.06665799021720886,
        0.03545481339097023,
        0.07934819906949997,
        0.05005201697349548,
        0.12213996052742004,
        -0.05258774757385254,
        -0.0052987015806138515,
        -0.01641715131700039,
        -0.010670388117432594,
        0.004752577282488346,
        0.32695072889328003,
        -2.3399033546447754,
        -1.35358726978302,
        3.337771415710449,
        3.894829750061035,
        -3.846318006515503,
        -1.3723489046096802,
        1.1134828329086304,
        0.1316661685705185,
        0.4198276400566101,
        -0.3399558663368225,
        -0.20547915995121002,
        0.4018170237541199,
        0.09658968448638916,
        -0.14347058534622192,
        0.009537448175251484,
        0.19827677309513092,
        -0.07719346135854721,
        0.0014504670398309827,
        -0.03528904914855957,
        -0.08240874111652374,
        -0.2539300322532654,
        0.27234792709350586,
        -0.042706236243247986,
        0.1174127459526062,
        -0.13723747432231903,
        1.1732057332992554,
        -0.6105759143829346,
        -0.21076038479804993,
        -0.13956572115421295,
        0.18071040511131287,
        -0.15796412527561188,
        0.20609807968139648,
        -4.415225505828857,
        2.5900161266326904,
        2.1329517364501953,
        0.1905626803636551,
        4.739989757537842,
        -1.4696940183639526,
        -3.0566213130950928,
        -1.3365683555603027,
        0.03048800118267536,
        -0.9720373749732971,
        1.4679704904556274,
        0.1797822266817093,
        0.23770083487033844,
        -0.13249993324279785,
        0.21944470703601837,
        -0.06703130900859833,
        0.11760716140270233,
        0.1262676864862442,
        0.032146111130714417,
        0.12064148485660553,
        -0.1647794544696808,
        -0.04966096580028534,
        0.05836956202983856,
        0.03507630527019501,
        0.07719729840755463,
        0.08118121325969696,
        -0.1863701194524765,
        -0.17087627947330475,
        0.04493911564350128,
        -0.19931712746620178,
        0.12711893022060394,
        -0.0943320095539093,
        0.08456341922283173,
        -0.08615180850028992,
        -0.11234714090824127,
        0.03607244789600372,
        -0.1661340296268463,
        0.015780553221702576,
        -0.0660746842622757,
        0.08697815239429474,
        0.07605840265750885,
        -5.811452865600586e-06,
        0.0692640095949173,
        0.2147381454706192,
        -0.058112647384405136,
        -3.6168293952941895,
        -2.3084535598754883,
        1.9444735050201416,
        1.6190953254699707,
        -0.5309413075447083,
        0.40247252583503723,
        -0.5958539247512817,
        0.08631574362516403,
        0.17264702916145325,
        -0.084748275578022,
        -0.0747397392988205,
        -0.0710296630859375,
        -0.0019185321871191263,
        0.3175170421600342,
        -1.0486869812011719,
        -0.02496105618774891,
        -0.4243704080581665,
        -0.17268113791942596,
        -0.2966453731060028,
        0.2534598112106323,
        0.40530237555503845,
        -4.325768947601318,
        -2.3572452068328857,
        -0.6784765720367432,
        0.16535168886184692,
        2.850432872772217,
        0.320088267326355,
        4.723440170288086,
        1.1914931535720825,
        0.48495444655418396,
        -1.0910946130752563,
        -2.0754098892211914,
        0.8989797830581665,
        -0.08186274766921997,
        0.03463055565953255,
        -0.09934037178754807,
        0.01378883421421051,
        0.032720934599637985,
        0.002930693095549941,
        -0.016586164012551308,
        0.00037783809239044785,
        0.0003895866684615612,
        0.0076513043604791164,
        1.0780171155929565,
        -1.025484323501587,
        -0.0017745556542649865,
        0.028080489486455917,
        0.01322594191879034,
        0.022307006642222404,
        0.006157557014375925,
        0.005138676147907972,
        -0.0017745702061802149,
        0.005371755920350552,
        0.013415850698947906,
        -8.397733688354492,
        9.669024467468262,
        0.23932603001594543,
        -0.8704630732536316,
        0.29517021775245667,
        -0.5711529850959778,
        0.011792927049100399,
        -0.23565055429935455,
        0.02367330528795719,
        -0.10463543236255646,
        -0.15178100764751434,
        0.8295266032218933,
        0.3628558814525604,
        0.07515622675418854,
        0.08445440232753754,
        -0.14391985535621643,
        0.13439762592315674,
        -0.019564004614949226,
        -0.06044083833694458,
        0.05990544334053993,
        0.018596850335597992,
        -0.10094427317380905,
        0.061510343104600906,
        -0.1512116938829422,
        0.005464371293783188,
        -0.1511833518743515,
        0.06803087145090103,
        -0.04820330813527107,
        0.10565447062253952,
        0.04261643812060356,
        0.049371134489774704,
        -0.03725385293364525,
        0.017234789207577705,
        5.662754058837891,
        -7.257489204406738,
        0.7449504137039185,
        0.1955775022506714,
        -1.6173315048217773,
        2.199629306793213,
        -0.34689903259277344,
        0.2549058794975281,
        -0.2934439182281494,
        0.4366799294948578,
        0.052478015422821045,
        -0.8009302616119385,
        -0.33928653597831726,
        0.07019687443971634,
        0.04347013309597969,
        0.03060932643711567,
        -0.011241118423640728,
        0.018994165584445,
        -0.021952254697680473,
        0.0005412177415564656,
        -0.03586437553167343,
        0.056450337171554565,
        -0.5460529923439026,
        0.15807485580444336,
        0.8351185321807861,
        0.03000757284462452,
        0.015366537496447563,
        0.01537443045526743,
        -0.027630632743239403,
        -0.10032282024621964,
        -0.0012572476407513022,
        -0.012984869070351124,
        -0.008788708597421646,
        -8.326321601867676,
        1.0192170143127441,
        9.684203147888184,
        -0.09932025521993637,
        -0.5856359601020813,
        -0.4240821599960327,
        -0.16089193522930145,
        -0.9813331365585327,
        -0.04972270131111145,
        -0.2862940728664398,
        0.06137198209762573,
        -0.1935301274061203,
        -0.007765725255012512,
        -0.09585942327976227,
        0.0485549122095108,
        -0.19980376958847046,
        0.07089324295520782,
        -0.16805583238601685,
        -0.06522175669670105,
        0.09158895909786224,
        -0.1124851256608963,
        0.12031583487987518,
        -0.021638870239257812,
        -0.23102645576000214,
        -0.11559529602527618,
        -0.11753861606121063,
        0.13409917056560516,
        -0.2304653376340866,
        0.00018927454948425293,
        -0.06587615609169006,
        -0.2010798305273056,
        0.16799505054950714,
        -0.19287632405757904,
        0.06497739255428314,
        0.20638741552829742,
        -0.028150111436843872,
        -0.20991580188274384,
        -0.2418157160282135,
        0.10418929159641266,
        0.04964981973171234,
        -0.09399306774139404,
        -0.06211604177951813,
        -0.23294061422348022,
        -0.2155134528875351,
        -0.007229912094771862,
        0.5629290342330933,
        0.3640875816345215,
        -0.464983731508255,
        -0.3018799424171448,
        0.6154612898826599,
        -0.10547830164432526,
        -0.11437702924013138,
        -0.14020158350467682,
        0.1627471148967743,
        0.08074869960546494,
        -0.3556380569934845,
        0.07111839205026627,
        0.025249511003494263,
        0.06655996292829514,
        0.23349207639694214,
        0.6603145003318787,
        -0.013698069378733635,
        -0.685702919960022,
        0.04543907195329666,
        -0.45810142159461975,
        0.6195531487464905,
        -7.719305992126465,
        4.810400009155273,
        1.6221193075180054,
        1.223190188407898,
        -1.156762957572937,
        -0.04612860083580017,
        0.2519998848438263,
        1.6750552654266357,
        -0.6308078765869141,
        2.060854911804199,
        -3.1968777179718018,
        -0.043222151696681976,
        -0.8744066953659058,
        -1.322806715965271,
        -0.19276684522628784,
        -4.087808609008789,
        0.3932914435863495,
        -4.191764831542969,
        -0.9539700746536255,
        1.00523042678833,
        0.13603733479976654,
        -0.10829248279333115,
        0.5154058933258057,
        0.18673323094844818,
        -0.3595461845397949,
        -0.1982346773147583,
        -0.49050140380859375,
        0.4461662173271179,
        -0.241768017411232,
        -0.3303007185459137,
        -1.0750839710235596,
        0.0947897657752037,
        -0.1667538285255432,
        -0.013138750568032265,
        -2.871208667755127,
        0.48172998428344727,
        2.317276954650879,
        -0.04522232711315155,
        0.4284439980983734,
        -1.4419876337051392,
        0.6994150280952454,
        -0.14062994718551636,
        -0.024387245997786522,
        0.049725841730833054,
        0.26992595195770264,
        1.1665483713150024,
        1.4935681819915771,
        -2.432777166366577,
        -1.9325371980667114,
        -0.1922641545534134,
        -0.5656912326812744,
        1.0765608549118042,
        -0.0325472317636013,
        0.4732760787010193,
        -0.417550265789032,
        -0.18708457052707672,
        0.2845591604709625,
        0.3409692943096161,
        -0.17677459120750427,
        -0.524589478969574,
        -0.12335819751024246,
        -0.2441975474357605,
        0.30611100792884827,
        -0.007687283214181662,
        0.1509418785572052,
        0.4023645222187042,
        -1.3425452709197998,
        0.5841768980026245,
        -0.8883776664733887,
        1.2195758819580078,
        -1.1061105728149414,
        -0.5884564518928528,
        -4.009824752807617,
        0.271104097366333,
        -1.6506165266036987,
        0.8868808150291443,
        2.8886501789093018,
        -0.0904642641544342,
        0.2414528876543045,
        0.23599384725093842,
        0.23267941176891327,
        -0.01335887610912323,
        -0.1231660544872284,
        -0.23751124739646912,
        0.11640967428684235,
        0.08982209861278534,
        0.1487194448709488,
        -0.16983965039253235,
        -0.01033426821231842,
        -0.033791884779930115,
        -0.007446765899658203,
        -0.07708381116390228,
        0.04311917722225189,
        -0.21394161880016327,
        0.02017436921596527,
        -0.22184230387210846,
        -0.24415099620819092,
        -0.23487024009227753,
        -0.21547266840934753,
        -0.13571897149085999,
        -0.24446478486061096,
        -0.04794694483280182,
        0.07509030401706696,
        0.0824371725320816,
        0.03690637648105621,
        0.08168242871761322,
        -0.20096123218536377,
        -0.11773216724395752,
        -0.02625618875026703,
        -0.016445502638816833,
        -0.04988786205649376,
        0.38350823521614075,
        -0.3561599552631378,
        -0.1350829154253006,
        -0.23730872571468353,
        0.44014284014701843,
        0.06804991513490677,
        0.0993870422244072,
        -0.15747077763080597,
        0.29205945134162903,
        -0.07259911298751831,
        1.7100615501403809,
        0.557210385799408,
        -0.5025239586830139,
        -0.822489321231842,
        -0.8741464614868164,
        0.14881138503551483,
        -0.011157183907926083,
        0.1645989716053009,
        0.4421866238117218,
        -0.08360746502876282,
        -0.5078614354133606,
        2.275416374206543,
        1.0462267398834229,
        1.735605001449585,
        -2.09621262550354,
        -4.501438140869141,
        -0.3265973627567291,
        1.3241641521453857,
        -1.590701699256897,
        0.19294039905071259,
        0.055367715656757355,
        0.20269978046417236,
        -0.0386890172958374,
        -0.182939350605011,
        0.02053968608379364,
        -0.13607734441757202,
        0.06968031823635101,
        -0.03380589187145233,
        -0.23220646381378174,
        -0.10396289825439453,
        -0.05466043949127197,
        -0.06457804143428802,
        -0.1979581117630005,
        -0.13273343443870544,
        0.07154686748981476,
        -0.019465595483779907,
        -0.009558320045471191,
        -0.22786232829093933,
        -0.13753995299339294,
        0.20307375490665436,
        -0.13832557201385498,
        -0.1622486114501953,
        -0.19222797453403473,
        -0.17748060822486877,
        -0.07595966756343842,
        0.023592814803123474,
        -0.095296710729599,
        0.23533205687999725,
        -0.15133537352085114,
        -0.1725250780582428,
        0.24036069214344025,
        2.4259090423583984e-05,
        -0.08826442062854767,
        0.02815176546573639,
        -0.23629234731197357,
        0.016613945364952087,
        -1.5944916009902954,
        -0.21609164774417877,
        1.5171525478363037,
        1.0605722665786743,
        -0.6974369883537292,
        0.5264918804168701,
        -0.6700921654701233,
        -0.0569646842777729,
        -0.5733373761177063,
        0.5913515090942383,
        0.4575737416744232,
        -1.3522356748580933,
        -0.2076953798532486,
        0.3078242838382721,
        -0.07637780159711838,
        -0.2406773716211319,
        1.0416055917739868,
        -0.46490561962127686,
        0.1555124670267105,
        -0.1607368439435959,
        0.4102838635444641,
        0.746746301651001,
        -2.479083299636841,
        2.0712502002716064,
        1.516280174255371,
        0.8366549015045166,
        -2.177778959274292,
        3.072453260421753,
        -1.3597466945648193,
        0.25736144185066223,
        -1.3986272811889648,
        1.2761002779006958,
        -0.16126833856105804,
        0.385940819978714,
        0.2803414463996887,
        -0.02162790112197399,
        -0.27369463443756104,
        -0.04172081500291824,
        -0.2386821210384369,
        0.24072234332561493,
        -0.08874204009771347,
        0.12814155220985413,
        -0.17101049423217773,
        -0.5453090071678162,
        0.21360568702220917,
        1.5403437614440918,
        -0.22251760959625244,
        -0.9900819063186646,
        -0.03273339569568634,
        0.02314954437315464,
        0.043853264302015305,
        0.039172906428575516,
        -0.0439801961183548,
        -0.3516736924648285,
        -4.431708812713623,
        -1.4489754438400269,
        -0.46531301736831665,
        0.7102495431900024,
        3.590444564819336,
        0.673715353012085,
        -0.38711118698120117,
        1.6881178617477417,
        -0.6433191299438477,
        0.7868776321411133,
        1.7241016626358032,
        -0.1517782062292099,
        0.24694375693798065,
        0.2463551014661789,
        0.16174595057964325,
        -0.19537128508090973,
        -0.09168168902397156,
        -0.012261822819709778,
        -0.01889011263847351,
        -0.18558117747306824,
        -0.06529641151428223,
        -0.03314448893070221,
        0.19687582552433014,
        -0.17631199955940247,
        -0.1295313537120819,
        -0.13539911806583405,
        -0.19601354002952576,
        0.0483197420835495,
        0.03100074827671051,
        -0.17011627554893494,
        -0.0736139565706253,
        -0.048004522919654846,
        -0.033357009291648865,
        -0.07930807769298553,
        -0.18569450080394745,
        -0.1769774854183197,
        -0.053449422121047974,
        -0.049875855445861816,
        0.23002605140209198,
        -0.04369834065437317,
        0.21746258437633514,
        0.15935827791690826,
        -0.07991327345371246,
        0.140922412276268,
        -0.13797354698181152,
        -0.02382519841194153,
        0.2319268137216568,
        -0.2139396071434021,
        -0.19226835668087006,
        -0.0368075966835022,
        -0.1860423982143402,
        0.18104304373264313,
        -0.17354106903076172,
        0.159502312541008,
        -0.01787489652633667,
        -0.15767383575439453,
        0.19752483069896698,
        0.01002456247806549,
        0.08462272584438324,
        -0.1307254135608673,
        -0.06632782518863678,
        -0.24562984704971313,
        -0.15764008462429047,
        0.052913740277290344,
        -0.10279908776283264,
        0.20902790129184723,
        0.0635298639535904,
        -0.07583217322826385,
        0.14981253445148468,
        0.2027732878923416,
        0.18399973213672638,
        0.22566582262516022,
        0.08099962770938873,
        -0.015599995851516724,
        -0.11988219618797302,
        0.07729892432689667,
        0.16183046996593475,
        0.1119435727596283,
        -1.2455517053604126,
        -0.9250739216804504,
        0.19427022337913513,
        0.6863004565238953,
        -0.21166908740997314,
        0.0389275923371315,
        -0.39634522795677185,
        -0.5801551342010498,
        0.9683685302734375,
        1.1508082151412964,
        -2.712775230407715,
        0.9703822135925293,
        -0.34234580397605896,
        -0.5808058381080627,
        -0.04369781166315079,
        -0.05932488664984703,
        0.978559136390686,
        -0.21101096272468567,
        -0.5751199722290039,
        0.6475811004638672,
        -0.02216033823788166,
        -2.449169158935547,
        1.6892571449279785,
        -1.1674959659576416,
        2.5067191123962402,
        0.2651249170303345,
        -1.4306036233901978,
        -0.08237270265817642,
        0.8526356220245361,
        -3.0194807052612305,
        1.644677758216858,
        0.8768547177314758,
        -0.07303664088249207,
        0.1964811533689499,
        0.14892388880252838,
        0.13604502379894257,
        0.0922364741563797,
        -0.1493082046508789,
        -0.2406703382730484,
        0.2103065699338913,
        0.09348322451114655,
        0.09634245932102203,
        -0.1671118289232254,
        -0.22680489718914032,
        0.13188590109348297,
        0.021256402134895325,
        -0.17964547872543335,
        -0.17538976669311523,
        -0.029108881950378418,
        0.002775624394416809,
        -0.005757585167884827,
        -0.022491082549095154,
        -0.0234641432762146,
        0.024141237139701843,
        -0.22369010746479034,
        0.04934196174144745,
        0.005917444825172424,
        0.08233760297298431,
        -0.21919578313827515,
        0.05754770338535309,
        -0.10894055664539337,
        -0.231898233294487,
        -0.11269806325435638,
        0.24562428891658783,
        0.1742493063211441,
        -0.0997234433889389,
        -0.20842505991458893,
        -0.23148401081562042,
        0.2272283285856247,
        0.23139682412147522,
        0.08574992418289185,
        0.17293614149093628,
        0.17399124801158905,
        -0.11262844502925873,
        0.12286113202571869,
        0.16606251895427704,
        0.09109632670879364,
        0.0003059219743590802,
        0.2270141988992691,
        0.10394487529993057,
        0.02100018970668316,
        -0.2055247724056244,
        -0.21208836138248444,
        -0.07304563373327255,
        -0.17298415303230286,
        -0.21914875507354736,
        -0.1821383535861969,
        0.13131967186927795,
        -0.23777030408382416,
        0.12995855510234833,
        0.2454998642206192,
        -0.07795073837041855,
        0.09324813634157181,
        0.06979861855506897,
        0.07672294974327087,
        0.05496130883693695,
        -0.18409313261508942,
        0.1372249275445938,
        -0.10124842822551727,
        -0.5496904850006104,
        0.20386579632759094,
        0.3777112364768982,
        -0.03456328064203262,
        -0.010020612739026546,
        0.09698246419429779,
        -0.10022322833538055,
        0.07704689353704453,
        -0.10821646451950073,
        0.0472898967564106,
        0.7436647415161133,
        0.6999076008796692,
        0.27457743883132935,
        -0.0674503743648529,
        0.11063673347234726,
        -0.02423637919127941,
        0.3379403054714203,
        -0.6146470904350281,
        0.18302859365940094,
        -0.14412543177604675,
        0.17534063756465912,
        5.5540876388549805,
        -4.400871753692627,
        -0.536518931388855,
        -1.3896931409835815,
        -0.9129825830459595,
        0.04205040633678436,
        -1.7584367990493774,
        4.089057922363281,
        -0.9696624875068665,
        0.8924306035041809,
        -1.2727367877960205,
        0.1620979607105255,
        -1.2197051048278809,
        -0.15412527322769165,
        -0.7365509867668152,
        0.20225569605827332,
        0.39527392387390137,
        -0.1350284069776535,
        0.07612407952547073,
        -0.08757047355175018,
        -0.0049840910360217094,
        0.2760790288448334,
        0.09822914004325867,
        0.5424846410751343,
        -0.7129066586494446,
        1.101449966430664,
        -1.2608296871185303,
        0.4788905382156372,
        -0.20390859246253967,
        0.34255746006965637,
        -0.19112509489059448,
        0.07650981843471527,
        0.008883224800229073,
        3.4055750370025635,
        1.3277655839920044,
        -0.675768256187439,
        2.8978939056396484,
        -3.0773680210113525,
        1.986648678779602,
        -3.2693471908569336,
        -0.8281080722808838,
        -0.22389130294322968,
        0.29954949021339417,
        -0.4850359261035919,
        -0.023869797587394714,
        -0.07927200198173523,
        0.3121946454048157,
        -0.2857697606086731,
        0.0845583975315094,
        -0.023333370685577393,
        0.18342043459415436,
        -0.22281476855278015,
        -0.24920479953289032,
        0.33733949065208435,
        -0.11490283906459808,
        0.19841989874839783,
        0.09063931554555893,
        -0.16483670473098755,
        -0.10693087428808212,
        0.08790058642625809,
        -0.3032139241695404,
        0.4480569660663605,
        -0.21641293168067932,
        -0.2872101366519928,
        -0.11374182254076004,
        0.4468434751033783,
        -2.2944421768188477,
        -0.7011894583702087,
        1.3046207427978516,
        1.25599205493927,
        -0.6319385170936584,
        4.142808437347412,
        -3.1797354221343994,
        0.22162824869155884,
        0.9570969939231873,
        -4.456707000732422,
        2.8158655166625977,
        -0.2083287537097931,
        0.061657700687646866,
        -0.11549641191959381,
        -0.08946281671524048,
        0.007401558570563793,
        -0.0077244290150702,
        -0.08658188581466675,
        0.13617072999477386,
        -0.01961325667798519,
        -0.00833109486848116,
        0.057050544768571854,
        0.17546412348747253,
        -0.03817810118198395,
        -0.005913695320487022,
        0.11008528620004654,
        -0.02830619551241398,
        -0.24584846198558807,
        0.0971221923828125,
        0.12855957448482513,
        0.015312513336539268,
        -0.02715764194726944,
        0.029758961871266365,
        -1.751878261566162,
        -1.5389279127120972,
        -1.7274880409240723,
        5.384226322174072,
        1.475210428237915,
        2.7112231254577637,
        -0.9153222441673279,
        -3.2923548221588135,
        -0.11060517281293869,
        0.29773762822151184,
        -0.25162142515182495,
        0.2239764779806137,
        0.791599690914154,
        0.1617487370967865,
        0.445324569940567,
        -0.3962966501712799,
        0.32833269238471985,
        0.07320313900709152,
        -0.29832595586776733,
        0.06402432918548584,
        0.07700050622224808,
        -0.2580280303955078,
        -0.03529450669884682,
        -0.15795525908470154,
        -0.027281494811177254,
        0.5268384218215942,
        -0.2626822590827942,
        1.7153764963150024,
        0.14281116425991058,
        -1.067078709602356,
        0.011387720704078674,
        0.010659091174602509,
        0.043299105018377304,
        -0.26067185401916504,
        1.690617561340332,
        0.975982129573822,
        1.9221335649490356,
        -1.8526477813720703,
        -0.6903519034385681,
        0.8990659117698669,
        -4.2088518142700195,
        -0.8929750323295593,
        2.085550546646118,
        1.07261061668396,
        -0.17455795407295227,
        -0.6361243724822998,
        0.09686995297670364,
        -0.10388071835041046,
        0.13852094113826752,
        -0.038835760205984116,
        0.13042618334293365,
        -0.2746396064758301,
        -0.18050241470336914,
        -0.1362539380788803,
        0.48537418246269226,
        4.479359149932861,
        -1.8421838283538818,
        -0.6363049745559692,
        -0.7733766436576843,
        0.8091700077056885,
        0.12291234731674194,
        -0.06263115257024765,
        0.4842730164527893,
        0.06473205983638763,
        -0.07866270840167999,
        0.0612521655857563,
        4.2656097412109375,
        -3.3455512523651123,
        -0.7844787240028381,
        0.17365172505378723,
        -1.4385712146759033,
        -0.20875565707683563,
        1.3856407403945923,
        -1.147665023803711,
        -0.20488706231117249,
        0.7249979972839355,
        0.1829572170972824,
        -0.2053566426038742,
        0.12445203959941864,
        -0.0470820814371109,
        -0.060867294669151306,
        -0.027564680203795433,
        -0.026663174852728844,
        -0.14498311281204224,
        0.1597132384777069,
        -0.10868852585554123,
        0.11496812850236893,
        -0.2039349377155304,
        0.23911507427692413,
        0.04253809526562691,
        0.02332610823214054,
        -0.1633230596780777,
        0.03198152035474777,
        0.0541275292634964,
        -0.07545667886734009,
        0.1779015064239502,
        -0.015478418208658695,
        0.03503069281578064,
        0.006420671474188566,
        -1.477023720741272,
        -0.3170061409473419,
        0.4000040888786316,
        5.768359184265137,
        -3.7369158267974854,
        -1.9805337190628052,
        1.1454812288284302,
        0.1859646439552307,
        -0.108883798122406,
        0.07762876152992249,
        -0.32208383083343506,
        -0.1250111609697342,
        0.14395864307880402,
        0.0889161229133606,
        0.0005333576118573546,
        -0.06349194794893265,
        0.09855350106954575,
        0.0117056705057621,
        -0.12204894423484802,
        0.018279319629073143,
        0.024797990918159485,
        0.10380975902080536,
        0.04000980779528618,
        0.30939313769340515,
        0.013960218988358974,
        0.08747986704111099,
        -0.12259254604578018,
        0.1268322914838791,
        -0.031633198261260986,
        -0.02968115732073784,
        -0.05906779691576958,
        0.04271841049194336,
        -0.03763178363442421,
        2.516923427581787,
        -1.8930171728134155,
        0.521685779094696,
        -2.1345467567443848,
        2.0315263271331787,
        -1.889495611190796,
        3.3719775676727295,
        -2.5255401134490967,
        1.2902463674545288,
        -1.2733075618743896,
        1.234665870666504,
        -0.053233057260513306,
        0.06070597469806671,
        -0.2355218529701233,
        -0.031492188572883606,
        -0.030464112758636475,
        0.2041073888540268,
        0.19849027693271637,
        0.2206851989030838,
        0.10541050136089325,
        0.02047400176525116,
        -0.2040434181690216,
        0.024417981505393982,
        -0.13675114512443542,
        -0.023993119597434998,
        -0.009043976664543152,
        0.055075809359550476,
        -0.12621182203292847,
        -0.05480501055717468,
        -0.1873539686203003,
        -0.08769743144512177,
        -0.20091499388217926,
        0.24227608740329742,
        0.0010206103324890137,
        -0.19692829251289368,
        -0.07326154410839081,
        -0.22105258703231812,
        -0.2031974345445633,
        -0.009083285927772522,
        0.1285523623228073,
        -0.20647867023944855,
        -0.23968085646629333,
        0.10095928609371185,
        0.22854460775852203,
        -0.5561660528182983,
        -0.37588557600975037,
        0.018748953938484192,
        -0.022245177999138832,
        -0.007530466187745333,
        0.010773198679089546,
        -0.005879361182451248,
        0.04117513820528984,
        -0.022337540984153748,
        0.017468910664319992,
        -0.0206772293895483,
        -0.15721312165260315,
        -0.31795457005500793,
        0.7999436855316162,
        0.011484180577099323,
        0.03714197501540184,
        -0.025655707344412804,
        -0.0037551340647041798,
        -0.06399445235729218,
        0.006016125902533531,
        -0.004083459731191397,
        -0.008530083112418652,
        1.301710844039917,
        5.527017593383789,
        -8.289090156555176,
        0.4998154640197754,
        0.14507952332496643,
        0.3040781319141388,
        -0.011615381576120853,
        0.5161266326904297,
        -0.019681816920638084,
        0.08875274658203125,
        0.04496089741587639,
        -0.01514733862131834,
        0.7741851210594177,
        -0.512923538684845,
        1.1475027799606323,
        0.6997657418251038,
        -0.23288173973560333,
        0.0016583310207352042,
        -0.2837604284286499,
        0.06138336658477783,
        -0.10167085379362106,
        0.171174556016922,
        -0.6949090957641602,
        0.03850675746798515,
        -0.07684784382581711,
        0.007791335228830576,
        -0.1620151400566101,
        -0.15045683085918427,
        0.15065701305866241,
        -0.42610347270965576,
        0.03312726691365242,
        0.6175919771194458,
        0.0325380377471447,
        -3.0124287605285645,
        1.3416061401367188,
        0.47935619950294495,
        2.657196521759033,
        -0.9528236985206604,
        2.2374916076660156,
        -0.28648269176483154,
        1.8877677917480469,
        0.4850691556930542,
        -3.7737607955932617,
        0.23793824017047882,
        -0.22750110924243927,
        0.6897214651107788,
        2.4113895893096924,
        1.1257538795471191,
        0.6770499348640442,
        -0.3470326364040375,
        0.13224829733371735,
        -0.7733464241027832,
        0.44651758670806885,
        -0.19266687333583832,
        -0.16037270426750183,
        0.19021596014499664,
        0.5944399833679199,
        -1.1419541835784912,
        -0.5065791606903076,
        -0.17214079201221466,
        -0.5615708827972412,
        0.29306671023368835,
        -0.6621400713920593,
        0.8590160012245178,
        -0.6975150108337402,
        -0.18183156847953796,
        -0.16365079581737518,
        -0.8660226464271545,
        -0.9826986789703369,
        -0.577163577079773,
        1.5033509731292725,
        0.5178288221359253,
        2.4920339584350586,
        0.26415979862213135,
        -1.4577730894088745,
        -0.5688433647155762,
        -0.21186351776123047,
        0.22259779274463654,
        -0.24654598534107208,
        0.20447345077991486,
        0.221158966422081,
        0.14669297635555267,
        0.07278938591480255,
        0.23645411431789398,
        0.189970925450325,
        -0.1289997100830078,
        0.011331930756568909,
        -0.24680398404598236,
        -0.1900373250246048,
        0.13940514624118805,
        0.24693550169467926,
        0.09418292343616486,
        -0.1476801037788391,
        -0.12430727481842041,
        -0.18743407726287842,
        -0.04105761647224426,
        -0.23564405739307404,
        0.07767067849636078,
        -0.20424135029315948,
        0.10385094583034515,
        0.03776119649410248,
        0.05273224413394928,
        -0.23102325201034546,
        0.009087607264518738,
        -0.14496412873268127,
        -0.09769394993782043,
        -0.004062235355377197,
        -0.06896308064460754,
        0.24001862108707428,
        -0.09120553731918335,
        -0.017116950824856758,
        0.39820048213005066,
        0.12957331538200378,
        -0.5842041373252869,
        -0.018393438309431076,
        0.2874482572078705,
        0.06089317426085472,
        -0.10302817821502686,
        0.016291595995426178,
        -0.09494976699352264,
        0.052256785333156586,
        -1.203839659690857,
        1.3752387762069702,
        0.47403484582901,
        -0.3408251106739044,
        -0.3711049556732178,
        -0.314714252948761,
        -0.16976821422576904,
        -0.12176206707954407,
        -0.08167976140975952,
        0.035343512892723083,
        -0.029540907591581345,
        -3.130927801132202,
        8.482933044433594,
        -0.443848580121994,
        -0.8452489376068115,
        -0.5525200366973877,
        -2.3740921020507812,
        -1.0422894954681396,
        -0.3821660876274109,
        0.10477831214666367,
        0.28219276666641235,
        0.22441454231739044,
        -0.1045994907617569,
        -0.11817602068185806,
        -0.7335547208786011,
        0.7425784468650818,
        0.022687671706080437,
        -0.16903695464134216,
        -0.3590431213378906,
        0.7099896669387817,
        2.5779776573181152,
        0.5158191323280334,
        2.3787386417388916,
        0.14520438015460968,
        -0.4798789322376251,
        0.9704903960227966,
        -0.5595377087593079,
        -0.5344182848930359,
        0.46566149592399597,
        0.5378064513206482,
        -0.39918291568756104,
        -0.05145128816366196,
        -0.2172672003507614,
        -0.8449361324310303,
        2.0885796546936035,
        -0.47126081585884094,
        -1.3185551166534424,
        -0.442516952753067,
        -1.4133559465408325,
        -0.7985983490943909,
        0.2609666585922241,
        0.802010178565979,
        0.4867691099643707,
        0.20458726584911346,
        2.4767205715179443,
        -0.05478436127305031,
        -0.050369035452604294,
        0.0402609147131443,
        -0.07915114611387253,
        0.16225580871105194,
        -0.07816652208566666,
        -0.1765931099653244,
        0.135663703083992,
        0.21711619198322296,
        0.05681375414133072,
        0.07397915422916412,
        -0.18717272579669952,
        0.001430008327588439,
        -0.061604831367731094,
        0.06733565777540207,
        0.054367732256650925,
        -0.16447898745536804,
        0.0870419293642044,
        -0.14538760483264923,
        -0.06643281877040863,
        0.029088951647281647,
        -0.1865636706352234,
        0.20870932936668396,
        0.19693660736083984,
        0.013877327553927898,
        0.2035575956106186,
        0.12346116453409195,
        -0.10763020068407059,
        0.20947057008743286,
        -0.06874994933605194,
        0.04081645607948303,
        0.2097095400094986,
        -0.23635253310203552,
        0.4868452250957489,
        -1.4775999784469604,
        0.27908000349998474,
        -0.36896398663520813,
        0.4364832639694214,
        -0.8578054308891296,
        0.48918411135673523,
        -0.5306554436683655,
        -0.10489983856678009,
        0.22849301993846893,
        0.6119252443313599,
        -1.5856660604476929,
        0.1764087975025177,
        1.399886965751648,
        -0.0065873065032064915,
        -0.4531470835208893,
        0.03146202489733696,
        0.3265022039413452,
        -0.057758402079343796,
        0.04484560340642929,
        -0.1363845318555832,
        -0.25944310426712036,
        -6.048463344573975,
        4.216403484344482,
        2.02520489692688,
        -0.24778328835964203,
        0.1115468367934227,
        0.1228703185915947,
        0.5507553219795227,
        -1.211168646812439,
        0.49527066946029663,
        1.2803523540496826,
        0.3838537931442261,
        -0.05632103979587555,
        0.5235602855682373,
        -0.12105534225702286,
        -0.3899642527103424,
        -0.46199458837509155,
        0.14295901358127594,
        0.27110034227371216,
        0.3367530107498169,
        0.2074064165353775,
        -0.04367952421307564,
        0.05186895653605461,
        1.8196344375610352,
        -1.260345697402954,
        0.15485917031764984,
        1.1650002002716064,
        -1.0770540237426758,
        0.32260414958000183,
        0.3718731999397278,
        0.7947741150856018,
        -0.19034214317798615,
        0.1489485800266266,
        -0.008705362677574158,
        1.7803016901016235,
        1.7133078575134277,
        1.9733003377914429,
        -1.7654346227645874,
        1.3967775106430054,
        -2.591796398162842,
        -3.6058685779571533,
        1.5399974584579468,
        0.42785054445266724,
        1.4053256511688232,
        -0.9882857799530029,
        -0.1606297343969345,
        1.4372775554656982,
        1.3777761459350586,
        -0.5677007436752319,
        -0.3880695104598999,
        -0.4620457887649536,
        -0.16888271272182465,
        0.7421198487281799,
        -0.11923128366470337,
        -0.15352022647857666,
        -0.2602299451828003,
        -0.4407360851764679,
        0.877867579460144,
        0.17761920392513275,
        0.4360915720462799,
        1.4016023874282837,
        -0.30705055594444275,
        -0.2534044086933136,
        -0.2825445830821991,
        -0.5950454473495483,
        0.09263819456100464,
        -0.19302184879779816,
        1.5491076707839966,
        -1.5948346853256226,
        -0.1838935911655426,
        1.0248761177062988,
        -2.0463337898254395,
        1.0743112564086914,
        0.48016929626464844,
        -1.4988940954208374,
        3.475318670272827,
        2.1849610805511475,
        0.9914992451667786,
        -0.15517565608024597,
        -0.10090526938438416,
        0.030481353402137756,
        0.020886406302452087,
        0.0036224275827407837,
        0.0854419618844986,
        0.1367291361093521,
        -0.20904265344142914,
        -0.10013797879219055,
        -0.10768085718154907,
        -0.15110820531845093,
        0.08639787137508392,
        -0.1499197781085968,
        -0.16733402013778687,
        0.0522562712430954,
        -0.13421881198883057,
        0.08406136929988861,
        -0.18892717361450195,
        -0.20428742468357086,
        0.10807280242443085,
        0.010996147990226746,
        -0.22878487408161163,
        0.15351884067058563,
        0.15137331187725067,
        -0.057845860719680786,
        0.027082189917564392,
        -0.0946957916021347,
        0.23612253367900848,
        0.08329133689403534,
        0.07902322709560394,
        0.24593321979045868,
        0.14759854972362518,
        0.037173882126808167,
        0.0353262722492218,
        2.3878116607666016,
        0.44201359152793884,
        -0.22569647431373596,
        -0.7730844020843506,
        -1.18921959400177,
        1.7246153354644775,
        0.35499492287635803,
        -0.631414532661438,
        -0.06774874031543732,
        3.094566583633423,
        2.5406806468963623,
        -0.7297811508178711,
        0.7320242524147034,
        -0.7358977794647217,
        0.3800049126148224,
        0.10116579383611679,
        0.14564768970012665,
        -0.7985546588897705,
        0.4564112424850464,
        0.08675554394721985,
        0.1362239122390747,
        -1.20719313621521,
        -1.530102252960205,
        -1.7985646724700928,
        1.204612135887146,
        -0.9673699140548706,
        -2.1976232528686523,
        -1.2836228609085083,
        2.227598190307617,
        5.021256923675537,
        -1.0803412199020386,
        -0.7595462799072266,
        -0.23610782623291016,
        0.13604098558425903,
        0.06934723258018494,
        0.15385788679122925,
        -0.0009812174830585718,
        0.17890428006649017,
        -0.04254163056612015,
        -0.17103925347328186,
        -0.053671695291996,
        -0.25419101119041443,
        0.19390250742435455,
        0.08120003342628479,
        -0.12234988063573837,
        0.20449449121952057,
        0.15566517412662506,
        0.17975914478302002,
        -0.17882980406284332,
        -0.18117767572402954,
        -0.22651073336601257,
        0.14268381893634796,
        -0.13008029758930206,
        -0.1300605833530426,
        -0.24046729505062103,
        0.10371848195791245,
        -0.0732196569442749,
        0.12185510993003845,
        0.1368933618068695,
        -0.28061097860336304,
        0.1583482027053833,
        0.025867389515042305,
        0.05723519250750542,
        0.1464458853006363,
        -0.20127326250076294,
        0.38039132952690125,
        -0.050008613616228104,
        0.09133344888687134,
        0.06639980524778366,
        0.049295395612716675,
        0.09017658233642578,
        0.004154913127422333,
        -0.08850046247243881,
        0.023510904982686043,
        -0.04432488605380058,
        0.014174574986100197,
        0.19970253109931946,
        1.2813206911087036,
        -0.8453949689865112,
        0.054862309247255325,
        -0.07213659584522247,
        0.05135970935225487,
        -0.028827911242842674,
        0.05723395571112633,
        -0.019038917496800423,
        0.020235488191246986,
        -0.006548283621668816,
        -0.18447940051555634,
        7.537911415100098,
        -8.258909225463867,
        0.2999494969844818,
        -0.21833229064941406,
        0.19544340670108795,
        0.32419317960739136,
        0.0645611360669136,
        0.1436913162469864,
        0.0713270828127861,
        0.28714311122894287,
        -0.1316860467195511,
        0.16996902227401733,
        -0.6883998513221741,
        0.8141996264457703,
        -0.30099204182624817,
        0.6753372550010681,
        0.09104220569133759,
        -0.3117181658744812,
        -0.07901986688375473,
        -1.0085313320159912,
        0.7391529679298401,
        0.8075350522994995,
        1.193528652191162,
        0.26400917768478394,
        -0.9973579049110413,
        0.13666780292987823,
        -0.16089852154254913,
        -0.049805011600255966,
        0.49615922570228577,
        0.16275236010551453,
        -0.22048215568065643,
        0.04518987238407135,
        -0.15713688731193542,
        4.772240161895752,
        -1.5649569034576416,
        -0.9686161875724792,
        1.2577641010284424,
        0.2325492650270462,
        -2.5870954990386963,
        -0.8273577094078064,
        -1.6504391431808472,
        1.5735652446746826,
        1.6438668966293335,
        -0.15473034977912903,
        0.9166131019592285,
        -1.4548752307891846,
        -0.1569852977991104,
        0.39650046825408936,
        -0.18981193006038666,
        0.4100019335746765,
        -0.2028924971818924,
        0.14126725494861603,
        -0.10637275129556656,
        0.22415679693222046,
        0.26383641362190247,
        -0.2851899266242981,
        -0.0702577456831932,
        -0.32541319727897644,
        -0.03521597757935524,
        -0.1259160339832306,
        0.0336008220911026,
        -0.1603911966085434,
        0.32374393939971924,
        -0.054404985159635544,
        0.09697827696800232,
        4.8095808029174805,
        -10.024480819702148,
        2.245368003845215,
        0.5661343336105347,
        1.8040229082107544,
        -0.043940220028162,
        1.5807942152023315,
        -0.38037624955177307,
        -0.7504724264144897,
        0.14789718389511108,
        -0.2340325564146042,
        -0.03641233220696449,
        -0.21187299489974976,
        -0.001481739105656743,
        0.019381865859031677,
        -0.025714747607707977,
        -0.03460438922047615,
        0.23439598083496094,
        0.16869711875915527,
        0.03041752427816391,
        0.012200996279716492,
        -0.06254991888999939,
        -0.1567765772342682,
        0.014947407878935337,
        -0.11610077321529388,
        -0.19894076883792877,
        0.06641390174627304,
        0.06943100690841675,
        -0.09448091685771942,
        -0.25373560190200806,
        0.17225050926208496,
        -0.18667016923427582,
        0.03714190423488617,
        -0.11763212084770203,
        -0.15292631089687347,
        0.08696939796209335,
        0.11991369724273682,
        0.17901627719402313,
        0.17308764159679413,
        0.04448314011096954,
        0.09205805510282516,
        0.07506490498781204,
        0.06416462361812592,
        -0.017714858055114746,
        1.952701210975647,
        -0.24768885970115662,
        -0.024128403514623642,
        0.04436546936631203,
        2.6995934604201466e-05,
        -0.0793428122997284,
        -0.006175224669277668,
        0.0511363223195076,
        -0.0076586403883993626,
        0.036175843328237534,
        0.011891310103237629,
        -0.5700685381889343,
        0.5480446815490723,
        0.018580306321382523,
        -0.006069235969334841,
        0.006822152994573116,
        0.0154574541375041,
        -0.002351995324715972,
        -0.03008306585252285,
        0.0046204691752791405,
        -0.007417328655719757,
        0.001862366683781147,
        -9.117410659790039,
        10.207904815673828,
        -0.2620501220226288,
        0.29898300766944885,
        -0.21971295773983002,
        -0.1699971705675125,
        -0.2218339592218399,
        -0.4804548919200897,
        -0.09964756667613983,
        -0.03825948014855385,
        -0.1231047734618187,
        -0.29445186257362366,
        0.44789010286331177,
        -0.09816788882017136,
        0.2606566846370697,
        0.07999461889266968,
        0.1796257644891739,
        0.03373325988650322,
        -0.18670324981212616,
        0.15308986604213715,
        -0.16487301886081696,
        0.08815363794565201,
        -0.2683696746826172,
        -0.10326062142848969,
        0.03393692895770073,
        -0.27063268423080444,
        -0.01565985195338726,
        -0.17177125811576843,
        -0.05034623295068741,
        -0.3599160611629486,
        0.5516465902328491,
        -0.13829825818538666,
        0.0850638598203659,
        2.193295955657959,
        0.9368169903755188,
        -0.4748052656650543,
        -1.5110373497009277,
        -0.62773597240448,
        -0.44310837984085083,
        -1.274206280708313,
        -2.906581401824951,
        4.905588626861572,
        -1.2048075199127197,
        1.1929055452346802,
        0.34568414092063904,
        0.025968074798583984,
        0.752138614654541,
        -1.0104635953903198,
        -0.19981499016284943,
        0.08114028722047806,
        0.37405893206596375,
        0.4089986979961395,
        1.3009215593338013,
        0.7045363783836365,
        -0.20242717862129211,
        -1.3170771598815918,
        0.2687664330005646,
        0.31236302852630615,
        -0.4693770706653595,
        0.6567637324333191,
        0.35203734040260315,
        0.3342340886592865,
        -0.2751397490501404,
        0.23437823355197906,
        -0.29357603192329407,
        0.3558677136898041,
        -5.1058807373046875,
        3.271449327468872,
        -1.1756328344345093,
        2.6664535999298096,
        -0.024012723937630653,
        -0.5705474019050598,
        2.240377902984619,
        -1.920501947402954,
        0.07453048974275589,
        0.5511897802352905,
        0.5684040784835815,
        -3.190338611602783e-05,
        -0.24050864577293396,
        0.24325929582118988,
        -0.11685262620449066,
        -0.006345629692077637,
        0.1407642811536789,
        -0.10482631623744965,
        0.0010876208543777466,
        0.05112679302692413,
        -0.24046269059181213,
        0.23066262900829315,
        0.23589648306369781,
        0.21746335923671722,
        -0.17563286423683167,
        -0.19282680749893188,
        -0.1604354977607727,
        0.15338696539402008,
        -0.23165880143642426,
        -0.16932110488414764,
        0.14004595577716827,
        0.007257774472236633,
        -0.21326836943626404,
        -0.17602255940437317,
        0.10711540281772614,
        0.08960281312465668,
        -0.24752402305603027,
        -0.23917090892791748,
        -0.1498468518257141,
        -0.2027754783630371,
        0.23821191489696503,
        -0.09388461709022522,
        -0.23985221982002258,
        -0.24859154224395752,
        -0.22241950035095215,
        -1.589125156402588,
        0.494915246963501,
        -1.2128359079360962,
        0.14583228528499603,
        0.1027434840798378,
        0.039905451238155365,
        0.022091561928391457,
        -0.19085365533828735,
        0.5728700757026672,
        -0.3854087293148041,
        1.4873093366622925,
        0.834201455116272,
        -1.2673779726028442,
        1.2884459495544434,
        -0.5254247784614563,
        1.1401666402816772,
        0.43575868010520935,
        -0.37924450635910034,
        0.07081139087677002,
        0.07430475950241089,
        0.07415365427732468,
        0.3853333592414856,
        -0.5980347394943237,
        -2.4009037017822266,
        -1.7441202402114868,
        2.1475014686584473,
        2.032198667526245,
        -0.29604047536849976,
        1.3228826522827148,
        -1.5045825242996216,
        2.428507089614868,
        0.6253108978271484,
        -0.06209855154156685,
        0.4215475916862488,
        -0.2693542540073395,
        0.6523628830909729,
        -0.3945239782333374,
        0.1729837954044342,
        -0.18643245100975037,
        0.058466438204050064,
        -0.05035104975104332,
        -0.04076322540640831,
        -0.20242851972579956,
        -0.10204267501831055,
        -0.29449647665023804,
        0.1480209231376648,
        1.3590874671936035,
        0.6738594770431519,
        -0.7297911643981934,
        -0.634030282497406,
        0.3184540271759033,
        0.009134488180279732,
        -0.0875997468829155,
        0.22000886499881744,
        -2.2586867809295654,
        1.9404025077819824,
        -1.3069583177566528,
        -3.340986728668213,
        -1.5253363847732544,
        1.9811359643936157,
        3.9458436965942383,
        -0.06878294795751572,
        0.45669811964035034,
        0.6456089615821838,
        -2.460326910018921,
        0.0990321934223175,
        -3.9708518981933594,
        -1.5845520496368408,
        -0.7412621974945068,
        1.0782673358917236,
        -3.253899097442627,
        0.1386580914258957,
        -2.9321913719177246,
        -2.885197639465332,
        -0.39405637979507446,
        -0.03715759515762329,
        -0.6518335342407227,
        0.1131543293595314,
        0.7289745807647705,
        0.10550879687070847,
        -0.045367900282144547,
        -0.6752762198448181,
        0.567596971988678,
        0.013698583468794823,
        -0.8935114741325378,
        -0.6537136435508728,
        -0.38556969165802,
        -1.921933650970459,
        3.67372727394104,
        2.74139142036438,
        1.4324432611465454,
        -0.498669296503067,
        -0.02762608416378498,
        -1.5554988384246826,
        -0.49887004494667053,
        2.9206082820892334,
        -2.837623119354248,
        0.07229479402303696,
        -0.2379784882068634,
        -0.5827925801277161,
        -0.2453814446926117,
        0.36540985107421875,
        0.1261546015739441,
        0.07648687809705734,
        0.14372889697551727,
        -0.2366783171892166,
        -0.1910816729068756,
        0.21318171918392181,
        -0.0059637888334691525,
        0.3870302140712738,
        -0.18767808377742767,
        -0.1959456503391266,
        0.5535672307014465,
        0.22213102877140045,
        0.8297432661056519,
        -0.32856374979019165,
        -0.4592970609664917,
        0.02549113519489765,
        0.04742542281746864,
        -0.04482436552643776,
        -0.3177146911621094,
        -2.126660108566284,
        0.23303116858005524,
        3.053374767303467,
        0.9198828339576721,
        3.188194751739502,
        -4.401946544647217,
        -0.15503743290901184,
        0.09303535521030426,
        -0.8782777190208435,
        0.9874976277351379,
        -0.02718706987798214,
        0.37955242395401,
        1.0629693269729614,
        0.3587830066680908,
        -0.48338499665260315,
        -0.06296955049037933,
        -0.3068002164363861,
        0.17711269855499268,
        -0.025901783257722855,
        0.34052374958992004,
        -0.17655739188194275,
        -1.322884440422058,
        -0.04496407508850098,
        0.7605136632919312,
        -0.20185022056102753,
        -0.017393307760357857,
        -0.3913613259792328,
        -0.6022629737854004,
        0.12594515085220337,
        0.847472608089447,
        -0.4455271363258362,
        0.4400859475135803,
        5.48179292678833,
        2.1195740699768066,
        1.288702130317688,
        2.409262180328369,
        -0.93732088804245,
        0.9565210342407227,
        -3.976071357727051,
        1.9056934118270874,
        -0.6584489941596985,
        -0.07345301657915115,
        0.7630846500396729,
        0.17942409217357635,
        -0.571260929107666,
        0.20407381653785706,
        -0.10052642226219177,
        0.16462492942810059,
        -0.0039040669798851013,
        0.2855817675590515,
        -0.3381328880786896,
        -0.8155384063720703,
        0.8148155212402344,
        -1.1797844171524048,
        0.22295543551445007,
        0.014481542631983757,
        0.087346151471138,
        -0.22783876955509186,
        0.029016343876719475,
        -0.0074454727582633495,
        0.22628487646579742,
        -0.03983215242624283,
        -0.40836071968078613,
        0.2490396797657013,
        0.5277560949325562,
        3.526968479156494,
        0.8534502387046814,
        -0.18448540568351746,
        0.09525291621685028,
        0.32469531893730164,
        -0.961661159992218,
        -0.17596304416656494,
        -0.06730074435472488,
        -4.699769020080566,
        0.96230548620224,
        -1.3619470596313477,
        -0.06592738628387451,
        0.23994098603725433,
        -0.1311766654253006,
        -0.23192372918128967,
        -0.1907455027103424,
        0.020088866353034973,
        -0.09084050357341766,
        0.22888360917568207,
        -0.2072831392288208,
        -0.16087128221988678,
        -0.12186792492866516,
        0.00433136522769928,
        -0.12438376247882843,
        0.011410221457481384,
        0.031162843108177185,
        -0.21937206387519836,
        -0.18794149160385132,
        -0.045671314001083374,
        0.008193060755729675,
        0.04425583779811859,
        -0.15747880935668945,
        0.10053621232509613,
        0.14368753135204315,
        -0.060222044587135315,
        -0.06646330654621124,
        -0.09563979506492615,
        0.061576321721076965,
        0.20152242481708527,
        -0.08290781080722809,
        -0.044540584087371826,
        -0.13415482640266418,
        0.20350511372089386,
        -0.011407539248466492
      ]
    },
    {
      "architecture": "normalization",
      "bias": [
        -0.10311836004257202,
        0.0075272503308951855,
        -0.11070388555526733,
        1.6990011317830067e-06,
        -0.06304188072681427,
        -0.000941127073019743,
        -0.0931834727525711,
        -0.02902606502175331,
        0.00016290466010104865,
        -0.01927546225488186,
        -0.025877024978399277,
        -0.5429733395576477,
        -0.08399305492639542,
        4.616786100086756e-05,
        -0.07671128213405609,
        -0.06673364341259003,
        0.008105025626718998,
        1.2149785106885247e-05,
        -0.03239428997039795,
        0.01570357382297516,
        -0.196940079331398,
        -0.06004660576581955,
        1.6987152093861368e-06,
        -0.00027874644729308784,
        -0.10684850066900253,
        7.66521116020158e-05,
        -7.869159162510186e-05,
        -0.07142457365989685,
        -0.017806492745876312,
        -0.03969714045524597,
        -0.12003449350595474,
        -0.12914063036441803,
        -0.8427141308784485,
        -0.10440094769001007,
        -0.07768844813108444,
        -0.00037754615186713636,
        -0.06233415752649307,
        -0.005566363222897053,
        -0.03212255984544754,
        3.185422974638641e-05,
        -0.031242355704307556,
        -0.10337002575397491,
        -0.014278050512075424,
        -0.16318021714687347,
        -0.40256673097610474,
        -0.44051364064216614,
        0.00012317810615058988,
        -0.04836607724428177,
        3.2121947697305586e-06,
        -0.024906698614358902,
        -0.49322792887687683,
        -0.020076189190149307,
        -6.704141924274154e-06,
        -0.03835596889257431,
        -0.07698534429073334,
        -0.2681317925453186,
        -0.00024255478638224304,
        -1.182086706161499,
        -0.07681061327457428,
        -0.16266068816184998,
        -0.10376244783401489,
        -0.04377303272485733,
        -0.02702230215072632,
        3.138188503726269e-06
      ],
      "weights": [
        8.597704887390137,
        31.622774124145508,
        7.7490715980529785,
        31.622774124145508,
        10.450239181518555,
        28.669742584228516,
        23.50943374633789,
        13.046765327453613,
        31.622774124145508,
        16.990367889404297,
        38.53386688232422,
        14.395785331726074,
        18.056324005126953,
        31.622774124145508,
        11.282671928405762,
        1.6005945205688477,
        10.911049842834473,
        31.622774124145508,
        6.989695072174072,
        31.622774124145508,
        6.860617160797119,
        13.300322532653809,
        31.622774124145508,
        31.622774124145508,
        6.2793169021606445,
        31.622774124145508,
        31.939359664916992,
        13.56410026550293,
        6.679439067840576,
        15.825604438781738,
        19.669864654541016,
        8.84897232055664,
        4.639453887939453,
        23.407363891601562,
        22.4376277923584,
        31.622774124145508,
        20.604068756103516,
        16.04416847229004,
        7.39022970199585,
        31.622774124145508,
        18.875696182250977,
        4.763794898986816,
        29.790618896484375,
        6.300698280334473,
        5.9784417152404785,
        3.5955564975738525,
        31.622774124145508,
        6.652756690979004,
        30.157512664794922,
        16.265968322753906,
        4.124221324920654,
        16.595792770385742,
        31.41842269897461,
        31.507892608642578,
        16.57611656188965,
        5.214200973510742,
        31.622774124145508,
        4.029605388641357,
        9.61690616607666,
        2.2318015098571777,
        10.127838134765625,
        5.456128120422363,
        5.947323799133301,
        31.622774124145508
      ]
    },
    {
      "activation": "rectified",
      "architecture": "dense",
      "bias": [
        -0.6808491349220276,
        0.028418315574526787,
        -1.2146962881088257,
        -1.64208984375,
        -1.50922429561615,
        -1.1844960451126099,
        1.0809087753295898,
        -1.4728022813796997,
        -0.5225048661231995,
        -1.1506561040878296,
        0.9521322250366211,
        -0.6998324394226074,
        0.4936329126358032,
        -0.6924299001693726,
        0.6142464280128479,
        -0.48109281063079834,
        0.24883736670017242,
        -0.13988442718982697,
        -2.344932794570923,
        -1.113389015197754,
        -0.4847763776779175,
        0.3548506796360016,
        -0.9683655500411987,
        -1.6595649719238281,
        -0.026793159544467926,
        -0.9977125525474548,
        -0.35321736335754395,
        -1.0225995779037476,
        -1.092706322669983,
        -0.22314414381980896,
        -0.12349426001310349,
        -1.0178090333938599
      ],
      "weights": [
        -0.5774775743484497,
        -0.7150943875312805,
        0.23784758150577545,
        -0.010678958147764206,
        1.0556416511535645,
        0.012282518669962883,
        0.18050947785377502,
        -0.908407986164093,
        0.007536584511399269,
        -1.6112053394317627,
        0.049376633018255234,
        1.279541254043579,
        -0.43159884214401245,
        -0.04534488543868065,
        0.5588560104370117,
        0.07836701720952988,
        0.3939972221851349,
        -0.005091357510536909,
        1.2744102478027344,
        -0.7886812090873718,
        0.4081301987171173,
        0.7011749744415283,
        0.023816391825675964,
        -0.003651101142168045,
        0.8783910274505615,
        0.006968962028622627,
        0.007581790909171104,
        0.8673525452613831,
        2.0500082969665527,
        0.6935299038887024,
        0.10075368732213974,
        0.7229586839675903,
        -0.04682436212897301,
        0.7086853981018066,
        -1.8230292797088623,
        -0.05412575230002403,
        0.5895861983299255,
        -0.3691721558570862,
        -0.698546826839447,
        0.022057702764868736,
        0.5475365519523621,
        -0.14201529324054718,
        0.668968141078949,
        -0.09725933521986008,
        -0.5759872198104858,
        1.56760573387146,
        -0.01326305978000164,
        -0.220495343208313,
        -0.007811823859810829,
        -0.16052140295505524,
        -0.9202938079833984,
        -0.5885355472564697,
        -0.03630996495485306,
        0.3135943114757538,
        1.8351742029190063,
        -0.04970472678542137,
        -0.047743961215019226,
        0.3809581995010376,
        -0.3469952642917633,
        0.0733843669295311,
        0.4638488292694092,
        0.4256173074245453,
        0.44405046105384827,
        0.0040814983658492565,
        -0.4255102574825287,
        0.0712437629699707,
        0.8866364359855652,
        0.0675162598490715,
        0.15577055513858795,
        0.5984407067298889,
        0.12449932098388672,
        -0.43333005905151367,
        0.08248668164014816,
        1.8162407875061035,
        -0.7244101166725159,
        0.41932976245880127,
        0.7918961644172668,
        0.03491426259279251,
        -2.3254358768463135,
        -1.16518235206604,
        1.4551013708114624,
        0.029036598280072212,
        1.5990437269210815,
        -0.18796740472316742,
        -1.5110020637512207,
        -0.0380961149930954,
        -0.02262929640710354,
        -0.028364082798361778,
        -0.8393081426620483,
        0.027919350191950798,
        -0.02629678323864937,
        1.44552743434906,
        -1.787670612335205,
        0.14135602116584778,
        -0.3373737931251526,
        0.42685869336128235,
        -1.0622944831848145,
        0.2584402859210968,
        -0.17465431988239288,
        0.00024731000303290784,
        0.6358276605606079,
        -1.8313748836517334,
        -1.2672035694122314,
        0.019941279664635658,
        -1.6077824831008911,
        -0.5180491209030151,
        -0.014703890308737755,
        -0.7614985108375549,
        -1.4257396459579468,
        -0.2300615906715393,
        0.034429796040058136,
        0.8087572455406189,
        -0.02051698789000511,
        -0.5386292934417725,
        1.0554357767105103,
        -0.6918813586235046,
        0.02304084599018097,
        0.4213433563709259,
        -0.45214030146598816,
        -0.5136387944221497,
        -0.018401002511382103,
        0.6828529834747314,
        0.008025080896914005,
        0.9414088726043701,
        0.1428765207529068,
        0.7672880291938782,
        0.9651994705200195,
        0.009620508179068565,
        0.6268947124481201,
        -1.1152862310409546,
        -1.4885770082473755,
        -0.04641897976398468,
        -0.7267696261405945,
        -0.6554762125015259,
        -2.2616143226623535,
        -0.6422960162162781,
        0.003929962404072285,
        -0.3054155707359314,
        -0.2735428512096405,
        0.14709687232971191,
        0.45803454518318176,
        0.05549817159771919,
        0.3733294904232025,
        -0.5365031361579895,
        -1.0371592044830322,
        0.0012214165180921555,
        0.5927117466926575,
        -1.0835516452789307,
        0.07421714812517166,
        -1.749760627746582,
        -0.022962629795074463,
        0.006301384884864092,
        -0.22109317779541016,
        0.001105430186726153,
        -0.0026636174879968166,
        0.4757139980792999,
        -0.936030387878418,
        0.8830827474594116,
        -2.3142330646514893,
        -1.0842113494873047,
        0.01905430480837822,
        0.5935741662979126,
        -0.7023788094520569,
        0.0030963243916630745,
        -0.8194460272789001,
        -0.9507728815078735,
        -1.7551746368408203,
        -0.016383089125156403,
        0.3950384557247162,
        0.42351531982421875,
        1.29203462600708,
        1.0114134550094604,
        1.0382983684539795,
        0.2722345292568207,
        -0.035441529005765915,
        0.6925079226493835,
        0.001594324130564928,
        -0.001102715963497758,
        0.2856542766094208,
        -0.9323785901069641,
        0.08827640116214752,
        -0.07532531768083572,
        0.9198219180107117,
        -0.20180614292621613,
        0.03082730993628502,
        -0.8051513433456421,
        0.821890115737915,
        0.4575973451137543,
        -0.4325527846813202,
        0.22137238085269928,
        -0.6236054301261902,
        0.04307661950588226,
        -0.02659427747130394,
        -1.1759363412857056,
        -0.2726786732673645,
        0.01180987898260355,
        -0.30711817741394043,
        -0.15988671779632568,
        -0.19299475848674774,
        -0.16437643766403198,
        0.047092899680137634,
        -0.24035194516181946,
        -2.5795655250549316,
        -0.9078481793403625,
        -0.357373982667923,
        -0.03492104262113571,
        0.052104122936725616,
        0.495253324508667,
        0.016407541930675507,
        0.05679427087306976,
        0.1524653285741806,
        -1.5786595344543457,
        0.5018631815910339,
        -0.236403226852417,
        -0.01193074882030487,
        -0.041177790611982346,
        -0.6178067326545715,
        0.05359572917222977,
        -0.04057459905743599,
        -0.07390132546424866,
        -0.1643824279308319,
        0.03193971887230873,
        0.004020340740680695,
        0.04922326281666756,
        0.1398552507162094,
        -0.05691824480891228,
        -0.18895825743675232,
        -0.02743067406117916,
        -0.051788948476314545,
        -0.48432567715644836,
        -0.9983139634132385,
        0.05856064334511757,
        -0.5979240536689758,
        0.08067750185728073,
        1.4503240585327148,
        0.154026061296463,
        0.32263293862342834,
        -0.18676456809043884,
        0.03414052724838257,
        -0.2611793577671051,
        -0.06352494657039642,
        -3.3016655445098877,
        -0.2268833965063095,
        0.341269314289093,
        -0.07236786186695099,
        -6.131688594818115,
        -0.01585986651480198,
        0.34135115146636963,
        0.014167111366987228,
        -1.1183923482894897,
        -0.44218510389328003,
        0.12993530929088593,
        0.32157808542251587,
        -0.11855576187372208,
        -0.6205329298973083,
        -0.04846449941396713,
        -0.015485616400837898,
        -1.361756443977356,
        -0.4735814034938812,
        -0.013074997812509537,
        0.07460273802280426,
        -0.12281816452741623,
        -0.32312121987342834,
        0.0013358119176700711,
        -0.03228703513741493,
        0.35230904817581177,
        -0.2829740047454834,
        -1.1654142141342163,
        -5.057976722717285,
        -0.015545091591775417,
        -0.1528731882572174,
        0.5129841566085815,
        0.3574182689189911,
        -0.044156573712825775,
        -0.29395240545272827,
        -1.2640293836593628,
        0.07783115655183792,
        0.4191170334815979,
        0.02426898665726185,
        -0.0025876695290207863,
        -0.09130807220935822,
        -0.046070780605077744,
        0.04223425313830376,
        -0.22441549599170685,
        -0.13662397861480713,
        -0.2602107524871826,
        0.06638447940349579,
        -0.06567256152629852,
        -0.28341877460479736,
        0.1580839455127716,
        -0.05017616227269173,
        -0.02659241482615471,
        -0.2745758891105652,
        -0.6959855556488037,
        -0.06867322325706482,
        0.002163605997338891,
        -0.732085108757019,
        -0.09354468435049057,
        1.379591703414917,
        -0.12845125794410706,
        0.18745607137680054,
        0.2000485062599182,
        -0.04095389321446419,
        0.1319601684808731,
        0.04413728043437004,
        0.2366713285446167,
        0.6401585936546326,
        0.07414355874061584,
        0.011930485256016254,
        -0.4704897999763489,
        0.24152979254722595,
        0.15860144793987274,
        -0.03177608922123909,
        -0.18067871034145355,
        -0.3319547772407532,
        0.14004497230052948,
        0.33528029918670654,
        -0.2971213161945343,
        0.2089008390903473,
        0.021930212154984474,
        0.40405312180519104,
        -1.2415716648101807,
        0.15452095866203308,
        0.0642554983496666,
        0.559097945690155,
        -1.5580976009368896,
        0.4287165403366089,
        -1.5350414514541626,
        0.10045002400875092,
        -1.2873187065124512,
        0.34562915563583374,
        0.686195433139801,
        0.738874614238739,
        0.00831304956227541,
        -1.5683581829071045,
        0.24308110773563385,
        -3.3481340408325195,
        0.10088489949703217,
        -0.4429149627685547,
        -1.2986946105957031,
        0.8906907439231873,
        -0.10343748331069946,
        -0.010447762906551361,
        0.051001667976379395,
        -0.4784553349018097,
        0.08496423065662384,
        -0.051116522401571274,
        -0.2460004836320877,
        1.0824637413024902,
        -0.33597373962402344,
        -0.30238229036331177,
        -0.28313255310058594,
        0.37221571803092957,
        -0.8383095860481262,
        -0.5977280139923096,
        0.0354631207883358,
        -0.6405665278434753,
        -0.34838348627090454,
        1.592963457107544,
        -0.016410311684012413,
        0.6018771529197693,
        -0.37869390845298767,
        1.32625412940979,
        0.9380465149879456,
        -3.0443673133850098,
        -1.2019891738891602,
        0.0009072496322914958,
        1.475567102432251,
        -0.06880220025777817,
        -0.43163245916366577,
        -0.1477145105600357,
        -1.2121727466583252,
        0.0729827880859375,
        0.46372103691101074,
        -0.18540610373020172,
        1.6928467750549316,
        0.03942573443055153,
        1.1174160242080688,
        -1.9860594272613525,
        -0.22697444260120392,
        1.4182928800582886,
        1.377895712852478,
        3.877922534942627,
        0.09719500690698624,
        0.30134257674217224,
        1.2419968843460083,
        -0.20707480609416962,
        0.007573104463517666,
        -1.1827303171157837,
        -0.3049996793270111,
        0.037498824298381805,
        -0.8811385035514832,
        -0.004457406233996153,
        0.08583862334489822,
        -0.7293635606765747,
        -0.8407489061355591,
        -0.1499229073524475,
        0.025471556931734085,
        -0.2073921114206314,
        0.7393712997436523,
        0.33636683225631714,
        -0.056468430906534195,
        -0.43475961685180664,
        0.915837287902832,
        -0.09404981136322021,
        -0.03902026638388634,
        0.009081496857106686,
        -0.04565136879682541,
        -2.128690242767334,
        -0.043898627161979675,
        0.03266126662492752,
        -0.3868267238140106,
        0.41601914167404175,
        0.9251153469085693,
        -0.25360462069511414,
        -0.2036912888288498,
        -0.5449032783508301,
        -0.2291087508201599,
        -0.2664414048194885,
        -0.05341755226254463,
        -1.0911777019500732,
        -0.2285444736480713,
        0.32324928045272827,
        -0.029115192592144012,
        0.2416510134935379,
        -1.3760097026824951,
        -1.138771653175354,
        -0.39109036326408386,
        0.26424261927604675,
        1.8469696044921875,
        -0.013034291565418243,
        0.875049889087677,
        0.06835261732339859,
        0.045797694474458694,
        -1.0748730897903442,
        0.5768826603889465,
        0.0781838446855545,
        -0.7931888103485107,
        -0.39120981097221375,
        0.5939713716506958,
        -0.0704936683177948,
        0.40245458483695984,
        -0.4142521917819977,
        0.5860542058944702,
        -1.3651518821716309,
        0.3600447475910187,
        0.5943039655685425,
        0.07058753073215485,
        -1.6374025344848633,
        -1.1186949014663696,
        0.05507475882768631,
        0.028729453682899475,
        -1.239666223526001,
        0.14099591970443726,
        -0.18007315695285797,
        -0.5065202116966248,
        -0.019414562731981277,
        -0.47661706805229187,
        -4.323995113372803,
        -1.8759284019470215,
        -0.3603357672691345,
        -0.00639661680907011,
        0.41647225618362427,
        -0.10004700720310211,
        0.7230902314186096,
        -0.03706517815589905,
        0.8020565509796143,
        -1.2921143770217896,
        0.07141643017530441,
        -0.11700563877820969,
        0.013051098212599754,
        0.01912146806716919,
        -0.036209963262081146,
        -0.03829624503850937,
        0.03724192827939987,
        0.38056355714797974,
        -0.1334739625453949,
        0.1427164226770401,
        0.18267622590065002,
        0.11537398397922516,
        -1.7162643671035767,
        -0.004814844578504562,
        -0.3760976195335388,
        0.016579652205109596,
        -0.5868129730224609,
        -0.6294247508049011,
        -0.39575710892677307,
        -0.009100975468754768,
        -0.7826021313667297,
        -0.32630017399787903,
        1.4065825939178467,
        1.176795244216919,
        -0.6952111721038818,
        0.3273809254169464,
        -0.02359209768474102,
        -0.1652461439371109,
        0.022273488342761993,
        -0.12304407358169556,
        0.46174290776252747,
        0.6292726993560791,
        0.0038951707538217306,
        -2.2497470378875732,
        0.12757205963134766,
        0.38453301787376404,
        -0.020554667338728905,
        0.006846337113529444,
        0.19692498445510864,
        -0.0518157035112381,
        -0.4602886140346527,
        -0.11957556009292603,
        -1.2725474834442139,
        0.01683022640645504,
        0.6672946810722351,
        -0.577830970287323,
        -0.9259889721870422,
        -0.06465285271406174,
        0.4211132824420929,
        1.2785131931304932,
        0.5885738134384155,
        -1.053799033164978,
        0.07785836607217789,
        0.20567770302295685,
        -2.9443752765655518,
        -0.49698591232299805,
        -0.04209134355187416,
        0.042757291346788406,
        -0.38318976759910583,
        0.7700757384300232,
        0.7719157338142395,
        0.05694267153739929,
        0.3925747573375702,
        -0.6861138939857483,
        1.237290620803833,
        0.587054431438446,
        -0.08658421784639359,
        -0.0596059113740921,
        0.005989897530525923,
        0.054035432636737823,
        -0.04159004986286163,
        -0.7348254919052124,
        0.02815188840031624,
        -0.3275195360183716,
        -0.4098094701766968,
        -0.6467499136924744,
        0.0739893764257431,
        -1.078830599784851,
        -1.08090341091156,
        0.002858182415366173,
        -1.270045518875122,
        -0.38804900646209717,
        1.023091435432434,
        0.019658394157886505,
        -1.389526605606079,
        0.8084776401519775,
        0.5717757344245911,
        -0.5706371068954468,
        -0.23738080263137817,
        -0.7800649404525757,
        -0.030035702511668205,
        0.09610496461391449,
        -0.04504579305648804,
        -1.1887036561965942,
        -1.171241283416748,
        0.48604270815849304,
        -0.03154824301600456,
        1.5720901489257812,
        0.11145950853824615,
        -0.7952176332473755,
        0.061579588800668716,
        0.4765733480453491,
        0.10462222993373871,
        -0.40067023038864136,
        -0.9658419489860535,
        -0.02548261359333992,
        -5.723073959350586,
        -0.11295218765735626,
        -0.12978799641132355,
        -1.0289292335510254,
        1.035391092300415,
        -0.007258046418428421,
        -0.18219439685344696,
        0.5657244920730591,
        0.7554702162742615,
        0.2865021526813507,
        -0.02122313529253006,
        1.093215823173523,
        0.12524312734603882,
        1.012296199798584,
        1.0427829027175903,
        0.023207735270261765,
        -0.03248775005340576,
        0.9272565245628357,
        0.1896980106830597,
        -0.020465662702918053,
        1.937157392501831,
        -1.1662119626998901,
        -0.6471725106239319,
        0.3467112183570862,
        0.03397832065820694,
        0.0017024013213813305,
        0.35039177536964417,
        -0.01954147033393383,
        0.03796595707535744,
        0.029446421191096306,
        -0.001255397335626185,
        -0.7761952877044678,
        0.05285270884633064,
        -0.4818134903907776,
        -0.8063455820083618,
        -0.8678576350212097,
        0.5666458606719971,
        -0.04478363320231438,
        -3.3759164810180664,
        -0.29189333319664,
        0.6283150911331177,
        -0.008234185166656971,
        1.3065083026885986,
        -2.967782735824585,
        0.9495976567268372,
        -0.4599732458591461,
        0.6471565365791321,
        0.47310030460357666,
        0.009598330594599247,
        -0.307020366191864,
        0.016021043062210083,
        -0.14894619584083557,
        0.05598987266421318,
        -0.3005174696445465,
        0.03265884146094322,
        -0.1989942491054535,
        -0.2009604126214981,
        0.09662321954965591,
        -0.013777795247733593,
        1.2838904857635498,
        0.5601497888565063,
        -0.7455682158470154,
        -0.7092021107673645,
        0.6448532342910767,
        0.6796233057975769,
        0.0351497046649456,
        -1.1187853813171387,
        0.6745062470436096,
        -0.1832084208726883,
        -0.027152864262461662,
        -0.09218035638332367,
        0.14772996306419373,
        -0.1983649879693985,
        1.378466010093689,
        -0.0819474384188652,
        -0.7112535238265991,
        0.012545930221676826,
        -0.4588819444179535,
        -0.9585213661193848,
        0.0468827486038208,
        -0.20493175089359283,
        0.8691039085388184,
        -1.594338059425354,
        -0.03544729948043823,
        -0.39392274618148804,
        1.0224871635437012,
        1.2579282522201538,
        -0.09790565818548203,
        0.02898203209042549,
        0.05044739320874214,
        -0.4145839214324951,
        -0.03475057706236839,
        0.037471458315849304,
        0.4705818295478821,
        0.15552358329296112,
        -0.5443208813667297,
        0.1378101110458374,
        0.8465171456336975,
        -0.6124023199081421,
        -0.22974832355976105,
        -0.51421058177948,
        0.009387514553964138,
        -1.3794950246810913,
        -0.7874841690063477,
        -1.7894092798233032,
        -0.021861767396330833,
        0.24732841551303864,
        0.8753817081451416,
        -0.8436310291290283,
        0.10766703635454178,
        -0.579899251461029,
        -1.5282872915267944,
        -0.00903475284576416,
        0.8298071026802063,
        0.034529902040958405,
        0.07360991090536118,
        0.9573595523834229,
        1.0568181276321411,
        0.06892599165439606,
        -1.5265270471572876,
        -0.5997469425201416,
        0.4845738112926483,
        -0.013785571791231632,
        0.18319834768772125,
        -0.02535417303442955,
        -0.25841090083122253,
        0.07350005954504013,
        0.6184835433959961,
        -1.2948673963546753,
        0.08598331362009048,
        0.5108452439308167,
        -0.6043853759765625,
        0.48113831877708435,
        -0.012287089601159096,
        -1.4219892024993896,
        0.09644071757793427,
        -0.3333456516265869,
        0.795825183391571,
        0.0021768352016806602,
        -0.7874844670295715,
        -0.5327904224395752,
        -0.23902413249015808,
        0.6089820265769958,
        0.00011738107423298061,
        -0.3557297885417938,
        0.23776282370090485,
        -0.2212538868188858,
        -0.007882566191256046,
        -0.560195803642273,
        -0.4717377722263336,
        -0.512191116809845,
        -0.7325674891471863,
        -0.023443419486284256,
        0.008876687847077847,
        0.3845198154449463,
        -0.0009379961411468685,
        0.006749509368091822,
        0.37070992588996887,
        -1.0161129236221313,
        0.8875264525413513,
        -0.09745907783508301,
        0.12193793058395386,
        -0.7287575602531433,
        -1.8197333812713623,
        -1.7913329601287842,
        -0.007728529162704945,
        -0.6269822120666504,
        0.07494375854730606,
        0.4432419538497925,
        0.02191377989947796,
        0.36081787943840027,
        1.3508964776992798,
        0.6149759888648987,
        0.37014636397361755,
        0.5882772207260132,
        -1.1779253482818604,
        0.003514664014801383,
        0.19378027319908142,
        -0.02717236801981926,
        -0.34201568365097046,
        0.3962936997413635,
        1.9450870752334595,
        0.03002876043319702,
        0.15076491236686707,
        -1.0891069173812866,
        -1.2387694120407104,
        0.01709628663957119,
        0.8480048179626465,
        -0.07657437026500702,
        -0.5329906344413757,
        1.7209612131118774,
        1.285194754600525,
        -0.18594136834144592,
        0.01390315592288971,
        0.4765702188014984,
        0.10399917513132095,
        -1.4265916347503662,
        0.03611212596297264,
        -0.1330612152814865,
        0.18305224180221558,
        0.19556832313537598,
        -0.2587871253490448,
        0.04613024368882179,
        0.2678792178630829,
        -0.7629413604736328,
        -0.004978367127478123,
        -0.3819650411605835,
        0.04474898800253868,
        -0.5051072835922241,
        0.6713454723358154,
        -0.21262860298156738,
        0.011939199641346931,
        0.2805338501930237,
        0.5545178651809692,
        1.0574390888214111,
        0.31489598751068115,
        -0.010309808887541294,
        -0.06190412491559982,
        -1.206390142440796,
        0.006882821209728718,
        -0.025758614763617516,
        -1.2450618743896484,
        -0.36901065707206726,
        -0.0881669670343399,
        -0.13945385813713074,
        -0.033565953373909,
        1.8488973379135132,
        -0.08100445568561554,
        -0.8726926445960999,
        -0.03503252938389778,
        0.05512157455086708,
        -0.009736333973705769,
        0.09699505567550659,
        -0.01633133366703987,
        1.0265226364135742,
        0.6411250829696655,
        -0.4243413805961609,
        0.6011580228805542,
        0.2325998693704605,
        -0.612968385219574,
        -0.03726803511381149,
        0.06092672422528267,
        0.026016466319561005,
        -1.684454083442688,
        -0.4417525827884674,
        -0.31677138805389404,
        0.011359126307070255,
        -3.325096368789673,
        -0.805618166923523,
        0.938098669052124,
        -0.04420436546206474,
        -0.5626413226127625,
        0.1276872754096985,
        0.4371025264263153,
        0.23904284834861755,
        0.003235229756683111,
        -0.6643223166465759,
        0.01519241463392973,
        0.5583629608154297,
        -0.4096439480781555,
        0.5455417633056641,
        -0.003125053131952882,
        0.030678296461701393,
        0.5898736119270325,
        -1.948927640914917,
        -1.897674798965454,
        -0.006737954448908567,
        0.5867448449134827,
        0.2566738426685333,
        1.055578351020813,
        -0.14398063719272614,
        0.03184114396572113,
        -1.305202603340149,
        -0.31803208589553833,
        -0.8481391072273254,
        -0.0017082048580050468,
        1.2788748741149902,
        -0.6603658199310303,
        0.19832594692707062,
        0.620114803314209,
        -0.00208453880622983,
        0.01807769574224949,
        -0.862427830696106,
        0.006953561212867498,
        -0.013616150245070457,
        0.3015068769454956,
        0.3810572028160095,
        0.5427864193916321,
        1.3530731201171875,
        0.815818727016449,
        -0.5089613199234009,
        -0.24040953814983368,
        -0.7450078725814819,
        0.025047695264220238,
        0.41610217094421387,
        2.0349574089050293,
        -0.016776448115706444,
        -0.022585216909646988,
        -0.7100192904472351,
        0.027814505621790886,
        0.6815445423126221,
        -1.1770038604736328,
        -1.832577109336853,
        0.5249109864234924,
        0.04864365980029106,
        1.1336175203323364,
        -0.008317378349602222,
        0.10258366912603378,
        -0.8068116903305054,
        -0.07923612743616104,
        0.04561583325266838,
        0.2097461223602295,
        -1.128880500793457,
        -0.3016510605812073,
        0.050664179027080536,
        -1.1259205341339111,
        1.2992713451385498,
        0.47633931040763855,
        0.5746895670890808,
        1.070457935333252,
        -0.11963235586881638,
        0.02832440286874771,
        -0.06359732151031494,
        0.413532555103302,
        0.7799617648124695,
        -0.03387344628572464,
        -0.506862461566925,
        -0.4795604646205902,
        0.1662677377462387,
        -0.9454490542411804,
        -0.0400557667016983,
        0.0768185555934906,
        -0.45864617824554443,
        -0.6358502507209778,
        0.39063364267349243,
        0.00973901990801096,
        -0.027175037190318108,
        -0.3817281126976013,
        -0.06803002953529358,
        0.017533674836158752,
        -0.43642306327819824,
        0.6420748829841614,
        -0.27608388662338257,
        -0.7210142612457275,
        0.019425883889198303,
        0.07219981402158737,
        0.7412922382354736,
        0.0021834017243236303,
        0.007342121563851833,
        0.29814326763153076,
        -0.36419227719306946,
        -0.01888740435242653,
        -0.023364847525954247,
        -0.247221440076828,
        -1.233385682106018,
        0.0005365425604395568,
        -0.025445202365517616,
        0.05783117190003395,
        -0.31186529994010925,
        -0.056592829525470734,
        0.6473543047904968,
        -0.0200003944337368,
        0.9520163536071777,
        -0.35021090507507324,
        -0.4756336212158203,
        0.8448692560195923,
        -0.4301242530345917,
        -0.20941896736621857,
        0.007961512543261051,
        -0.7517624497413635,
        -0.0020046415738761425,
        0.17632810771465302,
        0.7368574738502502,
        -0.4819968044757843,
        -0.049904871731996536,
        -1.3512096405029297,
        0.19506816565990448,
        0.4845440089702606,
        -0.015860794112086296,
        0.43439415097236633,
        -0.10802821815013885,
        -0.00907615665346384,
        0.0003159743791911751,
        0.006114667281508446,
        -10.197583198547363,
        -0.0014954913640394807,
        0.703471302986145,
        -0.45207634568214417,
        -0.10258074104785919,
        -0.034422967582941055,
        -1.0698609352111816,
        0.565470814704895,
        -1.4549334049224854,
        0.3038685619831085,
        -0.0095708929002285,
        0.2521514296531677,
        -0.13748480379581451,
        0.4437289535999298,
        0.5034501552581787,
        -0.011051264591515064,
        -0.6995377540588379,
        -0.10028469562530518,
        0.1199600026011467,
        0.0008519159164279699,
        0.11114955693483353,
        -0.68374103307724,
        1.9214094877243042,
        -0.47770124673843384,
        4.992574395146221e-05,
        -0.008218866772949696,
        -0.7181182503700256,
        -0.004298496525734663,
        0.02080647274851799,
        -1.4629069566726685,
